booster[0]:
0:[f4<100.53125] yes=1,no=2,missing=1
	1:[f6<0.897216797] yes=3,no=4,missing=4
		3:[f4<81.96875] yes=7,no=8,missing=7
			7:leaf=-0.184293196
			8:leaf=-0.156797975
		4:[f4<84.59375] yes=9,no=10,missing=9
			9:leaf=-0.148433313
			10:leaf=-0.0613686554
	2:[f4<146.1875] yes=5,no=6,missing=5
		5:[f5<0.875244141] yes=11,no=12,missing=11
			11:leaf=-0.0221494827
			12:leaf=0.101662375
		6:[f6<0.904541016] yes=13,no=14,missing=14
			13:leaf=-0.161715165
			14:leaf=-0.0669077784
booster[1]:
0:[f4<100.15625] yes=1,no=2,missing=1
	1:[f6<0.918212891] yes=3,no=4,missing=4
		3:[f4<81.96875] yes=7,no=8,missing=7
			7:leaf=-0.16498749
			8:leaf=-0.131489053
		4:[f4<82.59375] yes=9,no=10,missing=9
			9:leaf=-0.124020196
			10:leaf=-0.0419102125
	2:[f4<146.1875] yes=5,no=6,missing=5
		5:[f6<0.874755859] yes=11,no=12,missing=11
			11:leaf=-0.0183992032
			12:leaf=0.0981947184
		6:[f6<0.890869141] yes=13,no=14,missing=14
			13:leaf=-0.15291287
			14:leaf=-0.0718477219
booster[2]:
0:[f4<102.15625] yes=1,no=2,missing=1
	1:[f6<0.897216797] yes=3,no=4,missing=4
		3:[f4<96.96875] yes=7,no=8,missing=7
			7:leaf=-0.151049286
			8:leaf=-0.106639646
		4:[f4<88.09375] yes=9,no=10,missing=9
			9:leaf=-0.119660392
			10:leaf=-0.0319024995
	2:[f4<147.5625] yes=5,no=6,missing=5
		5:[f5<0.872314453] yes=11,no=12,missing=11
			11:leaf=-0.0256819315
			12:leaf=0.08600045
		6:[f6<0.931396484] yes=13,no=14,missing=14
			13:leaf=-0.127223924
			14:leaf=-0.016558392
booster[3]:
0:[f4<102.15625] yes=1,no=2,missing=1
	1:[f6<0.897216797] yes=3,no=4,missing=4
		3:[f4<96.96875] yes=7,no=8,missing=7
			7:leaf=-0.1404116
			8:leaf=-0.0972429365
		4:[f4<84.59375] yes=9,no=10,missing=9
			9:leaf=-0.113029711
			10:leaf=-0.0357982181
	2:[f4<151.3125] yes=5,no=6,missing=5
		5:[f6<0.874755859] yes=11,no=12,missing=11
			11:leaf=-0.0194483083
			12:leaf=0.0834233016
		6:[f6<0.930419922] yes=13,no=14,missing=14
			13:leaf=-0.123943858
			14:leaf=-0.0295917094
booster[4]:
0:[f4<100.53125] yes=1,no=2,missing=1
	1:[f6<0.897216797] yes=3,no=4,missing=4
		3:[f4<81.96875] yes=7,no=8,missing=7
			7:leaf=-0.135409877
			8:leaf=-0.11080879
		4:[f5<0.921142578] yes=9,no=10,missing=9
			9:leaf=-0.101334907
			10:leaf=-0.029444987
	2:[f4<143.0625] yes=5,no=6,missing=5
		5:[f5<0.859130859] yes=11,no=12,missing=11
			11:leaf=-0.0441785082
			12:leaf=0.0693728924
		6:[f6<0.876708984] yes=13,no=14,missing=14
			13:leaf=-0.125953183
			14:leaf=-0.0515967794
booster[5]:
0:[f4<106.15625] yes=1,no=2,missing=1
	1:[f6<0.903564453] yes=3,no=4,missing=4
		3:[f5<0.882080078] yes=7,no=8,missing=7
			7:leaf=-0.129019767
			8:leaf=-0.100771718
		4:[f4<82.125] yes=9,no=10,missing=9
			9:leaf=-0.0982263908
			10:leaf=-0.0152648687
	2:[f4<153.1875] yes=5,no=6,missing=5
		5:[f6<0.857177734] yes=11,no=12,missing=11
			11:leaf=-0.0332774706
			12:leaf=0.0702535734
		6:[f6<0.930419922] yes=13,no=14,missing=14
			13:leaf=-0.111272894
			14:leaf=-0.0236508753
booster[6]:
0:[f4<109.65625] yes=1,no=2,missing=1
	1:[f4<88.09375] yes=3,no=4,missing=3
		3:[f6<0.920654297] yes=7,no=8,missing=8
			7:leaf=-0.117213845
			8:leaf=-0.0733863711
		4:[f5<0.918701172] yes=9,no=10,missing=9
			9:leaf=-0.0783168226
			10:leaf=0.0176860802
	2:[f4<143.0625] yes=5,no=6,missing=5
		5:[f5<0.875244141] yes=11,no=12,missing=11
			11:leaf=-0.0103854202
			12:leaf=0.078767024
		6:[f6<0.891845703] yes=13,no=14,missing=14
			13:leaf=-0.105957411
			14:leaf=-0.0351363979
booster[7]:
0:[f4<100.03125] yes=1,no=2,missing=1
	1:[f6<0.897216797] yes=3,no=4,missing=4
		3:[f4<96.96875] yes=7,no=8,missing=7
			7:leaf=-0.112382486
			8:leaf=-0.0614759885
		4:[f5<0.898193359] yes=9,no=10,missing=9
			9:leaf=-0.0886352882
			10:leaf=-0.0288375299
	2:[f4<153.1875] yes=5,no=6,missing=5
		5:[f6<0.874755859] yes=11,no=12,missing=11
			11:leaf=-0.0253135506
			12:leaf=0.0621746592
		6:[f6<0.876708984] yes=13,no=14,missing=14
			13:leaf=-0.116271019
			14:leaf=-0.0579287671
booster[8]:
0:[f4<109.65625] yes=1,no=2,missing=1
	1:[f4<81.84375] yes=3,no=4,missing=3
		3:[f6<0.920654297] yes=7,no=8,missing=8
			7:leaf=-0.108995914
			8:leaf=-0.0675482601
		4:[f6<0.870361328] yes=9,no=10,missing=10
			9:leaf=-0.0977935791
			10:leaf=-0.0213375539
	2:[f4<143.0625] yes=5,no=6,missing=5
		5:[f6<0.896728516] yes=11,no=12,missing=11
			11:leaf=0.00917769317
			12:leaf=0.083903864
		6:[f6<0.904541016] yes=13,no=14,missing=14
			13:leaf=-0.0895315781
			14:leaf=-0.0207315367
booster[9]:
0:[f4<107.96875] yes=1,no=2,missing=1
	1:[f6<0.897216797] yes=3,no=4,missing=4
		3:[f4<81.96875] yes=7,no=8,missing=7
			7:leaf=-0.106860295
			8:leaf=-0.0764314979
		4:[f5<0.910400391] yes=9,no=10,missing=9
			9:leaf=-0.0683772936
			10:leaf=0.00688938936
	2:[f4<153.8125] yes=5,no=6,missing=5
		5:[f5<0.875244141] yes=11,no=12,missing=11
			11:leaf=-0.0244550258
			12:leaf=0.0612569638
		6:[f6<0.930419922] yes=13,no=14,missing=14
			13:leaf=-0.0902231261
			14:leaf=-0.0089383442
booster[10]:
0:[f4<99.09375] yes=1,no=2,missing=1
	1:[f6<0.883544922] yes=3,no=4,missing=4
		3:[f17<3.66262531] yes=7,no=8,missing=7
			7:leaf=0.0940561593
			8:leaf=-0.100846604
		4:[f4<81.84375] yes=9,no=10,missing=9
			9:leaf=-0.0771087334
			10:leaf=-0.0231470745
	2:[f5<0.905029297] yes=5,no=6,missing=5
		5:[f6<0.890869141] yes=11,no=12,missing=12
			11:leaf=-0.060476806
			12:leaf=0.0154055422
		6:[f6<0.857177734] yes=13,no=14,missing=13
			13:leaf=-0.00835868716
			14:leaf=0.0745764747
booster[11]:
0:[f4<109.65625] yes=1,no=2,missing=1
	1:[f5<0.917724609] yes=3,no=4,missing=3
		3:[f6<0.863037109] yes=7,no=8,missing=8
			7:leaf=-0.102360442
			8:leaf=-0.0636776909
		4:[f4<88.90625] yes=9,no=10,missing=9
			9:leaf=-0.0585952885
			10:leaf=0.0208379272
	2:[f4<141.0625] yes=5,no=6,missing=5
		5:[f6<0.854736328] yes=11,no=12,missing=11
			11:leaf=-0.0198850483
			12:leaf=0.056073118
		6:[f6<0.925048828] yes=13,no=14,missing=14
			13:leaf=-0.0700617135
			14:leaf=0.00779653201
booster[12]:
0:[f4<92.71875] yes=1,no=2,missing=1
	1:[f6<0.920654297] yes=3,no=4,missing=4
		3:[f6<0.853759766] yes=7,no=8,missing=8
			7:leaf=-0.101823352
			8:leaf=-0.0765814036
		4:[f5<0.87890625] yes=9,no=10,missing=9
			9:leaf=-0.0722956508
			10:leaf=-0.0093251951
	2:[f5<0.870849609] yes=5,no=6,missing=5
		5:[f6<0.900634766] yes=11,no=12,missing=12
			11:leaf=-0.06927111
			12:leaf=-0.00481859082
		6:[f6<0.857177734] yes=13,no=14,missing=13
			13:leaf=-0.0248591173
			14:leaf=0.0486130156
booster[13]:
0:[f4<109.65625] yes=1,no=2,missing=1
	1:[f4<81.84375] yes=3,no=4,missing=3
		3:[f6<0.920654297] yes=7,no=8,missing=8
			7:leaf=-0.0890359655
			8:leaf=-0.0457063094
		4:[f6<0.870361328] yes=9,no=10,missing=10
			9:leaf=-0.0738459229
			10:leaf=-0.011114371
	2:[f4<156.4375] yes=5,no=6,missing=5
		5:[f5<0.904541016] yes=11,no=12,missing=11
			11:leaf=0.00141430041
			12:leaf=0.0633040369
		6:[f7<691.75] yes=13,no=14,missing=13
			13:leaf=-0.0428059287
			14:leaf=-0.0958846137
booster[14]:
0:[f4<91.96875] yes=1,no=2,missing=1
	1:[f6<0.905029297] yes=3,no=4,missing=4
		3:[f14<3.10165405] yes=7,no=8,missing=7
			7:leaf=-0.0658603683
			8:leaf=-0.0930418223
		4:[f5<0.944335938] yes=9,no=10,missing=9
			9:leaf=-0.052554369
			10:leaf=0.0352990702
	2:[f5<0.855712891] yes=5,no=6,missing=5
		5:[f6<0.879638672] yes=11,no=12,missing=12
			11:leaf=-0.0835674033
			12:leaf=-0.025562698
		6:[f4<159.3125] yes=13,no=14,missing=13
			13:leaf=0.0317870043
			14:leaf=-0.0635720193
booster[15]:
0:[f4<109.65625] yes=1,no=2,missing=1
	1:[f6<0.878173828] yes=3,no=4,missing=4
		3:[f10<466.625] yes=7,no=8,missing=7
			7:leaf=-0.0889576972
			8:leaf=-0.0530274771
		4:[f5<0.934814453] yes=9,no=10,missing=9
			9:leaf=-0.0446684621
			10:leaf=0.0292198844
	2:[f4<141.0625] yes=5,no=6,missing=5
		5:[f6<0.900146484] yes=11,no=12,missing=11
			11:leaf=0.0050861123
			12:leaf=0.0635214821
		6:[f3<1377.99841] yes=13,no=14,missing=13
			13:leaf=-0.017032655
			14:leaf=-0.075635314
booster[16]:
0:[f5<0.885009766] yes=1,no=2,missing=1
	1:[f6<0.898681641] yes=3,no=4,missing=4
		3:[f4<114.15625] yes=7,no=8,missing=7
			7:leaf=-0.083260566
			8:leaf=-0.0437077507
		4:[f4<81.46875] yes=9,no=10,missing=9
			9:leaf=-0.0717745349
			10:leaf=0.00529529667
	2:[f4<89.90625] yes=5,no=6,missing=5
		5:[f6<0.914306641] yes=11,no=12,missing=12
			11:leaf=-0.0677521527
			12:leaf=-0.00248953258
		6:[f4<162.1875] yes=13,no=14,missing=13
			13:leaf=0.0358319171
			14:leaf=-0.0652045608
booster[17]:
0:[f5<0.870849609] yes=1,no=2,missing=1
	1:[f16<0.374048382] yes=3,no=4,missing=3
		3:[f6<0.937255859] yes=7,no=8,missing=8
			7:leaf=-0.084805578
			8:leaf=-0.0255788174
		4:[f4<105.5] yes=9,no=10,missing=9
			9:leaf=-0.0663734153
			10:leaf=-0.0105986139
	2:[f4<111.65625] yes=5,no=6,missing=5
		5:[f6<0.892333984] yes=11,no=12,missing=12
			11:leaf=-0.0542489588
			12:leaf=0.000603146211
		6:[f6<0.843505859] yes=13,no=14,missing=13
			13:leaf=-0.0317373835
			14:leaf=0.0432165153
booster[18]:
0:[f4<88.09375] yes=1,no=2,missing=1
	1:[f6<0.920654297] yes=3,no=4,missing=4
		3:[f6<0.853759766] yes=7,no=8,missing=8
			7:leaf=-0.0858413801
			8:leaf=-0.0585979931
		4:[f13<0.945602417] yes=9,no=10,missing=9
			9:leaf=0.000522175163
			10:leaf=-0.0655745044
	2:[f5<0.855712891] yes=5,no=6,missing=5
		5:[f6<0.879638672] yes=11,no=12,missing=12
			11:leaf=-0.0707577318
			12:leaf=-0.0191186648
		6:[f6<0.891357422] yes=13,no=14,missing=13
			13:leaf=-0.00878826249
			14:leaf=0.0408249013
booster[19]:
0:[f5<0.905029297] yes=1,no=2,missing=1
	1:[f16<0.374070674] yes=3,no=4,missing=3
		3:[f6<0.912841797] yes=7,no=8,missing=8
			7:leaf=-0.0785380229
			8:leaf=-0.0224027988
		4:[f4<112.46875] yes=9,no=10,missing=9
			9:leaf=-0.0447688997
			10:leaf=0.00734425057
	2:[f4<100.90625] yes=5,no=6,missing=5
		5:[f6<0.948486328] yes=11,no=12,missing=12
			11:leaf=-0.035103932
			12:leaf=0.0454527624
		6:[f1<3.59831142] yes=13,no=14,missing=13
			13:leaf=0.0443622284
			14:leaf=-0.0511909835
booster[20]:
0:[f6<0.856689453] yes=1,no=2,missing=1
	1:[f5<0.852294922] yes=3,no=4,missing=3
		3:[f16<0.415780365] yes=7,no=8,missing=7
			7:leaf=-0.0976224914
			8:leaf=-0.0610996783
		4:[f15<0.397281408] yes=9,no=10,missing=9
			9:leaf=-0.0836155117
			10:leaf=-0.0224148091
	2:[f4<81.84375] yes=5,no=6,missing=5
		5:[f13<0.942771912] yes=11,no=12,missing=11
			11:leaf=-0.0295869466
			12:leaf=-0.0707057938
		6:[f5<0.838623047] yes=13,no=14,missing=13
			13:leaf=-0.0359271951
			14:leaf=0.0248302538
booster[21]:
0:[f5<0.905029297] yes=1,no=2,missing=1
	1:[f6<0.915283203] yes=3,no=4,missing=4
		3:[f16<0.374016553] yes=7,no=8,missing=7
			7:leaf=-0.0697656646
			8:leaf=-0.0235359333
		4:[f4<110.71875] yes=9,no=10,missing=9
			9:leaf=-0.0271044131
			10:leaf=0.0314917378
	2:[f15<0.366168797] yes=5,no=6,missing=5
		5:[f6<0.905029297] yes=11,no=12,missing=12
			11:leaf=-0.0833444223
			12:leaf=-0.00763468025
		6:[f4<110.40625] yes=13,no=14,missing=13
			13:leaf=-0.00568305096
			14:leaf=0.0439932346
booster[22]:
0:[f4<81.84375] yes=1,no=2,missing=1
	1:[f6<0.920654297] yes=3,no=4,missing=4
		3:[f14<3.09997559] yes=7,no=8,missing=7
			7:leaf=-0.0420865566
			8:leaf=-0.0758622512
		4:[f5<0.882568359] yes=9,no=10,missing=9
			9:leaf=-0.05275115
			10:leaf=0.00987404492
	2:[f4<157.3125] yes=5,no=6,missing=5
		5:[f6<0.913330078] yes=11,no=12,missing=11
			11:leaf=-0.00389198004
			12:leaf=0.040872395
		6:[f7<691.75] yes=13,no=14,missing=13
			13:leaf=-0.0273326244
			14:leaf=-0.080654934
booster[23]:
0:[f5<0.851318359] yes=1,no=2,missing=1
	1:[f6<0.867431641] yes=3,no=4,missing=4
		3:[f13<0.00750732422] yes=7,no=8,missing=7
			7:leaf=0.124410652
			8:leaf=-0.0733559504
		4:[f5<0.812744141] yes=9,no=10,missing=9
			9:leaf=-0.0662376881
			10:leaf=-0.013357833
	2:[f16<0.346817374] yes=5,no=6,missing=5
		5:[f6<0.911376953] yes=11,no=12,missing=12
			11:leaf=-0.0579431318
			12:leaf=9.00179875e-05
		6:[f4<92.71875] yes=13,no=14,missing=13
			13:leaf=-0.0284624528
			14:leaf=0.024122484
booster[24]:
0:[f6<0.854736328] yes=1,no=2,missing=1
	1:[f4<112.25] yes=3,no=4,missing=3
		3:[f14<3.0993042] yes=7,no=8,missing=7
			7:leaf=-0.0381648801
			8:leaf=-0.078205131
		4:[f4<143] yes=9,no=10,missing=9
			9:leaf=-0.00348338601
			10:leaf=-0.0736439973
	2:[f5<0.905029297] yes=5,no=6,missing=5
		5:[f16<0.355653226] yes=11,no=12,missing=11
			11:leaf=-0.0510529093
			12:leaf=0.00208133808
		6:[f8<1.64697266] yes=13,no=14,missing=13
			13:leaf=0.0331320986
			14:leaf=-0.10065233
booster[25]:
0:[f4<113.21875] yes=1,no=2,missing=1
	1:[f10<453.625] yes=3,no=4,missing=3
		3:[f6<0.878173828] yes=7,no=8,missing=8
			7:leaf=-0.0679971725
			8:leaf=-0.0269389302
		4:[f5<0.911865234] yes=9,no=10,missing=9
			9:leaf=-0.0214741454
			10:leaf=0.0319330506
	2:[f4<141.0625] yes=5,no=6,missing=5
		5:[f1<3.31249237] yes=11,no=12,missing=11
			11:leaf=0.0351370424
			12:leaf=-0.0357009433
		6:[f3<1375.96021] yes=13,no=14,missing=13
			13:leaf=-0.0109433299
			14:leaf=-0.0630827993
booster[26]:
0:[f13<0.86177063] yes=1,no=2,missing=1
	1:[f4<112.40625] yes=3,no=4,missing=3
		3:[f5<0.944580078] yes=7,no=8,missing=7
			7:leaf=-0.0264077634
			8:leaf=0.0418214314
		4:[f4<158.75] yes=9,no=10,missing=9
			9:leaf=0.0386587419
			10:leaf=-0.0311046094
	2:[f6<0.876220703] yes=5,no=6,missing=6
		5:[f16<0.304928124] yes=11,no=12,missing=11
			11:leaf=-0.0867661834
			12:leaf=-0.0422999971
		6:[f4<81.15625] yes=13,no=14,missing=13
			13:leaf=-0.0530136302
			14:leaf=0.000764777767
booster[27]:
0:[f5<0.851318359] yes=1,no=2,missing=1
	1:[f6<0.867431641] yes=3,no=4,missing=4
		3:[f13<0.00665283203] yes=7,no=8,missing=7
			7:leaf=0.126326308
			8:leaf=-0.0654405728
		4:[f5<0.815185547] yes=9,no=10,missing=9
			9:leaf=-0.0557331331
			10:leaf=-0.00824389886
	2:[f16<0.324044168] yes=5,no=6,missing=5
		5:[f6<0.898193359] yes=11,no=12,missing=12
			11:leaf=-0.0611979142
			12:leaf=-0.0101571074
		6:[f6<0.856689453] yes=13,no=14,missing=13
			13:leaf=-0.0177008137
			14:leaf=0.0216041803
booster[28]:
0:[f4<81.84375] yes=1,no=2,missing=1
	1:[f10<472.625] yes=3,no=4,missing=3
		3:[f8<-1.45336914] yes=7,no=8,missing=7
			7:leaf=0.050413575
			8:leaf=-0.0615706146
		4:[f14<3.10152054] yes=9,no=10,missing=9
			9:leaf=0.0272753872
			10:leaf=-0.0362035446
	2:[f4<159.3125] yes=5,no=6,missing=5
		5:[f1<3.34471798] yes=11,no=12,missing=11
			11:leaf=0.0155221513
			12:leaf=-0.0396034531
		6:[f17<3.18952894] yes=13,no=14,missing=13
			13:leaf=-0.0176678803
			14:leaf=-0.0703598559
booster[29]:
0:[f6<0.914306641] yes=1,no=2,missing=1
	1:[f13<1.05843353] yes=3,no=4,missing=3
		3:[f4<112.46875] yes=7,no=8,missing=7
			7:leaf=-0.0268082209
			8:leaf=0.01217076
		4:[f1<3.4498744] yes=9,no=10,missing=9
			9:leaf=-0.0328291953
			10:leaf=-0.0883273706
	2:[f4<109.21875] yes=5,no=6,missing=5
		5:[f5<0.944580078] yes=11,no=12,missing=11
			11:leaf=-0.0164612327
			12:leaf=0.0457150824
		6:[f4<150.9375] yes=13,no=14,missing=13
			13:leaf=0.047042571
			14:leaf=-0.0187207982
booster[30]:
0:[f5<0.834228516] yes=1,no=2,missing=1
	1:[f6<0.924560547] yes=3,no=4,missing=4
		3:[f16<0.437565088] yes=7,no=8,missing=7
			7:leaf=-0.0658175275
			8:leaf=-0.0230878573
		4:[f7<450.75] yes=9,no=10,missing=9
			9:leaf=-0.0710586086
			10:leaf=0.0276303347
	2:[f13<0.861045837] yes=5,no=6,missing=5
		5:[f8<1.2956543] yes=11,no=12,missing=11
			11:leaf=0.0203357283
			12:leaf=-0.0631407052
		6:[f6<0.896728516] yes=13,no=14,missing=14
			13:leaf=-0.0310637988
			14:leaf=0.00547272339
booster[31]:
0:[f6<0.854736328] yes=1,no=2,missing=1
	1:[f4<101.09375] yes=3,no=4,missing=3
		3:[f18<0.997624993] yes=7,no=8,missing=7
			7:leaf=-0.062324848
			8:leaf=0.0923174918
		4:[f4<143] yes=9,no=10,missing=9
			9:leaf=-0.00689400733
			10:leaf=-0.0621095598
	2:[f16<0.321952283] yes=5,no=6,missing=5
		5:[f5<0.912841797] yes=11,no=12,missing=11
			11:leaf=-0.0513067953
			12:leaf=0.00357252476
		6:[f5<0.825439453] yes=13,no=14,missing=13
			13:leaf=-0.0359208025
			14:leaf=0.0163177904
booster[32]:
0:[f4<81.84375] yes=1,no=2,missing=1
	1:[f14<3.10124207] yes=3,no=4,missing=3
		3:[f16<0.435789168] yes=7,no=8,missing=7
			7:leaf=-0.0386957526
			8:leaf=0.0372266248
		4:[f14<3.19543457] yes=9,no=10,missing=9
			9:leaf=-0.0691906735
			10:leaf=-0.0303674433
	2:[f4<141.0625] yes=5,no=6,missing=5
		5:[f7<449.125] yes=11,no=12,missing=11
			11:leaf=-0.0130763026
			12:leaf=0.023527598
		6:[f7<697.25] yes=13,no=14,missing=13
			13:leaf=-0.00954051781
			14:leaf=-0.0584983788
booster[33]:
0:[f5<0.906005859] yes=1,no=2,missing=1
	1:[f13<0.706878662] yes=3,no=4,missing=3
		3:[f4<114.40625] yes=7,no=8,missing=7
			7:leaf=-0.0197177064
			8:leaf=0.01693305
		4:[f6<0.905517578] yes=9,no=10,missing=10
			9:leaf=-0.0389171541
			10:leaf=-0.00742733199
	2:[f10<457.375] yes=5,no=6,missing=5
		5:[f15<0.350266755] yes=11,no=12,missing=11
			11:leaf=-0.0715009198
			12:leaf=0.00308797089
		6:[f4<153.8125] yes=13,no=14,missing=13
			13:leaf=0.044596605
			14:leaf=-0.0429585092
booster[34]:
0:[f6<0.857177734] yes=1,no=2,missing=1
	1:[f5<0.850830078] yes=3,no=4,missing=3
		3:[f4<126.875] yes=7,no=8,missing=7
			7:leaf=-0.0715250373
			8:leaf=-0.0297479276
		4:[f4<163.5] yes=9,no=10,missing=9
			9:leaf=-0.0110394685
			10:leaf=-0.075108707
	2:[f8<1.29553223] yes=5,no=6,missing=5
		5:[f4<92.71875] yes=11,no=12,missing=11
			11:leaf=-0.0190624148
			12:leaf=0.0160616916
		6:[f9<-0.723876953] yes=13,no=14,missing=13
			13:leaf=-0.0109439781
			14:leaf=-0.0702996477
booster[35]:
0:[f5<0.834228516] yes=1,no=2,missing=1
	1:[f6<0.945068359] yes=3,no=4,missing=4
		3:[f16<0.437565088] yes=7,no=8,missing=7
			7:leaf=-0.0527640991
			8:leaf=-0.012216676
		4:[f0<282.683044] yes=9,no=10,missing=9
			9:leaf=0.051726561
			10:leaf=-0.0752007812
	2:[f1<3.34471798] yes=5,no=6,missing=5
		5:[f4<159.3125] yes=11,no=12,missing=11
			11:leaf=0.0121810418
			12:leaf=-0.0378380716
		6:[f6<0.913818359] yes=13,no=14,missing=14
			13:leaf=-0.0520079993
			14:leaf=0.00854053255
booster[36]:
0:[f4<113.65625] yes=1,no=2,missing=1
	1:[f10<454.375] yes=3,no=4,missing=3
		3:[f9<1.20288086] yes=7,no=8,missing=7
			7:leaf=-0.0194732677
			8:leaf=-0.0558502562
		4:[f13<0.371814728] yes=9,no=10,missing=9
			9:leaf=0.0370919369
			10:leaf=-0.0101557458
	2:[f4<136.1875] yes=5,no=6,missing=5
		5:[f8<1.18835449] yes=11,no=12,missing=11
			11:leaf=0.0285361167
			12:leaf=-0.040304821
		6:[f7<693.25] yes=13,no=14,missing=13
			13:leaf=-0.00367495767
			14:leaf=-0.047443103
booster[37]:
0:[f16<0.309335828] yes=1,no=2,missing=1
	1:[f6<0.898193359] yes=3,no=4,missing=4
		3:[f5<0.941650391] yes=7,no=8,missing=7
			7:leaf=-0.0704927295
			8:leaf=-0.00477381237
		4:[f16<0.219138026] yes=9,no=10,missing=9
			9:leaf=-0.0842535645
			10:leaf=0.010579979
	2:[f4<113.65625] yes=5,no=6,missing=5
		5:[f0<64.2501068] yes=11,no=12,missing=11
			11:leaf=-0.0347512066
			12:leaf=-0.00133581762
		6:[f4<136.1875] yes=13,no=14,missing=13
			13:leaf=0.0262110513
			14:leaf=-0.0127141494
booster[38]:
0:[f6<0.915283203] yes=1,no=2,missing=1
	1:[f1<3.34433222] yes=3,no=4,missing=3
		3:[f5<0.885986328] yes=7,no=8,missing=7
			7:leaf=-0.0205987524
			8:leaf=0.00949483272
		4:[f9<2.26318359] yes=9,no=10,missing=9
			9:leaf=-0.0350729115
			10:leaf=-0.107473575
	2:[f7<449.125] yes=5,no=6,missing=5
		5:[f0<22.6635895] yes=11,no=12,missing=11
			11:leaf=-0.0743588358
			12:leaf=0.00100444024
		6:[f8<-1.06604004] yes=13,no=14,missing=13
			13:leaf=-0.0289933383
			14:leaf=0.0332979299
booster[39]:
0:[f6<0.854736328] yes=1,no=2,missing=1
	1:[f4<101.09375] yes=3,no=4,missing=3
		3:[f18<0.997624993] yes=7,no=8,missing=7
			7:leaf=-0.0534997843
			8:leaf=0.0913066939
		4:[f4<160.8125] yes=9,no=10,missing=9
			9:leaf=-0.00779472245
			10:leaf=-0.0633958802
	2:[f8<-1.5189209] yes=5,no=6,missing=5
		5:[f14<3.20654297] yes=11,no=12,missing=11
			11:leaf=-0.0915877894
			12:leaf=0.00648772717
		6:[f8<0.721069336] yes=13,no=14,missing=13
			13:leaf=0.0146751059
			14:leaf=-0.0167860556
booster[40]:
0:[f13<0.785934448] yes=1,no=2,missing=1
	1:[f4<116.96875] yes=3,no=4,missing=3
		3:[f10<458.5] yes=7,no=8,missing=7
			7:leaf=-0.0256895665
			8:leaf=0.0197491907
		4:[f4<134.8125] yes=9,no=10,missing=9
			9:leaf=0.0382511728
			10:leaf=0.00309856515
	2:[f5<0.898681641] yes=5,no=6,missing=5
		5:[f6<0.951416016] yes=11,no=12,missing=12
			11:leaf=-0.0286258254
			12:leaf=0.0219103601
		6:[f14<3.19128418] yes=13,no=14,missing=13
			13:leaf=-0.0091461502
			14:leaf=0.0281330328
booster[41]:
0:[f5<0.825439453] yes=1,no=2,missing=1
	1:[f16<0.438556314] yes=3,no=4,missing=3
		3:[f6<0.905517578] yes=7,no=8,missing=8
			7:leaf=-0.064624235
			8:leaf=-0.0213855542
		4:[f10<643.5] yes=9,no=10,missing=9
			9:leaf=0.0193364192
			10:leaf=-0.0680135563
	2:[f16<0.307203025] yes=5,no=6,missing=5
		5:[f13<1.42263794] yes=11,no=12,missing=11
			11:leaf=-0.0981518179
			12:leaf=-0.0237195212
		6:[f1<-4.43897629] yes=13,no=14,missing=13
			13:leaf=-0.0645240024
			14:leaf=0.00809998251
booster[42]:
0:[f5<0.934814453] yes=1,no=2,missing=1
	1:[f4<114.53125] yes=3,no=4,missing=3
		3:[f10<392.875] yes=7,no=8,missing=7
			7:leaf=-0.0356610529
			8:leaf=-0.00656395033
		4:[f4<134.8125] yes=9,no=10,missing=9
			9:leaf=0.0169413742
			10:leaf=-0.0162751265
	2:[f8<-1.58190918] yes=5,no=6,missing=5
		5:[f3<1022.96143] yes=11,no=12,missing=11
			11:leaf=0.00848430488
			12:leaf=-0.109134808
		6:[f4<155.4375] yes=13,no=14,missing=13
			13:leaf=0.0317272842
			14:leaf=-0.0722814426
booster[43]:
0:[f6<0.853759766] yes=1,no=2,missing=1
	1:[f4<101.09375] yes=3,no=4,missing=3
		3:[f14<3.0993042] yes=7,no=8,missing=7
			7:leaf=-0.0174175408
			8:leaf=-0.0661677942
		4:[f13<0.0511169434] yes=9,no=10,missing=9
			9:leaf=0.0633209571
			10:leaf=-0.0166044924
	2:[f8<-1.5135498] yes=5,no=6,missing=5
		5:[f4<72.09375] yes=11,no=12,missing=11
			11:leaf=0.0842689127
			12:leaf=-0.0673822239
		6:[f1<3.34471798] yes=13,no=14,missing=13
			13:leaf=0.0115108518
			14:leaf=-0.0254289806
booster[44]:
0:[f6<0.945068359] yes=1,no=2,missing=1
	1:[f5<0.840576172] yes=3,no=4,missing=3
		3:[f10<319.125] yes=7,no=8,missing=7
			7:leaf=-0.0906410664
			8:leaf=-0.0230446439
		4:[f4<90.40625] yes=9,no=10,missing=9
			9:leaf=-0.0267229024
			10:leaf=0.00561160641
	2:[f9<2.63427734] yes=5,no=6,missing=5
		5:[f12<2.74316406] yes=11,no=12,missing=11
			11:leaf=0.0434888117
			12:leaf=-0.0404299349
		6:[f10<568.5] yes=13,no=14,missing=13
			13:leaf=-0.0881769583
			14:leaf=0.069273971
booster[45]:
0:[f16<0.222565055] yes=1,no=2,missing=1
	1:[f7<506.375] yes=3,no=4,missing=3
		3:[f11<-1.80822754] yes=7,no=8,missing=7
			7:leaf=0.0764383003
			8:leaf=-0.0461361818
		4:[f2<0.786932409] yes=9,no=10,missing=9
			9:leaf=-0.131495938
			10:leaf=-0.0298149884
	2:[f6<0.876220703] yes=5,no=6,missing=5
		5:[f13<1.15714264] yes=11,no=12,missing=11
			11:leaf=-0.00312871672
			12:leaf=-0.0376706831
		6:[f0<26.7620659] yes=13,no=14,missing=13
			13:leaf=-0.031528987
			14:leaf=0.0123180943
booster[46]:
0:[f8<1.29638672] yes=1,no=2,missing=1
	1:[f16<0.205855608] yes=3,no=4,missing=3
		3:[f3<1988.19507] yes=7,no=8,missing=7
			7:leaf=-0.0385120884
			8:leaf=-0.119153216
		4:[f6<0.945068359] yes=9,no=10,missing=9
			9:leaf=-0.000566768169
			10:leaf=0.0346874148
	2:[f5<0.945068359] yes=5,no=6,missing=5
		5:[f9<2.17895508] yes=11,no=12,missing=11
			11:leaf=-0.0352046043
			12:leaf=-0.0951131508
		6:[f11<1.1965332] yes=13,no=14,missing=13
			13:leaf=0.0510000177
			14:leaf=-0.116240375
booster[47]:
0:[f4<81.84375] yes=1,no=2,missing=1
	1:[f14<3.10124207] yes=3,no=4,missing=3
		3:[f16<0.439555317] yes=7,no=8,missing=7
			7:leaf=-0.0245702099
			8:leaf=0.0475428663
		4:[f14<3.19543457] yes=9,no=10,missing=9
			9:leaf=-0.0595124774
			10:leaf=-0.0185361411
	2:[f8<-1.5135498] yes=5,no=6,missing=5
		5:[f13<0.160766602] yes=11,no=12,missing=11
			11:leaf=-0.172104329
			12:leaf=-0.0381628983
		6:[f4<159.3125] yes=13,no=14,missing=13
			13:leaf=0.00915261917
			14:leaf=-0.0274195615
booster[48]:
0:[f5<0.934814453] yes=1,no=2,missing=1
	1:[f16<0.366157413] yes=3,no=4,missing=3
		3:[f9<1.66052246] yes=7,no=8,missing=7
			7:leaf=-0.0124516226
			8:leaf=-0.0530735925
		4:[f6<0.843505859] yes=9,no=10,missing=10
			9:leaf=-0.0219681151
			10:leaf=0.00594780408
	2:[f11<1.10314941] yes=5,no=6,missing=5
		5:[f4<162.25] yes=11,no=12,missing=11
			11:leaf=0.0308238566
			12:leaf=-0.0718593523
		6:[f10<417.75] yes=13,no=14,missing=13
			13:leaf=-0.0605792813
			14:leaf=0.0145034958
booster[49]:
0:[f5<0.815185547] yes=1,no=2,missing=1
	1:[f14<2.92410278] yes=3,no=4,missing=3
		3:[f0<218.539169] yes=7,no=8,missing=7
			7:leaf=0.109159999
			8:leaf=-0.0443791188
		4:[f2<1.10359478] yes=9,no=10,missing=9
			9:leaf=-0.0656991228
			10:leaf=-0.0137878871
	2:[f9<1.28601074] yes=5,no=6,missing=5
		5:[f12<2.6027832] yes=11,no=12,missing=11
			11:leaf=0.0134896785
			12:leaf=-0.0244119819
		6:[f4<109.65625] yes=13,no=14,missing=13
			13:leaf=-0.0381742828
			14:leaf=-0.00107472925
booster[50]:
0:[f1<3.34471798] yes=1,no=2,missing=1
	1:[f4<116.15625] yes=3,no=4,missing=3
		3:[f10<459.125] yes=7,no=8,missing=7
			7:leaf=-0.0222823266
			8:leaf=0.0115235243
		4:[f4<141.0625] yes=9,no=10,missing=9
			9:leaf=0.0230073314
			10:leaf=-0.0139641156
	2:[f6<0.913818359] yes=5,no=6,missing=6
		5:[f9<2.26318359] yes=11,no=12,missing=11
			11:leaf=-0.0288714524
			12:leaf=-0.0965170413
		6:[f10<362.5] yes=13,no=14,missing=13
			13:leaf=-0.0612127893
			14:leaf=0.0206051599
booster[51]:
0:[f13<0.785934448] yes=1,no=2,missing=1
	1:[f4<117.03125] yes=3,no=4,missing=3
		3:[f10<866.5] yes=7,no=8,missing=7
			7:leaf=-0.0107620237
			8:leaf=0.0737641826
		4:[f16<0.449543297] yes=9,no=10,missing=9
			9:leaf=0.0313411094
			10:leaf=0.00133617094
	2:[f6<0.876220703] yes=5,no=6,missing=6
		5:[f16<0.298406541] yes=11,no=12,missing=11
			11:leaf=-0.0559819043
			12:leaf=-0.0179433692
		6:[f0<29.9917507] yes=13,no=14,missing=13
			13:leaf=-0.0423996486
			14:leaf=0.00299686636
booster[52]:
0:[f10<321.875] yes=1,no=2,missing=1
	1:[f8<1.80932617] yes=3,no=4,missing=3
		3:[f9<0.545593262] yes=7,no=8,missing=7
			7:leaf=-0.0063837762
			8:leaf=-0.0497329757
		4:leaf=-0.141122863
	2:[f1<3.31225467] yes=5,no=6,missing=5
		5:[f8<-1.06933594] yes=9,no=10,missing=9
			9:leaf=-0.0216726884
			10:leaf=0.00942988228
		6:[f6<0.896728516] yes=11,no=12,missing=12
			11:leaf=-0.0406904481
			12:leaf=-0.00077053014
booster[53]:
0:[f5<0.934814453] yes=1,no=2,missing=1
	1:[f16<0.306546032] yes=3,no=4,missing=3
		3:[f6<0.879638672] yes=7,no=8,missing=8
			7:leaf=-0.0604223274
			8:leaf=-0.0136195198
		4:[f6<0.945068359] yes=9,no=10,missing=10
			9:leaf=-0.00448564021
			10:leaf=0.0296607073
	2:[f11<0.768127441] yes=5,no=6,missing=5
		5:[f8<-1.57531738] yes=11,no=12,missing=11
			11:leaf=-0.0592728816
			12:leaf=0.0323163234
		6:[f5<0.972900391] yes=13,no=14,missing=13
			13:leaf=0.00400488218
			14:leaf=-0.128402352
booster[54]:
0:[f9<2.53417969] yes=1,no=2,missing=1
	1:[f12<2.6027832] yes=3,no=4,missing=3
		3:[f6<0.897216797] yes=7,no=8,missing=7
			7:leaf=-0.00402406696
			8:leaf=0.0168886837
		4:[f9<-0.457672119] yes=9,no=10,missing=9
			9:leaf=-0.0676411614
			10:leaf=-0.0123255095
	2:[f7<366.125] yes=5,no=6,missing=5
		5:[f7<323.5] yes=11,no=12,missing=11
			11:leaf=0.0538605861
			12:leaf=-0.107892029
		6:[f17<6.09007168] yes=13,no=14,missing=13
			13:leaf=-0.0079820333
			14:leaf=-0.0524423681
booster[55]:
0:[f5<0.815185547] yes=1,no=2,missing=1
	1:[f14<2.92410278] yes=3,no=4,missing=3
		3:[f7<372.75] yes=7,no=8,missing=7
			7:leaf=0.176915482
			8:leaf=-0.0132756233
		4:[f16<0.47035566] yes=9,no=10,missing=9
			9:leaf=-0.0364589356
			10:leaf=-0.123014368
	2:[f8<1.63806152] yes=5,no=6,missing=5
		5:[f9<1.28601074] yes=11,no=12,missing=11
			11:leaf=0.00898812059
			12:leaf=-0.0111513017
		6:[f12<-2.96606445] yes=13,no=14,missing=13
			13:leaf=0.105476402
			14:leaf=-0.0579174235
booster[56]:
0:[f4<81.84375] yes=1,no=2,missing=1
	1:[f14<3.09991455] yes=3,no=4,missing=3
		3:[f16<0.435789168] yes=7,no=8,missing=7
			7:leaf=-0.020783769
			8:leaf=0.0408758782
		4:[f14<3.19543457] yes=9,no=10,missing=9
			9:leaf=-0.0548406802
			10:leaf=-0.0140832812
	2:[f7<1459.5] yes=5,no=6,missing=5
		5:[f8<-1.06933594] yes=11,no=12,missing=11
			11:leaf=-0.024028372
			12:leaf=0.00525883446
		6:[f10<1470.5] yes=13,no=14,missing=13
			13:leaf=0.154170036
			14:leaf=0.0501950085
booster[57]:
0:[f14<2.16983032] yes=1,no=2,missing=1
	1:[f16<0.593961358] yes=3,no=4,missing=3
		3:[f8<0.258666992] yes=7,no=8,missing=7
			7:leaf=-0.128706023
			8:leaf=-0.0258329958
		4:leaf=0.102626301
	2:[f4<164.6875] yes=5,no=6,missing=5
		5:[f4<117.96875] yes=9,no=10,missing=9
			9:leaf=-0.00730974833
			10:leaf=0.0132034188
		6:[f17<3.14383602] yes=11,no=12,missing=11
			11:leaf=0.00207717414
			12:leaf=-0.0534108393
booster[58]:
0:[f5<0.905029297] yes=1,no=2,missing=1
	1:[f0<219.382294] yes=3,no=4,missing=3
		3:[f14<2.92121887] yes=7,no=8,missing=7
			7:leaf=0.0433242284
			8:leaf=-0.00565761421
		4:[f6<0.940185547] yes=9,no=10,missing=10
			9:leaf=-0.0353460275
			10:leaf=0.0205342676
	2:[f10<457.375] yes=5,no=6,missing=5
		5:[f8<-0.116104126] yes=11,no=12,missing=11
			11:leaf=0.0169682465
			12:leaf=-0.0194533672
		6:[f9<2.86791992] yes=13,no=14,missing=13
			13:leaf=0.0284893569
			14:leaf=-0.0515757762
booster[59]:
0:[f10<321.125] yes=1,no=2,missing=1
	1:[f6<0.983398438] yes=3,no=4,missing=4
		3:[f9<-3.00683594] yes=7,no=8,missing=7
			7:leaf=0.0834565386
			8:leaf=-0.0317834616
		4:leaf=0.137564033
	2:[f13<0.385162354] yes=5,no=6,missing=5
		5:[f8<-1.47485352] yes=9,no=10,missing=9
			9:leaf=-0.0938068405
			10:leaf=0.0177735817
		6:[f5<0.870849609] yes=11,no=12,missing=11
			11:leaf=-0.0159530472
			12:leaf=0.00364832999
booster[60]:
0:[f8<1.29638672] yes=1,no=2,missing=1
	1:[f16<0.205855608] yes=3,no=4,missing=3
		3:[f7<411.625] yes=7,no=8,missing=7
			7:leaf=-0.00574686006
			8:leaf=-0.0983534455
		4:[f6<0.945068359] yes=9,no=10,missing=9
			9:leaf=-2.78213702e-05
			10:leaf=0.0279993117
	2:[f18<0.835219264] yes=5,no=6,missing=5
		5:[f4<129.9375] yes=11,no=12,missing=11
			11:leaf=-0.0808739364
			12:leaf=-0.0100245941
		6:[f1<3.42610979] yes=13,no=14,missing=13
			13:leaf=0.0284292698
			14:leaf=-0.0370880887
booster[61]:
0:[f0<26.8277836] yes=1,no=2,missing=1
	1:[f12<3.07104492] yes=3,no=4,missing=3
		3:[f12<2.13720703] yes=7,no=8,missing=7
			7:leaf=-0.0181620624
			8:leaf=-0.0676826239
		4:[f9<-0.0280151367] yes=9,no=10,missing=9
			9:leaf=0.154729113
			10:leaf=-0.0225628503
	2:[f5<0.858154297] yes=5,no=6,missing=5
		5:[f6<0.867431641] yes=11,no=12,missing=12
			11:leaf=-0.0337302424
			12:leaf=-0.00291752373
		6:[f4<164.75] yes=13,no=14,missing=13
			13:leaf=0.0101632951
			14:leaf=-0.031325046
booster[62]:
0:[f14<3.20635223] yes=1,no=2,missing=1
	1:[f14<3.10354614] yes=3,no=4,missing=3
		3:[f16<0.362854719] yes=7,no=8,missing=7
			7:leaf=-0.0191988759
			8:leaf=0.0155864796
		4:[f4<107.96875] yes=9,no=10,missing=9
			9:leaf=-0.0414028056
			10:leaf=-0.00612814212
	2:[f6<0.856689453] yes=5,no=6,missing=6
		5:[f5<0.881103516] yes=11,no=12,missing=11
			11:leaf=-0.048339393
			12:leaf=0.00169125164
		6:[f12<2.55688477] yes=13,no=14,missing=13
			13:leaf=0.0297303777
			14:leaf=-0.0305654351
booster[63]:
0:[f9<2.53417969] yes=1,no=2,missing=1
	1:[f12<2.6027832] yes=3,no=4,missing=3
		3:[f6<0.923583984] yes=7,no=8,missing=7
			7:leaf=6.51639057e-05
			8:leaf=0.0212898478
		4:[f9<-0.457672119] yes=9,no=10,missing=9
			9:leaf=-0.0598188229
			10:leaf=-0.0108798612
	2:[f8<0.0724258423] yes=5,no=6,missing=5
		5:[f8<-1.08886719] yes=11,no=12,missing=11
			11:leaf=-0.0652948096
			12:leaf=0.0112647088
		6:[f13<0.466430664] yes=13,no=14,missing=13
			13:leaf=-0.0821518824
			14:leaf=-0.0170586016
booster[64]:
0:[f14<2.16983032] yes=1,no=2,missing=1
	1:[f16<0.593961358] yes=3,no=4,missing=3
		3:[f8<0.258666992] yes=7,no=8,missing=7
			7:leaf=-0.121494971
			8:leaf=-0.022516368
		4:leaf=0.0937703326
	2:[f3<732.649963] yes=5,no=6,missing=5
		5:[f15<0.474100053] yes=9,no=10,missing=9
			9:leaf=0.0619870797
			10:leaf=-0.0534136966
		6:[f13<0.785934448] yes=11,no=12,missing=11
			11:leaf=0.00998887885
			12:leaf=-0.00619233679
booster[65]:
0:[f5<0.810791016] yes=1,no=2,missing=1
	1:[f4<126.90625] yes=3,no=4,missing=3
		3:[f7<367.375] yes=7,no=8,missing=7
			7:leaf=0.0459359214
			8:leaf=-0.0693035796
		4:[f4<134.6875] yes=9,no=10,missing=9
			9:leaf=0.107659958
			10:leaf=-0.0365825221
	2:[f8<1.63806152] yes=5,no=6,missing=5
		5:[f9<1.28601074] yes=11,no=12,missing=11
			11:leaf=0.00772684161
			12:leaf=-0.0101189436
		6:[f9<-1.80554199] yes=13,no=14,missing=13
			13:leaf=-0.114852659
			14:leaf=-0.0260931086
booster[66]:
0:[f7<1459.5] yes=1,no=2,missing=1
	1:[f14<3.20635223] yes=3,no=4,missing=3
		3:[f14<3.10044861] yes=7,no=8,missing=7
			7:leaf=0.00604082039
			8:leaf=-0.0165592041
		4:[f6<0.856689453] yes=9,no=10,missing=10
			9:leaf=-0.0182259064
			10:leaf=0.0206463411
	2:[f4<86.40625] yes=5,no=6,missing=5
		5:[f11<-0.252883911] yes=11,no=12,missing=11
			11:leaf=-0.00762865553
			12:leaf=-0.0587812364
		6:[f18<0.871728301] yes=13,no=14,missing=13
			13:leaf=0.149271414
			14:leaf=0.0475141294
booster[67]:
0:[f4<68.03125] yes=1,no=2,missing=1
	1:[f17<12.286623] yes=3,no=4,missing=3
		3:[f8<-1.45983887] yes=7,no=8,missing=7
			7:leaf=0.0828667134
			8:leaf=-0.0537251122
		4:[f16<0.382217169] yes=9,no=10,missing=9
			9:leaf=-0.0451518372
			10:leaf=0.025611585
	2:[f4<141.0625] yes=5,no=6,missing=5
		5:[f8<-1.06933594] yes=11,no=12,missing=11
			11:leaf=-0.0235263892
			12:leaf=0.00973381847
		6:[f7<697.25] yes=13,no=14,missing=13
			13:leaf=0.000954708725
			14:leaf=-0.0436961204
booster[68]:
0:[f5<0.934814453] yes=1,no=2,missing=1
	1:[f7<715.25] yes=3,no=4,missing=3
		3:[f7<544.25] yes=7,no=8,missing=7
			7:leaf=-0.00653899554
			8:leaf=0.0215496998
		4:[f17<7.98010254] yes=9,no=10,missing=9
			9:leaf=-0.0353807919
			10:leaf=0.00668910518
	2:[f4<155.4375] yes=5,no=6,missing=5
		5:[f4<61.640625] yes=11,no=12,missing=11
			11:leaf=-0.0304808673
			12:leaf=0.0234689731
		6:[f0<74.4907379] yes=13,no=14,missing=13
			13:leaf=0.0624650083
			14:leaf=-0.0934939384
booster[69]:
0:[f14<2.16983032] yes=1,no=2,missing=1
	1:[f16<0.487410903] yes=3,no=4,missing=3
		3:[f4<148.75] yes=7,no=8,missing=7
			7:leaf=-0.107070222
			8:leaf=0.0267388616
		4:[f4<116.0625] yes=9,no=10,missing=9
			9:leaf=-0.0195948463
			10:leaf=0.0900962055
	2:[f1<3.74606323] yes=5,no=6,missing=5
		5:[f4<117.96875] yes=11,no=12,missing=11
			11:leaf=-0.00575066684
			12:leaf=0.00943528675
		6:[f18<0.934587121] yes=13,no=14,missing=13
			13:leaf=-0.0587486885
			14:leaf=-0.00835734233
booster[70]:
0:[f10<321.875] yes=1,no=2,missing=1
	1:[f8<1.80932617] yes=3,no=4,missing=3
		3:[f5<0.902099609] yes=7,no=8,missing=7
			7:leaf=-0.0334666297
			8:leaf=0.00898727868
		4:leaf=-0.120916389
	2:[f13<0.00485610962] yes=5,no=6,missing=5
		5:[f8<-0.377471924] yes=9,no=10,missing=9
			9:leaf=-0.0158180203
			10:leaf=0.16758655
		6:[f6<0.843505859] yes=11,no=12,missing=11
			11:leaf=-0.0140437055
			12:leaf=0.00484359264
booster[71]:
0:[f7<1459.5] yes=1,no=2,missing=1
	1:[f12<2.6027832] yes=3,no=4,missing=3
		3:[f9<1.28601074] yes=7,no=8,missing=7
			7:leaf=0.00727459649
			8:leaf=-0.0102573661
		4:[f9<-0.457672119] yes=9,no=10,missing=9
			9:leaf=-0.0562289618
			10:leaf=-0.0106522636
	2:[f4<86.40625] yes=5,no=6,missing=5
		5:leaf=-0.0432919636
		6:[f10<1470.5] yes=11,no=12,missing=11
			11:leaf=0.141313508
			12:leaf=0.0418135561
booster[72]:
0:[f16<0.215494007] yes=1,no=2,missing=1
	1:[f7<506.375] yes=3,no=4,missing=3
		3:[f8<-1.07080078] yes=7,no=8,missing=7
			7:leaf=-0.0365919136
			8:leaf=0.0450107865
		4:[f18<0.926886559] yes=9,no=10,missing=9
			9:leaf=-0.101411283
			10:leaf=0.0494018048
	2:[f7<1091.5] yes=5,no=6,missing=5
		5:[f7<715.75] yes=11,no=12,missing=11
			11:leaf=0.0030994995
			12:leaf=-0.0167375524
		6:[f4<127.875] yes=13,no=14,missing=13
			13:leaf=0.0638764426
			14:leaf=-0.00395767717
booster[73]:
0:[f5<0.810791016] yes=1,no=2,missing=1
	1:[f4<126.90625] yes=3,no=4,missing=3
		3:[f15<0.329726636] yes=7,no=8,missing=7
			7:leaf=0.085975334
			8:leaf=-0.0614953414
		4:[f4<134.6875] yes=9,no=10,missing=9
			9:leaf=0.0967335775
			10:leaf=-0.0331561863
	2:[f1<-4.43897629] yes=5,no=6,missing=5
		5:[f11<-0.863464355] yes=11,no=12,missing=11
			11:leaf=-0.0718017817
			12:leaf=0.0169637185
		6:[f16<0.188226789] yes=13,no=14,missing=13
			13:leaf=-0.0713038296
			14:leaf=0.00303358329
booster[74]:
0:[f8<1.29638672] yes=1,no=2,missing=1
	1:[f16<0.205855608] yes=3,no=4,missing=3
		3:[f2<2.0305779] yes=7,no=8,missing=7
			7:leaf=-0.081100665
			8:leaf=0.0198979061
		4:[f6<0.945068359] yes=9,no=10,missing=9
			9:leaf=-3.6427636e-07
			10:leaf=0.0235904306
	2:[f2<-2.55228543] yes=5,no=6,missing=5
		5:[f12<0.978027344] yes=11,no=12,missing=11
			11:leaf=-0.0011894413
			12:leaf=0.133269414
		6:[f2<-2.13243961] yes=13,no=14,missing=13
			13:leaf=-0.0894205049
			14:leaf=-0.0221670456
booster[75]:
0:[f10<419.375] yes=1,no=2,missing=1
	1:[f17<5.14147806] yes=3,no=4,missing=3
		3:[f1<4.51371336] yes=7,no=8,missing=7
			7:leaf=5.31202786e-05
			8:leaf=-0.0686850771
		4:[f2<-0.242293745] yes=9,no=10,missing=9
			9:leaf=-0.00578096509
			10:leaf=-0.0527072065
	2:[f4<143.3125] yes=5,no=6,missing=5
		5:[f8<-1.51611328] yes=11,no=12,missing=11
			11:leaf=-0.0568249635
			12:leaf=0.0134128183
		6:[f7<674.25] yes=13,no=14,missing=13
			13:leaf=0.0117469281
			14:leaf=-0.0408136994
booster[76]:
0:[f14<3.21600342] yes=1,no=2,missing=1
	1:[f14<3.10354614] yes=3,no=4,missing=3
		3:[f16<0.362854719] yes=7,no=8,missing=7
			7:leaf=-0.0156135187
			8:leaf=0.0126179783
		4:[f4<107.96875] yes=9,no=10,missing=9
			9:leaf=-0.0351809524
			10:leaf=-0.0036609997
	2:[f10<920.75] yes=5,no=6,missing=5
		5:[f5<0.875244141] yes=11,no=12,missing=11
			11:leaf=-0.00963658374
			12:leaf=0.0200956035
		6:[f2<-0.872907043] yes=13,no=14,missing=13
			13:leaf=0.220337436
			14:leaf=0.0388901979
booster[77]:
0:[f5<0.946044922] yes=1,no=2,missing=1
	1:[f8<1.29638672] yes=3,no=4,missing=3
		3:[f7<729.25] yes=7,no=8,missing=7
			7:leaf=0.00309273624
			8:leaf=-0.0143904639
		4:[f18<0.937894106] yes=9,no=10,missing=9
			9:leaf=-0.0405034684
			10:leaf=0.00787559524
	2:[f11<1.10424805] yes=5,no=6,missing=5
		5:[f9<-1.73986816] yes=11,no=12,missing=11
			11:leaf=0.0659231171
			12:leaf=0.0147736808
		6:[f4<104.4375] yes=13,no=14,missing=13
			13:leaf=-0.110467725
			14:leaf=0.00462526409
booster[78]:
0:[f7<449.125] yes=1,no=2,missing=1
	1:[f18<0.73432374] yes=3,no=4,missing=3
		3:[f5<0.922119141] yes=7,no=8,missing=7
			7:leaf=-0.116255738
			8:leaf=0.00955355447
		4:[f17<3.38238716] yes=9,no=10,missing=9
			9:leaf=0.00770800514
			10:leaf=-0.019732479
	2:[f4<144.0625] yes=5,no=6,missing=5
		5:[f8<-1.53198242] yes=11,no=12,missing=11
			11:leaf=-0.0626806915
			12:leaf=0.0110463277
		6:[f7<697.25] yes=13,no=14,missing=13
			13:leaf=-0.000485274242
			14:leaf=-0.0392862372
booster[79]:
0:[f14<2.16983032] yes=1,no=2,missing=1
	1:[f16<0.593961358] yes=3,no=4,missing=3
		3:[f8<0.258666992] yes=7,no=8,missing=7
			7:leaf=-0.110865273
			8:leaf=-0.0157974605
		4:leaf=0.0864572302
	2:[f3<732.649963] yes=5,no=6,missing=5
		5:[f18<0.826926231] yes=9,no=10,missing=9
			9:leaf=-0.121784665
			10:leaf=-0.0178015158
		6:[f6<0.802978516] yes=11,no=12,missing=11
			11:leaf=-0.0725708082
			12:leaf=0.00253191497
booster[80]:
0:[f9<2.53417969] yes=1,no=2,missing=1
	1:[f12<2.6027832] yes=3,no=4,missing=3
		3:[f6<0.897216797] yes=7,no=8,missing=7
			7:leaf=-0.00318816723
			8:leaf=0.013133253
		4:[f9<-0.168197632] yes=9,no=10,missing=9
			9:leaf=-0.0313270874
			10:leaf=0.00539447693
	2:[f8<1.8996582] yes=5,no=6,missing=5
		5:[f8<1.27062988] yes=11,no=12,missing=11
			11:leaf=-0.0144900111
			12:leaf=-0.102909841
		6:[f13<1.88057709] yes=13,no=14,missing=13
			13:leaf=0.153711736
			14:leaf=-0.00151509384
booster[81]:
0:[f14<3.20635223] yes=1,no=2,missing=1
	1:[f14<3.10354614] yes=3,no=4,missing=3
		3:[f16<0.374048382] yes=7,no=8,missing=7
			7:leaf=-0.0121492809
			8:leaf=0.0119750267
		4:[f3<999.611206] yes=9,no=10,missing=9
			9:leaf=-0.0328835919
			10:leaf=-0.00171466568
	2:[f6<0.860107422] yes=5,no=6,missing=6
		5:[f4<254.25] yes=11,no=12,missing=11
			11:leaf=-0.0169280041
			12:leaf=0.13924028
		6:[f3<730.787964] yes=13,no=14,missing=13
			13:leaf=-0.066054292
			14:leaf=0.021582922
booster[82]:
0:[f7<1459.5] yes=1,no=2,missing=1
	1:[f6<0.801513672] yes=3,no=4,missing=3
		3:[f13<0.127628326] yes=7,no=8,missing=7
			7:leaf=0.098654829
			8:leaf=-0.116194129
		4:[f8<-1.06933594] yes=9,no=10,missing=9
			9:leaf=-0.0166879203
			10:leaf=0.0018976538
	2:[f4<86.40625] yes=5,no=6,missing=5
		5:[f16<0.436829329] yes=11,no=12,missing=11
			11:leaf=-0.0598594435
			12:leaf=-0.00746966992
		6:[f4<177.9375] yes=13,no=14,missing=13
			13:leaf=0.117033772
			14:leaf=0.00300201867
booster[83]:
0:[f4<62.359375] yes=1,no=2,missing=1
	1:[f17<12.286623] yes=3,no=4,missing=3
		3:[f12<-1.94189453] yes=7,no=8,missing=7
			7:leaf=0.0103863487
			8:leaf=-0.0655053332
		4:[f18<0.975592315] yes=9,no=10,missing=9
			9:leaf=-0.00420695497
			10:leaf=0.0980759859
	2:[f5<0.946044922] yes=5,no=6,missing=5
		5:[f7<715.25] yes=11,no=12,missing=11
			11:leaf=0.00297232089
			12:leaf=-0.0149056409
		6:[f5<0.966064453] yes=13,no=14,missing=13
			13:leaf=0.0359268971
			14:leaf=-0.00656697899
booster[84]:
0:[f5<0.810791016] yes=1,no=2,missing=1
	1:[f7<353.625] yes=3,no=4,missing=3
		3:[f12<2.37768555] yes=7,no=8,missing=7
			7:leaf=-0.0203222763
			8:leaf=0.175587535
		4:[f4<126.90625] yes=9,no=10,missing=9
			9:leaf=-0.0577543266
			10:leaf=-3.59041442e-05
	2:[f7<1056.5] yes=5,no=6,missing=5
		5:[f7<715.75] yes=11,no=12,missing=11
			11:leaf=0.00273478194
			12:leaf=-0.0140930815
		6:[f0<101.303223] yes=13,no=14,missing=13
			13:leaf=-0.0314741693
			14:leaf=0.0463333987
booster[85]:
0:[f14<2.16983032] yes=1,no=2,missing=1
	1:[f0<608.777039] yes=3,no=4,missing=3
		3:[f15<0.419529617] yes=7,no=8,missing=7
			7:leaf=-0.133618504
			8:leaf=-0.0359468609
		4:[f12<0.800048828] yes=9,no=10,missing=9
			9:leaf=-0.0353306718
			10:leaf=0.133176565
	2:[f9<1.28601074] yes=5,no=6,missing=5
		5:[f12<2.6027832] yes=11,no=12,missing=11
			11:leaf=0.00782424584
			12:leaf=-0.0158191677
		6:[f8<0.0465354919] yes=13,no=14,missing=13
			13:leaf=0.00443930272
			14:leaf=-0.0219592974
booster[86]:
0:[f4<117.96875] yes=1,no=2,missing=1
	1:[f14<3.27630615] yes=3,no=4,missing=3
		3:[f8<-1.07287598] yes=7,no=8,missing=7
			7:leaf=-0.0464751832
			8:leaf=-0.00673029199
		4:[f14<3.31668091] yes=9,no=10,missing=9
			9:leaf=0.0722714886
			10:leaf=0.00149528391
	2:[f4<134.8125] yes=5,no=6,missing=5
		5:[f1<3.68518972] yes=11,no=12,missing=11
			11:leaf=0.0202415548
			12:leaf=-0.0317908637
		6:[f0<23.1263657] yes=13,no=14,missing=13
			13:leaf=-0.0625037923
			14:leaf=-0.00545194838
booster[87]:
0:[f13<0.00592041016] yes=1,no=2,missing=1
	1:[f9<1.71362305] yes=3,no=4,missing=3
		3:[f10<318.625] yes=7,no=8,missing=7
			7:leaf=-0.0304439701
			8:leaf=0.158208296
		4:leaf=-0.0951456651
	2:[f13<0.012878418] yes=5,no=6,missing=5
		5:[f9<-1.62561035] yes=9,no=10,missing=9
			9:leaf=-0.177075505
			10:leaf=-0.0433326326
		6:[f6<0.945068359] yes=11,no=12,missing=11
			11:leaf=-0.00190560368
			12:leaf=0.0172199588
booster[88]:
0:[f13<0.785934448] yes=1,no=2,missing=1
	1:[f17<2.82094145] yes=3,no=4,missing=3
		3:[f12<-1.3894043] yes=7,no=8,missing=7
			7:leaf=0.0996007547
			8:leaf=0.0119521767
		4:[f17<2.8390584] yes=9,no=10,missing=9
			9:leaf=-0.129488587
			10:leaf=0.00358377094
	2:[f16<0.430710703] yes=5,no=6,missing=5
		5:[f4<141.6875] yes=11,no=12,missing=11
			11:leaf=0.0012987142
			12:leaf=-0.025451351
		6:[f1<-3.32694721] yes=13,no=14,missing=13
			13:leaf=-0.11051859
			14:leaf=-0.0216254275
booster[89]:
0:[f14<3.88739014] yes=1,no=2,missing=1
	1:[f14<3.21600342] yes=3,no=4,missing=3
		3:[f8<-1.51611328] yes=7,no=8,missing=7
			7:leaf=-0.0440347008
			8:leaf=-0.00136631646
		4:[f10<920.75] yes=9,no=10,missing=9
			9:leaf=0.00900814496
			10:leaf=0.105400406
	2:[f6<0.888671875] yes=5,no=6,missing=6
		5:[f9<2.97241211] yes=11,no=12,missing=11
			11:leaf=-0.111082815
			12:leaf=0.0310087949
		6:[f4<117.21875] yes=13,no=14,missing=13
			13:leaf=-0.0682138875
			14:leaf=0.0631259605
booster[90]:
0:[f8<1.63806152] yes=1,no=2,missing=1
	1:[f5<0.929931641] yes=3,no=4,missing=3
		3:[f0<218.771851] yes=7,no=8,missing=7
			7:leaf=0.00136878062
			8:leaf=-0.0177624058
		4:[f0<415.712555] yes=9,no=10,missing=9
			9:leaf=0.00949588977
			10:leaf=0.0755060762
	2:[f9<-1.80554199] yes=5,no=6,missing=5
		5:[f10<381.875] yes=11,no=12,missing=11
			11:leaf=-0.0302842949
			12:leaf=-0.136713475
		6:[f18<0.847594857] yes=13,no=14,missing=13
			13:leaf=-0.0683841333
			14:leaf=0.0211203787
booster[91]:
0:[f9<2.63110352] yes=1,no=2,missing=1
	1:[f13<0.00598144531] yes=3,no=4,missing=3
		3:[f15<0.572298527] yes=7,no=8,missing=7
			7:leaf=0.126843616
			8:leaf=-0.0619303696
		4:[f6<0.945068359] yes=9,no=10,missing=9
			9:leaf=-0.00103993982
			10:leaf=0.019340625
	2:[f8<0.0451049805] yes=5,no=6,missing=5
		5:[f8<-0.628295898] yes=11,no=12,missing=11
			11:leaf=-0.0333220847
			12:leaf=0.0359864794
		6:[f8<1.88305664] yes=13,no=14,missing=13
			13:leaf=-0.0421540439
			14:leaf=0.100719549
booster[92]:
0:[f4<117.96875] yes=1,no=2,missing=1
	1:[f7<1067.5] yes=3,no=4,missing=3
		3:[f18<0.948126554] yes=7,no=8,missing=7
			7:leaf=-0.0132468035
			8:leaf=0.0105617018
		4:[f10<1116.5] yes=9,no=10,missing=9
			9:leaf=0.0745946616
			10:leaf=-0.0232457276
	2:[f4<134.8125] yes=5,no=6,missing=5
		5:[f1<3.68518972] yes=11,no=12,missing=11
			11:leaf=0.0183037668
			12:leaf=-0.0284681376
		6:[f7<693.25] yes=13,no=14,missing=13
			13:leaf=0.00105861365
			14:leaf=-0.0280601066
booster[93]:
0:[f7<449.125] yes=1,no=2,missing=1
	1:[f18<0.73432374] yes=3,no=4,missing=3
		3:[f5<0.922119141] yes=7,no=8,missing=7
			7:leaf=-0.108062185
			8:leaf=0.00625520339
		4:[f14<3.04284668] yes=9,no=10,missing=9
			9:leaf=0.0159311574
			10:leaf=-0.0126429573
	2:[f6<0.924560547] yes=5,no=6,missing=5
		5:[f4<138.3125] yes=11,no=12,missing=11
			11:leaf=0.00485061901
			12:leaf=-0.0211661067
		6:[f0<218.701599] yes=13,no=14,missing=13
			13:leaf=0.0271648299
			14:leaf=-0.00732805813
booster[94]:
0:[f7<1459.5] yes=1,no=2,missing=1
	1:[f6<0.801513672] yes=3,no=4,missing=3
		3:[f13<0.127628326] yes=7,no=8,missing=7
			7:leaf=0.0913160741
			8:leaf=-0.110956624
		4:[f14<2.16983032] yes=9,no=10,missing=9
			9:leaf=-0.0462786667
			10:leaf=0.000490881852
	2:[f4<86.40625] yes=5,no=6,missing=5
		5:[f17<47.548687] yes=11,no=12,missing=11
			11:leaf=-0.0582964979
			12:leaf=-0.00901574641
		6:[f18<0.871728301] yes=13,no=14,missing=13
			13:leaf=0.12900354
			14:leaf=0.0307074767
booster[95]:
0:[f4<62.359375] yes=1,no=2,missing=1
	1:[f17<12.286623] yes=3,no=4,missing=3
		3:[f13<0.0586776733] yes=7,no=8,missing=7
			7:leaf=0.0793781281
			8:leaf=-0.0535784774
		4:[f16<0.382217169] yes=9,no=10,missing=9
			9:leaf=-0.0384513997
			10:leaf=0.0210695732
	2:[f5<0.946044922] yes=5,no=6,missing=5
		5:[f10<674.25] yes=11,no=12,missing=11
			11:leaf=0.00211431086
			12:leaf=-0.017284859
		6:[f5<0.966064453] yes=13,no=14,missing=13
			13:leaf=0.0316643231
			14:leaf=-0.00785994623
booster[96]:
0:[f5<0.815185547] yes=1,no=2,missing=1
	1:[f2<1.10359478] yes=3,no=4,missing=3
		3:[f7<367.875] yes=7,no=8,missing=7
			7:leaf=0.0484807529
			8:leaf=-0.0484037288
		4:[f2<1.84003782] yes=9,no=10,missing=9
			9:leaf=0.0911897719
			10:leaf=-0.0300816484
	2:[f14<3.19439697] yes=5,no=6,missing=5
		5:[f8<-1.51611328] yes=11,no=12,missing=11
			11:leaf=-0.0471494421
			12:leaf=-0.00082616054
		6:[f6<0.860107422] yes=13,no=14,missing=14
			13:leaf=-0.0141718434
			14:leaf=0.0189081598
booster[97]:
0:[f12<2.6027832] yes=1,no=2,missing=1
	1:[f12<2.56225586] yes=3,no=4,missing=3
		3:[f0<62.4565277] yes=7,no=8,missing=7
			7:leaf=-0.00835134927
			8:leaf=0.00517745875
		4:[f17<3.28967524] yes=9,no=10,missing=9
			9:leaf=-0.0219124239
			10:leaf=0.115404539
	2:[f9<-0.457672119] yes=5,no=6,missing=5
		5:[f13<0.350708008] yes=11,no=12,missing=11
			11:leaf=0.0245499406
			12:leaf=-0.0715919361
		6:[f11<-0.0811004639] yes=13,no=14,missing=13
			13:leaf=0.0137514947
			14:leaf=-0.0195930582
booster[98]:
0:[f9<1.25439453] yes=1,no=2,missing=1
	1:[f8<1.5291748] yes=3,no=4,missing=3
		3:[f5<0.913330078] yes=7,no=8,missing=7
			7:leaf=-0.000347705442
			8:leaf=0.016238153
		4:[f2<0.650629401] yes=9,no=10,missing=9
			9:leaf=-0.0575256422
			10:leaf=0.0343492627
	2:[f10<309.625] yes=5,no=6,missing=5
		5:[f5<0.933105469] yes=11,no=12,missing=11
			11:leaf=-0.0970715284
			12:leaf=0.0197541043
		6:[f8<0.0465354919] yes=13,no=14,missing=13
			13:leaf=0.00718545634
			14:leaf=-0.0184500497
booster[99]:
0:[f4<117.96875] yes=1,no=2,missing=1
	1:[f14<3.27630615] yes=3,no=4,missing=3
		3:[f14<2.86961365] yes=7,no=8,missing=7
			7:leaf=0.0201295186
			8:leaf=-0.0138961868
		4:[f14<3.35766602] yes=9,no=10,missing=9
			9:leaf=0.0483252071
			10:leaf=-0.00596414879
	2:[f4<127.71875] yes=5,no=6,missing=5
		5:[f3<732.189941] yes=11,no=12,missing=11
			11:leaf=-0.0723266527
			12:leaf=0.0215190537
		6:[f10<674.25] yes=13,no=14,missing=13
			13:leaf=0.00317021017
			14:leaf=-0.033296261
booster[100]:
0:[f7<1459.5] yes=1,no=2,missing=1
	1:[f0<218.742554] yes=3,no=4,missing=3
		3:[f14<2.92121887] yes=7,no=8,missing=7
			7:leaf=0.0325984918
			8:leaf=-0.000538749038
		4:[f5<0.890869141] yes=9,no=10,missing=9
			9:leaf=-0.0310137253
			10:leaf=0.00865430292
	2:[f4<86.40625] yes=5,no=6,missing=5
		5:leaf=-0.0425482951
		6:[f5<0.830566406] yes=11,no=12,missing=11
			11:leaf=-0.01381623
			12:leaf=0.104289845
booster[101]:
0:[f10<419.375] yes=1,no=2,missing=1
	1:[f16<0.477880001] yes=3,no=4,missing=3
		3:[f18<0.94019413] yes=7,no=8,missing=7
			7:leaf=-0.00901596434
			8:leaf=0.0174503345
		4:[f0<120.435532] yes=9,no=10,missing=9
			9:leaf=-0.122234397
			10:leaf=0.00236248015
	2:[f6<0.924560547] yes=5,no=6,missing=5
		5:[f4<137.9375] yes=11,no=12,missing=11
			11:leaf=0.00576410023
			12:leaf=-0.0184483193
		6:[f16<0.42245239] yes=13,no=14,missing=13
			13:leaf=0.000696903677
			14:leaf=0.0359746553
booster[102]:
0:[f13<0.385162354] yes=1,no=2,missing=1
	1:[f17<2.60951042] yes=3,no=4,missing=3
		3:[f15<0.519707322] yes=7,no=8,missing=7
			7:leaf=0.132990286
			8:leaf=-0.0351905636
		4:[f8<-1.47485352] yes=9,no=10,missing=9
			9:leaf=-0.0835289508
			10:leaf=0.00721129123
	2:[f6<0.983642578] yes=5,no=6,missing=6
		5:[f12<2.71411133] yes=11,no=12,missing=11
			11:leaf=-0.00149705913
			12:leaf=-0.0260995086
		6:[f4<75.71875] yes=13,no=14,missing=13
			13:leaf=-0.0256993379
			14:leaf=0.112175755
booster[103]:
0:[f14<2.16983032] yes=1,no=2,missing=1
	1:[f0<608.777039] yes=3,no=4,missing=3
		3:[f15<0.419529617] yes=7,no=8,missing=7
			7:leaf=-0.127884358
			8:leaf=-0.0298019927
		4:[f12<0.800048828] yes=9,no=10,missing=9
			9:leaf=-0.0295414813
			10:leaf=0.127848461
	2:[f3<685.951416] yes=5,no=6,missing=5
		5:[f6<0.943359375] yes=11,no=12,missing=12
			11:leaf=-0.0859112144
			12:leaf=0.0875086114
		6:[f7<346.625] yes=13,no=14,missing=13
			13:leaf=0.0378759466
			14:leaf=0.00014445222
booster[104]:
0:[f4<23.4375] yes=1,no=2,missing=1
	1:[f4<20.6015625] yes=3,no=4,missing=3
		3:leaf=0.0657563731
		4:[f12<1.80932617] yes=7,no=8,missing=7
			7:leaf=-0.0988621339
			8:leaf=-0.0110494336
	2:[f7<1459.5] yes=5,no=6,missing=5
		5:[f10<1245.5] yes=9,no=10,missing=9
			9:leaf=0.000246649928
			10:leaf=-0.101678848
		6:[f7<1499.5] yes=11,no=12,missing=11
			11:leaf=0.145990074
			12:leaf=0.0249751061
booster[105]:
0:[f6<0.802490234] yes=1,no=2,missing=1
	1:[f0<205.802856] yes=3,no=4,missing=3
		3:[f13<0.0839233398] yes=7,no=8,missing=7
			7:leaf=0.0277167745
			8:leaf=-0.104732655
		4:[f2<0.642139256] yes=9,no=10,missing=9
			9:leaf=0.107541218
			10:leaf=-0.0323962942
	2:[f3<732.649963] yes=5,no=6,missing=5
		5:[f14<3.04237175] yes=11,no=12,missing=11
			11:leaf=0.0271660332
			12:leaf=-0.0482794829
		6:[f14<2.06900024] yes=13,no=14,missing=13
			13:leaf=-0.0642793253
			14:leaf=0.00188214274
booster[106]:
0:[f9<1.25439453] yes=1,no=2,missing=1
	1:[f8<1.5291748] yes=3,no=4,missing=3
		3:[f16<0.19863534] yes=7,no=8,missing=7
			7:leaf=-0.0702817291
			8:leaf=0.00508187572
		4:[f4<117.125] yes=9,no=10,missing=9
			9:leaf=0.00784764532
			10:leaf=-0.0641400069
	2:[f10<309.625] yes=5,no=6,missing=5
		5:[f16<0.376395524] yes=11,no=12,missing=11
			11:leaf=-0.112677775
			12:leaf=-0.0187855344
		6:[f8<0.0465354919] yes=13,no=14,missing=13
			13:leaf=0.00636487454
			14:leaf=-0.0170300249
booster[107]:
0:[f1<-4.1216898] yes=1,no=2,missing=1
	1:[f5<0.856689453] yes=3,no=4,missing=3
		3:[f13<1.20121765] yes=7,no=8,missing=7
			7:leaf=-0.00215815473
			8:leaf=0.120441735
		4:[f11<-1.29467773] yes=9,no=10,missing=9
			9:leaf=-0.0776033625
			10:leaf=-0.0153363822
	2:[f13<0.00485610962] yes=5,no=6,missing=5
		5:[f15<0.572298527] yes=11,no=12,missing=11
			11:leaf=0.127436116
			12:leaf=-0.0555411056
		6:[f5<0.834716797] yes=13,no=14,missing=13
			13:leaf=-0.0130845672
			14:leaf=0.00267998804
booster[108]:
0:[f4<117.96875] yes=1,no=2,missing=1
	1:[f9<0.914123535] yes=3,no=4,missing=3
		3:[f14<3.27062988] yes=7,no=8,missing=7
			7:leaf=-0.00421989243
			8:leaf=0.0333015248
		4:[f18<0.979698896] yes=9,no=10,missing=9
			9:leaf=-0.0227323957
			10:leaf=0.0382896662
	2:[f4<127.71875] yes=5,no=6,missing=5
		5:[f17<3.17909145] yes=11,no=12,missing=11
			11:leaf=-0.0183879547
			12:leaf=0.0229114518
		6:[f10<674.25] yes=13,no=14,missing=13
			13:leaf=0.00318864477
			14:leaf=-0.0308293588
booster[109]:
0:[f7<1091.5] yes=1,no=2,missing=1
	1:[f7<715.75] yes=3,no=4,missing=3
		3:[f7<556.75] yes=7,no=8,missing=7
			7:leaf=-0.0033893846
			8:leaf=0.0163306836
		4:[f6<0.897705078] yes=9,no=10,missing=10
			9:leaf=-0.0337176956
			10:leaf=0.0075131082
	2:[f6<0.850830078] yes=5,no=6,missing=6
		5:[f6<0.835693359] yes=11,no=12,missing=12
			11:leaf=0.0168356895
			12:leaf=-0.0887380913
		6:[f9<-2.62670898] yes=13,no=14,missing=13
			13:leaf=-0.07402502
			14:leaf=0.0495791622
booster[110]:
0:[f14<3.88739014] yes=1,no=2,missing=1
	1:[f0<602.10376] yes=3,no=4,missing=3
		3:[f14<2.17605591] yes=7,no=8,missing=7
			7:leaf=-0.0621662624
			8:leaf=0.000512872532
		4:[f12<0.902526855] yes=9,no=10,missing=9
			9:leaf=-0.00540106511
			10:leaf=0.154354051
	2:[f2<-2.19258428] yes=5,no=6,missing=5
		5:[f5<0.879394531] yes=11,no=12,missing=11
			11:leaf=-0.0476018451
			12:leaf=0.0945833474
		6:[f17<3.01952171] yes=13,no=14,missing=13
			13:leaf=0.0461710803
			14:leaf=-0.106723689
booster[111]:
0:[f8<2.13208008] yes=1,no=2,missing=1
	1:[f8<-1.06933594] yes=3,no=4,missing=3
		3:[f14<3.24993896] yes=7,no=8,missing=7
			7:leaf=-0.0228203572
			8:leaf=0.0274640322
		4:[f8<-1.02978516] yes=9,no=10,missing=9
			9:leaf=0.066402331
			10:leaf=0.00109351182
	2:[f9<-1.53405762] yes=5,no=6,missing=5
		5:leaf=0.0197769441
		6:leaf=-0.118267082
booster[112]:
0:[f12<2.71411133] yes=1,no=2,missing=1
	1:[f12<2.71166992] yes=3,no=4,missing=3
		3:[f7<1106.5] yes=7,no=8,missing=7
			7:leaf=0.000101306257
			8:leaf=0.0291574299
		4:leaf=0.135085762
	2:[f12<2.73583984] yes=5,no=6,missing=5
		5:[f13<1.83278656] yes=9,no=10,missing=9
			9:leaf=-0.143969506
			10:leaf=0.0258292146
		6:[f1<2.39050078] yes=11,no=12,missing=11
			11:leaf=0.00374533213
			12:leaf=-0.0386847183
booster[113]:
0:[f4<23.4375] yes=1,no=2,missing=1
	1:[f4<20.6015625] yes=3,no=4,missing=3
		3:leaf=0.0593564808
		4:[f11<0.677124023] yes=7,no=8,missing=7
			7:leaf=-0.0969680175
			8:leaf=-0.00746022118
	2:[f1<4.5112772] yes=5,no=6,missing=5
		5:[f1<4.38567781] yes=9,no=10,missing=9
			9:leaf=0.000564566522
			10:leaf=0.0924422443
		6:[f3<801.130127] yes=11,no=12,missing=11
			11:leaf=-0.125277534
			12:leaf=-0.00889729522
booster[114]:
0:[f13<0.385162354] yes=1,no=2,missing=1
	1:[f4<104.15625] yes=3,no=4,missing=3
		3:[f0<134.832718] yes=7,no=8,missing=7
			7:leaf=-0.0386913829
			8:leaf=0.0217076354
		4:[f11<0.83782959] yes=9,no=10,missing=9
			9:leaf=0.0227915347
			10:leaf=-0.0278981626
	2:[f13<0.40435791] yes=5,no=6,missing=5
		5:[f2<-1.78188014] yes=11,no=12,missing=11
			11:leaf=-0.158018649
			12:leaf=-0.0160370264
		6:[f6<0.983642578] yes=13,no=14,missing=14
			13:leaf=-0.00239221216
			14:leaf=0.082306996
booster[115]:
0:[f10<300.875] yes=1,no=2,missing=1
	1:[f0<100.011536] yes=3,no=4,missing=3
		3:[f0<58.3368988] yes=7,no=8,missing=7
			7:leaf=0.0749340132
			8:leaf=-0.0977400169
		4:[f9<0.272857666] yes=9,no=10,missing=9
			9:leaf=0.139822215
			10:leaf=0.0392102227
	2:[f10<304.625] yes=5,no=6,missing=5
		5:[f18<0.872485876] yes=11,no=12,missing=11
			11:leaf=-0.0842048377
			12:leaf=0.035369169
		6:[f16<0.149169818] yes=13,no=14,missing=13
			13:leaf=-0.102496684
			14:leaf=0.000667922897
booster[116]:
0:[f1<-5.35350513] yes=1,no=2,missing=1
	1:[f1<-5.63683414] yes=3,no=4,missing=3
		3:[f4<132.5625] yes=7,no=8,missing=7
			7:leaf=0.105496965
			8:leaf=-0.0887463167
		4:[f1<-5.4076767] yes=9,no=10,missing=9
			9:leaf=-0.143108398
			10:leaf=-0.0385796353
	2:[f13<0.00485610962] yes=5,no=6,missing=5
		5:[f15<0.572298527] yes=11,no=12,missing=11
			11:leaf=0.111529194
			12:leaf=-0.0541150756
		6:[f6<0.843505859] yes=13,no=14,missing=13
			13:leaf=-0.0101165036
			14:leaf=0.00214460236
booster[117]:
0:[f5<0.809814453] yes=1,no=2,missing=1
	1:[f15<0.329607397] yes=3,no=4,missing=3
		3:[f1<-2.23167467] yes=7,no=8,missing=7
			7:leaf=0.158704832
			8:leaf=-0.0311020017
		4:[f8<-0.201156616] yes=9,no=10,missing=9
			9:leaf=-0.0683886856
			10:leaf=-0.00554146059
	2:[f1<-4.43897629] yes=5,no=6,missing=5
		5:[f11<-0.863464355] yes=11,no=12,missing=11
			11:leaf=-0.056886103
			12:leaf=0.022325065
		6:[f8<-0.117103577] yes=13,no=14,missing=13
			13:leaf=0.00773122301
			14:leaf=-0.00313509605
booster[118]:
0:[f13<1.05843353] yes=1,no=2,missing=1
	1:[f15<0.421735704] yes=3,no=4,missing=3
		3:[f3<1178.34595] yes=7,no=8,missing=7
			7:leaf=-0.0112646557
			8:leaf=-0.10820023
		4:[f15<0.511489511] yes=9,no=10,missing=9
			9:leaf=0.00948591623
			10:leaf=-0.00466580456
	2:[f16<0.408157468] yes=5,no=6,missing=5
		5:[f18<0.94442749] yes=11,no=12,missing=11
			11:leaf=-0.00973208435
			12:leaf=0.0259969812
		6:[f6<0.940185547] yes=13,no=14,missing=14
			13:leaf=-0.066098921
			14:leaf=0.0811478049
booster[119]:
0:[f0<26.8277836] yes=1,no=2,missing=1
	1:[f12<3.07104492] yes=3,no=4,missing=3
		3:[f0<21.7929077] yes=7,no=8,missing=7
			7:leaf=-0.00390849542
			8:leaf=-0.0464578494
		4:[f16<0.450731307] yes=9,no=10,missing=9
			9:leaf=0.164006129
			10:leaf=0.0207049083
	2:[f0<27.4469128] yes=5,no=6,missing=5
		5:[f6<0.894042969] yes=11,no=12,missing=12
			11:leaf=-0.0287721641
			12:leaf=0.191503167
		6:[f5<0.877197266] yes=13,no=14,missing=13
			13:leaf=-0.00516838348
			14:leaf=0.00505709602
booster[120]:
0:[f9<2.63110352] yes=1,no=2,missing=1
	1:[f2<2.29644251] yes=3,no=4,missing=3
		3:[f2<-0.550259531] yes=7,no=8,missing=7
			7:leaf=0.00665439013
			8:leaf=-0.00697391201
		4:[f7<378.625] yes=9,no=10,missing=9
			9:leaf=0.0884265378
			10:leaf=0.00666667242
	2:[f0<100.226456] yes=5,no=6,missing=5
		5:[f15<0.514439106] yes=11,no=12,missing=11
			11:leaf=-0.0235307533
			12:leaf=-0.151571497
		6:[f0<173.754242] yes=13,no=14,missing=13
			13:leaf=0.0361638777
			14:leaf=-0.0225675497
booster[121]:
0:[f2<-2.83264589] yes=1,no=2,missing=1
	1:[f7<614.5] yes=3,no=4,missing=3
		3:[f11<-0.256439209] yes=7,no=8,missing=7
			7:leaf=-0.0780711398
			8:leaf=-0.00990839396
		4:[f14<3.13066101] yes=9,no=10,missing=9
			9:leaf=-0.115391158
			10:leaf=0.0366452932
	2:[f2<-2.81823683] yes=5,no=6,missing=5
		5:leaf=0.163850754
		6:[f6<0.801513672] yes=11,no=12,missing=11
			11:leaf=-0.0697428137
			12:leaf=0.00100048259
booster[122]:
0:[f14<3.88739014] yes=1,no=2,missing=1
	1:[f0<602.10376] yes=3,no=4,missing=3
		3:[f14<2.17605591] yes=7,no=8,missing=7
			7:leaf=-0.0558408685
			8:leaf=0.000454891444
		4:[f12<0.902526855] yes=9,no=10,missing=9
			9:leaf=-0.00510039693
			10:leaf=0.137643829
	2:[f2<-2.64247799] yes=5,no=6,missing=5
		5:[f2<-2.90348554] yes=11,no=12,missing=11
			11:leaf=-0.0228437595
			12:leaf=0.0974883363
		6:[f9<2.97241211] yes=13,no=14,missing=13
			13:leaf=-0.0793076828
			14:leaf=0.0295362975
booster[123]:
0:[f12<2.6027832] yes=1,no=2,missing=1
	1:[f12<2.5715332] yes=3,no=4,missing=3
		3:[f13<1.05825806] yes=7,no=8,missing=7
			7:leaf=0.00450144568
			8:leaf=-0.00647218898
		4:[f1<2.1323657] yes=9,no=10,missing=9
			9:leaf=0.125776276
			10:leaf=0.0103436299
	2:[f16<0.462482482] yes=5,no=6,missing=5
		5:[f13<0.31439209] yes=11,no=12,missing=11
			11:leaf=0.0513896719
			12:leaf=-0.0139947357
		6:[f5<0.830078125] yes=13,no=14,missing=13
			13:leaf=0.0658173636
			14:leaf=-0.074075602
booster[124]:
0:[f4<62.359375] yes=1,no=2,missing=1
	1:[f17<12.286623] yes=3,no=4,missing=3
		3:[f12<-1.94189453] yes=7,no=8,missing=7
			7:leaf=0.0125492876
			8:leaf=-0.0582196824
		4:[f17<12.4485598] yes=9,no=10,missing=9
			9:leaf=0.142188206
			10:leaf=0.00175434712
	2:[f4<63.765625] yes=5,no=6,missing=5
		5:[f8<-0.31427002] yes=11,no=12,missing=11
			11:leaf=0.18089287
			12:leaf=-0.0293193106
		6:[f8<-1.06933594] yes=13,no=14,missing=13
			13:leaf=-0.0127480794
			14:leaf=0.0025966994
booster[125]:
0:[f4<23.4375] yes=1,no=2,missing=1
	1:[f4<20.6015625] yes=3,no=4,missing=3
		3:leaf=0.0547979884
		4:[f12<1.80932617] yes=7,no=8,missing=7
			7:leaf=-0.0954807475
			8:leaf=-0.00662746746
	2:[f7<1459.5] yes=5,no=6,missing=5
		5:[f7<1377.5] yes=9,no=10,missing=9
			9:leaf=0.000276470353
			10:leaf=-0.091338478
		6:[f18<0.869853377] yes=11,no=12,missing=11
			11:leaf=0.0977233127
			12:leaf=-0.0040485491
booster[126]:
0:[f3<3941.37451] yes=1,no=2,missing=1
	1:[f7<1457] yes=3,no=4,missing=3
		3:[f0<218.742554] yes=7,no=8,missing=7
			7:leaf=0.00191760994
			8:leaf=-0.00939609949
		4:[f17<16.875782] yes=9,no=10,missing=9
			9:leaf=0.0933122411
			10:leaf=-0.0359716602
	2:[f15<0.465632498] yes=5,no=6,missing=5
		5:leaf=-0.117533021
		6:leaf=-0.00519496622
booster[127]:
0:[f8<2.13208008] yes=1,no=2,missing=1
	1:[f10<300.875] yes=3,no=4,missing=3
		3:[f0<100.011536] yes=7,no=8,missing=7
			7:leaf=-0.0113424584
			8:leaf=0.113903463
		4:[f10<303.375] yes=9,no=10,missing=9
			9:leaf=-0.0656046793
			10:leaf=0.000517744164
	2:[f9<-1.53405762] yes=5,no=6,missing=5
		5:leaf=0.019714687
		6:leaf=-0.111253999
booster[128]:
0:[f6<0.802490234] yes=1,no=2,missing=1
	1:[f0<205.802856] yes=3,no=4,missing=3
		3:[f13<0.0839233398] yes=7,no=8,missing=7
			7:leaf=0.0275807716
			8:leaf=-0.0973565653
		4:[f2<0.642139256] yes=9,no=10,missing=9
			9:leaf=0.100130536
			10:leaf=-0.0259114988
	2:[f3<732.649963] yes=5,no=6,missing=5
		5:[f18<0.826067805] yes=11,no=12,missing=11
			11:leaf=-0.106967404
			12:leaf=-0.00750689162
		6:[f3<749.687439] yes=13,no=14,missing=13
			13:leaf=0.039604146
			14:leaf=0.000408754684
booster[129]:
0:[f9<3.12304688] yes=1,no=2,missing=1
	1:[f9<3.08862305] yes=3,no=4,missing=3
		3:[f9<2.86694336] yes=7,no=8,missing=7
			7:leaf=0.000843634771
			8:leaf=-0.0268448424
		4:[f5<0.874267578] yes=9,no=10,missing=9
			9:leaf=-0.0390147194
			10:leaf=0.10619358
	2:[f9<3.13696289] yes=5,no=6,missing=5
		5:[f2<2.03153276] yes=11,no=12,missing=11
			11:leaf=-0.122247353
			12:leaf=-0.0216952041
		6:leaf=0.0139387567
booster[130]:
0:[f7<449.125] yes=1,no=2,missing=1
	1:[f18<0.73432374] yes=3,no=4,missing=3
		3:[f0<188.448669] yes=7,no=8,missing=7
			7:leaf=-0.0965052098
			8:leaf=0.021736538
		4:[f16<0.47818774] yes=9,no=10,missing=9
			9:leaf=-0.00142167311
			10:leaf=-0.0580242164
	2:[f4<144.0625] yes=5,no=6,missing=5
		5:[f8<-1.96923828] yes=11,no=12,missing=11
			11:leaf=-0.134284705
			12:leaf=0.00661128713
		6:[f8<-1.23974609] yes=13,no=14,missing=13
			13:leaf=0.0515401028
			14:leaf=-0.0172381233
booster[131]:
0:[f8<-2.10766602] yes=1,no=2,missing=1
	1:[f18<0.940242827] yes=3,no=4,missing=3
		3:[f17<3.49566221] yes=7,no=8,missing=7
			7:leaf=0.080031231
			8:leaf=-0.095161438
		4:leaf=0.147149429
	2:[f8<-1.96276855] yes=5,no=6,missing=5
		5:[f14<3.19189453] yes=9,no=10,missing=9
			9:leaf=-0.137443885
			10:leaf=0.0234278161
		6:[f15<0.173632592] yes=11,no=12,missing=11
			11:leaf=0.11850255
			12:leaf=-3.82023827e-05
booster[132]:
0:[f4<117.96875] yes=1,no=2,missing=1
	1:[f14<2.86961365] yes=3,no=4,missing=3
		3:[f14<2.59933472] yes=7,no=8,missing=7
			7:leaf=-0.0196375214
			8:leaf=0.0414785929
		4:[f14<3.19268799] yes=9,no=10,missing=9
			9:leaf=-0.0149485907
			10:leaf=0.00808196329
	2:[f4<134.8125] yes=5,no=6,missing=5
		5:[f4<133.8125] yes=11,no=12,missing=11
			11:leaf=0.00784137845
			12:leaf=0.0611293428
		6:[f18<0.987268329] yes=13,no=14,missing=13
			13:leaf=-0.00214741053
			14:leaf=-0.0647450089
booster[133]:
0:[f14<3.10354614] yes=1,no=2,missing=1
	1:[f0<17.3351078] yes=3,no=4,missing=3
		3:leaf=-0.134805202
		4:[f18<0.816111565] yes=7,no=8,missing=7
			7:leaf=-0.00771197444
			8:leaf=0.0121809272
	2:[f14<3.11285019] yes=5,no=6,missing=5
		5:[f6<0.951416016] yes=9,no=10,missing=10
			9:leaf=-0.0587463081
			10:leaf=0.0615756325
		6:[f4<81.84375] yes=11,no=12,missing=11
			11:leaf=-0.0228039213
			12:leaf=0.00201763376
booster[134]:
0:[f6<0.843505859] yes=1,no=2,missing=1
	1:[f7<369.125] yes=3,no=4,missing=3
		3:[f4<80.6875] yes=7,no=8,missing=7
			7:leaf=-0.0482476726
			8:leaf=0.0637236014
		4:[f9<1.10131836] yes=9,no=10,missing=9
			9:leaf=-0.00432608416
			10:leaf=-0.0336853676
	2:[f3<735.592041] yes=5,no=6,missing=5
		5:[f14<2.92687988] yes=11,no=12,missing=11
			11:leaf=0.041977942
			12:leaf=-0.0466341041
		6:[f14<3.19268799] yes=13,no=14,missing=13
			13:leaf=-0.000846977462
			14:leaf=0.0121099083
booster[135]:
0:[f7<323.125] yes=1,no=2,missing=1
	1:[f2<-0.981346607] yes=3,no=4,missing=3
		3:[f2<-1.83756745] yes=7,no=8,missing=7
			7:leaf=0.016577838
			8:leaf=0.139593139
		4:[f18<0.963297844] yes=9,no=10,missing=9
			9:leaf=0.0928951129
			10:leaf=-0.0689081773
	2:[f10<304.625] yes=5,no=6,missing=5
		5:[f10<300.875] yes=11,no=12,missing=11
			11:leaf=0.0556885116
			12:leaf=-0.0656073615
		6:[f16<0.149169818] yes=13,no=14,missing=13
			13:leaf=-0.0950112566
			14:leaf=0.00043008686
booster[136]:
0:[f12<2.6027832] yes=1,no=2,missing=1
	1:[f12<2.56225586] yes=3,no=4,missing=3
		3:[f6<0.923583984] yes=7,no=8,missing=7
			7:leaf=-0.00200378313
			8:leaf=0.00968938228
		4:[f15<0.477907538] yes=9,no=10,missing=9
			9:leaf=0.143126294
			10:leaf=0.0196130704
	2:[f9<-0.338195801] yes=5,no=6,missing=5
		5:[f13<0.0783691406] yes=11,no=12,missing=11
			11:leaf=0.111105971
			12:leaf=-0.041180335
		6:[f9<-0.312744141] yes=13,no=14,missing=13
			13:leaf=0.0995505899
			14:leaf=-0.00604196405
booster[137]:
0:[f3<3941.37451] yes=1,no=2,missing=1
	1:[f10<916.25] yes=3,no=4,missing=3
		3:[f7<715.75] yes=7,no=8,missing=7
			7:leaf=0.00172604795
			8:leaf=-0.0119936001
		4:[f14<3.21887207] yes=9,no=10,missing=9
			9:leaf=0.00999708194
			10:leaf=0.0913956985
	2:[f15<0.465632498] yes=5,no=6,missing=5
		5:leaf=-0.113689102
		6:leaf=-0.0037047402
booster[138]:
0:[f2<-2.83264589] yes=1,no=2,missing=1
	1:[f7<614.5] yes=3,no=4,missing=3
		3:[f11<-0.256439209] yes=7,no=8,missing=7
			7:leaf=-0.0718848482
			8:leaf=-0.00877803192
		4:[f14<3.13066101] yes=9,no=10,missing=9
			9:leaf=-0.109415092
			10:leaf=0.0330683254
	2:[f2<-2.81823683] yes=5,no=6,missing=5
		5:leaf=0.151622847
		6:[f18<0.492788613] yes=11,no=12,missing=11
			11:leaf=-0.0506337695
			12:leaf=0.00104364858
booster[139]:
0:[f8<2.13208008] yes=1,no=2,missing=1
	1:[f5<0.809814453] yes=3,no=4,missing=3
		3:[f15<0.329607397] yes=7,no=8,missing=7
			7:leaf=0.0845162347
			8:leaf=-0.0279865619
		4:[f1<-4.43897629] yes=9,no=10,missing=9
			9:leaf=-0.025824368
			10:leaf=0.00165562739
	2:[f9<-1.53405762] yes=5,no=6,missing=5
		5:leaf=0.018070003
		6:leaf=-0.106544293
booster[140]:
0:[f13<0.385162354] yes=1,no=2,missing=1
	1:[f17<2.60951042] yes=3,no=4,missing=3
		3:[f15<0.519707322] yes=7,no=8,missing=7
			7:leaf=0.111717038
			8:leaf=-0.0320381001
		4:[f8<-1.50817871] yes=9,no=10,missing=9
			9:leaf=-0.0753798708
			10:leaf=0.00542102614
	2:[f16<0.44246757] yes=5,no=6,missing=5
		5:[f16<0.44208473] yes=11,no=12,missing=11
			11:leaf=2.90584921e-05
			12:leaf=0.141031504
		6:[f15<0.486617386] yes=13,no=14,missing=13
			13:leaf=-0.000248547585
			14:leaf=-0.0392909832
booster[141]:
0:[f1<3.33645415] yes=1,no=2,missing=1
	1:[f13<0.687591553] yes=3,no=4,missing=3
		3:[f13<0.595703125] yes=7,no=8,missing=7
			7:leaf=0.00269364263
			8:leaf=0.037599843
		4:[f16<0.43779403] yes=9,no=10,missing=9
			9:leaf=-0.000702960417
			10:leaf=-0.0402312987
	2:[f15<0.492739022] yes=5,no=6,missing=5
		5:[f3<1565.2135] yes=11,no=12,missing=11
			11:leaf=0.0110524381
			12:leaf=-0.045383621
		6:[f7<508.125] yes=13,no=14,missing=13
			13:leaf=-0.0866441056
			14:leaf=-0.00596268009
booster[142]:
0:[f11<0.189971924] yes=1,no=2,missing=1
	1:[f11<-0.244949341] yes=3,no=4,missing=3
		3:[f2<-2.8362031] yes=7,no=8,missing=7
			7:leaf=-0.0404835977
			8:leaf=0.00382898794
		4:[f15<0.440242767] yes=9,no=10,missing=9
			9:leaf=-0.057749588
			10:leaf=-0.00718172966
	2:[f9<1.51037598] yes=5,no=6,missing=5
		5:[f5<0.822998047] yes=11,no=12,missing=11
			11:leaf=-0.0260511879
			12:leaf=0.0144272866
		6:[f8<1.85949707] yes=13,no=14,missing=13
			13:leaf=-0.0181634203
			14:leaf=0.097435616
booster[143]:
0:[f8<-2.10766602] yes=1,no=2,missing=1
	1:[f8<-2.1574707] yes=3,no=4,missing=3
		3:[f0<63.6973534] yes=7,no=8,missing=7
			7:leaf=-0.0525748394
			8:leaf=0.100093618
		4:leaf=0.183492333
	2:[f8<-1.96276855] yes=5,no=6,missing=5
		5:[f14<3.17492676] yes=9,no=10,missing=9
			9:leaf=-0.122610465
			10:leaf=0.00192726497
		6:[f5<0.934814453] yes=11,no=12,missing=11
			11:leaf=-0.00167975691
			12:leaf=0.00942854397
booster[144]:
0:[f16<0.455943823] yes=1,no=2,missing=1
	1:[f16<0.453789145] yes=3,no=4,missing=3
		3:[f16<0.45347929] yes=7,no=8,missing=7
			7:leaf=0.00120181299
			8:leaf=-0.11298573
		4:[f10<376.625] yes=9,no=10,missing=9
			9:leaf=-0.0247444417
			10:leaf=0.0735144541
	2:[f3<1147.18579] yes=5,no=6,missing=5
		5:[f15<0.488580883] yes=11,no=12,missing=11
			11:leaf=0.00918633398
			12:leaf=-0.040347036
		6:[f7<730.25] yes=13,no=14,missing=13
			13:leaf=0.042039305
			14:leaf=-0.00758108357
booster[145]:
0:[f8<-0.117103577] yes=1,no=2,missing=1
	1:[f8<-0.14213562] yes=3,no=4,missing=3
		3:[f5<0.906005859] yes=7,no=8,missing=7
			7:leaf=-0.00496404385
			8:leaf=0.0153930103
		4:[f6<0.861572266] yes=9,no=10,missing=10
			9:leaf=-0.0317473263
			10:leaf=0.101417422
	2:[f18<0.828537881] yes=5,no=6,missing=5
		5:[f0<84.0365601] yes=11,no=12,missing=11
			11:leaf=-0.0950159952
			12:leaf=-0.012792035
		6:[f16<0.455943823] yes=13,no=14,missing=13
			13:leaf=0.0103894742
			14:leaf=-0.0141234566
booster[146]:
0:[f13<0.385162354] yes=1,no=2,missing=1
	1:[f17<2.60951042] yes=3,no=4,missing=3
		3:[f15<0.519707322] yes=7,no=8,missing=7
			7:leaf=0.0986582264
			8:leaf=-0.029059669
		4:[f10<315.875] yes=9,no=10,missing=9
			9:leaf=-0.0508925095
			10:leaf=0.00662019616
	2:[f13<0.40435791] yes=5,no=6,missing=5
		5:[f14<3.108078] yes=11,no=12,missing=11
			11:leaf=0.0304759741
			12:leaf=-0.0931225494
		6:[f6<0.983642578] yes=13,no=14,missing=14
			13:leaf=-0.00209825858
			14:leaf=0.074300006
booster[147]:
0:[f7<323.125] yes=1,no=2,missing=1
	1:[f3<992.745728] yes=3,no=4,missing=3
		3:[f5<0.847167969] yes=7,no=8,missing=7
			7:leaf=-0.0332995765
			8:leaf=0.106187284
		4:leaf=-0.0498436056
	2:[f7<408.625] yes=5,no=6,missing=5
		5:[f18<0.822756052] yes=9,no=10,missing=9
			9:leaf=-0.0528000183
			10:leaf=-0.0031328164
		6:[f12<3.11743164] yes=11,no=12,missing=11
			11:leaf=0.00222173589
			12:leaf=-0.0850903541
booster[148]:
0:[f4<159.3125] yes=1,no=2,missing=1
	1:[f0<66.5579376] yes=3,no=4,missing=3
		3:[f15<0.508731365] yes=7,no=8,missing=7
			7:leaf=-0.00207132823
			8:leaf=-0.0709989667
		4:[f0<69.8778534] yes=9,no=10,missing=9
			9:leaf=0.056025397
			10:leaf=0.00320144533
	2:[f16<0.431208193] yes=5,no=6,missing=5
		5:[f4<272.875] yes=11,no=12,missing=11
			11:leaf=-0.0399374776
			12:leaf=0.0362935327
		6:[f6<0.891113281] yes=13,no=14,missing=14
			13:leaf=-0.0374041684
			14:leaf=0.0548221953
booster[149]:
0:[f13<0.00532531738] yes=1,no=2,missing=1
	1:[f15<0.572298527] yes=3,no=4,missing=3
		3:[f1<-2.876791] yes=7,no=8,missing=7
			7:leaf=-0.0340265445
			8:leaf=0.132515684
		4:leaf=-0.063379474
	2:[f13<0.012878418] yes=5,no=6,missing=5
		5:[f14<3.23027039] yes=9,no=10,missing=9
			9:leaf=-0.0935510993
			10:leaf=0.0503820851
		6:[f6<0.801025391] yes=11,no=12,missing=11
			11:leaf=-0.0768526495
			12:leaf=0.000405852043
booster[150]:
0:[f3<3941.37451] yes=1,no=2,missing=1
	1:[f7<1457] yes=3,no=4,missing=3
		3:[f10<1245.5] yes=7,no=8,missing=7
			7:leaf=3.64466323e-05
			8:leaf=-0.0808170512
		4:[f17<16.875782] yes=9,no=10,missing=9
			9:leaf=0.0866926834
			10:leaf=-0.0356880687
	2:[f15<0.465632498] yes=5,no=6,missing=5
		5:leaf=-0.108852223
		6:leaf=-0.00345123722
booster[151]:
0:[f9<3.12304688] yes=1,no=2,missing=1
	1:[f9<3.08740234] yes=3,no=4,missing=3
		3:[f9<2.86694336] yes=7,no=8,missing=7
			7:leaf=0.000677122909
			8:leaf=-0.0232665781
		4:[f13<1.49636841] yes=9,no=10,missing=9
			9:leaf=0.0852052495
			10:leaf=-0.0694784746
	2:[f15<0.456859827] yes=5,no=6,missing=5
		5:leaf=-0.111703709
		6:[f9<3.13452148] yes=11,no=12,missing=11
			11:leaf=-0.0543073528
			12:leaf=0.0359837823
booster[152]:
0:[f18<0.999751329] yes=1,no=2,missing=1
	1:[f18<0.998903513] yes=3,no=4,missing=3
		3:[f1<4.5112772] yes=5,no=6,missing=5
			5:leaf=0.00059011695
			6:leaf=-0.0270163119
		4:[f11<0.533813477] yes=7,no=8,missing=7
			7:leaf=-0.0178955514
			8:leaf=0.160617501
	2:leaf=-0.0899052173
booster[153]:
0:[f12<2.71508789] yes=1,no=2,missing=1
	1:[f12<2.71166992] yes=3,no=4,missing=3
		3:[f6<0.923583984] yes=7,no=8,missing=7
			7:leaf=-0.00163839257
			8:leaf=0.00890595745
		4:leaf=0.109637909
	2:[f12<2.73583984] yes=5,no=6,missing=5
		5:[f13<1.83278656] yes=9,no=10,missing=9
			9:leaf=-0.1361247
			10:leaf=0.0248274636
		6:[f13<0.378023148] yes=11,no=12,missing=11
			11:leaf=0.0247270502
			12:leaf=-0.0159363691
booster[154]:
0:[f0<602.671631] yes=1,no=2,missing=1
	1:[f14<2.17605591] yes=3,no=4,missing=3
		3:[f15<0.419529617] yes=7,no=8,missing=7
			7:leaf=-0.113783598
			8:leaf=-0.00857250951
		4:[f18<0.49466598] yes=9,no=10,missing=9
			9:leaf=-0.0570707396
			10:leaf=0.000416246621
	2:[f14<3.08300781] yes=5,no=6,missing=5
		5:[f12<1.22509766] yes=11,no=12,missing=11
			11:leaf=0.0191008821
			12:leaf=0.18210353
		6:[f5<0.908935547] yes=13,no=14,missing=13
			13:leaf=-0.0726433843
			14:leaf=0.0241642483
booster[155]:
0:[f4<23.4375] yes=1,no=2,missing=1
	1:[f4<20.6015625] yes=3,no=4,missing=3
		3:[f7<544.25] yes=7,no=8,missing=7
			7:leaf=-0.0063390187
			8:leaf=0.0845849141
		4:[f11<0.677124023] yes=9,no=10,missing=9
			9:leaf=-0.0932648107
			10:leaf=-0.000769930193
	2:[f17<12.1709003] yes=5,no=6,missing=5
		5:[f4<60.671875] yes=11,no=12,missing=11
			11:leaf=-0.0411483608
			12:leaf=0.000603655004
		6:[f16<0.382217169] yes=13,no=14,missing=13
			13:leaf=-0.0325002708
			14:leaf=0.0345981196
booster[156]:
0:[f11<0.189971924] yes=1,no=2,missing=1
	1:[f11<-0.244949341] yes=3,no=4,missing=3
		3:[f11<-0.304351807] yes=7,no=8,missing=7
			7:leaf=-0.00101928541
			8:leaf=0.0401162356
		4:[f15<0.438604116] yes=9,no=10,missing=9
			9:leaf=-0.052726157
			10:leaf=-0.0065875384
	2:[f9<1.51037598] yes=5,no=6,missing=5
		5:[f12<2.81884766] yes=11,no=12,missing=11
			11:leaf=0.0135673005
			12:leaf=-0.024962604
		6:[f13<0.0463867188] yes=13,no=14,missing=13
			13:leaf=0.0861038491
			14:leaf=-0.0163293611
booster[157]:
0:[f8<-2.10766602] yes=1,no=2,missing=1
	1:[f8<-2.15161133] yes=3,no=4,missing=3
		3:[f17<3.8016839] yes=7,no=8,missing=7
			7:leaf=0.0537608936
			8:leaf=-0.0891069397
		4:leaf=0.177133098
	2:[f8<-1.96276855] yes=5,no=6,missing=5
		5:[f8<-2.05004883] yes=9,no=10,missing=9
			9:leaf=0.00902752299
			10:leaf=-0.112906352
		6:[f15<0.173632592] yes=11,no=12,missing=11
			11:leaf=0.108571351
			12:leaf=-7.40553223e-05
booster[158]:
0:[f10<300.875] yes=1,no=2,missing=1
	1:[f0<100.011536] yes=3,no=4,missing=3
		3:[f0<58.3368988] yes=7,no=8,missing=7
			7:leaf=0.0694105849
			8:leaf=-0.0898999497
		4:[f9<-1.13195801] yes=9,no=10,missing=9
			9:leaf=0.12520729
			10:leaf=0.0335511975
	2:[f10<303.375] yes=5,no=6,missing=5
		5:[f0<184.889526] yes=11,no=12,missing=11
			11:leaf=-0.0826166719
			12:leaf=0.0570307039
		6:[f16<0.149169818] yes=13,no=14,missing=13
			13:leaf=-0.0903166682
			14:leaf=0.000390634494
booster[159]:
0:[f16<0.455943823] yes=1,no=2,missing=1
	1:[f13<0.785934448] yes=3,no=4,missing=3
		3:[f18<0.818302274] yes=7,no=8,missing=7
			7:leaf=-0.00384832104
			8:leaf=0.0216968581
		4:[f16<0.430710703] yes=9,no=10,missing=9
			9:leaf=-0.00105004094
			10:leaf=-0.0398335829
	2:[f3<1147.18579] yes=5,no=6,missing=5
		5:[f15<0.488580883] yes=11,no=12,missing=11
			11:leaf=0.00850133225
			12:leaf=-0.0363828428
		6:[f7<730.25] yes=13,no=14,missing=13
			13:leaf=0.0375095308
			14:leaf=-0.00812518224
booster[160]:
0:[f4<159.3125] yes=1,no=2,missing=1
	1:[f4<117.96875] yes=3,no=4,missing=3
		3:[f18<0.979281783] yes=7,no=8,missing=7
			7:leaf=-0.00632549776
			8:leaf=0.0225367993
		4:[f18<0.967741847] yes=9,no=10,missing=9
			9:leaf=0.00979853421
			10:leaf=-0.0183355696
	2:[f17<3.18952894] yes=5,no=6,missing=5
		5:[f0<119.324402] yes=11,no=12,missing=11
			11:leaf=0.03936572
			12:leaf=-0.0313558243
		6:[f5<0.861083984] yes=13,no=14,missing=13
			13:leaf=0.00722254021
			14:leaf=-0.0581067093
booster[161]:
0:[f14<3.10354614] yes=1,no=2,missing=1
	1:[f0<17.3351078] yes=3,no=4,missing=3
		3:leaf=-0.128570706
		4:[f14<3.09762573] yes=7,no=8,missing=7
			7:leaf=0.00295715663
			8:leaf=0.0410445109
	2:[f14<3.11285019] yes=5,no=6,missing=5
		5:[f14<3.11154175] yes=9,no=10,missing=9
			9:leaf=-0.0271402933
			10:leaf=-0.113743953
		6:[f5<0.806396484] yes=11,no=12,missing=11
			11:leaf=-0.0480980761
			12:leaf=0.000161764314
booster[162]:
0:[f8<2.22241211] yes=1,no=2,missing=1
	1:[f7<323.125] yes=3,no=4,missing=3
		3:[f5<0.847167969] yes=7,no=8,missing=7
			7:leaf=-0.04777335
			8:leaf=0.0755233616
		4:[f1<-5.35350513] yes=9,no=10,missing=9
			9:leaf=-0.0565571785
			10:leaf=0.000147598694
	2:[f9<-0.933105469] yes=5,no=6,missing=5
		5:leaf=-0.0158359166
		6:leaf=-0.0979328379
booster[163]:
0:[f13<0.00592041016] yes=1,no=2,missing=1
	1:[f9<1.71362305] yes=3,no=4,missing=3
		3:[f14<3.10449219] yes=7,no=8,missing=7
			7:leaf=0.0068759867
			8:leaf=0.136502519
		4:leaf=-0.0848324597
	2:[f13<0.012878418] yes=5,no=6,missing=5
		5:[f9<-1.62561035] yes=9,no=10,missing=9
			9:leaf=-0.163230717
			10:leaf=-0.0344578326
		6:[f6<0.801025391] yes=11,no=12,missing=11
			11:leaf=-0.0718097091
			12:leaf=0.00034396298
booster[164]:
0:[f0<602.671631] yes=1,no=2,missing=1
	1:[f0<316.785858] yes=3,no=4,missing=3
		3:[f0<288.82135] yes=7,no=8,missing=7
			7:leaf=-0.000228280202
			8:leaf=0.0455516167
		4:[f15<0.520027876] yes=9,no=10,missing=9
			9:leaf=-0.044445347
			10:leaf=0.00197587139
	2:[f12<0.902526855] yes=5,no=6,missing=5
		5:[f5<0.908935547] yes=11,no=12,missing=11
			11:leaf=-0.0546122305
			12:leaf=0.0435473062
		6:[f14<3.11346436] yes=13,no=14,missing=13
			13:leaf=0.153922543
			14:leaf=-0.0140729416
booster[165]:
0:[f3<3941.37451] yes=1,no=2,missing=1
	1:[f7<1457] yes=3,no=4,missing=3
		3:[f7<1377.5] yes=7,no=8,missing=7
			7:leaf=4.6003126e-05
			8:leaf=-0.0719337985
		4:[f17<16.875782] yes=9,no=10,missing=9
			9:leaf=0.0822878703
			10:leaf=-0.0333526395
	2:[f15<0.456707388] yes=5,no=6,missing=5
		5:leaf=-0.104919411
		6:leaf=-0.00424452079
booster[166]:
0:[f8<-0.116104126] yes=1,no=2,missing=1
	1:[f12<-3.05737305] yes=3,no=4,missing=3
		3:[f9<-0.0976333618] yes=7,no=8,missing=7
			7:leaf=0.0699284002
			8:leaf=-0.0963717178
		4:[f17<33.750145] yes=9,no=10,missing=9
			9:leaf=0.00438122405
			10:leaf=0.142914638
	2:[f18<0.82819283] yes=5,no=6,missing=5
		5:[f0<84.0365601] yes=11,no=12,missing=11
			11:leaf=-0.09687341
			12:leaf=-0.0111320885
		6:[f16<0.454765022] yes=13,no=14,missing=13
			13:leaf=0.00934066065
			14:leaf=-0.0127643514
booster[167]:
0:[f13<0.385162354] yes=1,no=2,missing=1
	1:[f15<0.51195246] yes=3,no=4,missing=3
		3:[f0<41.2519035] yes=7,no=8,missing=7
			7:leaf=-0.00479912711
			8:leaf=0.0366325602
		4:[f0<78.6650467] yes=9,no=10,missing=9
			9:leaf=-0.0630134344
			10:leaf=0.00349025102
	2:[f16<0.44246757] yes=5,no=6,missing=5
		5:[f16<0.441954494] yes=11,no=12,missing=11
			11:leaf=7.11233151e-05
			12:leaf=0.115689471
		6:[f0<294.891632] yes=13,no=14,missing=13
			13:leaf=-0.0217528697
			14:leaf=0.0425031483
booster[168]:
0:[f11<-0.942321777] yes=1,no=2,missing=1
	1:[f6<0.947509766] yes=3,no=4,missing=4
		3:[f9<-2.09570312] yes=7,no=8,missing=7
			7:leaf=-0.0507694893
			8:leaf=-0.00849965774
		4:[f17<2.81242704] yes=9,no=10,missing=9
			9:leaf=-0.0880474076
			10:leaf=0.0521310084
	2:[f11<-0.917236328] yes=5,no=6,missing=5
		5:[f14<3.14416504] yes=11,no=12,missing=11
			11:leaf=-0.0167945474
			12:leaf=0.136386797
		6:[f16<0.178523794] yes=13,no=14,missing=13
			13:leaf=-0.0769252554
			14:leaf=0.00122066436
booster[169]:
0:[f9<3.12304688] yes=1,no=2,missing=1
	1:[f9<3.08862305] yes=3,no=4,missing=3
		3:[f9<2.86694336] yes=7,no=8,missing=7
			7:leaf=0.000586451089
			8:leaf=-0.0200040452
		4:[f5<0.874267578] yes=9,no=10,missing=9
			9:leaf=-0.0394354127
			10:leaf=0.0969740003
	2:[f15<0.456859827] yes=5,no=6,missing=5
		5:leaf=-0.107583068
		6:[f8<0.0931396484] yes=11,no=12,missing=11
			11:leaf=0.0350715891
			12:leaf=-0.0507186055
booster[170]:
0:[f4<141.0625] yes=1,no=2,missing=1
	1:[f4<117.96875] yes=3,no=4,missing=3
		3:[f1<-3.28126955] yes=7,no=8,missing=7
			7:leaf=-0.0246977359
			8:leaf=-0.000316831982
		4:[f1<2.84105611] yes=9,no=10,missing=9
			9:leaf=0.0124029284
			10:leaf=-0.0131496312
	2:[f6<0.935302734] yes=5,no=6,missing=6
		5:[f12<-2.96289062] yes=11,no=12,missing=11
			11:leaf=0.0644561201
			12:leaf=-0.0175412688
		6:[f10<355] yes=13,no=14,missing=13
			13:leaf=-0.0754801556
			14:leaf=0.0324496105
booster[171]:
0:[f8<-2.10766602] yes=1,no=2,missing=1
	1:[f8<-2.15161133] yes=3,no=4,missing=3
		3:[f0<63.6973534] yes=7,no=8,missing=7
			7:leaf=-0.0492205955
			8:leaf=0.0915713981
		4:leaf=0.161073998
	2:[f8<-1.96276855] yes=5,no=6,missing=5
		5:[f8<-2.05004883] yes=9,no=10,missing=9
			9:leaf=0.0100236973
			10:leaf=-0.105031542
		6:[f15<0.173632592] yes=11,no=12,missing=11
			11:leaf=0.103580914
			12:leaf=-9.49264067e-05
booster[172]:
0:[f11<0.112281799] yes=1,no=2,missing=1
	1:[f11<-0.119529724] yes=3,no=4,missing=3
		3:[f2<-2.53591156] yes=7,no=8,missing=7
			7:leaf=-0.0276405569
			8:leaf=0.00314067537
		4:[f0<144.448639] yes=9,no=10,missing=9
			9:leaf=-0.0386788808
			10:leaf=0.0160049889
	2:[f9<1.63598633] yes=5,no=6,missing=5
		5:[f2<-2.44643593] yes=11,no=12,missing=11
			11:leaf=0.0379359573
			12:leaf=0.0052216365
		6:[f9<1.98303223] yes=13,no=14,missing=13
			13:leaf=-0.0457927845
			14:leaf=-0.00172754587
booster[173]:
0:[f0<218.742554] yes=1,no=2,missing=1
	1:[f0<213.912064] yes=3,no=4,missing=3
		3:[f0<211.45282] yes=7,no=8,missing=7
			7:leaf=0.00129791093
			8:leaf=-0.111867346
		4:[f12<1.20397949] yes=9,no=10,missing=9
			9:leaf=0.0240491163
			10:leaf=0.150316343
	2:[f5<0.890869141] yes=5,no=6,missing=5
		5:[f12<0.0982589722] yes=11,no=12,missing=11
			11:leaf=-0.0459576845
			12:leaf=0.000333459669
		6:[f14<3.28637695] yes=13,no=14,missing=13
			13:leaf=-0.00498793414
			14:leaf=0.0440245494
booster[174]:
0:[f18<0.999751329] yes=1,no=2,missing=1
	1:[f18<0.998903513] yes=3,no=4,missing=3
		3:[f1<4.5112772] yes=5,no=6,missing=5
			5:leaf=0.000523556781
			6:leaf=-0.0233535785
		4:[f11<0.533813477] yes=7,no=8,missing=7
			7:leaf=-0.017840853
			8:leaf=0.148367509
	2:leaf=-0.0847636834
booster[175]:
0:[f12<2.6027832] yes=1,no=2,missing=1
	1:[f12<2.5715332] yes=3,no=4,missing=3
		3:[f13<1.05825806] yes=7,no=8,missing=7
			7:leaf=0.00375526957
			8:leaf=-0.00543373125
		4:[f1<2.1323657] yes=9,no=10,missing=9
			9:leaf=0.107920401
			10:leaf=0.0077032554
	2:[f6<0.940673828] yes=5,no=6,missing=6
		5:[f14<3.39990234] yes=11,no=12,missing=11
			11:leaf=0.00275289081
			12:leaf=-0.0649360344
		6:[f18<0.964510858] yes=13,no=14,missing=13
			13:leaf=-0.0742752254
			14:leaf=0.0547272861
booster[176]:
0:[f4<23.4375] yes=1,no=2,missing=1
	1:[f4<20.6015625] yes=3,no=4,missing=3
		3:[f14<3.10964584] yes=7,no=8,missing=7
			7:leaf=-0.0145396935
			8:leaf=0.0857422799
		4:[f12<1.80932617] yes=9,no=10,missing=9
			9:leaf=-0.09204074
			10:leaf=0.00406738417
	2:[f17<12.1709003] yes=5,no=6,missing=5
		5:[f4<60.671875] yes=11,no=12,missing=11
			11:leaf=-0.0375713855
			12:leaf=0.000519254419
		6:[f16<0.382217169] yes=13,no=14,missing=13
			13:leaf=-0.0297250133
			14:leaf=0.030736858
booster[177]:
0:[f8<-2.10766602] yes=1,no=2,missing=1
	1:[f8<-2.15161133] yes=3,no=4,missing=3
		3:[f17<3.8016839] yes=7,no=8,missing=7
			7:leaf=0.0530104451
			8:leaf=-0.0857422873
		4:leaf=0.146709397
	2:[f8<-1.96276855] yes=5,no=6,missing=5
		5:[f14<3.17492676] yes=9,no=10,missing=9
			9:leaf=-0.101540379
			10:leaf=0.00951220002
		6:[f15<0.173632592] yes=11,no=12,missing=11
			11:leaf=0.0975110233
			12:leaf=-8.65862166e-05
booster[178]:
0:[f7<707.75] yes=1,no=2,missing=1
	1:[f7<557.25] yes=3,no=4,missing=3
		3:[f16<0.476478726] yes=7,no=8,missing=7
			7:leaf=-0.000270160876
			8:leaf=-0.0392892249
		4:[f14<3.35882568] yes=9,no=10,missing=9
			9:leaf=0.0189451929
			10:leaf=-0.0312558375
	2:[f5<0.912841797] yes=5,no=6,missing=5
		5:[f9<1.52697754] yes=11,no=12,missing=11
			11:leaf=-0.0258305762
			12:leaf=0.00865213014
		6:[f1<-2.98651123] yes=13,no=14,missing=13
			13:leaf=-0.0686810166
			14:leaf=0.024281228
booster[179]:
0:[f7<377.125] yes=1,no=2,missing=1
	1:[f0<95.5108643] yes=3,no=4,missing=3
		3:[f16<0.476973861] yes=7,no=8,missing=7
			7:leaf=0.00304606208
			8:leaf=-0.130093813
		4:[f2<-1.07442141] yes=9,no=10,missing=9
			9:leaf=0.00296200928
			10:leaf=0.0819832906
	2:[f7<400.875] yes=5,no=6,missing=5
		5:[f5<0.876708984] yes=11,no=12,missing=11
			11:leaf=-0.0538863651
			12:leaf=-0.00488956831
		6:[f3<800.450073] yes=13,no=14,missing=13
			13:leaf=-0.0267623719
			14:leaf=0.00206172443
booster[180]:
0:[f8<-0.116104126] yes=1,no=2,missing=1
	1:[f8<-0.14213562] yes=3,no=4,missing=3
		3:[f12<-3.05737305] yes=7,no=8,missing=7
			7:leaf=-0.0693045855
			8:leaf=0.00349873235
		4:[f6<0.861572266] yes=9,no=10,missing=10
			9:leaf=-0.0303095523
			10:leaf=0.0920650586
	2:[f18<0.828537881] yes=5,no=6,missing=5
		5:[f1<-0.854148269] yes=11,no=12,missing=11
			11:leaf=-0.0517531335
			12:leaf=-0.0076177814
		6:[f12<-2.9387207] yes=13,no=14,missing=13
			13:leaf=0.0534516163
			14:leaf=0.000476919435
booster[181]:
0:[f2<-0.550259531] yes=1,no=2,missing=1
	1:[f2<-1.54482555] yes=3,no=4,missing=3
		3:[f2<-1.62437439] yes=7,no=8,missing=7
			7:leaf=6.61292506e-05
			8:leaf=-0.0648284853
		4:[f7<729.5] yes=9,no=10,missing=9
			9:leaf=0.0232440643
			10:leaf=-0.0190935191
	2:[f14<3.21600342] yes=5,no=6,missing=5
		5:[f14<3.10044861] yes=11,no=12,missing=11
			11:leaf=0.0012953988
			12:leaf=-0.0151886642
		6:[f8<-1.5625] yes=13,no=14,missing=13
			13:leaf=0.127492458
			14:leaf=0.00756102894
booster[182]:
0:[f8<-1.06933594] yes=1,no=2,missing=1
	1:[f8<-1.08178711] yes=3,no=4,missing=3
		3:[f13<0.117675781] yes=7,no=8,missing=7
			7:leaf=-0.0747142062
			8:leaf=-0.00148750003
		4:[f0<261.116913] yes=9,no=10,missing=9
			9:leaf=-0.121173419
			10:leaf=-0.00183233118
	2:[f8<-1.02978516] yes=5,no=6,missing=5
		5:[f11<-1.12023926] yes=11,no=12,missing=11
			11:leaf=-0.0621473752
			12:leaf=0.0861147568
		6:[f8<-1.02368164] yes=13,no=14,missing=13
			13:leaf=-0.12676087
			14:leaf=0.000864897331
booster[183]:
0:[f10<300.875] yes=1,no=2,missing=1
	1:[f0<100.011536] yes=3,no=4,missing=3
		3:[f0<58.3368988] yes=7,no=8,missing=7
			7:leaf=0.0644110516
			8:leaf=-0.0841877386
		4:[f14<3.12731934] yes=9,no=10,missing=9
			9:leaf=0.120511092
			10:leaf=0.0313064903
	2:[f10<303.375] yes=5,no=6,missing=5
		5:[f9<-2.46606445] yes=11,no=12,missing=11
			11:leaf=0.0803256258
			12:leaf=-0.0723601431
		6:[f16<0.149169818] yes=13,no=14,missing=13
			13:leaf=-0.0851126313
			14:leaf=0.000331586547
booster[184]:
0:[f7<1091.5] yes=1,no=2,missing=1
	1:[f7<715.75] yes=3,no=4,missing=3
		3:[f7<557.25] yes=7,no=8,missing=7
			7:leaf=-0.0018323675
			8:leaf=0.0111481333
		4:[f6<0.897705078] yes=9,no=10,missing=10
			9:leaf=-0.0284763277
			10:leaf=0.00642401213
	2:[f11<0.408569336] yes=5,no=6,missing=5
		5:[f4<88] yes=11,no=12,missing=11
			11:leaf=-0.0199490786
			12:leaf=0.0480098315
		6:[f9<-1.35144043] yes=13,no=14,missing=13
			13:leaf=0.0479537845
			14:leaf=-0.0496266894
booster[185]:
0:[f0<602.671631] yes=1,no=2,missing=1
	1:[f14<2.67549133] yes=3,no=4,missing=3
		3:[f15<0.523914516] yes=7,no=8,missing=7
			7:leaf=-0.0438840836
			8:leaf=0.0179582275
		4:[f14<2.70257568] yes=9,no=10,missing=9
			9:leaf=0.0577899516
			10:leaf=0.000195997563
	2:[f14<3.08300781] yes=5,no=6,missing=5
		5:[f12<1.22509766] yes=11,no=12,missing=11
			11:leaf=0.0184435304
			12:leaf=0.152957544
		6:[f1<-1.30760503] yes=13,no=14,missing=13
			13:leaf=0.0394487865
			14:leaf=-0.0560363829
booster[186]:
0:[f4<159.3125] yes=1,no=2,missing=1
	1:[f1<3.74606323] yes=3,no=4,missing=3
		3:[f1<3.72156906] yes=7,no=8,missing=7
			7:leaf=0.00193008094
			8:leaf=0.112646557
		4:[f18<0.934587121] yes=9,no=10,missing=9
			9:leaf=-0.0548732243
			10:leaf=0.00325146248
	2:[f5<0.894287109] yes=5,no=6,missing=5
		5:[f6<0.877685547] yes=11,no=12,missing=12
			11:leaf=-0.0328831077
			12:leaf=0.017980786
		6:[f18<0.930536091] yes=13,no=14,missing=13
			13:leaf=-0.0689137951
			14:leaf=0.0291111656
booster[187]:
0:[f13<0.00592041016] yes=1,no=2,missing=1
	1:[f9<1.71362305] yes=3,no=4,missing=3
		3:[f10<318.625] yes=7,no=8,missing=7
			7:leaf=-0.0286553856
			8:leaf=0.112182178
		4:leaf=-0.0786685646
	2:[f13<0.012878418] yes=5,no=6,missing=5
		5:[f9<-1.62561035] yes=9,no=10,missing=9
			9:leaf=-0.155120879
			10:leaf=-0.0299485177
		6:[f6<0.801025391] yes=11,no=12,missing=11
			11:leaf=-0.0677720234
			12:leaf=0.000333809439
booster[188]:
0:[f3<3941.37451] yes=1,no=2,missing=1
	1:[f10<916.25] yes=3,no=4,missing=3
		3:[f10<897.5] yes=7,no=8,missing=7
			7:leaf=-0.000259896682
			8:leaf=-0.0717447549
		4:[f7<999.5] yes=9,no=10,missing=9
			9:leaf=0.089947544
			10:leaf=0.00690971268
	2:[f15<0.449846536] yes=5,no=6,missing=5
		5:leaf=-0.099668555
		6:leaf=-0.00690762093
booster[189]:
0:[f9<3.12304688] yes=1,no=2,missing=1
	1:[f9<3.08740234] yes=3,no=4,missing=3
		3:[f9<3.00219727] yes=7,no=8,missing=7
			7:leaf=0.000288845127
			8:leaf=-0.0274415351
		4:[f13<1.49636841] yes=9,no=10,missing=9
			9:leaf=0.0763323456
			10:leaf=-0.0711993501
	2:[f15<0.456859827] yes=5,no=6,missing=5
		5:leaf=-0.104060166
		6:[f9<3.13452148] yes=11,no=12,missing=11
			11:leaf=-0.0492779873
			12:leaf=0.0336110592
booster[190]:
0:[f18<0.999751329] yes=1,no=2,missing=1
	1:[f7<323.125] yes=3,no=4,missing=3
		3:[f2<-0.981346607] yes=5,no=6,missing=5
			5:leaf=0.0972692743
			6:leaf=-0.0125297131
		4:[f3<720.347168] yes=7,no=8,missing=7
			7:leaf=-0.0243405309
			8:leaf=0.000403294107
	2:leaf=-0.0805762038
booster[191]:
0:[f13<0.385162354] yes=1,no=2,missing=1
	1:[f15<0.491822451] yes=3,no=4,missing=3
		3:[f2<-1.32845366] yes=7,no=8,missing=7
			7:leaf=-0.0206437409
			8:leaf=0.0536609069
		4:[f1<3.34258175] yes=9,no=10,missing=9
			9:leaf=0.00442514196
			10:leaf=-0.047726009
	2:[f16<0.44246757] yes=5,no=6,missing=5
		5:[f16<0.44208473] yes=11,no=12,missing=11
			11:leaf=0.000237994522
			12:leaf=0.121765994
		6:[f15<0.486617386] yes=13,no=14,missing=13
			13:leaf=-0.000327406044
			14:leaf=-0.036440108
booster[192]:
0:[f11<0.189971924] yes=1,no=2,missing=1
	1:[f3<735.355774] yes=3,no=4,missing=3
		3:[f11<-0.120445251] yes=7,no=8,missing=7
			7:leaf=-0.00748436013
			8:leaf=-0.106063068
		4:[f3<752.916626] yes=9,no=10,missing=9
			9:leaf=0.0606546514
			10:leaf=-0.00309182936
	2:[f11<0.401855469] yes=5,no=6,missing=5
		5:[f5<0.916259766] yes=11,no=12,missing=11
			11:leaf=0.00695474073
			12:leaf=0.0618802197
		6:[f5<0.973388672] yes=13,no=14,missing=13
			13:leaf=0.000264415838
			14:leaf=-0.0733638033
booster[193]:
0:[f16<0.593961358] yes=1,no=2,missing=1
	1:[f14<1.9886322] yes=3,no=4,missing=3
		3:[f6<0.957763672] yes=5,no=6,missing=6
			5:leaf=-0.0738122985
			6:leaf=0.0540616624
		4:[f0<492.153564] yes=7,no=8,missing=7
			7:leaf=-0.000366810214
			8:leaf=0.0304951668
	2:leaf=0.0811015517
booster[194]:
0:[f8<2.30004883] yes=1,no=2,missing=1
	1:[f8<-1.06933594] yes=3,no=4,missing=3
		3:[f8<-1.1829834] yes=5,no=6,missing=5
			5:leaf=0.00015723973
			6:leaf=-0.04333077
		4:[f8<-1.02978516] yes=7,no=8,missing=7
			7:leaf=0.0552425198
			8:leaf=0.000638871628
	2:leaf=-0.0826027691
booster[195]:
0:[f11<-2.27636719] yes=1,no=2,missing=1
	1:[f18<0.87911284] yes=3,no=4,missing=3
		3:leaf=-0.00022755636
		4:leaf=-0.0973922163
	2:[f10<300.875] yes=5,no=6,missing=5
		5:[f14<3.10174561] yes=7,no=8,missing=7
			7:leaf=0.105943717
			8:leaf=0.00683725625
		6:[f10<303.375] yes=9,no=10,missing=9
			9:leaf=-0.0458468348
			10:leaf=0.000265124429
booster[196]:
0:[f3<3941.37451] yes=1,no=2,missing=1
	1:[f3<3424.82324] yes=3,no=4,missing=3
		3:[f5<0.806396484] yes=7,no=8,missing=7
			7:leaf=-0.0233589094
			8:leaf=0.000429707405
		4:[f11<0.275314331] yes=9,no=10,missing=9
			9:leaf=0.0968682542
			10:leaf=0.0049674483
	2:[f7<1917.5] yes=5,no=6,missing=5
		5:leaf=-0.0959053561
		6:leaf=-0.00676560262
booster[197]:
0:[f3<636.730713] yes=1,no=2,missing=1
	1:leaf=0.0746584088
	2:[f14<2.06900024] yes=3,no=4,missing=3
		3:[f18<0.540475368] yes=5,no=6,missing=5
			5:leaf=0.0494156256
			6:leaf=-0.0629957542
		4:[f3<685.951416] yes=7,no=8,missing=7
			7:leaf=-0.0463862456
			8:leaf=0.000530884834
booster[198]:
0:[f7<348.875] yes=1,no=2,missing=1
	1:[f8<1.11047363] yes=3,no=4,missing=3
		3:[f2<2.6584239] yes=7,no=8,missing=7
			7:leaf=0.0235861391
			8:leaf=0.142656758
		4:[f14<3.04345703] yes=9,no=10,missing=9
			9:leaf=0.0252052303
			10:leaf=-0.0962986872
	2:[f3<725.622559] yes=5,no=6,missing=5
		5:[f0<119.760223] yes=11,no=12,missing=11
			11:leaf=-0.0795142874
			12:leaf=0.0335143283
		6:[f3<726.667847] yes=13,no=14,missing=13
			13:leaf=0.118310206
			14:leaf=-0.000250415644
booster[199]:
0:[f7<378.875] yes=1,no=2,missing=1
	1:[f0<95.5108643] yes=3,no=4,missing=3
		3:[f16<0.476973861] yes=7,no=8,missing=7
			7:leaf=0.00287106261
			8:leaf=-0.124033146
		4:[f2<-1.07442141] yes=9,no=10,missing=9
			9:leaf=0.00282964739
			10:leaf=0.0722839236
	2:[f7<400.875] yes=5,no=6,missing=5
		5:[f17<3.07279491] yes=11,no=12,missing=11
			11:leaf=-0.0658683032
			12:leaf=-0.00848692656
		6:[f17<2.95177388] yes=13,no=14,missing=13
			13:leaf=0.0207284596
			14:leaf=-0.000175357301
booster[200]:
0:[f4<159.3125] yes=1,no=2,missing=1
	1:[f4<117.96875] yes=3,no=4,missing=3
		3:[f10<866.5] yes=7,no=8,missing=7
			7:leaf=-0.00475162547
			8:leaf=0.0300657284
		4:[f16<0.445588499] yes=9,no=10,missing=9
			9:leaf=0.0105018467
			10:leaf=-0.0106524611
	2:[f16<0.431208193] yes=5,no=6,missing=5
		5:[f4<272.875] yes=11,no=12,missing=11
			11:leaf=-0.035078533
			12:leaf=0.030969236
		6:[f6<0.891113281] yes=13,no=14,missing=14
			13:leaf=-0.0346780345
			14:leaf=0.043949347
booster[201]:
0:[f2<-0.550259531] yes=1,no=2,missing=1
	1:[f2<-1.54482555] yes=3,no=4,missing=3
		3:[f2<-1.62437439] yes=7,no=8,missing=7
			7:leaf=0.000406882085
			8:leaf=-0.0592427924
		4:[f15<0.511522532] yes=9,no=10,missing=9
			9:leaf=0.0236039292
			10:leaf=-0.00973576866
	2:[f12<-3.05761719] yes=5,no=6,missing=5
		5:[f17<3.07508969] yes=11,no=12,missing=11
			11:leaf=0.103910781
			12:leaf=-0.07304921
		6:[f12<-3.0300293] yes=13,no=14,missing=13
			13:leaf=0.0946521983
			14:leaf=-0.00249977666
booster[202]:
0:[f13<0.687591553] yes=1,no=2,missing=1
	1:[f15<0.485261053] yes=3,no=4,missing=3
		3:[f15<0.478449762] yes=7,no=8,missing=7
			7:leaf=0.00576679641
			8:leaf=0.0526326075
		4:[f16<0.45611167] yes=9,no=10,missing=9
			9:leaf=0.00752600888
			10:leaf=-0.014715529
	2:[f3<988.705811] yes=5,no=6,missing=5
		5:[f5<0.833251953] yes=11,no=12,missing=11
			11:leaf=-0.0607611723
			12:leaf=-0.00909095909
		6:[f14<3.01008606] yes=13,no=14,missing=13
			13:leaf=-0.01471062
			14:leaf=0.00593006006
booster[203]:
0:[f4<142.9375] yes=1,no=2,missing=1
	1:[f8<-1.06933594] yes=3,no=4,missing=3
		3:[f8<-1.1640625] yes=7,no=8,missing=7
			7:leaf=-0.00410515675
			8:leaf=-0.0506125391
		4:[f5<0.834716797] yes=9,no=10,missing=9
			9:leaf=-0.011624841
			10:leaf=0.0051657944
	2:[f12<-1.41455078] yes=5,no=6,missing=5
		5:[f17<3.20877004] yes=11,no=12,missing=11
			11:leaf=0.0453435294
			12:leaf=-0.0156963654
		6:[f0<43.5447235] yes=13,no=14,missing=13
			13:leaf=-0.0545244627
			14:leaf=-0.0107238935
booster[204]:
0:[f13<0.385162354] yes=1,no=2,missing=1
	1:[f15<0.51195246] yes=3,no=4,missing=3
		3:[f9<-2.03149414] yes=7,no=8,missing=7
			7:leaf=-0.0248361956
			8:leaf=0.0275035836
		4:[f0<78.6650467] yes=9,no=10,missing=9
			9:leaf=-0.055729337
			10:leaf=0.00214957236
	2:[f13<0.40435791] yes=5,no=6,missing=5
		5:[f2<-1.78188014] yes=11,no=12,missing=11
			11:leaf=-0.140731335
			12:leaf=-0.0105383154
		6:[f12<-3.11889648] yes=13,no=14,missing=13
			13:leaf=-0.0746784359
			14:leaf=-0.000841833476
booster[205]:
0:[f8<-0.116104126] yes=1,no=2,missing=1
	1:[f5<0.906005859] yes=3,no=4,missing=3
		3:[f14<3.10275269] yes=7,no=8,missing=7
			7:leaf=0.0112636881
			8:leaf=-0.0116087077
		4:[f1<-2.56586504] yes=9,no=10,missing=9
			9:leaf=-0.00371745764
			10:leaf=0.0285634231
	2:[f18<0.82819283] yes=5,no=6,missing=5
		5:[f7<991.5] yes=11,no=12,missing=11
			11:leaf=-0.0168308932
			12:leaf=0.0384632796
		6:[f16<0.454765022] yes=13,no=14,missing=13
			13:leaf=0.00835643336
			14:leaf=-0.0116484351
booster[206]:
0:[f9<3.12304688] yes=1,no=2,missing=1
	1:[f9<3.09448242] yes=3,no=4,missing=3
		3:[f14<3.88739014] yes=7,no=8,missing=7
			7:leaf=0.000203834192
			8:leaf=-0.0359202437
		4:[f5<0.874267578] yes=9,no=10,missing=9
			9:leaf=-0.0346123241
			10:leaf=0.0919456333
	2:[f9<3.13696289] yes=5,no=6,missing=5
		5:[f2<2.03153276] yes=11,no=12,missing=11
			11:leaf=-0.102612153
			12:leaf=-0.013728492
		6:leaf=0.0167055875
booster[207]:
0:[f14<3.19439697] yes=1,no=2,missing=1
	1:[f14<3.10354614] yes=3,no=4,missing=3
		3:[f0<17.3351078] yes=7,no=8,missing=7
			7:leaf=-0.12280748
			8:leaf=0.00377024151
		4:[f4<106.21875] yes=9,no=10,missing=9
			9:leaf=-0.0272983219
			10:leaf=-0.00135251973
	2:[f6<0.860107422] yes=5,no=6,missing=6
		5:[f4<198.8125] yes=11,no=12,missing=11
			11:leaf=-0.0186563171
			12:leaf=0.091188781
		6:[f4<159.25] yes=13,no=14,missing=13
			13:leaf=0.0163131226
			14:leaf=-0.0266276784
booster[208]:
0:[f13<0.687591553] yes=1,no=2,missing=1
	1:[f15<0.485261053] yes=3,no=4,missing=3
		3:[f7<438.875] yes=7,no=8,missing=7
			7:leaf=0.0441900752
			8:leaf=-3.47627902e-05
		4:[f13<0.678369522] yes=9,no=10,missing=9
			9:leaf=-0.0013601908
			10:leaf=0.101588599
	2:[f3<988.705811] yes=5,no=6,missing=5
		5:[f4<142] yes=11,no=12,missing=11
			11:leaf=-0.00962787028
			12:leaf=-0.0748839676
		6:[f18<0.98157537] yes=13,no=14,missing=13
			13:leaf=0.00366934552
			14:leaf=-0.0268556457
booster[209]:
0:[f12<2.6027832] yes=1,no=2,missing=1
	1:[f12<2.5715332] yes=3,no=4,missing=3
		3:[f15<0.371101677] yes=7,no=8,missing=7
			7:leaf=-0.0119862938
			8:leaf=0.00195382815
		4:[f8<0.885925293] yes=9,no=10,missing=9
			9:leaf=0.0863094777
			10:leaf=-0.0205004308
	2:[f9<-0.174530029] yes=5,no=6,missing=5
		5:[f16<0.364653528] yes=11,no=12,missing=11
			11:leaf=0.0192895401
			12:leaf=-0.0342028551
		6:[f11<1.31640625] yes=13,no=14,missing=13
			13:leaf=0.00333519722
			14:leaf=0.0921524093
booster[210]:
0:[f0<218.742554] yes=1,no=2,missing=1
	1:[f0<213.912064] yes=3,no=4,missing=3
		3:[f0<211.45282] yes=7,no=8,missing=7
			7:leaf=0.00116428721
			8:leaf=-0.105085053
		4:[f12<1.20397949] yes=9,no=10,missing=9
			9:leaf=0.0219917726
