booster[0]:
0:[f0<265.576965] yes=1,no=2,missing=1
	1:[f13<1.28756714] yes=3,no=4,missing=3
		3:[f3<1391.83887] yes=7,no=8,missing=7
			7:leaf=0.0618832521
			8:leaf=-0.128656372
		4:[f13<1.7306366] yes=9,no=10,missing=9
			9:leaf=-0.0653846189
			10:leaf=-0.145895019
	2:[f0<407.2052] yes=5,no=6,missing=5
		5:[f13<0.917495728] yes=11,no=12,missing=11
			11:leaf=-0.0645476803
			12:leaf=-0.145488024
		6:[f0<537.072754] yes=13,no=14,missing=13
			13:leaf=-0.144592956
			14:leaf=-0.183877692
booster[1]:
0:[f0<243.776703] yes=1,no=2,missing=1
	1:[f13<1.09405518] yes=3,no=4,missing=3
		3:[f3<1400.44922] yes=7,no=8,missing=7
			7:leaf=0.063196741
			8:leaf=-0.117156409
		4:[f13<1.7306366] yes=9,no=10,missing=9
			9:leaf=-0.0434652492
			10:leaf=-0.130775198
	2:[f0<407.2052] yes=5,no=6,missing=5
		5:[f13<0.919491291] yes=11,no=12,missing=11
			11:leaf=-0.0498317629
			12:leaf=-0.127529383
		6:[f16<0.779455662] yes=13,no=14,missing=13
			13:leaf=-0.136968404
			14:leaf=-0.172645733
booster[2]:
0:[f0<218.269135] yes=1,no=2,missing=1
	1:[f13<1.10438538] yes=3,no=4,missing=3
		3:[f3<1351.40698] yes=7,no=8,missing=7
			7:leaf=0.0592030995
			8:leaf=-0.0986410454
		4:[f13<1.65911865] yes=9,no=10,missing=9
			9:leaf=-0.0344862789
			10:leaf=-0.113237798
	2:[f0<407.2052] yes=5,no=6,missing=5
		5:[f13<0.939712524] yes=11,no=12,missing=11
			11:leaf=-0.0375030227
			12:leaf=-0.118778765
		6:[f0<537.072754] yes=13,no=14,missing=13
			13:leaf=-0.118298307
			14:leaf=-0.154539347
booster[3]:
0:[f0<265.576965] yes=1,no=2,missing=1
	1:[f13<1.33926392] yes=3,no=4,missing=3
		3:[f3<1407.34143] yes=7,no=8,missing=7
			7:leaf=0.0451019034
			8:leaf=-0.104004003
		4:[f13<1.97035217] yes=9,no=10,missing=9
			9:leaf=-0.0623590313
			10:leaf=-0.128048927
	2:[f0<407.2052] yes=5,no=6,missing=5
		5:[f3<1338.6123] yes=11,no=12,missing=11
			11:leaf=-0.0570523925
			12:leaf=-0.149664626
		6:[f16<0.779455662] yes=13,no=14,missing=13
			13:leaf=-0.114804484
			14:leaf=-0.149199352
booster[4]:
0:[f0<218.269135] yes=1,no=2,missing=1
	1:[f13<0.892944336] yes=3,no=4,missing=3
		3:[f3<1239.06531] yes=7,no=8,missing=7
			7:leaf=0.0573166609
			8:leaf=-0.0669362247
		4:[f13<1.5333252] yes=9,no=10,missing=9
			9:leaf=-0.0171747878
			10:leaf=-0.0888041407
	2:[f0<367.215942] yes=5,no=6,missing=5
		5:[f13<0.840946198] yes=11,no=12,missing=11
			11:leaf=-0.0224810652
			12:leaf=-0.0954525471
		6:[f16<0.775516152] yes=13,no=14,missing=13
			13:leaf=-0.101706386
			14:leaf=-0.140883058
booster[5]:
0:[f0<265.576965] yes=1,no=2,missing=1
	1:[f13<0.89289856] yes=3,no=4,missing=3
		3:[f3<1411.7395] yes=7,no=8,missing=7
			7:leaf=0.0480115525
			8:leaf=-0.0871139094
		4:[f3<1529.21265] yes=9,no=10,missing=9
			9:leaf=-0.0294315256
			10:leaf=-0.133564577
	2:[f0<537.072754] yes=5,no=6,missing=5
		5:[f10<287.125] yes=11,no=12,missing=11
			11:leaf=-0.10254927
			12:leaf=-0.0466253236
		6:[f12<3.11694336] yes=13,no=14,missing=13
			13:leaf=-0.129218474
			14:leaf=0.000953071925
booster[6]:
0:[f0<211.238815] yes=1,no=2,missing=1
	1:[f13<1.23191833] yes=3,no=4,missing=3
		3:[f3<1471.5636] yes=7,no=8,missing=7
			7:leaf=0.0387851298
			8:leaf=-0.0913951844
		4:[f15<3.56582117] yes=9,no=10,missing=9
			9:leaf=-0.0360020064
			10:leaf=-0.10307771
	2:[f0<407.2052] yes=5,no=6,missing=5
		5:[f3<1226.74146] yes=11,no=12,missing=11
			11:leaf=-0.0297457911
			12:leaf=-0.111509755
		6:[f0<543.720337] yes=13,no=14,missing=13
			13:leaf=-0.0867433399
			14:leaf=-0.122588508
booster[7]:
0:[f0<314.765442] yes=1,no=2,missing=1
	1:[f13<1.09405518] yes=3,no=4,missing=3
		3:[f3<565.262634] yes=7,no=8,missing=7
			7:leaf=-0.0537742376
			8:leaf=0.0381732211
		4:[f13<1.78582764] yes=9,no=10,missing=9
			9:leaf=-0.0285073165
			10:leaf=-0.0936060473
	2:[f16<0.748705089] yes=5,no=6,missing=5
		5:[f13<0.881015778] yes=11,no=12,missing=11
			11:leaf=-0.0326179713
			12:leaf=-0.105940916
		6:[f9<2.94433594] yes=13,no=14,missing=13
			13:leaf=-0.123165861
			14:leaf=-0.0435962714
booster[8]:
0:[f0<190.14595] yes=1,no=2,missing=1
	1:[f3<1273.06396] yes=3,no=4,missing=3
		3:[f13<0.878967285] yes=7,no=8,missing=7
			7:leaf=0.0432079509
			8:leaf=-0.0146899736
		4:[f3<1889.37329] yes=9,no=10,missing=9
			9:leaf=-0.0587414801
			10:leaf=-0.133885905
	2:[f0<407.2052] yes=5,no=6,missing=5
		5:[f3<1227.78564] yes=11,no=12,missing=11
			11:leaf=-0.023437215
			12:leaf=-0.0979530141
		6:[f14<1.32970309] yes=13,no=14,missing=13
			13:leaf=-0.108123243
			14:leaf=-0.0663707107
booster[9]:
0:[f0<211.238815] yes=1,no=2,missing=1
	1:[f3<1250.18164] yes=3,no=4,missing=3
		3:[f7<271.375] yes=7,no=8,missing=7
			7:leaf=-0.0604279041
			8:leaf=0.029554978
		4:[f3<1549.29785] yes=9,no=10,missing=9
			9:leaf=-0.0361481719
			10:leaf=-0.101639867
	2:[f16<0.694884419] yes=5,no=6,missing=5
		5:[f13<0.840946198] yes=11,no=12,missing=11
			11:leaf=-0.00475437241
			12:leaf=-0.0831400678
		6:[f9<2.94433594] yes=13,no=14,missing=13
			13:leaf=-0.107261576
			14:leaf=-0.0196617637
booster[10]:
0:[f13<0.680847168] yes=1,no=2,missing=1
	1:[f3<521.322144] yes=3,no=4,missing=3
		3:[f16<0.480871677] yes=7,no=8,missing=7
			7:leaf=0.0287110563
			8:leaf=-0.0935358331
		4:[f7<625.75] yes=9,no=10,missing=9
			9:leaf=0.046542678
			10:leaf=-0.05368587
	2:[f0<202.929077] yes=5,no=6,missing=5
		5:[f13<1.70271301] yes=11,no=12,missing=11
			11:leaf=-0.00685563264
			12:leaf=-0.0733593181
		6:[f7<669.25] yes=13,no=14,missing=13
			13:leaf=-0.0668234229
			14:leaf=-0.113205396
booster[11]:
0:[f0<314.765442] yes=1,no=2,missing=1
	1:[f13<1.34687042] yes=3,no=4,missing=3
		3:[f3<592.709045] yes=7,no=8,missing=7
			7:leaf=-0.0392030291
			8:leaf=0.0273532029
		4:[f13<2.14491272] yes=9,no=10,missing=9
			9:leaf=-0.0391208492
			10:leaf=-0.101393677
	2:[f16<0.748705089] yes=5,no=6,missing=5
		5:[f13<0.881015778] yes=11,no=12,missing=11
			11:leaf=-0.0194301177
			12:leaf=-0.0861965641
		6:[f9<2.80639648] yes=13,no=14,missing=13
			13:leaf=-0.108655907
			14:leaf=-0.0408871248
booster[12]:
0:[f3<1151.50476] yes=1,no=2,missing=1
	1:[f16<0.602927327] yes=3,no=4,missing=3
		3:[f13<0.612045288] yes=7,no=8,missing=7
			7:leaf=0.0434066728
			8:leaf=-0.00708819786
		4:[f3<574.810486] yes=9,no=10,missing=9
			9:leaf=-0.105031207
			10:leaf=-0.0454812087
	2:[f3<1567.00488] yes=5,no=6,missing=5
		5:[f10<419.5] yes=11,no=12,missing=11
			11:leaf=-0.082763955
			12:leaf=-0.0220896956
		6:[f3<2064.04004] yes=13,no=14,missing=13
			13:leaf=-0.0878137872
			14:leaf=-0.124919511
booster[13]:
0:[f7<666.75] yes=1,no=2,missing=1
	1:[f3<565.01123] yes=3,no=4,missing=3
		3:[f0<142.667603] yes=7,no=8,missing=7
			7:leaf=-0.0321009122
			8:leaf=-0.0994121432
		4:[f13<1.28756714] yes=9,no=10,missing=9
			9:leaf=0.028358141
			10:leaf=-0.0422697254
	2:[f7<781.75] yes=5,no=6,missing=5
		5:[f17<0.369744837] yes=11,no=12,missing=11
			11:leaf=-0.0893933624
			12:leaf=-0.0299620572
		6:[f13<0.866287231] yes=13,no=14,missing=13
			13:leaf=-0.076588355
			14:leaf=-0.118411057
booster[14]:
0:[f3<1143.59473] yes=1,no=2,missing=1
	1:[f10<277.375] yes=3,no=4,missing=3
		3:[f0<142.575104] yes=7,no=8,missing=7
			7:leaf=-0.00587756652
			8:leaf=-0.059814211
		4:[f17<0.477809012] yes=9,no=10,missing=9
			9:leaf=0.034414418
			10:leaf=-0.0654229522
	2:[f3<1567.00488] yes=5,no=6,missing=5
		5:[f10<388.875] yes=11,no=12,missing=11
			11:leaf=-0.0803315267
			12:leaf=-0.0200654399
		6:[f17<0.450479865] yes=13,no=14,missing=13
			13:leaf=-0.0996815935
			14:leaf=-0.0541398227
booster[15]:
0:[f13<0.680847168] yes=1,no=2,missing=1
	1:[f17<0.470597804] yes=3,no=4,missing=3
		3:[f16<0.512510359] yes=7,no=8,missing=7
			7:leaf=0.0609883964
			8:leaf=0.00410626037
		4:[f0<27.1532745] yes=9,no=10,missing=9
			9:leaf=-0.124646306
			10:leaf=-0.0353705697
	2:[f7<614.25] yes=5,no=6,missing=5
		5:[f3<640.376831] yes=11,no=12,missing=11
			11:leaf=-0.0718873069
			12:leaf=-0.00693549169
		6:[f7<769.25] yes=13,no=14,missing=13
			13:leaf=-0.0566387847
			14:leaf=-0.106167965
booster[16]:
0:[f13<0.614692688] yes=1,no=2,missing=1
	1:[f16<0.483790457] yes=3,no=4,missing=3
		3:[f3<1016.1806] yes=7,no=8,missing=7
			7:leaf=0.0948541984
			8:leaf=-0.0520635657
		4:[f17<0.457540154] yes=9,no=10,missing=9
			9:leaf=0.0256162286
			10:leaf=-0.0427292995
	2:[f3<1588.45801] yes=5,no=6,missing=5
		5:[f3<630.584534] yes=11,no=12,missing=11
			11:leaf=-0.0687824413
			12:leaf=-0.00678406982
		6:[f5<0.939389586] yes=13,no=14,missing=13
			13:leaf=-0.0945529491
			14:leaf=0.0720966086
booster[17]:
0:[f17<0.310369313] yes=1,no=2,missing=1
	1:[f13<2.29400635] yes=3,no=4,missing=3
		3:[f7<666.75] yes=7,no=8,missing=7
			7:leaf=-0.0380678177
			8:leaf=-0.0986383185
		4:[f8<2.12182617] yes=9,no=10,missing=9
			9:leaf=-0.10139326
			10:leaf=0.0111640645
	2:[f3<514.930786] yes=5,no=6,missing=5
		5:[f16<0.488464832] yes=11,no=12,missing=11
			11:leaf=-0.018443143
			12:leaf=-0.0869092494
		6:[f7<712.25] yes=13,no=14,missing=13
			13:leaf=0.0148867695
			14:leaf=-0.0628151223
booster[18]:
0:[f16<0.602801561] yes=1,no=2,missing=1
	1:[f13<1.45794678] yes=3,no=4,missing=3
		3:[f3<1152.34839] yes=7,no=8,missing=7
			7:leaf=0.019616235
			8:leaf=-0.033090245
		4:[f13<2.16082764] yes=9,no=10,missing=9
			9:leaf=-0.0347130708
			10:leaf=-0.0868131742
	2:[f16<0.775516152] yes=5,no=6,missing=5
		5:[f13<0.768554688] yes=11,no=12,missing=11
			11:leaf=-0.0279406495
			12:leaf=-0.0782282054
		6:[f9<2.80639648] yes=13,no=14,missing=13
			13:leaf=-0.097482726
			14:leaf=-0.0264645852
booster[19]:
0:[f13<0.546768188] yes=1,no=2,missing=1
	1:[f17<0.470597804] yes=3,no=4,missing=3
		3:[f16<0.563097477] yes=7,no=8,missing=7
			7:leaf=0.0475246385
			8:leaf=-0.024632901
		4:[f0<41.9285583] yes=9,no=10,missing=9
			9:leaf=-0.0957139432
			10:leaf=-0.0167770404
	2:[f3<609.650635] yes=5,no=6,missing=5
		5:[f16<0.471041083] yes=11,no=12,missing=11
			11:leaf=-0.0268471241
			12:leaf=-0.0851671994
		6:[f13<1.45794678] yes=13,no=14,missing=13
			13:leaf=0.00174003502
			14:leaf=-0.0454249643
booster[20]:
0:[f7<761.25] yes=1,no=2,missing=1
	1:[f3<565.01123] yes=3,no=4,missing=3
		3:[f17<0.445927382] yes=7,no=8,missing=7
			7:leaf=-0.0164768677
			8:leaf=-0.0770176277
		4:[f13<1.04114187] yes=9,no=10,missing=9
			9:leaf=0.0219857469
			10:leaf=-0.0215618592
	2:[f17<0.395843446] yes=5,no=6,missing=5
		5:[f6<0.850066304] yes=11,no=12,missing=11
			11:leaf=-0.106426895
			12:leaf=-0.057899911
		6:[f13<0.116703033] yes=13,no=14,missing=13
			13:leaf=0.0365985632
			14:leaf=-0.061895024
booster[21]:
0:[f16<0.635206342] yes=1,no=2,missing=1
	1:[f3<1567.00488] yes=3,no=4,missing=3
		3:[f13<0.546432495] yes=7,no=8,missing=7
			7:leaf=0.0255943127
			8:leaf=-0.00716575468
		4:[f3<2088.54272] yes=9,no=10,missing=9
			9:leaf=-0.0566710122
			10:leaf=-0.105584644
	2:[f16<0.775516152] yes=5,no=6,missing=5
		5:[f5<0.84429431] yes=11,no=12,missing=11
			11:leaf=-0.0577256493
			12:leaf=0.00206611841
		6:[f9<2.80639648] yes=13,no=14,missing=13
			13:leaf=-0.0921313241
			14:leaf=-0.0186376814
booster[22]:
0:[f0<537.072754] yes=1,no=2,missing=1
	1:[f3<1567.00488] yes=3,no=4,missing=3
		3:[f10<266.125] yes=7,no=8,missing=7
			7:leaf=-0.0205747243
			8:leaf=0.0153768379
		4:[f17<0.475713104] yes=9,no=10,missing=9
			9:leaf=-0.0719391927
			10:leaf=0.0138740828
	2:[f18<0.762163162] yes=5,no=6,missing=5
		5:[f12<3.09375] yes=11,no=12,missing=11
			11:leaf=-0.0891163424
			12:leaf=0.0372220613
		6:[f17<0.622239769] yes=13,no=14,missing=13
			13:leaf=-0.00963346194
			14:leaf=-0.0996794552
booster[23]:
0:[f7<512.25] yes=1,no=2,missing=1
	1:[f17<0.477752924] yes=3,no=4,missing=3
		3:[f13<0.376721382] yes=7,no=8,missing=7
			7:leaf=0.0393907502
			8:leaf=-0.00106203032
		4:[f0<124.763382] yes=9,no=10,missing=9
			9:leaf=-0.167025506
			10:leaf=-0.0330703631
	2:[f5<0.78171742] yes=5,no=6,missing=5
		5:[f6<0.856211007] yes=11,no=12,missing=11
			11:leaf=-0.0657850727
			12:leaf=-0.0119658289
		6:[f13<0.612846375] yes=13,no=14,missing=13
			13:leaf=0.0260151159
			14:leaf=-0.0308356527
booster[24]:
0:[f3<514.948608] yes=1,no=2,missing=1
	1:[f16<0.487125874] yes=3,no=4,missing=3
		3:[f4<52.521225] yes=7,no=8,missing=7
			7:leaf=-0.0445704423
			8:leaf=0.0847562179
		4:[f5<0.919443607] yes=9,no=10,missing=9
			9:leaf=-0.0756232515
			10:leaf=0.0309923086
	2:[f13<0.878967285] yes=5,no=6,missing=5
		5:[f16<0.484234214] yes=11,no=12,missing=11
			11:leaf=0.0517158918
			12:leaf=0.00379413413
		6:[f13<2.06119156] yes=13,no=14,missing=13
			13:leaf=-0.0121429842
			14:leaf=-0.0718131661
booster[25]:
0:[f16<0.594247699] yes=1,no=2,missing=1
	1:[f13<1.7306366] yes=3,no=4,missing=3
		3:[f17<0.465688944] yes=7,no=8,missing=7
			7:leaf=0.0129740704
			8:leaf=-0.0309767853
		4:[f13<2.29400635] yes=9,no=10,missing=9
			9:leaf=-0.0333498716
			10:leaf=-0.0817535892
	2:[f16<0.775516152] yes=5,no=6,missing=5
		5:[f0<209.645172] yes=11,no=12,missing=11
			11:leaf=-0.0672090873
			12:leaf=-0.0208264347
		6:[f14<1.27568698] yes=13,no=14,missing=13
			13:leaf=-0.0908778235
			14:leaf=-0.0444722883
booster[26]:
0:[f7<634.75] yes=1,no=2,missing=1
	1:[f3<602.826904] yes=3,no=4,missing=3
		3:[f17<0.447528124] yes=7,no=8,missing=7
			7:leaf=-0.0106386878
			8:leaf=-0.0630571395
		4:[f13<1.45794678] yes=9,no=10,missing=9
			9:leaf=0.0178249069
			10:leaf=-0.0286444258
	2:[f5<0.766047597] yes=5,no=6,missing=5
		5:[f6<0.855335832] yes=11,no=12,missing=11
			11:leaf=-0.0724133179
			12:leaf=-0.0278762188
		6:[f0<682.511719] yes=13,no=14,missing=13
			13:leaf=-0.00874520931
			14:leaf=-0.104935564
booster[27]:
0:[f13<0.546768188] yes=1,no=2,missing=1
	1:[f16<0.48792091] yes=3,no=4,missing=3
		3:[f10<539.5] yes=7,no=8,missing=7
			7:leaf=0.0728773922
			8:leaf=-0.0598336942
		4:[f0<30.297184] yes=9,no=10,missing=9
			9:leaf=-0.115091734
			10:leaf=0.00919282157
	2:[f3<656.359375] yes=5,no=6,missing=5
		5:[f16<0.468596458] yes=11,no=12,missing=11
			11:leaf=-0.0111486623
			12:leaf=-0.063987121
		6:[f7<491.625] yes=13,no=14,missing=13
			13:leaf=0.00669252221
			14:leaf=-0.0347573385
booster[28]:
0:[f5<0.806718528] yes=1,no=2,missing=1
	1:[f7<530.25] yes=3,no=4,missing=3
		3:[f17<0.480642051] yes=7,no=8,missing=7
			7:leaf=-0.000612888427
			8:leaf=-0.0652920604
		4:[f6<0.856979251] yes=9,no=10,missing=9
			9:leaf=-0.0577473938
			10:leaf=-0.00264644343
	2:[f10<232.4375] yes=5,no=6,missing=5
		5:[f4<73.0557556] yes=11,no=12,missing=11
			11:leaf=-0.0509075038
			12:leaf=0.00556737417
		6:[f0<543.720337] yes=13,no=14,missing=13
			13:leaf=0.0236499403
			14:leaf=-0.0646744296
booster[29]:
0:[f13<0.376721382] yes=1,no=2,missing=1
	1:[f16<0.488778174] yes=3,no=4,missing=3
		3:[f17<0.48293367] yes=7,no=8,missing=7
			7:leaf=0.076377295
			8:leaf=-0.0542614274
		4:[f0<30.2213173] yes=9,no=10,missing=9
			9:leaf=-0.0942149758
			10:leaf=0.0145105561
	2:[f17<0.447874546] yes=5,no=6,missing=5
		5:[f13<2.06119156] yes=11,no=12,missing=11
			11:leaf=0.0001464745
			12:leaf=-0.0629299358
		6:[f15<3.14290333] yes=13,no=14,missing=13
			13:leaf=-0.0264652502
			14:leaf=-0.106368423
booster[30]:
0:[f16<0.563211441] yes=1,no=2,missing=1
	1:[f13<0.546432495] yes=3,no=4,missing=3
		3:[f17<0.442189395] yes=7,no=8,missing=7
			7:leaf=0.0579863898
			8:leaf=-0.000414637849
		4:[f13<2.00166321] yes=9,no=10,missing=9
			9:leaf=-0.00343390252
			10:leaf=-0.0559138469
	2:[f4<43.9383316] yes=5,no=6,missing=5
		5:[f0<259.568665] yes=11,no=12,missing=11
			11:leaf=-0.0897146761
			12:leaf=-0.0306820013
		6:[f16<0.694884419] yes=13,no=14,missing=13
			13:leaf=-0.00175186235
			14:leaf=-0.0566563606
booster[31]:
0:[f5<0.855042219] yes=1,no=2,missing=1
	1:[f7<491.625] yes=3,no=4,missing=3
		3:[f17<0.469376981] yes=7,no=8,missing=7
			7:leaf=0.0039773304
			8:leaf=-0.0487913005
		4:[f6<0.852549136] yes=9,no=10,missing=9
			9:leaf=-0.0383683033
			10:leaf=0.000828224816
	2:[f3<587.194336] yes=5,no=6,missing=5
		5:[f13<0.749359131] yes=11,no=12,missing=11
			11:leaf=-0.0159161724
			12:leaf=-0.0829394758
		6:[f18<0.609952092] yes=13,no=14,missing=13
			13:leaf=-0.0237093139
			14:leaf=0.0326123945
booster[32]:
0:[f7<781.75] yes=1,no=2,missing=1
	1:[f3<602.826904] yes=3,no=4,missing=3
		3:[f17<0.445939183] yes=7,no=8,missing=7
			7:leaf=-0.00838370807
			8:leaf=-0.0527193546
		4:[f13<1.28756714] yes=9,no=10,missing=9
			9:leaf=0.0140395854
			10:leaf=-0.0193302128
	2:[f17<0.393934011] yes=5,no=6,missing=5
		5:[f6<0.867497683] yes=11,no=12,missing=11
			11:leaf=-0.0951609313
			12:leaf=-0.0421910398
		6:[f3<2064.04004] yes=13,no=14,missing=13
			13:leaf=-0.0135084661
			14:leaf=-0.0891863927
booster[33]:
0:[f13<0.248504639] yes=1,no=2,missing=1
	1:[f16<0.493708313] yes=3,no=4,missing=3
		3:[f0<16.465107] yes=7,no=8,missing=7
			7:leaf=0.00277027069
			8:leaf=0.0854906067
		4:[f0<41.9509888] yes=9,no=10,missing=9
			9:leaf=-0.084540002
			10:leaf=0.0179650187
	2:[f16<0.514442265] yes=5,no=6,missing=5
		5:[f3<1799.13342] yes=11,no=12,missing=11
			11:leaf=0.00412099296
			12:leaf=-0.0775101706
		6:[f0<59.6013603] yes=13,no=14,missing=13
			13:leaf=-0.185159937
			14:leaf=-0.0233864319
booster[34]:
0:[f5<0.820390224] yes=1,no=2,missing=1
	1:[f7<520.25] yes=3,no=4,missing=3
		3:[f13<1.98876953] yes=7,no=8,missing=7
			7:leaf=-0.00023087101
			8:leaf=-0.0595116727
		4:[f6<0.856979251] yes=9,no=10,missing=9
			9:leaf=-0.0437229611
			10:leaf=0.000272356265
	2:[f3<701.088257] yes=5,no=6,missing=5
		5:[f13<0.777078629] yes=11,no=12,missing=11
			11:leaf=0.00428122235
			12:leaf=-0.0525748245
		6:[f13<1.432724] yes=13,no=14,missing=13
			13:leaf=0.0347523764
			14:leaf=-0.0152102383
booster[35]:
0:[f0<568.050903] yes=1,no=2,missing=1
	1:[f5<0.859602213] yes=3,no=4,missing=3
		3:[f13<0.23135376] yes=7,no=8,missing=7
			7:leaf=0.0174755882
			8:leaf=-0.00962734409
		4:[f7<289.625] yes=9,no=10,missing=9
			9:leaf=-0.0262814406
			10:leaf=0.0265961327
	2:[f0<807.959839] yes=5,no=6,missing=5
		5:[f10<415.875] yes=11,no=12,missing=11
			11:leaf=-0.0667394698
			12:leaf=0.00524636777
		6:[f4<172.209717] yes=13,no=14,missing=13
			13:leaf=-0.104260623
			14:leaf=-0.00754983444
booster[36]:
0:[f16<0.535006464] yes=1,no=2,missing=1
	1:[f15<3.10379219] yes=3,no=4,missing=3
		3:[f13<0.92779541] yes=7,no=8,missing=7
			7:leaf=0.0333322808
			8:leaf=-0.0282101613
		4:[f17<0.44135806] yes=9,no=10,missing=9
			9:leaf=0.00422195764
			10:leaf=-0.0477688424
	2:[f0<88.7579575] yes=5,no=6,missing=5
		5:[f10<244.6875] yes=11,no=12,missing=11
			11:leaf=-0.0594629906
			12:leaf=-0.210962087
		6:[f4<46.9001694] yes=13,no=14,missing=13
			13:leaf=-0.0384222828
			14:leaf=0.000586406386
booster[37]:
0:[f7<781.75] yes=1,no=2,missing=1
	1:[f3<609.790833] yes=3,no=4,missing=3
		3:[f17<0.445939183] yes=7,no=8,missing=7
			7:leaf=-0.00538064865
			8:leaf=-0.0476093516
		4:[f13<1.75382996] yes=9,no=10,missing=9
			9:leaf=0.00975967944
			10:leaf=-0.0335791074
	2:[f17<0.393934011] yes=5,no=6,missing=5
		5:[f6<0.867497683] yes=11,no=12,missing=11
			11:leaf=-0.0904405564
			12:leaf=-0.0358323231
		6:[f3<2064.04004] yes=13,no=14,missing=13
			13:leaf=-0.0087547889
			14:leaf=-0.0830111057
booster[38]:
0:[f13<0.848968506] yes=1,no=2,missing=1
	1:[f16<0.476841211] yes=3,no=4,missing=3
		3:[f13<0.644821167] yes=7,no=8,missing=7
			7:leaf=0.0792418569
			8:leaf=0.0229920279
		4:[f0<45.7954597] yes=9,no=10,missing=9
			9:leaf=-0.0474578738
			10:leaf=0.00877335481
	2:[f16<0.483821601] yes=5,no=6,missing=5
		5:[f13<2.29400635] yes=11,no=12,missing=11
			11:leaf=9.07369322e-05
			12:leaf=-0.0664817691
		6:[f17<0.385391206] yes=13,no=14,missing=13
			13:leaf=-0.0260889884
			14:leaf=-0.08295656
booster[39]:
0:[f16<0.51442939] yes=1,no=2,missing=1
	1:[f13<0.378395081] yes=3,no=4,missing=3
		3:[f17<0.466200054] yes=7,no=8,missing=7
			7:leaf=0.0646034926
			8:leaf=-0.015091151
		4:[f17<0.458627373] yes=9,no=10,missing=9
			9:leaf=0.00357860699
			10:leaf=-0.0588557795
	2:[f0<58.1106644] yes=5,no=6,missing=5
		5:[f17<0.437334478] yes=11,no=12,missing=11
			11:leaf=-0.0183335133
			12:leaf=-0.197311372
		6:[f13<0.841583252] yes=13,no=14,missing=13
			13:leaf=-0.00326881115
			14:leaf=-0.0487503745
booster[40]:
0:[f5<0.806718528] yes=1,no=2,missing=1
	1:[f7<530.25] yes=3,no=4,missing=3
		3:[f4<49.0547028] yes=7,no=8,missing=7
			7:leaf=-0.0137433065
			8:leaf=0.00923643168
		4:[f6<0.856211007] yes=9,no=10,missing=9
			9:leaf=-0.0431601927
			10:leaf=0.00105900352
	2:[f3<706.375732] yes=5,no=6,missing=5
		5:[f13<0.613922119] yes=11,no=12,missing=11
			11:leaf=0.00873962417
			12:leaf=-0.0392249487
		6:[f13<1.47773743] yes=13,no=14,missing=13
			13:leaf=0.0278898384
			14:leaf=-0.0149667757
booster[41]:
0:[f16<0.500225544] yes=1,no=2,missing=1
	1:[f13<0.614646912] yes=3,no=4,missing=3
		3:[f17<0.458627373] yes=7,no=8,missing=7
			7:leaf=0.0689890906
			8:leaf=-0.00238389778
		4:[f17<0.44122979] yes=9,no=10,missing=9
			9:leaf=0.00220895326
			10:leaf=-0.0611200631
	2:[f0<45.7955856] yes=5,no=6,missing=5
		5:[f13<0.193534851] yes=11,no=12,missing=11
			11:leaf=-0.0867481753
			12:leaf=-0.176965192
		6:[f13<0.515014648] yes=13,no=14,missing=13
			13:leaf=0.00652608229
			14:leaf=-0.0239544604
booster[42]:
0:[f16<0.694884419] yes=1,no=2,missing=1
	1:[f3<2064.04004] yes=3,no=4,missing=3
		3:[f4<49.2031631] yes=7,no=8,missing=7
			7:leaf=-0.00642792741
			8:leaf=0.0112185767
		4:[f16<0.521636844] yes=9,no=10,missing=9
			9:leaf=-0.096054785
			10:leaf=0.0205402002
	2:[f9<2.94433594] yes=5,no=6,missing=5
		5:[f10<226.3125] yes=11,no=12,missing=11
			11:leaf=-0.0898338854
			12:leaf=-0.0403494798
		6:[f15<1.50574338] yes=13,no=14,missing=13
			13:leaf=-0.0664227456
			14:leaf=0.13800481
booster[43]:
0:[f5<0.859602213] yes=1,no=2,missing=1
	1:[f13<0.23135376] yes=3,no=4,missing=3
		3:[f16<0.493858576] yes=7,no=8,missing=7
			7:leaf=0.0624136701
			8:leaf=0.00361466967
		4:[f16<0.483636618] yes=9,no=10,missing=9
			9:leaf=0.00193847157
			10:leaf=-0.0209928676
	2:[f3<644.311279] yes=5,no=6,missing=5
		5:[f13<0.492116809] yes=11,no=12,missing=11
			11:leaf=0.0102657145
			12:leaf=-0.0362847261
		6:[f18<0.604637921] yes=13,no=14,missing=13
			13:leaf=-0.0289835334
			14:leaf=0.02746295
booster[44]:
0:[f13<2.16082764] yes=1,no=2,missing=1
	1:[f16<0.488984019] yes=3,no=4,missing=3
		3:[f13<0.54737854] yes=7,no=8,missing=7
			7:leaf=0.0492486954
			8:leaf=0.00294052367
		4:[f0<46.8112335] yes=9,no=10,missing=9
			9:leaf=-0.0621653572
			10:leaf=-0.00137410115
	2:[f8<2.12670898] yes=5,no=6,missing=5
		5:[f5<0.907196999] yes=11,no=12,missing=11
			11:leaf=-0.0643428043
			12:leaf=0.0345032886
		6:[f11<-0.478027344] yes=13,no=14,missing=13
			13:leaf=-0.0591991954
			14:leaf=0.153312072
booster[45]:
0:[f17<0.457540154] yes=1,no=2,missing=1
	1:[f13<0.878967285] yes=3,no=4,missing=3
		3:[f16<0.52393347] yes=7,no=8,missing=7
			7:leaf=0.0322487764
			8:leaf=-0.00761199091
		4:[f3<705.161316] yes=9,no=10,missing=9
			9:leaf=-0.0380249955
			10:leaf=-0.00402114959
	2:[f15<3.10209656] yes=5,no=6,missing=5
		5:[f16<0.492974043] yes=11,no=12,missing=11
			11:leaf=0.0353542194
			12:leaf=-0.0246932823
		6:[f3<765.622192] yes=13,no=14,missing=13
			13:leaf=-0.115722179
			14:leaf=-0.0259558801
booster[46]:
0:[f7<781.75] yes=1,no=2,missing=1
	1:[f4<53.6556854] yes=3,no=4,missing=3
		3:[f16<0.496018648] yes=7,no=8,missing=7
			7:leaf=0.00536543317
			8:leaf=-0.0225542486
		4:[f8<1.18505859] yes=9,no=10,missing=9
			9:leaf=0.0152022112
			10:leaf=-0.0215322562
	2:[f17<0.393934011] yes=5,no=6,missing=5
		5:[f6<0.855335832] yes=11,no=12,missing=11
			11:leaf=-0.0870762542
			12:leaf=-0.0337443016
		6:[f16<0.492907524] yes=13,no=14,missing=13
			13:leaf=-0.0723018274
			14:leaf=-0.00191102829
booster[47]:
0:[f13<0.19152832] yes=1,no=2,missing=1
	1:[f17<0.47724995] yes=3,no=4,missing=3
		3:[f16<0.51463449] yes=7,no=8,missing=7
			7:leaf=0.056932658
			8:leaf=0.00690715527
		4:[f0<207.680969] yes=9,no=10,missing=9
			9:leaf=-0.0575028956
			10:leaf=0.0436923541
	2:[f17<0.451715887] yes=5,no=6,missing=5
		5:[f13<0.878967285] yes=11,no=12,missing=11
			11:leaf=0.0112273851
			12:leaf=-0.0101509783
		6:[f15<3.14248443] yes=13,no=14,missing=13
			13:leaf=-0.0147169651
			14:leaf=-0.0865244791
booster[48]:
0:[f3<514.948608] yes=1,no=2,missing=1
	1:[f16<0.512510359] yes=3,no=4,missing=3
		3:[f4<66.2026215] yes=7,no=8,missing=7
			7:leaf=-0.0292177405
			8:leaf=0.0635141656
		4:[f5<0.920737743] yes=9,no=10,missing=9
			9:leaf=-0.0579412989
			10:leaf=0.0710846707
	2:[f13<0.248901367] yes=5,no=6,missing=5
		5:[f16<0.493985236] yes=11,no=12,missing=11
			11:leaf=0.0615335703
			12:leaf=0.00993756019
		6:[f3<2088.9856] yes=13,no=14,missing=13
			13:leaf=-0.00180649722
			14:leaf=-0.0944593474
booster[49]:
0:[f5<0.820390224] yes=1,no=2,missing=1
	1:[f7<520.25] yes=3,no=4,missing=3
		3:[f17<0.446392655] yes=7,no=8,missing=7
			7:leaf=0.00420833984
			8:leaf=-0.0220007654
		4:[f6<0.856979251] yes=9,no=10,missing=9
			9:leaf=-0.032725703
			10:leaf=0.00488638831
	2:[f3<701.088257] yes=5,no=6,missing=5
		5:[f13<0.777078629] yes=11,no=12,missing=11
			11:leaf=0.00340512069
			12:leaf=-0.037741553
		6:[f13<1.432724] yes=13,no=14,missing=13
			13:leaf=0.025533691
			14:leaf=-0.0105521744
booster[50]:
0:[f17<0.248277441] yes=1,no=2,missing=1
	1:[f9<2.50195312] yes=3,no=4,missing=3
		3:[f5<0.511499524] yes=7,no=8,missing=7
			7:leaf=0.029750064
			8:leaf=-0.0723179951
		4:[f4<84.0563583] yes=9,no=10,missing=9
			9:leaf=-0.0342765115
			10:leaf=0.138768077
	2:[f17<0.441941172] yes=5,no=6,missing=5
		5:[f7<482.375] yes=11,no=12,missing=11
			11:leaf=0.0123530421
			12:leaf=-0.0147477612
		6:[f15<3.12879181] yes=13,no=14,missing=13
			13:leaf=-0.0015651338
			14:leaf=-0.0519322455
booster[51]:
0:[f6<0.81157577] yes=1,no=2,missing=1
	1:[f3<985.527771] yes=3,no=4,missing=3
		3:[f8<1.0567627] yes=7,no=8,missing=7
			7:leaf=0.00319337822
			8:leaf=-0.0305811465
		4:[f2<2.53027344] yes=9,no=10,missing=9
			9:leaf=-0.018074004
			10:leaf=-0.0614566579
	2:[f3<744.506592] yes=5,no=6,missing=5
		5:[f17<0.447520137] yes=11,no=12,missing=11
			11:leaf=0.00339674181
			12:leaf=-0.0406657904
		6:[f5<0.755098164] yes=13,no=14,missing=13
			13:leaf=0.00482895551
			14:leaf=0.0338530354
booster[52]:
0:[f16<0.563211441] yes=1,no=2,missing=1
	1:[f13<0.423149109] yes=3,no=4,missing=3
		3:[f17<0.433244467] yes=7,no=8,missing=7
			7:leaf=0.0688455477
			8:leaf=0.00204568333
		4:[f17<0.430576622] yes=9,no=10,missing=9
			9:leaf=0.00188189687
			10:leaf=-0.0236235186
	2:[f17<0.391638458] yes=5,no=6,missing=5
		5:[f4<128.552979] yes=11,no=12,missing=11
			11:leaf=-0.0129207764
			12:leaf=0.0536601953
		6:[f0<248.253845] yes=13,no=14,missing=13
			13:leaf=-0.0924534425
			14:leaf=-0.00840795599
booster[53]:
0:[f16<0.511789441] yes=1,no=2,missing=1
	1:[f13<1.04114187] yes=3,no=4,missing=3
		3:[f17<0.480247408] yes=7,no=8,missing=7
			7:leaf=0.0193136912
			8:leaf=-0.0552723967
		4:[f17<0.402590334] yes=9,no=10,missing=9
			9:leaf=-0.0038066227
			10:leaf=-0.0613193326
	2:[f0<58.3345985] yes=5,no=6,missing=5
		5:[f17<0.437334478] yes=11,no=12,missing=11
			11:leaf=-0.00825845916
			12:leaf=-0.156697243
		6:[f4<54.8263054] yes=13,no=14,missing=13
			13:leaf=-0.0195132121
			14:leaf=0.00543696992
booster[54]:
0:[f13<0.680847168] yes=1,no=2,missing=1
	1:[f16<0.474672377] yes=3,no=4,missing=3
		3:[f10<582] yes=7,no=8,missing=7
			7:leaf=0.0788038075
			8:leaf=-0.0957465693
		4:[f17<0.430231094] yes=9,no=10,missing=9
			9:leaf=0.0211490802
			10:leaf=-0.012611392
	2:[f16<0.459354877] yes=5,no=6,missing=5
		5:[f13<1.08505249] yes=11,no=12,missing=11
			11:leaf=0.0407094993
			12:leaf=-0.00718375528
		6:[f17<0.391467512] yes=13,no=14,missing=13
			13:leaf=0.000167995153
			14:leaf=-0.0455388464
booster[55]:
0:[f16<0.520839334] yes=1,no=2,missing=1
	1:[f13<0.394226074] yes=3,no=4,missing=3
		3:[f17<0.463162661] yes=7,no=8,missing=7
			7:leaf=0.0540957041
			8:leaf=-0.0100846691
		4:[f17<0.446265459] yes=9,no=10,missing=9
			9:leaf=0.00376093551
			10:leaf=-0.0325410776
	2:[f0<88.7710419] yes=5,no=6,missing=5
		5:[f17<0.436382651] yes=11,no=12,missing=11
			11:leaf=-0.01553261
			12:leaf=-0.154675826
		6:[f4<54.7924042] yes=13,no=14,missing=13
			13:leaf=-0.0200185608
			14:leaf=0.00688885292
booster[56]:
0:[f5<0.872596085] yes=1,no=2,missing=1
	1:[f13<0.23135376] yes=3,no=4,missing=3
		3:[f16<0.53211689] yes=7,no=8,missing=7
			7:leaf=0.0280746762
			8:leaf=-0.00313197682
		4:[f16<0.483636618] yes=9,no=10,missing=9
			9:leaf=0.00188396592
			10:leaf=-0.0169008207
	2:[f18<0.578498125] yes=5,no=6,missing=5
		5:[f0<281.166412] yes=11,no=12,missing=11
			11:leaf=-0.0869912207
			12:leaf=-0.00939049106
		6:[f7<288.625] yes=13,no=14,missing=13
			13:leaf=-0.0169587471
			14:leaf=0.0245101061
booster[57]:
0:[f13<2.29400635] yes=1,no=2,missing=1
	1:[f3<732.831421] yes=3,no=4,missing=3
		3:[f17<0.444468856] yes=7,no=8,missing=7
			7:leaf=0.000611528638
			8:leaf=-0.0312671252
		4:[f6<0.804168701] yes=9,no=10,missing=9
			9:leaf=-0.00357456319
			10:leaf=0.0208015349
	2:[f8<2.12182617] yes=5,no=6,missing=5
		5:[f0<114.997162] yes=11,no=12,missing=11
			11:leaf=-0.0411834009
			12:leaf=-0.0893137455
		6:[f16<0.266827971] yes=13,no=14,missing=13
			13:leaf=-0.0127219772
			14:leaf=0.137790278
booster[58]:
0:[f13<0.878967285] yes=1,no=2,missing=1
	1:[f16<0.473371327] yes=3,no=4,missing=3
		3:[f7<491.875] yes=7,no=8,missing=7
			7:leaf=0.0563153923
			8:leaf=-0.0492462479
		4:[f0<46.8593979] yes=9,no=10,missing=9
			9:leaf=-0.0354250446
			10:leaf=0.00799843576
	2:[f17<0.39193815] yes=5,no=6,missing=5
		5:[f0<116.22377] yes=11,no=12,missing=11
			11:leaf=0.0133223208
			12:leaf=-0.020591829
		6:[f16<0.444122314] yes=13,no=14,missing=13
			13:leaf=0.0065471218
			14:leaf=-0.0619235635
booster[59]:
0:[f15<3.18449664] yes=1,no=2,missing=1
	1:[f16<0.488987505] yes=3,no=4,missing=3
		3:[f13<1.17199707] yes=7,no=8,missing=7
			7:leaf=0.0304281302
			8:leaf=-0.0208188817
		4:[f0<50.6684914] yes=9,no=10,missing=9
			9:leaf=-0.0444001965
			10:leaf=0.00235168054
	2:[f17<0.4322716] yes=5,no=6,missing=5
		5:[f16<0.491303325] yes=11,no=12,missing=11
			11:leaf=-0.000945825421
			12:leaf=-0.0450651869
		6:[f3<998.844482] yes=13,no=14,missing=13
			13:leaf=-0.116767846
			14:leaf=-0.0197337791
booster[60]:
0:[f4<28.8806591] yes=1,no=2,missing=1
	1:[f3<732.777161] yes=3,no=4,missing=3
		3:[f15<3.09348726] yes=7,no=8,missing=7
			7:leaf=-0.017843049
			8:leaf=-0.0484708212
		4:[f17<0.31861186] yes=9,no=10,missing=9
			9:leaf=-0.0451015383
			10:leaf=0.00662017846
	2:[f7<761.25] yes=5,no=6,missing=5
		5:[f1<-4.48501587] yes=11,no=12,missing=11
			11:leaf=-0.0509570055
			12:leaf=0.00682184054
		6:[f17<0.439819723] yes=13,no=14,missing=13
			13:leaf=-0.0543381572
			14:leaf=0.00145698898
booster[61]:
0:[f13<0.190063477] yes=1,no=2,missing=1
	1:[f16<0.504315317] yes=3,no=4,missing=3
		3:[f17<0.48278895] yes=7,no=8,missing=7
			7:leaf=0.052089151
			8:leaf=-0.0432302468
		4:[f17<0.429929137] yes=9,no=10,missing=9
			9:leaf=0.0338237323
			10:leaf=-0.020365363
	2:[f16<0.483828962] yes=5,no=6,missing=5
		5:[f13<0.644821167] yes=11,no=12,missing=11
			11:leaf=0.0445744805
			12:leaf=-0.00147256418
		6:[f0<46.8593979] yes=13,no=14,missing=13
			13:leaf=-0.0627515316
			14:leaf=-0.00516029913
booster[62]:
0:[f16<0.535006464] yes=1,no=2,missing=1
	1:[f13<0.546432495] yes=3,no=4,missing=3
		3:[f17<0.441892028] yes=7,no=8,missing=7
			7:leaf=0.063055627
			8:leaf=0.000385296647
		4:[f17<0.428091466] yes=9,no=10,missing=9
			9:leaf=0.00299349218
			10:leaf=-0.0338257663
	2:[f0<85.9365616] yes=5,no=6,missing=5
		5:[f10<244.6875] yes=11,no=12,missing=11
			11:leaf=-0.0516305454
			12:leaf=-0.189098105
		6:[f0<807.959839] yes=13,no=14,missing=13
			13:leaf=-0.00618327502
			14:leaf=-0.0891320854
booster[63]:
0:[f3<2077.82886] yes=1,no=2,missing=1
	1:[f16<0.514801621] yes=3,no=4,missing=3
		3:[f13<1.10388184] yes=7,no=8,missing=7
			7:leaf=0.0130431056
			8:leaf=-0.00836749654
		4:[f0<58.5758133] yes=9,no=10,missing=9
			9:leaf=-0.106289797
			10:leaf=-0.0062822178
	2:[f16<0.521636844] yes=5,no=6,missing=5
		5:[f14<-3.12505198] yes=11,no=12,missing=11
			11:leaf=-0.0290886853
			12:leaf=-0.0989151075
		6:[f18<0.794545829] yes=13,no=14,missing=13
			13:leaf=-0.0684713945
			14:leaf=0.119663849
booster[64]:
0:[f5<0.806718528] yes=1,no=2,missing=1
	1:[f14<3.13918161] yes=3,no=4,missing=3
		3:[f3<1715.23792] yes=7,no=8,missing=7
			7:leaf=-0.00404079771
			8:leaf=-0.0529185347
		4:[f0<29.3159237] yes=9,no=10,missing=9
			9:leaf=-0.162133574
			10:leaf=-0.0396375842
	2:[f3<706.375732] yes=5,no=6,missing=5
		5:[f13<0.460083008] yes=11,no=12,missing=11
			11:leaf=0.0124486769
			12:leaf=-0.0237718597
		6:[f6<0.882275283] yes=13,no=14,missing=13
			13:leaf=0.0101104081
			14:leaf=0.0459360927
booster[65]:
0:[f18<0.42998457] yes=1,no=2,missing=1
	1:[f4<157.506439] yes=3,no=4,missing=3
		3:[f13<0.486106873] yes=7,no=8,missing=7
			7:leaf=-0.0335727185
			8:leaf=-0.0929939747
		4:[f14<-1.440979] yes=9,no=10,missing=9
			9:leaf=0.151767477
			10:leaf=-0.0362298451
	2:[f13<2.16082764] yes=5,no=6,missing=5
		5:[f17<0.41242367] yes=11,no=12,missing=11
			11:leaf=0.00906447135
			12:leaf=-0.00542406738
		6:[f8<2.12670898] yes=13,no=14,missing=13
			13:leaf=-0.049316328
			14:leaf=0.071115464
booster[66]:
0:[f4<28.8806591] yes=1,no=2,missing=1
	1:[f3<732.652832] yes=3,no=4,missing=3
		3:[f0<40.3824081] yes=7,no=8,missing=7
			7:leaf=-0.0528174303
			8:leaf=-0.0189672075
		4:[f18<0.775583506] yes=9,no=10,missing=9
			9:leaf=-0.03025393
			10:leaf=0.00747986091
	2:[f0<527.482178] yes=5,no=6,missing=5
		5:[f15<2.52808452] yes=11,no=12,missing=11
			11:leaf=0.0364594869
			12:leaf=0.00274623674
		6:[f0<785.795776] yes=13,no=14,missing=13
			13:leaf=-0.0291893464
			14:leaf=-0.0824876204
booster[67]:
0:[f13<1.5330658] yes=1,no=2,missing=1
	1:[f16<0.47744751] yes=3,no=4,missing=3
		3:[f13<0.677017212] yes=7,no=8,missing=7
			7:leaf=0.0564760044
			8:leaf=0.00635706354
		4:[f0<50.6861496] yes=9,no=10,missing=9
			9:leaf=-0.0326096527
			10:leaf=0.00205511507
	2:[f5<0.915716767] yes=5,no=6,missing=5
		5:[f0<225.491257] yes=11,no=12,missing=11
			11:leaf=-0.0139033562
			12:leaf=-0.0602830537
		6:[f12<-2.27172852] yes=13,no=14,missing=13
			13:leaf=-0.0864985809
			14:leaf=0.101695471
booster[68]:
0:[f13<0.19152832] yes=1,no=2,missing=1
	1:[f16<0.493708313] yes=3,no=4,missing=3
		3:[f3<514.927795] yes=7,no=8,missing=7
			7:leaf=-0.04155178
			8:leaf=0.0528104864
		4:[f0<29.1730576] yes=9,no=10,missing=9
			9:leaf=-0.0919620022
			10:leaf=0.0133127915
	2:[f16<0.511344671] yes=5,no=6,missing=5
		5:[f5<0.910515547] yes=11,no=12,missing=11
			11:leaf=-0.000251811667
			12:leaf=0.0464127585
		6:[f0<89.4172821] yes=13,no=14,missing=13
			13:leaf=-0.061983712
			14:leaf=-0.006794794
booster[69]:
0:[f16<0.594247699] yes=1,no=2,missing=1
	1:[f15<3.10379219] yes=3,no=4,missing=3
		3:[f13<1.10827637] yes=7,no=8,missing=7
			7:leaf=0.0153046623
			8:leaf=-0.029295519
		4:[f17<0.441271484] yes=9,no=10,missing=9
			9:leaf=0.000967741944
			10:leaf=-0.0327099971
	2:[f0<198.32135] yes=5,no=6,missing=5
		5:[f17<0.378398597] yes=11,no=12,missing=11
			11:leaf=-0.00531110121
			12:leaf=-0.141673833
		6:[f16<0.775516152] yes=13,no=14,missing=13
			13:leaf=-0.00177894963
			14:leaf=-0.048944857
booster[70]:
0:[f13<0.376721382] yes=1,no=2,missing=1
	1:[f16<0.56309545] yes=3,no=4,missing=3
		3:[f17<0.433329105] yes=7,no=8,missing=7
			7:leaf=0.0645655617
			8:leaf=0.00307332911
		4:[f17<0.391847074] yes=9,no=10,missing=9
			9:leaf=0.012021496
			10:leaf=-0.0360283591
	2:[f17<0.41242367] yes=5,no=6,missing=5
		5:[f13<1.23191833] yes=11,no=12,missing=11
			11:leaf=0.0149358902
			12:leaf=-0.0110373786
		6:[f16<0.472505808] yes=13,no=14,missing=13
			13:leaf=0.00729778362
			14:leaf=-0.029379731
booster[71]:
0:[f16<0.520839334] yes=1,no=2,missing=1
	1:[f13<0.546366692] yes=3,no=4,missing=3
		3:[f17<0.463162661] yes=7,no=8,missing=7
			7:leaf=0.0421070345
			8:leaf=-0.0173449256
		4:[f17<0.428091466] yes=9,no=10,missing=9
			9:leaf=0.00361885666
			10:leaf=-0.0285739303
	2:[f0<88.7710419] yes=5,no=6,missing=5
		5:[f17<0.444406569] yes=11,no=12,missing=11
			11:leaf=-0.0277094077
			12:leaf=-0.165041789
		6:[f4<54.7924042] yes=13,no=14,missing=13
			13:leaf=-0.0168484449
			14:leaf=0.00658502011
booster[72]:
0:[f6<0.81157577] yes=1,no=2,missing=1
	1:[f9<-1.4263916] yes=3,no=4,missing=3
		3:[f8<1.05639648] yes=7,no=8,missing=7
			7:leaf=-0.0144413663
			8:leaf=-0.048577439
		4:[f10<451.625] yes=9,no=10,missing=9
			9:leaf=0.00408882229
			10:leaf=-0.0217144284
	2:[f3<744.506592] yes=5,no=6,missing=5
		5:[f13<1.07073975] yes=11,no=12,missing=11
			11:leaf=-0.000696259143
			12:leaf=-0.0449945852
		6:[f6<0.812954545] yes=13,no=14,missing=13
			13:leaf=0.134224847
			14:leaf=0.0167953186
booster[73]:
0:[f3<2088.54272] yes=1,no=2,missing=1
	1:[f16<0.500225544] yes=3,no=4,missing=3
		3:[f13<0.710601807] yes=7,no=8,missing=7
			7:leaf=0.0235300176
			8:leaf=-0.00263596303
		4:[f0<46.8593979] yes=9,no=10,missing=9
			9:leaf=-0.086477004
			10:leaf=-0.00274427142
	2:[f16<0.521636844] yes=5,no=6,missing=5
		5:[f14<-3.12505198] yes=11,no=12,missing=11
			11:leaf=-0.0229808874
			12:leaf=-0.0961092263
		6:[f18<0.822049141] yes=13,no=14,missing=13
			13:leaf=-0.0655430034
			14:leaf=0.111901775
booster[74]:
0:[f5<0.806718528] yes=1,no=2,missing=1
	1:[f0<20.6127777] yes=3,no=4,missing=3
		3:[f16<0.476624191] yes=7,no=8,missing=7
			7:leaf=-0.0155864852
			8:leaf=-0.0870646238
		4:[f16<0.501448333] yes=9,no=10,missing=9
			9:leaf=0.00436332263
			10:leaf=-0.0126047684
	2:[f3<770.184326] yes=5,no=6,missing=5
		5:[f17<0.428607196] yes=11,no=12,missing=11
			11:leaf=0.00881360006
			12:leaf=-0.0182049572
		6:[f13<1.35238647] yes=13,no=14,missing=13
			13:leaf=0.0221343525
			14:leaf=-0.00632946286
booster[75]:
0:[f13<0.794921875] yes=1,no=2,missing=1
	1:[f16<0.474180073] yes=3,no=4,missing=3
		3:[f10<384.875] yes=7,no=8,missing=7
			7:leaf=0.0620614253
			8:leaf=-0.00513741886
		4:[f0<40.581192] yes=9,no=10,missing=9
			9:leaf=-0.032151781
			10:leaf=0.00641841395
	2:[f17<0.391835213] yes=5,no=6,missing=5
		5:[f13<1.28756714] yes=11,no=12,missing=11
			11:leaf=0.0196442306
			12:leaf=-0.009986124
		6:[f16<0.449105799] yes=13,no=14,missing=13
			13:leaf=0.00654111663
			14:leaf=-0.0502629653
booster[76]:
0:[f15<2.53094578] yes=1,no=2,missing=1
	1:[f10<255.3125] yes=3,no=4,missing=3
		3:[f15<2.50497293] yes=7,no=8,missing=7
			7:leaf=-0.0325958319
			8:leaf=0.0690136477
		4:[f0<579.084839] yes=9,no=10,missing=9
			9:leaf=0.0710994899
			10:leaf=-0.0244466588
	2:[f17<0.480247408] yes=5,no=6,missing=5
		5:[f16<0.533821821] yes=11,no=12,missing=11
			11:leaf=0.00427562883
			12:leaf=-0.0183576513
		6:[f10<511.625] yes=13,no=14,missing=13
			13:leaf=-0.106554963
			14:leaf=0.0285020471
booster[77]:
0:[f13<0.376721382] yes=1,no=2,missing=1
	1:[f16<0.505054414] yes=3,no=4,missing=3
		3:[f17<0.466200054] yes=7,no=8,missing=7
			7:leaf=0.0537457578
			8:leaf=0.00150861009
		4:[f0<50.6536713] yes=9,no=10,missing=9
			9:leaf=-0.0828720927
			10:leaf=0.00500435336
	2:[f17<0.41242367] yes=5,no=6,missing=5
		5:[f13<0.931243896] yes=11,no=12,missing=11
			11:leaf=0.0214942321
			12:leaf=-0.00524938526
		6:[f15<3.28226423] yes=13,no=14,missing=13
			13:leaf=-0.0135661541
			14:leaf=-0.137309447
booster[78]:
0:[f8<1.05700684] yes=1,no=2,missing=1
	1:[f13<2.29290771] yes=3,no=4,missing=3
		3:[f17<0.391571432] yes=7,no=8,missing=7
			7:leaf=0.0119843716
			8:leaf=-0.00177389756
		4:[f5<0.915750146] yes=9,no=10,missing=9
			9:leaf=-0.0680671185
			10:leaf=0.0744545534
	2:[f6<0.747157335] yes=5,no=6,missing=5
		5:[f16<0.54206419] yes=11,no=12,missing=11
			11:leaf=-0.0251862612
			12:leaf=-0.0894068331
		6:[f18<0.667881966] yes=13,no=14,missing=13
			13:leaf=-0.0520410053
			14:leaf=0.00243169884
booster[79]:
0:[f13<0.19152832] yes=1,no=2,missing=1
	1:[f3<438.366394] yes=3,no=4,missing=3
		3:[f5<0.648954511] yes=7,no=8,missing=7
			7:leaf=0.0151749402
			8:leaf=-0.110724092
		4:[f15<2.22584844] yes=9,no=10,missing=9
			9:leaf=0.0718093514
			10:leaf=0.0125873191
	2:[f16<0.488862842] yes=5,no=6,missing=5
		5:[f13<0.918167114] yes=11,no=12,missing=11
			11:leaf=0.0196698289
			12:leaf=-0.00443064375
		6:[f0<46.8593979] yes=13,no=14,missing=13
			13:leaf=-0.0563323312
			14:leaf=-0.0066106678
booster[80]:
0:[f15<3.18449664] yes=1,no=2,missing=1
	1:[f16<0.475152999] yes=3,no=4,missing=3
		3:[f0<114.570747] yes=7,no=8,missing=7
			7:leaf=0.038892325
			8:leaf=-0.00914768409
		4:[f0<23.9868889] yes=9,no=10,missing=9
			9:leaf=-0.0526650213
			10:leaf=0.00184940395
	2:[f17<0.391836464] yes=5,no=6,missing=5
		5:[f7<769.25] yes=11,no=12,missing=11
			11:leaf=0.00383984554
			12:leaf=-0.0934480652
		6:[f16<0.450006872] yes=13,no=14,missing=13
			13:leaf=-0.00714871893
			14:leaf=-0.0545234345
booster[81]:
0:[f16<0.535006464] yes=1,no=2,missing=1
	1:[f13<0.412475586] yes=3,no=4,missing=3
		3:[f17<0.437738657] yes=7,no=8,missing=7
			7:leaf=0.0782844946
			8:leaf=0.00599728804
		4:[f17<0.442313552] yes=9,no=10,missing=9
			9:leaf=0.00229921588
			10:leaf=-0.030155126
	2:[f0<88.7579575] yes=5,no=6,missing=5
		5:[f17<0.40706712] yes=11,no=12,missing=11
			11:leaf=0.0442093313
			12:leaf=-0.111667179
		6:[f15<2.35186028] yes=13,no=14,missing=13
			13:leaf=0.0183675569
			14:leaf=-0.0118498961
booster[82]:
0:[f3<732.831421] yes=1,no=2,missing=1
	1:[f13<0.503540039] yes=3,no=4,missing=3
		3:[f17<0.454295486] yes=7,no=8,missing=7
			7:leaf=0.0208847728
			8:leaf=-0.0247457232
		4:[f17<0.38841784] yes=9,no=10,missing=9
			9:leaf=0.00442534685
			10:leaf=-0.0359680317
	2:[f5<0.738990605] yes=5,no=6,missing=5
		5:[f7<436.125] yes=11,no=12,missing=11
			11:leaf=0.00657608826
			12:leaf=-0.0201186556
		6:[f6<0.884367287] yes=13,no=14,missing=13
			13:leaf=0.00836206321
			14:leaf=0.0396361314
booster[83]:
0:[f13<1.04110181] yes=1,no=2,missing=1
	1:[f16<0.455942869] yes=3,no=4,missing=3
		3:[f15<3.28147507] yes=7,no=8,missing=7
			7:leaf=0.0606787577
			8:leaf=-0.0710347965
		4:[f17<0.412282884] yes=9,no=10,missing=9
			9:leaf=0.0139713539
			10:leaf=-0.00691644428
	2:[f17<0.395914972] yes=5,no=6,missing=5
		5:[f0<116.324921] yes=11,no=12,missing=11
			11:leaf=0.00598921068
			12:leaf=-0.0174353793
		6:[f16<0.432205498] yes=13,no=14,missing=13
			13:leaf=-0.0180702507
			14:leaf=-0.0701171532
booster[84]:
0:[f16<0.51442939] yes=1,no=2,missing=1
	1:[f13<0.529159546] yes=3,no=4,missing=3
		3:[f17<0.454562277] yes=7,no=8,missing=7
			7:leaf=0.0508855246
			8:leaf=-0.000801759888
		4:[f17<0.428091466] yes=9,no=10,missing=9
			9:leaf=0.00391893508
			10:leaf=-0.0234765746
	2:[f0<58.5758133] yes=5,no=6,missing=5
		5:[f17<0.437291265] yes=11,no=12,missing=11
			11:leaf=0.00162640156
			12:leaf=-0.113305725
		6:[f15<2.35175323] yes=13,no=14,missing=13
			13:leaf=0.0212506112
			14:leaf=-0.0103339246
booster[85]:
0:[f16<0.602801561] yes=1,no=2,missing=1
	1:[f15<2.52092648] yes=3,no=4,missing=3
		3:[f10<282.375] yes=7,no=8,missing=7
			7:leaf=-0.00269739516
			8:leaf=0.0810230151
		4:[f17<0.480247408] yes=9,no=10,missing=9
			9:leaf=0.00118181598
			10:leaf=-0.0530772991
	2:[f0<198.354126] yes=5,no=6,missing=5
		5:[f6<0.846602082] yes=11,no=12,missing=11
			11:leaf=-0.10074424
			12:leaf=0.0127278296
		6:[f8<-0.365386963] yes=13,no=14,missing=13
			13:leaf=-0.0370789543
			14:leaf=0.00101130398
booster[86]:
0:[f13<0.878967285] yes=1,no=2,missing=1
	1:[f16<0.457031965] yes=3,no=4,missing=3
		3:[f6<0.49630776] yes=7,no=8,missing=7
			7:leaf=-0.0640582368
			8:leaf=0.0805737749
		4:[f17<0.412276477] yes=9,no=10,missing=9
			9:leaf=0.0189385395
			10:leaf=-0.0047725644
	2:[f17<0.39193815] yes=5,no=6,missing=5
		5:[f13<1.28756714] yes=11,no=12,missing=11
			11:leaf=0.0159434061
			12:leaf=-0.0099508157
		6:[f16<0.444122314] yes=13,no=14,missing=13
			13:leaf=0.00535281515
			14:leaf=-0.0541231632
booster[87]:
0:[f16<0.524300575] yes=1,no=2,missing=1
	1:[f13<0.681747437] yes=3,no=4,missing=3
		3:[f17<0.439200819] yes=7,no=8,missing=7
			7:leaf=0.0524179302
			8:leaf=0.00111670792
		4:[f17<0.405231178] yes=9,no=10,missing=9
			9:leaf=0.00363434898
			10:leaf=-0.0212328155
	2:[f0<88.7710419] yes=5,no=6,missing=5
		5:[f17<0.423121154] yes=11,no=12,missing=11
			11:leaf=0.0114236735
			12:leaf=-0.105823271
		6:[f8<-0.780944824] yes=13,no=14,missing=13
			13:leaf=-0.0262701046
			14:leaf=0.000926992798
booster[88]:
0:[f16<0.500225544] yes=1,no=2,missing=1
	1:[f13<0.611633301] yes=3,no=4,missing=3
		3:[f17<0.458627373] yes=7,no=8,missing=7
			7:leaf=0.0508604757
			8:leaf=3.55801239e-05
		4:[f17<0.440232038] yes=9,no=10,missing=9
			9:leaf=0.00176198536
			10:leaf=-0.0395493954
	2:[f0<45.7955856] yes=5,no=6,missing=5
		5:[f13<0.259429932] yes=11,no=12,missing=11
			11:leaf=-0.0445892774
			12:leaf=-0.112876236
		6:[f15<3.17014599] yes=13,no=14,missing=13
			13:leaf=-0.000793080952
			14:leaf=-0.0366470888
booster[89]:
0:[f13<0.19152832] yes=1,no=2,missing=1
	1:[f16<0.504315317] yes=3,no=4,missing=3
		3:[f18<0.939552546] yes=7,no=8,missing=7
			7:leaf=0.0683048591
			8:leaf=0.0159119554
		4:[f17<0.42857343] yes=9,no=10,missing=9
			9:leaf=0.0268772244
			10:leaf=-0.013184729
	2:[f16<0.483828962] yes=5,no=6,missing=5
		5:[f13<1.09173584] yes=11,no=12,missing=11
			11:leaf=0.0192839354
			12:leaf=-0.007454379
		6:[f0<46.8593979] yes=13,no=14,missing=13
			13:leaf=-0.0457825325
			14:leaf=-0.00546035077
booster[90]:
0:[f4<28.8806591] yes=1,no=2,missing=1
	1:[f3<732.777161] yes=3,no=4,missing=3
		3:[f5<0.864986598] yes=7,no=8,missing=7
			7:leaf=-0.0316260383
			8:leaf=0.00533976639
		4:[f15<2.5361762] yes=9,no=10,missing=9
			9:leaf=0.0781807825
			10:leaf=-0.00253079948
	2:[f16<0.602801561] yes=5,no=6,missing=5
		5:[f15<2.23352051] yes=11,no=12,missing=11
			11:leaf=0.0768417716
			12:leaf=0.00430927798
		6:[f0<209.645172] yes=13,no=14,missing=13
			13:leaf=-0.060319066
			14:leaf=-0.0102375504
booster[91]:
0:[f8<1.05700684] yes=1,no=2,missing=1
	1:[f4<78.5941925] yes=3,no=4,missing=3
		3:[f15<2.53507757] yes=7,no=8,missing=7
			7:leaf=0.0293254554
			8:leaf=-0.00366516015
		4:[f7<632.25] yes=9,no=10,missing=9
			9:leaf=0.0198997054
			10:leaf=-0.0174507033
	2:[f6<0.747157335] yes=5,no=6,missing=5
		5:[f16<0.54206419] yes=11,no=12,missing=11
			11:leaf=-0.0233892389
			12:leaf=-0.079912141
		6:[f18<0.667881966] yes=13,no=14,missing=13
			13:leaf=-0.0478404872
			14:leaf=0.00187890453
booster[92]:
0:[f0<807.959839] yes=1,no=2,missing=1
	1:[f15<2.53430772] yes=3,no=4,missing=3
		3:[f10<291.375] yes=7,no=8,missing=7
			7:leaf=-0.00985862128
			8:leaf=0.0579726957
		4:[f17<0.480247408] yes=9,no=10,missing=9
			9:leaf=-0.000294918398
			10:leaf=-0.0483333133
	2:[f4<172.209717] yes=5,no=6,missing=5
		5:leaf=-0.0968704
		6:leaf=0.0375858508
booster[93]:
0:[f16<0.635206342] yes=1,no=2,missing=1
	1:[f15<2.23352051] yes=3,no=4,missing=3
		3:[f4<102.544067] yes=7,no=8,missing=7
			7:leaf=0.0869045779
			8:leaf=-0.0577476695
		4:[f17<0.41242367] yes=9,no=10,missing=9
			9:leaf=0.00676844036
			10:leaf=-0.00618600054
	2:[f0<198.354126] yes=5,no=6,missing=5
		5:[f17<0.353392303] yes=11,no=12,missing=11
			11:leaf=-0.0198690873
			12:leaf=-0.175530612
		6:[f15<3.11961913] yes=13,no=14,missing=13
			13:leaf=-0.0228098538
			14:leaf=0.052181609
booster[94]:
0:[f13<0.275894165] yes=1,no=2,missing=1
	1:[f16<0.504041195] yes=3,no=4,missing=3
		3:[f0<30.2566605] yes=7,no=8,missing=7
			7:leaf=0.000469879247
			8:leaf=0.0488569103
		4:[f17<0.416500092] yes=9,no=10,missing=9
			9:leaf=0.0245927293
			10:leaf=-0.0102648977
	2:[f16<0.47727707] yes=5,no=6,missing=5
		5:[f13<1.09173584] yes=11,no=12,missing=11
			11:leaf=0.0219090078
			12:leaf=-0.00731086312
		6:[f0<40.5921173] yes=13,no=14,missing=13
			13:leaf=-0.0578432865
			14:leaf=-0.00559384702
booster[95]:
0:[f13<0.794921875] yes=1,no=2,missing=1
	1:[f16<0.470248193] yes=3,no=4,missing=3
		3:[f3<1234.02136] yes=7,no=8,missing=7
			7:leaf=0.051889468
			8:leaf=-0.104692757
		4:[f17<0.41617623] yes=9,no=10,missing=9
			9:leaf=0.0172240194
			10:leaf=-0.0055297697
	2:[f3<732.986511] yes=5,no=6,missing=5
		5:[f17<0.37197575] yes=11,no=12,missing=11
			11:leaf=0.00291135325
			12:leaf=-0.0441276431
		6:[f15<3.31436062] yes=13,no=14,missing=13
			13:leaf=0.0086482605
			14:leaf=-0.0119322678
booster[96]:
0:[f16<0.563211441] yes=1,no=2,missing=1
	1:[f13<0.432540894] yes=3,no=4,missing=3
		3:[f17<0.429929137] yes=7,no=8,missing=7
			7:leaf=0.0584949739
			8:leaf=0.00468770927
		4:[f17<0.41242367] yes=9,no=10,missing=9
			9:leaf=0.00362534635
			10:leaf=-0.0151850302
	2:[f0<106.086655] yes=5,no=6,missing=5
		5:[f7<302.875] yes=11,no=12,missing=11
			11:leaf=0.0108802589
			12:leaf=-0.20781903
		6:[f4<133.710754] yes=13,no=14,missing=13
			13:leaf=-0.0173301678
			14:leaf=0.0219120439
booster[97]:
0:[f16<0.516415238] yes=1,no=2,missing=1
	1:[f13<0.938129425] yes=3,no=4,missing=3
		3:[f17<0.412282884] yes=7,no=8,missing=7
			7:leaf=0.0551052578
			8:leaf=0.00644662604
		4:[f17<0.393050909] yes=9,no=10,missing=9
			9:leaf=0.00123524212
			10:leaf=-0.0293208845
	2:[f0<88.87883] yes=5,no=6,missing=5
		5:[f17<0.444406569] yes=11,no=12,missing=11
			11:leaf=-0.0171612892
			12:leaf=-0.10881301
		6:[f4<54.7924042] yes=13,no=14,missing=13
			13:leaf=-0.0147026032
			14:leaf=0.0058725751
booster[98]:
0:[f6<0.81157577] yes=1,no=2,missing=1
	1:[f9<-1.92932129] yes=3,no=4,missing=3
		3:[f1<3.23815536] yes=7,no=8,missing=7
			7:leaf=-0.0138995294
			8:leaf=-0.0585800782
		4:[f15<2.62089753] yes=9,no=10,missing=9
			9:leaf=0.0247637853
			10:leaf=-0.00358836097
	2:[f3<744.506592] yes=5,no=6,missing=5
		5:[f13<1.07073975] yes=11,no=12,missing=11
			11:leaf=-0.000616321107
			12:leaf=-0.0385442562
		6:[f6<0.812954545] yes=13,no=14,missing=13
			13:leaf=0.123903178
			14:leaf=0.0145820994
booster[99]:
0:[f16<0.541185617] yes=1,no=2,missing=1
	1:[f13<0.42376709] yes=3,no=4,missing=3
		3:[f17<0.437751502] yes=7,no=8,missing=7
			7:leaf=0.0642426461
			8:leaf=0.00459284382
		4:[f17<0.419168532] yes=9,no=10,missing=9
			9:leaf=0.00412019202
			10:leaf=-0.0154788336
	2:[f0<98.2123566] yes=5,no=6,missing=5
		5:[f7<327.375] yes=11,no=12,missing=11
			11:leaf=-0.00652338145
			12:leaf=-0.164875746
		6:[f9<2.9465332] yes=13,no=14,missing=13
			13:leaf=-0.00928237755
			14:leaf=0.0529395528
booster[100]:
0:[f16<0.493790686] yes=1,no=2,missing=1
	1:[f13<0.54737854] yes=3,no=4,missing=3
		3:[f0<23.97089] yes=7,no=8,missing=7
			7:leaf=-0.00373318954
			8:leaf=0.0420059524
		4:[f17<0.452453792] yes=9,no=10,missing=9
			9:leaf=0.00241085025
			10:leaf=-0.0529520102
	2:[f15<2.78976154] yes=5,no=6,missing=5
		5:[f7<669.25] yes=11,no=12,missing=11
			11:leaf=0.0155831752
			12:leaf=-0.0462299213
		6:[f17<0.464343518] yes=13,no=14,missing=13
			13:leaf=-0.00673936261
			14:leaf=-0.0601255968
booster[101]:
0:[f3<2088.54272] yes=1,no=2,missing=1
	1:[f16<0.520839334] yes=3,no=4,missing=3
		3:[f13<0.681747437] yes=7,no=8,missing=7
			7:leaf=0.0144347129
			8:leaf=-0.00247690617
		4:[f0<88.7710419] yes=9,no=10,missing=9
			9:leaf=-0.0439043045
			10:leaf=-0.00375285186
	2:[f16<0.521636844] yes=5,no=6,missing=5
		5:[f14<-3.12505198] yes=11,no=12,missing=11
			11:leaf=-0.0147626242
			12:leaf=-0.0934392661
		6:[f18<0.822049141] yes=13,no=14,missing=13
			13:leaf=-0.0622846894
			14:leaf=0.109033279
booster[102]:
0:[f13<2.29400635] yes=1,no=2,missing=1
	1:[f3<772.723633] yes=3,no=4,missing=3
		3:[f17<0.450084865] yes=7,no=8,missing=7
			7:leaf=0.000367138709
			8:leaf=-0.0241799485
		4:[f5<0.738990605] yes=9,no=10,missing=9
			9:leaf=-0.00699092401
			10:leaf=0.0137184728
	2:[f1<3.50472331] yes=5,no=6,missing=5
		5:[f9<-2.67504883] yes=11,no=12,missing=11
			11:leaf=0.0412529409
			12:leaf=-0.0631031618
		6:[f12<-1.78076172] yes=13,no=14,missing=13
			13:leaf=0.186110497
			14:leaf=-0.0327995457
booster[103]:
0:[f13<0.19152832] yes=1,no=2,missing=1
	1:[f16<0.565488219] yes=3,no=4,missing=3
		3:[f17<0.426986247] yes=7,no=8,missing=7
			7:leaf=0.075781852
			8:leaf=0.009314592
		4:[f17<0.39392516] yes=9,no=10,missing=9
			9:leaf=0.0183672253
			10:leaf=-0.0291296132
	2:[f16<0.488862842] yes=5,no=6,missing=5
		5:[f13<1.09170532] yes=11,no=12,missing=11
			11:leaf=0.0147748739
			12:leaf=-0.00632482767
		6:[f1<-2.17040491] yes=13,no=14,missing=13
			13:leaf=-0.0323545597
			14:leaf=-0.00359776313
booster[104]:
0:[f8<1.59155273] yes=1,no=2,missing=1
	1:[f3<2088.54272] yes=3,no=4,missing=3
		3:[f18<0.42998457] yes=7,no=8,missing=7
			7:leaf=-0.0503610782
			8:leaf=0.00194173155
		4:[f16<0.521636844] yes=9,no=10,missing=9
			9:leaf=-0.0873509198
			10:leaf=0.0280152
	2:[f7<350.375] yes=5,no=6,missing=5
		5:[f17<0.458045542] yes=11,no=12,missing=11
			11:leaf=0.0123894401
			12:leaf=-0.112617232
		6:[f5<0.817548871] yes=13,no=14,missing=13
			13:leaf=-0.0843375698
			14:leaf=-0.00534724165
booster[105]:
0:[f15<2.62012219] yes=1,no=2,missing=1
	1:[f10<260.625] yes=3,no=4,missing=3
		3:[f8<1.46435547] yes=7,no=8,missing=7
			7:leaf=-0.0201443788
			8:leaf=0.0887466222
		4:[f4<60.0147095] yes=9,no=10,missing=9
			9:leaf=0.0606516078
			10:leaf=0.00185797585
	2:[f17<0.479521006] yes=5,no=6,missing=5
		5:[f16<0.594247699] yes=11,no=12,missing=11
			11:leaf=0.00110351981
			12:leaf=-0.0297148433
		6:[f3<806.78772] yes=13,no=14,missing=13
			13:leaf=-0.125791728
			14:leaf=-0.000172060783
booster[106]:
0:[f0<807.959839] yes=1,no=2,missing=1
	1:[f15<2.53094578] yes=3,no=4,missing=3
		3:[f10<291.375] yes=7,no=8,missing=7
			7:leaf=-0.00493898336
			8:leaf=0.0486960933
		4:[f16<0.533821821] yes=9,no=10,missing=9
			9:leaf=0.00198756601
			10:leaf=-0.0143193798
	2:[f4<172.209717] yes=5,no=6,missing=5
		5:leaf=-0.0952310488
		6:leaf=0.0405483544
booster[107]:
0:[f13<0.746782303] yes=1,no=2,missing=1
	1:[f16<0.470248193] yes=3,no=4,missing=3
		3:[f10<371.5] yes=7,no=8,missing=7
			7:leaf=0.0667772517
			8:leaf=0.00461229868
		4:[f17<0.416296124] yes=9,no=10,missing=9
			9:leaf=0.0179041997
			10:leaf=-0.00529567152
	2:[f16<0.459354877] yes=5,no=6,missing=5
		5:[f13<1.08505249] yes=11,no=12,missing=11
			11:leaf=0.0339243971
			12:leaf=-0.00445016799
		6:[f17<0.391467512] yes=13,no=14,missing=13
			13:leaf=-0.00209091953
			14:leaf=-0.0452504419
booster[108]:
0:[f6<0.81157577] yes=1,no=2,missing=1
	1:[f1<-4.56043768] yes=3,no=4,missing=3
		3:[f5<0.774113655] yes=7,no=8,missing=7
			7:leaf=-0.0944966748
			8:leaf=-0.0113873826
		4:[f8<1.0567627] yes=9,no=10,missing=9
			9:leaf=-0.000517664419
			10:leaf=-0.0214990024
	2:[f3<744.506592] yes=5,no=6,missing=5
		5:[f18<0.830818057] yes=11,no=12,missing=11
			11:leaf=0.00839785766
			12:leaf=-0.018964475
		6:[f4<4.75333452] yes=13,no=14,missing=13
			13:leaf=-0.0971873179
			14:leaf=0.0152478386
booster[109]:
0:[f13<0.376721382] yes=1,no=2,missing=1
	1:[f16<0.56309545] yes=3,no=4,missing=3
		3:[f17<0.433329105] yes=7,no=8,missing=7
			7:leaf=0.0520893149
			8:leaf=0.00456671463
		4:[f17<0.391847074] yes=9,no=10,missing=9
			9:leaf=0.0115980124
			10:leaf=-0.0325299688
	2:[f17<0.38841784] yes=5,no=6,missing=5
		5:[f13<1.28756714] yes=11,no=12,missing=11
			11:leaf=0.0195693355
			12:leaf=-0.00779709686
		6:[f16<0.500230074] yes=13,no=14,missing=13
			13:leaf=-0.00173838099
			14:leaf=-0.02725159
booster[110]:
0:[f15<2.78996801] yes=1,no=2,missing=1
	1:[f13<1.55603027] yes=3,no=4,missing=3
		3:[f16<0.516909599] yes=7,no=8,missing=7
			7:leaf=0.0442751609
			8:leaf=0.00543945795
		4:[f5<0.847560763] yes=9,no=10,missing=9
			9:leaf=-0.0976861566
			10:leaf=0.00662175193
	2:[f17<0.405213594] yes=5,no=6,missing=5
		5:[f16<0.594913483] yes=11,no=12,missing=11
			11:leaf=0.00926919561
			12:leaf=-0.031224981
		6:[f16<0.547035813] yes=13,no=14,missing=13
			13:leaf=-0.00453229388
			14:leaf=-0.0867282748
booster[111]:
0:[f13<0.833839417] yes=1,no=2,missing=1
	1:[f16<0.459161878] yes=3,no=4,missing=3
		3:[f3<913.086792] yes=7,no=8,missing=7
			7:leaf=0.0817976892
			8:leaf=-0.00948641729
		4:[f17<0.41617623] yes=9,no=10,missing=9
			9:leaf=0.0158849955
			10:leaf=-0.00386423618
	2:[f16<0.446538687] yes=5,no=6,missing=5
		5:[f13<1.0856781] yes=11,no=12,missing=11
			11:leaf=0.0547648929
			12:leaf=-0.00322132721
		6:[f17<0.403894007] yes=13,no=14,missing=13
			13:leaf=-0.008510652
			14:leaf=-0.0510649979
booster[112]:
0:[f15<3.18449664] yes=1,no=2,missing=1
	1:[f16<0.500225544] yes=3,no=4,missing=3
		3:[f13<0.921096802] yes=7,no=8,missing=7
			7:leaf=0.0193064455
			8:leaf=-0.00643800292
		4:[f0<46.8593979] yes=9,no=10,missing=9
			9:leaf=-0.0577266291
			10:leaf=-0.000584933441
	2:[f17<0.383553982] yes=5,no=6,missing=5
		5:[f9<0.945617676] yes=11,no=12,missing=11
			11:leaf=0.0119938748
			12:leaf=-0.0164081957
		6:[f16<0.491391778] yes=13,no=14,missing=13
			13:leaf=-0.017759081
			14:leaf=-0.0831506029
booster[113]:
0:[f13<0.23135376] yes=1,no=2,missing=1
	1:[f16<0.493985236] yes=3,no=4,missing=3
		3:[f3<535.368774] yes=7,no=8,missing=7
			7:leaf=-0.0338517651
			8:leaf=0.0474841446
		4:[f18<0.930557668] yes=9,no=10,missing=9
			9:leaf=0.0111672729
			10:leaf=-0.0368384831
	2:[f5<0.872596085] yes=5,no=6,missing=5
		5:[f4<112.214066] yes=11,no=12,missing=11
			11:leaf=-0.00719334325
			12:leaf=0.0148634184
		6:[f4<189.891403] yes=13,no=14,missing=13
			13:leaf=0.0132899331
			14:leaf=-0.086223416
booster[114]:
0:[f15<2.53094578] yes=1,no=2,missing=1
	1:[f10<255.3125] yes=3,no=4,missing=3
		3:[f2<1.55503881] yes=7,no=8,missing=7
			7:leaf=-0.0298715867
			8:leaf=0.0299210101
		4:[f0<579.084839] yes=9,no=10,missing=9
			9:leaf=0.0501589067
			10:leaf=-0.0204804111
	2:[f16<0.533821821] yes=5,no=6,missing=5
		5:[f17<0.462446451] yes=11,no=12,missing=11
			11:leaf=0.00489320327
			12:leaf=-0.0182952117
		6:[f17<0.41617623] yes=13,no=14,missing=13
			13:leaf=-0.00294621591
			14:leaf=-0.0543445423
booster[115]:
0:[f13<0.376721382] yes=1,no=2,missing=1
	1:[f16<0.56309545] yes=3,no=4,missing=3
		3:[f17<0.433329105] yes=7,no=8,missing=7
			7:leaf=0.0500334017
			8:leaf=0.00474328594
		4:[f12<2.33789062] yes=9,no=10,missing=9
			9:leaf=-0.00427131308
			10:leaf=-0.0615495928
	2:[f11<-1.40625] yes=5,no=6,missing=5
		5:[f17<0.3771846] yes=11,no=12,missing=11
			11:leaf=-0.00727922423
			12:leaf=-0.0496236496
		6:[f17<0.419168532] yes=13,no=14,missing=13
			13:leaf=0.00387880835
			14:leaf=-0.0113409227
booster[116]:
0:[f13<0.920471191] yes=1,no=2,missing=1
	1:[f16<0.455942869] yes=3,no=4,missing=3
		3:[f1<-5.9723444] yes=7,no=8,missing=7
			7:leaf=-0.0886491612
			8:leaf=0.0624355488
		4:[f17<0.412282884] yes=9,no=10,missing=9
			9:leaf=0.0147813885
			10:leaf=-0.00418491429
	2:[f16<0.44380638] yes=5,no=6,missing=5
		5:[f13<1.01669312] yes=11,no=12,missing=11
			11:leaf=0.0813581347
			12:leaf=-0.00103354314
		6:[f17<0.393057942] yes=13,no=14,missing=13
			13:leaf=-0.00698028598
			14:leaf=-0.0566995628
booster[117]:
0:[f16<0.511774182] yes=1,no=2,missing=1
	1:[f13<0.801239014] yes=3,no=4,missing=3
		3:[f17<0.419304341] yes=7,no=8,missing=7
			7:leaf=0.0695043802
			8:leaf=0.00752038648
		4:[f17<0.405193269] yes=9,no=10,missing=9
			9:leaf=0.00220604963
			10:leaf=-0.0237942096
	2:[f0<58.1106644] yes=5,no=6,missing=5
		5:[f3<537.960205] yes=11,no=12,missing=11
			11:leaf=0.00795897003
			12:leaf=-0.0948632136
		6:[f15<2.35175323] yes=13,no=14,missing=13
			13:leaf=0.0211705919
			14:leaf=-0.0085613681
booster[118]:
0:[f3<770.380615] yes=1,no=2,missing=1
	1:[f17<0.444401175] yes=3,no=4,missing=3
		3:[f13<0.760025024] yes=7,no=8,missing=7
			7:leaf=0.0116006434
			8:leaf=-0.0151401302
		4:[f15<2.80109429] yes=9,no=10,missing=9
			9:leaf=0.023160968
			10:leaf=-0.0435081199
	2:[f5<0.738990605] yes=5,no=6,missing=5
		5:[f2<0.127546296] yes=11,no=12,missing=11
			11:leaf=0.00500420993
			12:leaf=-0.019607896
		6:[f0<682.511719] yes=13,no=14,missing=13
			13:leaf=0.012381644
			14:leaf=-0.0983915478
booster[119]:
0:[f16<0.524300575] yes=1,no=2,missing=1
	1:[f13<0.540176392] yes=3,no=4,missing=3
		3:[f17<0.441892028] yes=7,no=8,missing=7
			7:leaf=0.0556450151
			8:leaf=0.00492458744
		4:[f17<0.428091466] yes=9,no=10,missing=9
			9:leaf=0.00248999451
			10:leaf=-0.0233176388
	2:[f0<88.7710419] yes=5,no=6,missing=5
		5:[f18<0.819014311] yes=11,no=12,missing=11
			11:leaf=-0.0199016724
			12:leaf=-0.111092225
		6:[f15<2.35186028] yes=13,no=14,missing=13
			13:leaf=0.017356975
			14:leaf=-0.00792585127
booster[120]:
0:[f13<2.67974854] yes=1,no=2,missing=1
	1:[f16<0.635206342] yes=3,no=4,missing=3
		3:[f15<1.92037106] yes=7,no=8,missing=7
			7:leaf=0.1329685
			8:leaf=0.00111404189
		4:[f0<198.354126] yes=9,no=10,missing=9
			9:leaf=-0.117045738
			10:leaf=-0.0162291825
	2:[f2<2.17846894] yes=5,no=6,missing=5
		5:[f9<-2.48168945] yes=11,no=12,missing=11
			11:leaf=0.0369284488
			12:leaf=-0.100232594
		6:[f11<-1.0682373] yes=13,no=14,missing=13
			13:leaf=0.137484506
			14:leaf=-0.0564940087
booster[121]:
0:[f13<0.19152832] yes=1,no=2,missing=1
	1:[f18<0.470896572] yes=3,no=4,missing=3
		3:[f13<0.130405426] yes=7,no=8,missing=7
			7:leaf=-0.0975038409
			8:leaf=0.00810568873
		4:[f17<0.360834062] yes=9,no=10,missing=9
			9:leaf=0.0808259919
			10:leaf=0.0113606425
	2:[f16<0.488862842] yes=5,no=6,missing=5
		5:[f13<1.23191833] yes=11,no=12,missing=11
			11:leaf=0.0123371892
			12:leaf=-0.00857540499
		6:[f0<133.471039] yes=13,no=14,missing=13
			13:leaf=-0.0198415462
			14:leaf=0.00150465115
booster[122]:
0:[f16<0.544260025] yes=1,no=2,missing=1
	1:[f13<0.412475586] yes=3,no=4,missing=3
		3:[f17<0.437751502] yes=7,no=8,missing=7
			7:leaf=0.0562760904
			8:leaf=0.00536001986
		4:[f14<-3.01950073] yes=9,no=10,missing=9
			9:leaf=-0.0165961701
			10:leaf=0.00285994704
	2:[f0<97.0562134] yes=5,no=6,missing=5
		5:[f7<305.25] yes=11,no=12,missing=11
			11:leaf=0.0234620608
			12:leaf=-0.150950596
		6:[f17<0.391638458] yes=13,no=14,missing=13
			13:leaf=0.00528843189
			14:leaf=-0.0182551276
booster[123]:
0:[f3<771.672852] yes=1,no=2,missing=1
	1:[f17<0.38841784] yes=3,no=4,missing=3
		3:[f0<156.071075] yes=7,no=8,missing=7
			7:leaf=0.0243851058
			8:leaf=-0.018277999
		4:[f15<2.78563118] yes=9,no=10,missing=9
			9:leaf=0.0132107986
			10:leaf=-0.0183271039
	2:[f5<0.738990605] yes=5,no=6,missing=5
		5:[f2<2.12295032] yes=11,no=12,missing=11
			11:leaf=-0.000661509577
			12:leaf=-0.0334786288
		6:[f0<682.511719] yes=13,no=14,missing=13
			13:leaf=0.011301145
			14:leaf=-0.0972175896
booster[124]:
0:[f15<3.25342035] yes=1,no=2,missing=1
	1:[f16<0.473185897] yes=3,no=4,missing=3
		3:[f13<1.23191833] yes=7,no=8,missing=7
			7:leaf=0.0273120198
			8:leaf=-0.0125539443
		4:[f4<70.3133163] yes=9,no=10,missing=9
			9:leaf=-0.00715049729
			10:leaf=0.0102252355
	2:[f16<0.436039627] yes=5,no=6,missing=5
		5:[f15<3.31540251] yes=11,no=12,missing=11
			11:leaf=0.0444527492
			12:leaf=-0.00745164556
		6:[f17<0.392676055] yes=13,no=14,missing=13
			13:leaf=-0.0191532653
			14:leaf=-0.081163913
booster[125]:
0:[f13<0.675308228] yes=1,no=2,missing=1
	1:[f16<0.469277322] yes=3,no=4,missing=3
		3:[f10<411.75] yes=7,no=8,missing=7
			7:leaf=0.0802960247
			8:leaf=-0.0511066504
		4:[f17<0.430231094] yes=9,no=10,missing=9
			9:leaf=0.0127090961
			10:leaf=-0.00450031832
	2:[f16<0.456764847] yes=5,no=6,missing=5
		5:[f13<1.0856781] yes=11,no=12,missing=11
			11:leaf=0.0343610235
			12:leaf=-0.00372939254
		6:[f0<135.685364] yes=13,no=14,missing=13
			13:leaf=-0.0280818027
			14:leaf=0.00189533865
booster[126]:
0:[f16<0.511258841] yes=1,no=2,missing=1
	1:[f13<0.614692688] yes=3,no=4,missing=3
		3:[f17<0.433808923] yes=7,no=8,missing=7
			7:leaf=0.0696019679
			8:leaf=0.0090248771
		4:[f17<0.419298112] yes=9,no=10,missing=9
			9:leaf=0.00358742848
			10:leaf=-0.0192633923
	2:[f0<59.633503] yes=5,no=6,missing=5
		5:[f13<0.259429932] yes=11,no=12,missing=11
			11:leaf=-0.0230801012
			12:leaf=-0.103980161
		6:[f8<-0.780944824] yes=13,no=14,missing=13
			13:leaf=-0.0229758602
			14:leaf=-0.00045676739
booster[127]:
0:[f4<305.889404] yes=1,no=2,missing=1
	1:[f4<112.037163] yes=3,no=4,missing=3
		3:[f16<0.586933792] yes=7,no=8,missing=7
			7:leaf=0.000508245605
			8:leaf=-0.0199409295
		4:[f11<1.00720215] yes=9,no=10,missing=9
			9:leaf=0.0238260478
			10:leaf=-0.0342708938
	2:[f18<0.493928909] yes=5,no=6,missing=5
		5:leaf=0.0198690519
		6:[f6<0.545481563] yes=11,no=12,missing=11
			11:leaf=-0.023741385
			12:leaf=-0.131684855
booster[128]:
0:[f8<1.05700684] yes=1,no=2,missing=1
	1:[f13<2.06119156] yes=3,no=4,missing=3
		3:[f17<0.391571432] yes=7,no=8,missing=7
			7:leaf=0.0104459357
			8:leaf=-0.00154558907
		4:[f5<0.902462542] yes=9,no=10,missing=9
			9:leaf=-0.0456482545
			10:leaf=0.0760789663
	2:[f2<3.11910248] yes=5,no=6,missing=5
		5:[f6<0.747157335] yes=11,no=12,missing=11
			11:leaf=-0.0298123658
			12:leaf=-0.00439411448
		6:leaf=0.137504801
booster[129]:
0:[f13<0.275894165] yes=1,no=2,missing=1
	1:[f16<0.504041195] yes=3,no=4,missing=3
		3:[f18<0.912301064] yes=7,no=8,missing=7
			7:leaf=0.077658996
			8:leaf=0.0172896739
		4:[f18<0.876766503] yes=9,no=10,missing=9
			9:leaf=0.00818847027
			10:leaf=-0.0226664413
	2:[f16<0.483821601] yes=5,no=6,missing=5
		5:[f13<1.23191833] yes=11,no=12,missing=11
			11:leaf=0.0123701049
			12:leaf=-0.00798940845
		6:[f0<134.220627] yes=13,no=14,missing=13
			13:leaf=-0.0196302347
			14:leaf=0.00239248737
booster[130]:
0:[f3<2077.82886] yes=1,no=2,missing=1
	1:[f3<771.672852] yes=3,no=4,missing=3
		3:[f17<0.38841784] yes=7,no=8,missing=7
			7:leaf=0.00822692271
			8:leaf=-0.0101373773
		4:[f5<0.738990605] yes=9,no=10,missing=9
			9:leaf=-0.004310661
			10:leaf=0.0102492981
	2:[f16<0.521636844] yes=5,no=6,missing=5
		5:[f14<-3.12505198] yes=11,no=12,missing=11
			11:leaf=-0.00775846094
			12:leaf=-0.0913125947
		6:[f9<-0.490371704] yes=13,no=14,missing=13
			13:leaf=-0.0654698387
			14:leaf=0.111166671
booster[131]:
0:[f13<1.04110181] yes=1,no=2,missing=1
	1:[f16<0.437238932] yes=3,no=4,missing=3
		3:[f4<11.7934322] yes=7,no=8,missing=7
			7:leaf=-0.0590809844
			8:leaf=0.114375666
		4:[f15<3.2535677] yes=9,no=10,missing=9
			9:leaf=0.00275612646
			10:leaf=-0.0520436727
	2:[f16<0.411527425] yes=5,no=6,missing=5
		5:[f13<1.40400696] yes=11,no=12,missing=11
			11:leaf=0.0595565699
			12:leaf=-0.00130775711
		6:[f17<0.355016589] yes=13,no=14,missing=13
			13:leaf=0.00384969264
			14:leaf=-0.0312758163
booster[132]:
0:[f16<0.535006464] yes=1,no=2,missing=1
	1:[f13<0.412475586] yes=3,no=4,missing=3
		3:[f17<0.451962829] yes=7,no=8,missing=7
			7:leaf=0.0412571616
			8:leaf=0.0017131411
		4:[f17<0.442313552] yes=9,no=10,missing=9
			9:leaf=0.00196103286
			10:leaf=-0.0236037727
	2:[f0<85.9365616] yes=5,no=6,missing=5
		5:[f8<0.401184082] yes=11,no=12,missing=11
			11:leaf=-0.0987693146
			12:leaf=0.0161897596
		6:[f15<1.91718268] yes=13,no=14,missing=13
			13:leaf=0.0319225602
			14:leaf=-0.00883087516
booster[133]:
0:[f15<2.62012219] yes=1,no=2,missing=1
	1:[f4<130.795013] yes=3,no=4,missing=3
		3:[f10<255.3125] yes=7,no=8,missing=7
			7:leaf=-0.00842160638
			8:leaf=0.0345444456
		4:[f0<724.272339] yes=9,no=10,missing=9
			9:leaf=-0.0779965296
			10:leaf=0.0445543006
	2:[f17<0.479521006] yes=5,no=6,missing=5
		5:[f16<0.594247699] yes=11,no=12,missing=11
			11:leaf=0.00106206303
			12:leaf=-0.027225038
		6:[f3<1059.63074] yes=13,no=14,missing=13
			13:leaf=-0.0879959762
			14:leaf=0.0294414349
booster[134]:
0:[f6<0.804168701] yes=1,no=2,missing=1
	1:[f6<0.802927971] yes=3,no=4,missing=3
		3:[f9<-1.42822266] yes=7,no=8,missing=7
			7:leaf=-0.0151341399
			8:leaf=0.00114405423
		4:[f15<3.06405282] yes=9,no=10,missing=9
			9:leaf=-0.131752238
			10:leaf=-0.0207010712
	2:[f3<744.497925] yes=5,no=6,missing=5
		5:[f5<0.898429453] yes=11,no=12,missing=11
			11:leaf=-0.00870388094
			12:leaf=0.0329296775
		6:[f18<0.758338034] yes=13,no=14,missing=13
			13:leaf=-0.0064495909
			14:leaf=0.019118594
booster[135]:
0:[f13<0.878967285] yes=1,no=2,missing=1
	1:[f16<0.458235681] yes=3,no=4,missing=3
		3:[f15<3.21029854] yes=7,no=8,missing=7
			7:leaf=0.0695406571
			8:leaf=-0.00775666116
		4:[f17<0.412276477] yes=9,no=10,missing=9
			9:leaf=0.0151311113
			10:leaf=-0.00385351037
	2:[f16<0.437923849] yes=5,no=6,missing=5
		5:[f13<1.10388184] yes=11,no=12,missing=11
			11:leaf=0.0659917668
			12:leaf=-0.00243925536
		6:[f17<0.354966581] yes=13,no=14,missing=13
			13:leaf=0.00817765575
			14:leaf=-0.0275552664
booster[136]:
0:[f4<28.8806591] yes=1,no=2,missing=1
	1:[f10<431.875] yes=3,no=4,missing=3
		3:[f6<0.494117528] yes=7,no=8,missing=7
			7:leaf=0.0524128862
			8:leaf=-0.0148107437
		4:[f10<454.375] yes=9,no=10,missing=9
			9:leaf=0.0688116997
			10:leaf=0.00618636934
	2:[f1<-4.48501587] yes=5,no=6,missing=5
		5:[f16<0.408363283] yes=11,no=12,missing=11
			11:leaf=0.0351527929
			12:leaf=-0.060248863
		6:[f16<0.589547276] yes=13,no=14,missing=13
			13:leaf=0.00543858903
			14:leaf=-0.0128202438
booster[137]:
0:[f15<2.78996801] yes=1,no=2,missing=1
	1:[f13<1.55603027] yes=3,no=4,missing=3
		3:[f16<0.516909599] yes=7,no=8,missing=7
			7:leaf=0.0417438857
			8:leaf=0.00452992087
		4:[f5<0.847560763] yes=9,no=10,missing=9
			9:leaf=-0.0940923244
			10:leaf=0.00846936554
	2:[f17<0.405213594] yes=5,no=6,missing=5
		5:[f13<1.23193359] yes=11,no=12,missing=11
			11:leaf=0.015018994
			12:leaf=-0.00692790607
		6:[f16<0.547035813] yes=13,no=14,missing=13
			13:leaf=-0.00458470546
			14:leaf=-0.0714147836
booster[138]:
0:[f13<0.675308228] yes=1,no=2,missing=1
	1:[f16<0.469277322] yes=3,no=4,missing=3
		3:[f10<411.75] yes=7,no=8,missing=7
			7:leaf=0.0765489265
			8:leaf=-0.046833124
		4:[f17<0.429671168] yes=9,no=10,missing=9
			9:leaf=0.0122686503
			10:leaf=-0.00396306673
	2:[f17<0.391835213] yes=5,no=6,missing=5
		5:[f13<1.28756714] yes=11,no=12,missing=11
			11:leaf=0.0150810247
			12:leaf=-0.00723980321
		6:[f15<3.33124995] yes=13,no=14,missing=13
			13:leaf=-0.0124151586
			14:leaf=-0.104912601
booster[139]:
0:[f16<0.514801621] yes=1,no=2,missing=1
	1:[f15<3.01172352] yes=3,no=4,missing=3
		3:[f13<1.10752869] yes=7,no=8,missing=7
			7:leaf=0.028352594
			8:leaf=-0.020152647
		4:[f5<0.915390372] yes=9,no=10,missing=9
			9:leaf=-0.00196994119
			10:leaf=0.0387524404
	2:[f5<0.927529693] yes=5,no=6,missing=5
		5:[f15<2.15074492] yes=11,no=12,missing=11
			11:leaf=0.0246340074
			12:leaf=-0.00803101622
		6:[f4<78.3180237] yes=13,no=14,missing=13
			13:leaf=-0.112102807
			14:leaf=0.0331701562
booster[140]:
0:[f16<0.694884419] yes=1,no=2,missing=1
	1:[f15<1.95405936] yes=3,no=4,missing=3
		3:[f13<0.789916992] yes=7,no=8,missing=7
			7:leaf=0.122938827
			8:leaf=-0.00400372501
		4:[f17<0.48290509] yes=9,no=10,missing=9
			9:leaf=0.0010498804
			10:leaf=-0.0303603746
	2:[f0<364.041382] yes=5,no=6,missing=5
		5:[f2<1.85256386] yes=11,no=12,missing=11
			11:leaf=-0.106986307
			12:leaf=-0.00197289861
		6:[f7<481.25] yes=13,no=14,missing=13
			13:leaf=0.03787449
			14:leaf=-0.0340087004
booster[141]:
0:[f13<0.194851875] yes=1,no=2,missing=1
	1:[f18<0.470896572] yes=3,no=4,missing=3
		3:[f13<0.130405426] yes=7,no=8,missing=7
			7:leaf=-0.0931549817
			8:leaf=0.00863968302
		4:[f2<-2.35823727] yes=9,no=10,missing=9
			9:leaf=0.0403563753
			10:leaf=0.00816808175
	2:[f16<0.488862842] yes=5,no=6,missing=5
		5:[f7<767.25] yes=11,no=12,missing=11
			11:leaf=0.00472853286
			12:leaf=-0.0622596852
		6:[f15<3.24309015] yes=13,no=14,missing=13
			13:leaf=-0.00621040445
			14:leaf=-0.0628557727
booster[142]:
0:[f17<0.627488494] yes=1,no=2,missing=1
	1:[f15<1.91718268] yes=3,no=4,missing=3
		3:[f16<0.779540122] yes=7,no=8,missing=7
			7:leaf=0.0987879038
			8:leaf=-0.0154926954
		4:[f16<0.586933792] yes=9,no=10,missing=9
			9:leaf=0.00129176013
			10:leaf=-0.0182432625
	2:[f18<0.971448898] yes=5,no=6,missing=5
		5:[f9<-1.89001465] yes=11,no=12,missing=11
			11:leaf=-0.0166399982
			12:leaf=-0.0876848102
		6:[f12<0.892883301] yes=13,no=14,missing=13
			13:leaf=-0.0579126477
			14:leaf=0.0920446366
booster[143]:
0:[f13<2.67974854] yes=1,no=2,missing=1
	1:[f3<772.723633] yes=3,no=4,missing=3
		3:[f17<0.450084865] yes=7,no=8,missing=7
			7:leaf=0.000163366218
			8:leaf=-0.0200424232
		4:[f6<0.898811758] yes=9,no=10,missing=9
			9:leaf=0.00258097774
			10:leaf=0.0272313934
	2:[f2<2.17846894] yes=5,no=6,missing=5
		5:[f9<-2.48168945] yes=11,no=12,missing=11
			11:leaf=0.0381293148
			12:leaf=-0.0984011963
		6:[f11<-1.09472656] yes=13,no=14,missing=13
			13:leaf=0.139111444
			14:leaf=-0.0562626719
booster[144]:
0:[f15<2.54135752] yes=1,no=2,missing=1
	1:[f16<0.631065249] yes=3,no=4,missing=3
		3:[f13<1.39794922] yes=7,no=8,missing=7
			7:leaf=0.041195333
			8:leaf=-0.0457645059
		4:[f16<1.1565007] yes=9,no=10,missing=9
			9:leaf=-0.00290789059
			10:leaf=-0.0883523971
	2:[f17<0.480247408] yes=5,no=6,missing=5
		5:[f13<0.440551758] yes=11,no=12,missing=11
			11:leaf=0.00815730914
			12:leaf=-0.00445102062
		6:[f10<511.625] yes=13,no=14,missing=13
			13:leaf=-0.0835810304
			14:leaf=0.0340775289
booster[145]:
0:[f16<0.500225544] yes=1,no=2,missing=1
	1:[f13<0.529327393] yes=3,no=4,missing=3
		3:[f18<0.9129861] yes=7,no=8,missing=7
			7:leaf=0.0699950084
			8:leaf=0.0116637535
		4:[f17<0.440232038] yes=9,no=10,missing=9
			9:leaf=0.00329102506
			10:leaf=-0.0294021815
	2:[f0<46.8593979] yes=5,no=6,missing=5
		5:[f13<0.284736633] yes=11,no=12,missing=11
			11:leaf=-0.0249135029
			12:leaf=-0.091408208
		6:[f15<3.17014599] yes=13,no=14,missing=13
			13:leaf=-0.00092458399
			14:leaf=-0.0290588923
booster[146]:
0:[f8<1.57543945] yes=1,no=2,missing=1
	1:[f3<2088.54272] yes=3,no=4,missing=3
		3:[f4<85.222168] yes=7,no=8,missing=7
			7:leaf=-0.00107174728
			8:leaf=0.0106168371
		4:[f13<0.232788086] yes=9,no=10,missing=9
			9:leaf=0.0298779607
			10:leaf=-0.0828235373
	2:[f7<350.375] yes=5,no=6,missing=5
		5:[f14<3.11121988] yes=11,no=12,missing=11
			11:leaf=-0.00760787446
			12:leaf=0.111012749
		6:[f5<0.84395349] yes=13,no=14,missing=13
			13:leaf=-0.0674920008
			14:leaf=0.00928205997
booster[147]:
0:[f4<305.889404] yes=1,no=2,missing=1
	1:[f4<108.376114] yes=3,no=4,missing=3
		3:[f15<2.72295284] yes=7,no=8,missing=7
			7:leaf=0.0138972169
			8:leaf=-0.00343302987
		4:[f11<1.00720215] yes=9,no=10,missing=9
			9:leaf=0.0204108357
			10:leaf=-0.0310449991
	2:[f18<0.493928909] yes=5,no=6,missing=5
		5:leaf=0.0232657231
		6:[f6<0.545481563] yes=11,no=12,missing=11
			11:leaf=-0.022002656
			12:leaf=-0.124663405
booster[148]:
0:[f16<0.514442265] yes=1,no=2,missing=1
	1:[f15<3.01172352] yes=3,no=4,missing=3
		3:[f13<1.17756653] yes=7,no=8,missing=7
			7:leaf=0.0254169945
			8:leaf=-0.0220348258
		4:[f5<0.912338972] yes=9,no=10,missing=9
			9:leaf=-0.00177553296
			10:leaf=0.0329988971
	2:[f17<0.387415588] yes=5,no=6,missing=5
		5:[f0<142.475571] yes=11,no=12,missing=11
			11:leaf=0.0458409376
			12:leaf=-0.00182161538
		6:[f15<2.35175323] yes=13,no=14,missing=13
			13:leaf=0.0180074908
			14:leaf=-0.0191055369
booster[149]:
0:[f16<0.563211441] yes=1,no=2,missing=1
	1:[f15<2.20069408] yes=3,no=4,missing=3
		3:[f8<0.467315674] yes=7,no=8,missing=7
			7:leaf=0.139881954
			8:leaf=-0.0521745495
		4:[f13<0.432540894] yes=9,no=10,missing=9
			9:leaf=0.0116932373
			10:leaf=-0.00298859063
	2:[f17<0.391847074] yes=5,no=6,missing=5
		5:[f16<0.617860317] yes=11,no=12,missing=11
			11:leaf=0.0230645929
			12:leaf=-0.0181322433
		6:[f0<149.820679] yes=13,no=14,missing=13
			13:leaf=-0.0948382244
			14:leaf=-0.0117908958
booster[150]:
0:[f0<807.959839] yes=1,no=2,missing=1
	1:[f15<2.52808452] yes=3,no=4,missing=3
		3:[f4<130.795013] yes=7,no=8,missing=7
			7:leaf=0.0220903531
			8:leaf=-0.0640759841
		4:[f17<0.462446451] yes=9,no=10,missing=9
			9:leaf=0.00102604029
			10:leaf=-0.0191770773
	2:[f4<172.209717] yes=5,no=6,missing=5
		5:leaf=-0.0924731195
		6:leaf=0.042228125
booster[151]:
0:[f16<0.496020615] yes=1,no=2,missing=1
	1:[f13<0.947647095] yes=3,no=4,missing=3
		3:[f17<0.408877611] yes=7,no=8,missing=7
			7:leaf=0.0736640915
			8:leaf=0.00806189608
		4:[f17<0.393050909] yes=9,no=10,missing=9
			9:leaf=0.00352372578
			10:leaf=-0.0255635362
	2:[f0<28.76791] yes=5,no=6,missing=5
		5:[f17<0.464831948] yes=11,no=12,missing=11
			11:leaf=0.012170814
			12:leaf=-0.103339247
		6:[f4<78.5941925] yes=13,no=14,missing=13
			13:leaf=-0.00867151655
			14:leaf=0.00792834349
booster[152]:
0:[f13<0.187000275] yes=1,no=2,missing=1
	1:[f3<433.806671] yes=3,no=4,missing=3
		3:leaf=-0.100590147
		4:[f15<1.58000422] yes=7,no=8,missing=7
			7:leaf=0.130138934
			8:leaf=0.0103290631
	2:[f16<0.488862842] yes=5,no=6,missing=5
		5:[f13<1.23191833] yes=9,no=10,missing=9
			9:leaf=0.0102468338
			10:leaf=-0.00644822419
		6:[f1<-2.17040491] yes=11,no=12,missing=11
			11:leaf=-0.026314456
			12:leaf=-0.00297712674
booster[153]:
0:[f3<772.723633] yes=1,no=2,missing=1
	1:[f17<0.416295052] yes=3,no=4,missing=3
		3:[f13<1.10006714] yes=7,no=8,missing=7
			7:leaf=0.0150105525
			8:leaf=-0.0220867302
		4:[f0<216.255554] yes=9,no=10,missing=9
			9:leaf=-0.0210721102
			10:leaf=0.0276743528
	2:[f5<0.731347501] yes=5,no=6,missing=5
		5:[f2<1.6233983] yes=11,no=12,missing=11
			11:leaf=0.00132195128
			12:leaf=-0.0251816604
		6:[f0<682.511719] yes=13,no=14,missing=13
			13:leaf=0.00954867061
			14:leaf=-0.0969480947
booster[154]:
0:[f16<0.586933792] yes=1,no=2,missing=1
	1:[f13<0.376789093] yes=3,no=4,missing=3
		3:[f17<0.403049141] yes=7,no=8,missing=7
			7:leaf=0.0734657273
			8:leaf=0.00636537466
		4:[f17<0.41242367] yes=9,no=10,missing=9
			9:leaf=0.00417432142
			10:leaf=-0.0117463293
	2:[f4<140.434326] yes=5,no=6,missing=5
		5:[f15<2.82320786] yes=11,no=12,missing=11
			11:leaf=-0.0048122718
			12:leaf=-0.0487474613
		6:[f6<0.703347087] yes=13,no=14,missing=13
			13:leaf=-0.0581176691
			14:leaf=0.0505222976
booster[155]:
0:[f16<0.541185617] yes=1,no=2,missing=1
	1:[f13<0.68157959] yes=3,no=4,missing=3
		3:[f17<0.431727588] yes=7,no=8,missing=7
			7:leaf=0.0463631824
			8:leaf=-0.000453049608
		4:[f17<0.383553982] yes=9,no=10,missing=9
			9:leaf=0.00562369963
			10:leaf=-0.0132640963
	2:[f17<0.38749975] yes=5,no=6,missing=5
		5:[f0<120.328758] yes=11,no=12,missing=11
			11:leaf=0.100775652
			12:leaf=0.000628621376
		6:[f15<2.34417701] yes=13,no=14,missing=13
			13:leaf=0.0109708821
			14:leaf=-0.0304445475
booster[156]:
0:[f16<0.520839334] yes=1,no=2,missing=1
	1:[f15<2.72611022] yes=3,no=4,missing=3
		3:[f13<1.32142639] yes=7,no=8,missing=7
			7:leaf=0.0500991531
			8:leaf=-0.0419540368
		4:[f17<0.468656659] yes=9,no=10,missing=9
			9:leaf=0.00376132573
			10:leaf=-0.025854243
	2:[f0<88.7710419] yes=5,no=6,missing=5
		5:[f17<0.444406569] yes=11,no=12,missing=11
			11:leaf=-0.016157629
			12:leaf=-0.104722358
		6:[f14<-3.1272583] yes=13,no=14,missing=13
			13:leaf=0.0481687263
			14:leaf=-0.0046127676
booster[157]:
0:[f17<0.627488494] yes=1,no=2,missing=1
	1:[f15<1.91718268] yes=3,no=4,missing=3
		3:[f17<0.404005945] yes=7,no=8,missing=7
			7:leaf=-0.0755553171
			8:leaf=0.0637199953
		4:[f16<0.694884419] yes=9,no=10,missing=9
			9:leaf=0.000264474307
			10:leaf=-0.0418016054
	2:[f12<2.2668457] yes=5,no=6,missing=5
		5:[f9<-1.89001465] yes=11,no=12,missing=11
			11:leaf=-0.00618240284
			12:leaf=-0.0872609466
		6:[f18<0.884447098] yes=13,no=14,missing=13
			13:leaf=-0.0564857237
			14:leaf=0.0931700468
booster[158]:
0:[f13<0.249328613] yes=1,no=2,missing=1
	1:[f16<0.493985236] yes=3,no=4,missing=3
		3:[f6<0.749153972] yes=7,no=8,missing=7
			7:leaf=-0.00146798161
			8:leaf=0.0548196547
		4:[f17<0.469468594] yes=9,no=10,missing=9
			9:leaf=0.0107498933
			10:leaf=-0.0255137272
	2:[f16<0.47727707] yes=5,no=6,missing=5
		5:[f13<1.09173584] yes=11,no=12,missing=11
			11:leaf=0.0176965836
			12:leaf=-0.00441171741
		6:[f0<34.2873154] yes=13,no=14,missing=13
			13:leaf=-0.0505851321
			14:leaf=-0.00487947091
booster[159]:
0:[f13<0.744832039] yes=1,no=2,missing=1
	1:[f16<0.500997424] yes=3,no=4,missing=3
		3:[f17<0.428091466] yes=7,no=8,missing=7
			7:leaf=0.0729053393
			8:leaf=0.00821044296
		4:[f17<0.416296124] yes=9,no=10,missing=9
			9:leaf=0.0117663378
			10:leaf=-0.0127476277
	2:[f16<0.459354877] yes=5,no=6,missing=5
		5:[f13<1.23191833] yes=11,no=12,missing=11
			11:leaf=0.0205352213
			12:leaf=-0.00548366364
		6:[f17<0.334333837] yes=13,no=14,missing=13
			13:leaf=0.0210356582
			14:leaf=-0.0244557988
booster[160]:
0:[f8<-1.47973633] yes=1,no=2,missing=1
	1:[f6<0.911235332] yes=3,no=4,missing=3
		3:[f8<-1.58972168] yes=7,no=8,missing=7
			7:leaf=-0.0104038818
			8:leaf=-0.0592844971
		4:[f8<-1.92565918] yes=9,no=10,missing=9
			9:leaf=-0.0428027585
			10:leaf=0.106255546
	2:[f8<1.05700684] yes=5,no=6,missing=5
		5:[f0<20.6362038] yes=11,no=12,missing=11
			11:leaf=-0.0189451445
			12:leaf=0.00407714164
		6:[f0<9.50208282] yes=13,no=14,missing=13
			13:leaf=0.0749503225
			14:leaf=-0.012256789
booster[161]:
0:[f3<732.831421] yes=1,no=2,missing=1
	1:[f13<0.492248535] yes=3,no=4,missing=3
		3:[f17<0.462454975] yes=7,no=8,missing=7
			7:leaf=0.0145714302
			8:leaf=-0.0228487793
		4:[f17<0.370878696] yes=9,no=10,missing=9
			9:leaf=0.0133394916
			10:leaf=-0.0246341173
	2:[f6<0.804168701] yes=5,no=6,missing=5
		5:[f6<0.802923083] yes=11,no=12,missing=11
			11:leaf=-0.00201703981
			12:leaf=-0.0905664191
		6:[f18<0.699452877] yes=13,no=14,missing=13
			13:leaf=-0.0110968882
			14:leaf=0.015584466
booster[162]:
0:[f11<2.40014648] yes=1,no=2,missing=1
	1:[f14<3.13918161] yes=3,no=4,missing=3
		3:[f16<0.563211441] yes=5,no=6,missing=5
			5:leaf=0.00196699146
			6:leaf=-0.0094844494
		4:[f11<0.0899658203] yes=7,no=8,missing=7
			7:leaf=0.000192273859
			8:leaf=-0.0998379737
	2:leaf=0.133859172
booster[163]:
0:[f13<2.67974854] yes=1,no=2,missing=1
	1:[f17<0.38730979] yes=3,no=4,missing=3
		3:[f7<751.25] yes=7,no=8,missing=7
			7:leaf=0.00829865504
			8:leaf=-0.0512815192
		4:[f15<3.3152132] yes=9,no=10,missing=9
			9:leaf=-0.00160594285
			10:leaf=-0.0708117336
	2:[f2<2.17846894] yes=5,no=6,missing=5
		5:[f9<-2.48168945] yes=11,no=12,missing=11
			11:leaf=0.036547225
			12:leaf=-0.0970701203
		6:[f11<-1.11315918] yes=13,no=14,missing=13
			13:leaf=0.134967551
			14:leaf=-0.0571390465
booster[164]:
0:[f11<-1.76501465] yes=1,no=2,missing=1
	1:[f10<425.75] yes=3,no=4,missing=3
		3:[f11<-1.79711914] yes=7,no=8,missing=7
			7:leaf=-0.0243963599
			8:leaf=-0.116404437
		4:[f16<0.379963607] yes=9,no=10,missing=9
			9:leaf=0.227928668
			10:leaf=-0.00811555702
	2:[f1<-5.50004387] yes=5,no=6,missing=5
		5:[f7<582] yes=11,no=12,missing=11
			11:leaf=-0.0864807293
			12:leaf=0.0699198693
		6:[f16<0.514801621] yes=13,no=14,missing=13
			13:leaf=0.0039763595
			14:leaf=-0.00469972473
booster[165]:
0:[f13<0.647140503] yes=1,no=2,missing=1
	1:[f16<0.469277322] yes=3,no=4,missing=3
		3:[f10<411.75] yes=7,no=8,missing=7
			7:leaf=0.0760165676
			8:leaf=-0.0648017004
		4:[f17<0.416296124] yes=9,no=10,missing=9
			9:leaf=0.0147562893
			10:leaf=-0.0021580325
	2:[f16<0.456764847] yes=5,no=6,missing=5
		5:[f13<1.23191833] yes=11,no=12,missing=11
			11:leaf=0.0226037037
			12:leaf=-0.0060430998
		6:[f0<238.245163] yes=13,no=14,missing=13
			13:leaf=-0.018891165
			14:leaf=0.0155311543
booster[166]:
0:[f13<0.878967285] yes=1,no=2,missing=1
	1:[f16<0.456028432] yes=3,no=4,missing=3
		3:[f15<3.20482206] yes=7,no=8,missing=7
			7:leaf=0.0774942264
			8:leaf=-0.00341512635
		4:[f17<0.412276477] yes=9,no=10,missing=9
			9:leaf=0.0135299312
			10:leaf=-0.00315961125
	2:[f16<0.436813593] yes=5,no=6,missing=5
		5:[f13<1.05062866] yes=11,no=12,missing=11
			11:leaf=0.0862974748
			12:leaf=0.0007485479
		6:[f17<0.354966581] yes=13,no=14,missing=13
			13:leaf=0.00904180203
			14:leaf=-0.0265766475
booster[167]:
0:[f16<0.563211441] yes=1,no=2,missing=1
	1:[f15<2.58443594] yes=3,no=4,missing=3
		3:[f0<203.012848] yes=7,no=8,missing=7
			7:leaf=-0.0264244433
			8:leaf=0.0484111272
		4:[f13<0.451324463] yes=9,no=10,missing=9
			9:leaf=0.0102585768
			10:leaf=-0.003755301
	2:[f1<-1.63193035] yes=5,no=6,missing=5
		5:[f15<1.77147722] yes=11,no=12,missing=11
			11:leaf=0.123193376
			12:leaf=-0.039873343
		6:[f1<1.47829723] yes=13,no=14,missing=13
			13:leaf=0.00515386928
			14:leaf=-0.0280780997
booster[168]:
0:[f16<0.524300575] yes=1,no=2,missing=1
	1:[f13<0.546691895] yes=3,no=4,missing=3
		3:[f17<0.441892028] yes=7,no=8,missing=7
			7:leaf=0.0459481403
			8:leaf=0.0032632784
		4:[f17<0.412442684] yes=9,no=10,missing=9
			9:leaf=0.00502795493
			10:leaf=-0.0159648787
	2:[f0<88.7710419] yes=5,no=6,missing=5
		5:[f18<0.833162546] yes=11,no=12,missing=11
			11:leaf=-0.0205508638
			12:leaf=-0.112344027
		6:[f4<14.815836] yes=13,no=14,missing=13
			13:leaf=-0.0351785384
			14:leaf=-0.00109757239
booster[169]:
0:[f13<1.64802551] yes=1,no=2,missing=1
	1:[f16<0.397591472] yes=3,no=4,missing=3
		3:[f13<1.44715881] yes=7,no=8,missing=7
			7:leaf=0.104608946
			8:leaf=0.0198216122
		4:[f15<3.42905998] yes=9,no=10,missing=9
			9:leaf=0.000831155223
			10:leaf=-0.0718075335
	2:[f10<292.125] yes=5,no=6,missing=5
		5:[f17<0.282838166] yes=11,no=12,missing=11
			11:leaf=-0.00681461859
			12:leaf=-0.0569022708
		6:[f16<0.391223133] yes=13,no=14,missing=13
			13:leaf=0.0159516837
			14:leaf=-0.0530606993
booster[170]:
0:[f3<772.723633] yes=1,no=2,missing=1
	1:[f10<242.1875] yes=3,no=4,missing=3
		3:[f0<156.385345] yes=7,no=8,missing=7
			7:leaf=0.0158225372
			8:leaf=-0.0153408153
		4:[f15<2.72983408] yes=9,no=10,missing=9
			9:leaf=0.0191173907
			10:leaf=-0.0162914991
	2:[f15<3.31436062] yes=5,no=6,missing=5
		5:[f16<0.427496791] yes=11,no=12,missing=11
			11:leaf=0.0361176655
			12:leaf=0.00475407019
		6:[f17<0.37906307] yes=13,no=14,missing=13
			13:leaf=-0.00215993659
			14:leaf=-0.0513500944
booster[171]:
0:[f4<305.889404] yes=1,no=2,missing=1
	1:[f17<0.396281093] yes=3,no=4,missing=3
		3:[f13<1.28756714] yes=7,no=8,missing=7
			7:leaf=0.0145610841
			8:leaf=-0.00695582712
		4:[f13<1.01650238] yes=9,no=10,missing=9
			9:leaf=-0.000704711536
			10:leaf=-0.0314772315
	2:[f18<0.493928909] yes=5,no=6,missing=5
		5:leaf=0.0212172307
		6:[f6<0.545481563] yes=11,no=12,missing=11
			11:leaf=-0.0169727113
			12:leaf=-0.119461812
booster[172]:
0:[f16<0.511774182] yes=1,no=2,missing=1
	1:[f13<1.03645325] yes=3,no=4,missing=3
		3:[f17<0.383548826] yes=7,no=8,missing=7
			7:leaf=0.0903091431
			8:leaf=0.00624177
		4:[f17<0.415824592] yes=9,no=10,missing=9
			9:leaf=-0.00245722081
			10:leaf=-0.0740374848
	2:[f17<0.387415588] yes=5,no=6,missing=5
		5:[f17<0.381864905] yes=11,no=12,missing=11
			11:leaf=0.000885437999
			12:leaf=0.050213214
		6:[f13<0.514892578] yes=13,no=14,missing=13
			13:leaf=-0.00438215444
			14:leaf=-0.0345079452
booster[173]:
0:[f16<0.493790686] yes=1,no=2,missing=1
	1:[f13<0.911102295] yes=3,no=4,missing=3
		3:[f17<0.412420511] yes=7,no=8,missing=7
			7:leaf=0.0749326572
			8:leaf=0.00724931806
		4:[f17<0.39289403] yes=9,no=10,missing=9
			9:leaf=0.00413500471
			10:leaf=-0.0187961403
	2:[f15<3.23764229] yes=5,no=6,missing=5
		5:[f17<0.388418078] yes=11,no=12,missing=11
			11:leaf=0.00943784695
			12:leaf=-0.00716616819
		6:[f17<0.307239354] yes=13,no=14,missing=13
			13:leaf=0.0226161387
			14:leaf=-0.0808285102
booster[174]:
0:[f16<0.586933792] yes=1,no=2,missing=1
	1:[f15<2.62513781] yes=3,no=4,missing=3
		3:[f4<130.795013] yes=7,no=8,missing=7
			7:leaf=0.0322856419
			8:leaf=-0.068236284
		4:[f17<0.457540154] yes=9,no=10,missing=9
			9:leaf=0.00253269589
			10:leaf=-0.0166085195
	2:[f4<140.434326] yes=5,no=6,missing=5
		5:[f15<2.82320786] yes=11,no=12,missing=11
			11:leaf=-0.00273214723
			12:leaf=-0.046434246
		6:[f6<0.703347087] yes=13,no=14,missing=13
			13:leaf=-0.0534142554
			14:leaf=0.045509126
booster[175]:
0:[f13<0.194851875] yes=1,no=2,missing=1
	1:[f16<0.665337741] yes=3,no=4,missing=3
		3:[f16<0.65405333] yes=7,no=8,missing=7
			7:leaf=0.0108266622
			8:leaf=0.142699003
		4:[f6<0.828543067] yes=9,no=10,missing=9
			9:leaf=-0.061034508
			10:leaf=0.0247673821
	2:[f16<0.483828962] yes=5,no=6,missing=5
		5:[f13<1.23191833] yes=11,no=12,missing=11
			11:leaf=0.0118062114
			12:leaf=-0.00620759046
		6:[f0<134.237213] yes=13,no=14,missing=13
			13:leaf=-0.0157186519
			14:leaf=0.0022053197
booster[176]:
0:[f16<0.542793512] yes=1,no=2,missing=1
	1:[f13<0.412475586] yes=3,no=4,missing=3
		3:[f17<0.433329105] yes=7,no=8,missing=7
			7:leaf=0.0531112067
			8:leaf=0.00579569442
		4:[f17<0.419168532] yes=9,no=10,missing=9
			9:leaf=0.004061535
			10:leaf=-0.0135252969
	2:[f0<98.2123566] yes=5,no=6,missing=5
		5:[f7<305.125] yes=11,no=12,missing=11
			11:leaf=0.0368332677
			12:leaf=-0.104044452
		6:[f9<2.9465332] yes=13,no=14,missing=13
			13:leaf=-0.0069013047
			14:leaf=0.0466369912
booster[177]:
0:[f3<732.831421] yes=1,no=2,missing=1
	1:[f13<0.503540039] yes=3,no=4,missing=3
		3:[f17<0.462454975] yes=7,no=8,missing=7
			7:leaf=0.0125555219
			8:leaf=-0.021862777
		4:[f17<0.370878696] yes=9,no=10,missing=9
			9:leaf=0.0115930364
			10:leaf=-0.022271147
	2:[f6<0.880756617] yes=5,no=6,missing=5
		5:[f5<0.679365754] yes=11,no=12,missing=11
			11:leaf=-0.011006685
			12:leaf=0.00424102927
		6:[f18<0.701103568] yes=13,no=14,missing=13
			13:leaf=-0.0191331506
			14:leaf=0.0268352833
booster[178]:
0:[f15<4.1868186] yes=1,no=2,missing=1
	1:[f11<2.39990234] yes=3,no=4,missing=3
		3:[f0<807.959839] yes=5,no=6,missing=5
			5:leaf=0.000264036324
			6:leaf=-0.0706287473
		4:leaf=0.128129154
	2:leaf=-0.0884742066
booster[179]:
0:[f15<2.52808452] yes=1,no=2,missing=1
	1:[f4<130.795013] yes=3,no=4,missing=3
		3:[f0<785.795776] yes=7,no=8,missing=7
			7:leaf=0.0227318946
			8:leaf=-0.0785430893
		4:[f0<724.272339] yes=9,no=10,missing=9
			9:leaf=-0.0730655566
			10:leaf=0.032623332
	2:[f16<0.533821821] yes=5,no=6,missing=5
		5:[f17<0.479521006] yes=11,no=12,missing=11
			11:leaf=0.00260996143
			12:leaf=-0.033673346
		6:[f17<0.426315188] yes=13,no=14,missing=13
			13:leaf=-0.00458189193
			14:leaf=-0.050616093
booster[180]:
0:[f13<0.80493927] yes=1,no=2,missing=1
	1:[f16<0.563097477] yes=3,no=4,missing=3
		3:[f17<0.412413776] yes=7,no=8,missing=7
			7:leaf=0.0423177108
			8:leaf=0.00105240371
		4:[f15<1.91718268] yes=9,no=10,missing=9
			9:leaf=0.0341829285
			10:leaf=-0.0151916612
	2:[f16<0.446538687] yes=5,no=6,missing=5
		5:[f13<1.0856781] yes=11,no=12,missing=11
			11:leaf=0.0461122282
			12:leaf=-0.00135090272
		6:[f17<0.403894007] yes=13,no=14,missing=13
			13:leaf=-0.00551594235
			14:leaf=-0.0386967994
booster[181]:
0:[f15<2.78996801] yes=1,no=2,missing=1
	1:[f13<1.55603027] yes=3,no=4,missing=3
		3:[f16<0.64300859] yes=7,no=8,missing=7
			7:leaf=0.019886231
			8:leaf=-0.0129148429
		4:[f5<0.847560763] yes=9,no=10,missing=9
			9:leaf=-0.0901549384
			10:leaf=0.0121576069
	2:[f17<0.405213594] yes=5,no=6,missing=5
		5:[f13<1.17138672] yes=11,no=12,missing=11
			11:leaf=0.0132495435
			12:leaf=-0.00474717841
		6:[f16<0.547035813] yes=13,no=14,missing=13
			13:leaf=-0.00407443754
			14:leaf=-0.0552147813
booster[182]:
0:[f3<770.380615] yes=1,no=2,missing=1
	1:[f16<0.475217462] yes=3,no=4,missing=3
		3:[f13<0.644668579] yes=7,no=8,missing=7
			7:leaf=0.0549018793
			8:leaf=0.000804612588
		4:[f15<3.16227627] yes=9,no=10,missing=9
			9:leaf=-0.00487281894
			10:leaf=-0.0436812453
	2:[f11<0.707397461] yes=5,no=6,missing=5
		5:[f1<-2.61252379] yes=11,no=12,missing=11
			11:leaf=-0.00620378507
			12:leaf=0.0117888218
		6:[f14<-3.06886911] yes=13,no=14,missing=13
			13:leaf=-0.0382557474
			14:leaf=0.00037955257
booster[183]:
0:[f5<0.301476389] yes=1,no=2,missing=1
	1:[f16<0.445034862] yes=3,no=4,missing=3
		3:leaf=0.0110849235
		4:[f2<-0.453469515] yes=7,no=8,missing=7
			7:leaf=-0.0351712666
			8:leaf=-0.132412732
	2:[f7<220.8125] yes=5,no=6,missing=5
		5:[f3<430.162048] yes=9,no=10,missing=9
			9:leaf=-0.0608437322
			10:leaf=0.0696323439
		6:[f13<0.187000275] yes=11,no=12,missing=11
			11:leaf=0.00952255633
			12:leaf=-0.00183720083
booster[184]:
0:[f16<0.501446128] yes=1,no=2,missing=1
	1:[f13<0.529327393] yes=3,no=4,missing=3
		3:[f18<0.9129861] yes=7,no=8,missing=7
			7:leaf=0.0593829863
			8:leaf=0.00958249625
		4:[f17<0.451371431] yes=9,no=10,missing=9
			9:leaf=0.00171907048
			10:leaf=-0.0408062749
	2:[f0<45.7955856] yes=5,no=6,missing=5
		5:[f15<3.12312937] yes=11,no=12,missing=11
			11:leaf=-0.0204510055
			12:leaf=-0.093437992
		6:[f15<3.15958953] yes=13,no=14,missing=13
			13:leaf=-0.000545216724
			14:leaf=-0.0238847863
booster[185]:
0:[f4<53.5925446] yes=1,no=2,missing=1
	1:[f15<2.67615867] yes=3,no=4,missing=3
		3:[f10<260.625] yes=7,no=8,missing=7
			7:leaf=-0.012937583
			8:leaf=0.0397920758
		4:[f3<903.172852] yes=9,no=10,missing=9
			9:leaf=-0.012308592
			10:leaf=0.0065156254
	2:[f14<-3.14049387] yes=5,no=6,missing=5
		5:[f13<0.518890381] yes=11,no=12,missing=11
			11:leaf=-0.0120134121
			12:leaf=-0.144971296
		6:[f7<948.25] yes=13,no=14,missing=13
			13:leaf=0.00572563196
			14:leaf=-0.059142258
booster[186]:
0:[f8<2.23779297] yes=1,no=2,missing=1
	1:[f8<2.18237305] yes=3,no=4,missing=3
		3:[f13<2.29400635] yes=7,no=8,missing=7
			7:leaf=0.000439145893
			8:leaf=-0.0399794839
		4:[f9<1.35009766] yes=9,no=10,missing=9
			9:leaf=0.211120948
			10:leaf=-0.0159862898
	2:[f14<3.11119699] yes=5,no=6,missing=5
		5:[f6<0.70716238] yes=11,no=12,missing=11
			11:leaf=0.0178518333
			12:leaf=-0.118787564
		6:leaf=0.0583449304
booster[187]:
0:[f11<-2.24829102] yes=1,no=2,missing=1
	1:[f14<2.96456003] yes=3,no=4,missing=3
		3:[f10<291.25] yes=7,no=8,missing=7
			7:leaf=-0.125559345
			8:leaf=-0.0147777973
		4:[f14<3.08031321] yes=9,no=10,missing=9
			9:leaf=0.0796365887
			10:leaf=-0.0755358711
	2:[f8<1.05700684] yes=5,no=6,missing=5
		5:[f18<0.998451114] yes=11,no=12,missing=11
			11:leaf=0.00200002152
			12:leaf=-0.060318131
		6:[f2<3.11910248] yes=13,no=14,missing=13
			13:leaf=-0.010728973
			14:leaf=0.122312441
booster[188]:
0:[f16<0.511774182] yes=1,no=2,missing=1
	1:[f13<0.959388733] yes=3,no=4,missing=3
		3:[f17<0.412282884] yes=7,no=8,missing=7
			7:leaf=0.0425587855
			8:leaf=0.00419235835
		4:[f17<0.419381082] yes=9,no=10,missing=9
			9:leaf=-0.00186028075
			10:leaf=-0.0537386127
	2:[f4<158.513809] yes=5,no=6,missing=5
		5:[f15<2.35175323] yes=11,no=12,missing=11
			11:leaf=0.016226856
			12:leaf=-0.010632637
		6:[f8<-0.836303711] yes=13,no=14,missing=13
			13:leaf=-0.0525321737
			14:leaf=0.0401930548
booster[189]:
0:[f16<0.635206342] yes=1,no=2,missing=1
	1:[f15<2.23352051] yes=3,no=4,missing=3
		3:[f4<102.544067] yes=7,no=8,missing=7
			7:leaf=0.0645780787
			8:leaf=-0.0586489514
		4:[f17<0.482789993] yes=9,no=10,missing=9
			9:leaf=0.0010073086
			10:leaf=-0.0405760966
	2:[f0<198.354126] yes=5,no=6,missing=5
		5:[f17<0.353392303] yes=11,no=12,missing=11
			11:leaf=-0.00839869212
			12:leaf=-0.149042472
		6:[f15<3.11961913] yes=13,no=14,missing=13
			13:leaf=-0.0165444277
			14:leaf=0.0600893274
booster[190]:
0:[f4<297.686523] yes=1,no=2,missing=1
	1:[f4<112.037163] yes=3,no=4,missing=3
		3:[f16<0.491485804] yes=7,no=8,missing=7
			7:leaf=0.00347494567
			8:leaf=-0.00575737795
		4:[f5<0.753133655] yes=9,no=10,missing=9
			9:leaf=-0.00821321737
			10:leaf=0.0261773169
	2:[f9<-1.2869873] yes=5,no=6,missing=5
		5:[f10<301.75] yes=11,no=12,missing=11
			11:leaf=-0.0910313353
			12:leaf=0.0641426668
		6:[f10<300] yes=13,no=14,missing=13
			13:leaf=-0.0273661613
			14:leaf=-0.116507567
booster[191]:
0:[f13<0.744832039] yes=1,no=2,missing=1
	1:[f17<0.429671168] yes=3,no=4,missing=3
		3:[f16<0.556590319] yes=7,no=8,missing=7
			7:leaf=0.0333034359
			8:leaf=-0.00810421351
		4:[f10<391.125] yes=9,no=10,missing=9
			9:leaf=-0.0117103131
			10:leaf=0.0127874883
	2:[f16<0.459354877] yes=5,no=6,missing=5
		5:[f13<1.23191833] yes=11,no=12,missing=11
			11:leaf=0.018779872
			12:leaf=-0.00508697191
		6:[f17<0.334333837] yes=13,no=14,missing=13
			13:leaf=0.0197707489
			14:leaf=-0.0222419724
booster[192]:
0:[f13<0.275894165] yes=1,no=2,missing=1
	1:[f2<3.02453732] yes=3,no=4,missing=3
		3:[f3<431.572083] yes=7,no=8,missing=7
			7:leaf=-0.0858361945
			8:leaf=0.00965583604
		4:[f8<-0.891967773] yes=9,no=10,missing=9
			9:leaf=0.0657911152
			10:leaf=-0.0749702677
	2:[f17<0.38730979] yes=5,no=6,missing=5
		5:[f13<1.34687042] yes=11,no=12,missing=11
			11:leaf=0.0145202829
			12:leaf=-0.00658498937
		6:[f15<3.3381474] yes=13,no=14,missing=13
			13:leaf=-0.00551367924
			14:leaf=-0.0837573707
booster[193]:
0:[f8<-1.47973633] yes=1,no=2,missing=1
	1:[f14<2.68292236] yes=3,no=4,missing=3
		3:[f6<0.890139699] yes=7,no=8,missing=7
			7:leaf=-0.0426189266
			8:leaf=0.0388876311
		4:[f18<0.965554595] yes=9,no=10,missing=9
			9:leaf=-0.00763993105
			10:leaf=0.0975230411
	2:[f16<0.483828962] yes=5,no=6,missing=5
		5:[f10<208.1875] yes=11,no=12,missing=11
			11:leaf=0.0638601705
			12:leaf=0.00452213641
		6:[f13<0.827972412] yes=13,no=14,missing=13
			13:leaf=0.000644109969
			14:leaf=-0.0216134991
booster[194]:
0:[f15<2.78996801] yes=1,no=2,missing=1
	1:[f13<1.55603027] yes=3,no=4,missing=3
		3:[f16<0.52033639] yes=7,no=8,missing=7
			7:leaf=0.0327430516
			8:leaf=0.00307765719
		4:[f5<0.847560763] yes=9,no=10,missing=9
			9:leaf=-0.0877350941
			10:leaf=0.00964870956
	2:[f17<0.396376014] yes=5,no=6,missing=5
		5:[f13<1.33926392] yes=11,no=12,missing=11
			11:leaf=0.0132192671
			12:leaf=-0.00562248146
		6:[f16<0.563612461] yes=13,no=14,missing=13
			13:leaf=-0.00423749676
			14:leaf=-0.0676338896
booster[195]:
0:[f5<0.301476389] yes=1,no=2,missing=1
	1:[f16<0.445034862] yes=3,no=4,missing=3
		3:leaf=0.0108306473
		4:[f2<-0.453469515] yes=7,no=8,missing=7
			7:leaf=-0.0346847214
			8:leaf=-0.124927774
	2:[f13<0.376721382] yes=5,no=6,missing=5
		5:[f16<0.635196924] yes=9,no=10,missing=9
			9:leaf=0.00904154126
			10:leaf=-0.022539204
		6:[f16<0.475250602] yes=11,no=12,missing=11
			11:leaf=0.00367743312
			12:leaf=-0.00792591646
booster[196]:
0:[f15<1.91718268] yes=1,no=2,missing=1
	1:[f16<0.779540122] yes=3,no=4,missing=3
		3:[f4<92.0319595] yes=7,no=8,missing=7
			7:leaf=0.0891826153
			8:leaf=-0.0250127316
		4:[f11<-0.330200195] yes=9,no=10,missing=9
			9:leaf=-0.07985387
			10:leaf=-0.000739894691
	2:[f16<0.601729035] yes=5,no=6,missing=5
		5:[f17<0.396376014] yes=11,no=12,missing=11
			11:leaf=0.0069302395
			12:leaf=-0.00296603213
		6:[f17<0.377582014] yes=13,no=14,missing=13
			13:leaf=-0.00102947734
			14:leaf=-0.0439722575
booster[197]:
0:[f13<0.920471191] yes=1,no=2,missing=1
	1:[f16<0.452047288] yes=3,no=4,missing=3
		3:[f6<0.512241781] yes=7,no=8,missing=7
			7:leaf=-0.077732794
			8:leaf=0.0614977553
		4:[f17<0.428093135] yes=9,no=10,missing=9
			9:leaf=0.0099291373
			10:leaf=-0.00475173583
	2:[f16<0.436813593] yes=5,no=6,missing=5
		5:[f13<1.03453064] yes=11,no=12,missing=11
			11:leaf=0.0920905396
			12:leaf=0.00149091973
		6:[f17<0.342054099] yes=13,no=14,missing=13
			13:leaf=0.0132868914
			14:leaf=-0.0272935983
booster[198]:
0:[f15<2.54135752] yes=1,no=2,missing=1
	1:[f16<0.508880734] yes=3,no=4,missing=3
		3:[f13<1.32537079] yes=7,no=8,missing=7
			7:leaf=0.107977927
			8:leaf=-0.0296904333
		4:[f0<255.403534] yes=9,no=10,missing=9
			9:leaf=-0.0329518504
			10:leaf=0.0145357251
	2:[f17<0.468788326] yes=5,no=6,missing=5
		5:[f13<0.657196045] yes=11,no=12,missing=11
			11:leaf=0.00675619347
			12:leaf=-0.00488974387
		6:[f3<866.139648] yes=13,no=14,missing=13
			13:leaf=-0.0579312518
			14:leaf=0.0175840445
booster[199]:
0:[f16<0.520839334] yes=1,no=2,missing=1
	1:[f13<0.971084595] yes=3,no=4,missing=3
		3:[f17<0.379879653] yes=7,no=8,missing=7
			7:leaf=0.117976807
			8:leaf=0.00594204525
		4:[f16<0.427426219] yes=9,no=10,missing=9
			9:leaf=0.00542738801
			10:leaf=-0.0152006624
	2:[f0<88.7710419] yes=5,no=6,missing=5
		5:[f13<0.453468323] yes=11,no=12,missing=11
			11:leaf=-0.016996637
			12:leaf=-0.116562821
		6:[f5<0.926888585] yes=13,no=14,missing=13
			13:leaf=-0.00142512901
			14:leaf=-0.0559832528
booster[200]:
0:[f15<4.1868186] yes=1,no=2,missing=1
	1:[f16<0.496020615] yes=3,no=4,missing=3
		3:[f13<0.54737854] yes=5,no=6,missing=5
			5:leaf=0.0182820838
			6:leaf=0.00036210136
		4:[f15<2.78976154] yes=7,no=8,missing=7
			7:leaf=0.00729620317
			8:leaf=-0.00799247902
	2:leaf=-0.0862841904
booster[201]:
0:[f6<0.804168701] yes=1,no=2,missing=1
	1:[f6<0.802220225] yes=3,no=4,missing=3
		3:[f2<-2.99881935] yes=7,no=8,missing=7
			7:leaf=0.0399458483
			8:leaf=-0.00349215302
		4:[f3<1371.06104] yes=9,no=10,missing=9
			9:leaf=-0.081706427
			10:leaf=0.163678631
	2:[f3<744.497925] yes=5,no=6,missing=5
		5:[f17<0.375914037] yes=11,no=12,missing=11
