booster[0]:
0:[f13<0.881828308] yes=1,no=2,missing=1
	1:[f5<0.591537952] yes=3,no=4,missing=3
		3:[f8<-2.43505859] yes=7,no=8,missing=7
			7:leaf=-0
			8:leaf=-0.197603807
		4:[f10<281.125] yes=9,no=10,missing=9
			9:leaf=-0.195108131
			10:leaf=-0.186158225
	2:[f13<1.28503323] yes=5,no=6,missing=5
		5:[f5<0.594175577] yes=11,no=12,missing=11
			11:leaf=-0.198497936
			12:leaf=-0.194885194
		6:leaf=-0.198325738
booster[1]:
0:[f13<0.797661185] yes=1,no=2,missing=1
	1:[f5<0.614652514] yes=3,no=4,missing=3
		3:[f5<0.480162352] yes=7,no=8,missing=7
			7:leaf=-0.180888027
			8:leaf=-0.177268073
		4:[f3<644.788391] yes=9,no=10,missing=9
			9:leaf=-0.177624315
			10:leaf=-0.168591097
	2:[f17<0.353561938] yes=5,no=6,missing=5
		5:leaf=-0.180379853
		6:[f3<678.599243] yes=11,no=12,missing=11
			11:leaf=-0.180257648
			12:leaf=-0.176843703
booster[2]:
0:[f13<0.841974258] yes=1,no=2,missing=1
	1:[f5<0.559413373] yes=3,no=4,missing=3
		3:[f8<-2.42504883] yes=7,no=8,missing=7
			7:leaf=-0.0101644248
			8:leaf=-0.166461915
		4:[f3<610.399109] yes=9,no=10,missing=9
			9:leaf=-0.165006682
			10:leaf=-0.15688622
	2:[f13<1.28380203] yes=5,no=6,missing=5
		5:[f5<0.594175577] yes=11,no=12,missing=11
			11:leaf=-0.167080864
			12:leaf=-0.163419634
		6:leaf=-0.166776642
booster[3]:
0:[f13<0.647148132] yes=1,no=2,missing=1
	1:[f5<0.61876595] yes=3,no=4,missing=3
		3:[f5<0.480162352] yes=7,no=8,missing=7
			7:leaf=-0.156631708
			8:leaf=-0.152943596
		4:[f3<644.807983] yes=9,no=10,missing=9
			9:leaf=-0.153152674
			10:leaf=-0.143808886
	2:[f13<1.27623749] yes=5,no=6,missing=5
		5:[f5<0.594171047] yes=11,no=12,missing=11
			11:leaf=-0.156339511
			12:leaf=-0.152428091
		6:leaf=-0.156173363
booster[4]:
0:[f17<0.381512582] yes=1,no=2,missing=1
	1:[f5<0.596379876] yes=3,no=4,missing=3
		3:leaf=-0.148634002
		4:[f13<1.33927917] yes=7,no=8,missing=7
			7:leaf=-0.144310176
			8:leaf=-0.147423282
	2:[f3<595.243286] yes=5,no=6,missing=5
		5:[f3<531.164551] yes=9,no=10,missing=9
			9:leaf=-0.147940949
			10:leaf=-0.145567819
		6:[f5<0.628789783] yes=11,no=12,missing=11
			11:leaf=-0.146388769
			12:leaf=-0.137916341
booster[5]:
0:[f13<0.797744751] yes=1,no=2,missing=1
	1:[f5<0.564477384] yes=3,no=4,missing=3
		3:[f7<394.625] yes=7,no=8,missing=7
			7:leaf=-0.137870118
			8:leaf=-0.141383365
		4:[f10<281.125] yes=9,no=10,missing=9
			9:leaf=-0.137603939
			10:leaf=-0.128790751
	2:[f13<1.27620697] yes=5,no=6,missing=5
		5:[f5<0.481979907] yes=11,no=12,missing=11
			11:leaf=-0.142011106
			12:leaf=-0.13750945
		6:leaf=-0.140800014
booster[6]:
0:[f13<0.797622681] yes=1,no=2,missing=1
	1:[f5<0.614652514] yes=3,no=4,missing=3
		3:[f5<0.480162352] yes=7,no=8,missing=7
			7:leaf=-0.135718822
			8:leaf=-0.131649524
		4:[f3<644.788391] yes=9,no=10,missing=9
			9:leaf=-0.132046804
			10:leaf=-0.12209294
	2:[f17<0.353561938] yes=5,no=6,missing=5
		5:[f5<0.594274759] yes=11,no=12,missing=11
			11:leaf=-0.136362463
			12:leaf=-0.134582445
		6:[f3<678.599243] yes=13,no=14,missing=13
			13:leaf=-0.135228455
			14:leaf=-0.131064713
booster[7]:
0:[f13<0.881828308] yes=1,no=2,missing=1
	1:[f5<0.596759439] yes=3,no=4,missing=3
		3:[f5<0.45497036] yes=7,no=8,missing=7
			7:leaf=-0.131235763
			8:leaf=-0.127231702
		4:[f10<281.125] yes=9,no=10,missing=9
			9:leaf=-0.126764446
			10:leaf=-0.116764188
	2:[f13<1.28380203] yes=5,no=6,missing=5
		5:[f5<0.563490629] yes=11,no=12,missing=11
			11:leaf=-0.130848661
			12:leaf=-0.126465455
		6:[f17<0.322244287] yes=13,no=14,missing=13
			13:leaf=-0.130952865
			14:leaf=-0.129364178
booster[8]:
0:[f13<0.647148132] yes=1,no=2,missing=1
	1:[f5<0.564248443] yes=3,no=4,missing=3
		3:[f7<369.875] yes=7,no=8,missing=7
			7:leaf=-0.121425107
			8:leaf=-0.126465291
		4:[f3<610.22876] yes=9,no=10,missing=9
			9:leaf=-0.123231485
			10:leaf=-0.112101272
	2:[f13<1.27623749] yes=5,no=6,missing=5
		5:[f5<0.594175577] yes=11,no=12,missing=11
			11:leaf=-0.126295969
			12:leaf=-0.121226408
		6:[f5<0.611372828] yes=13,no=14,missing=13
			13:leaf=-0.127398372
			14:leaf=-0.125539824
booster[9]:
0:[f13<0.881808281] yes=1,no=2,missing=1
	1:[f5<0.596759439] yes=3,no=4,missing=3
		3:[f5<0.45497036] yes=7,no=8,missing=7
			7:leaf=-0.123679772
			8:leaf=-0.119097166
		4:[f10<281.125] yes=9,no=10,missing=9
			9:leaf=-0.11852622
			10:leaf=-0.107215934
	2:[f13<1.28376961] yes=5,no=6,missing=5
		5:[f5<0.563490629] yes=11,no=12,missing=11
			11:leaf=-0.123193957
			12:leaf=-0.118201211
		6:[f17<0.322244287] yes=13,no=14,missing=13
			13:leaf=-0.123365484
			14:leaf=-0.121536531
booster[10]:
0:[f13<0.83526516] yes=1,no=2,missing=1
	1:[f5<0.596759439] yes=3,no=4,missing=3
		3:[f5<0.480162352] yes=7,no=8,missing=7
			7:leaf=-0.120279305
			8:leaf=-0.115172267
		4:[f3<644.788391] yes=9,no=10,missing=9
			9:leaf=-0.115519598
			10:leaf=-0.10331773
	2:[f13<1.28377724] yes=5,no=6,missing=5
		5:[f5<0.594175577] yes=11,no=12,missing=11
			11:leaf=-0.119799457
			12:leaf=-0.114434876
		6:[f5<0.582641602] yes=13,no=14,missing=13
			13:leaf=-0.121072553
			14:leaf=-0.118847243
booster[11]:
0:[f13<0.797622681] yes=1,no=2,missing=1
	1:[f5<0.614652514] yes=3,no=4,missing=3
		3:[f5<0.480162352] yes=7,no=8,missing=7
			7:leaf=-0.117578886
			8:leaf=-0.111866713
		4:[f3<644.788391] yes=9,no=10,missing=9
			9:leaf=-0.112299718
			10:leaf=-0.0987699255
	2:[f13<1.28376961] yes=5,no=6,missing=5
		5:[f5<0.594175577] yes=11,no=12,missing=11
			11:leaf=-0.116996422
			12:leaf=-0.111163437
		6:[f17<0.322244287] yes=13,no=14,missing=13
			13:leaf=-0.117665507
			14:leaf=-0.115526311
booster[12]:
0:[f13<0.881828308] yes=1,no=2,missing=1
	1:[f5<0.559413373] yes=3,no=4,missing=3
		3:[f7<369.875] yes=7,no=8,missing=7
			7:leaf=-0.108856104
			8:leaf=-0.114978947
		4:[f10<281.125] yes=9,no=10,missing=9
			9:leaf=-0.10921859
			10:leaf=-0.0961295739
	2:[f13<1.28380203] yes=5,no=6,missing=5
		5:[f5<0.563490629] yes=11,no=12,missing=11
			11:leaf=-0.115048252
			12:leaf=-0.108756304
		6:[f5<0.582641602] yes=13,no=14,missing=13
			13:leaf=-0.116188645
			14:leaf=-0.113584928
booster[13]:
0:[f13<0.936443329] yes=1,no=2,missing=1
	1:[f5<0.591537952] yes=3,no=4,missing=3
		3:[f5<0.45497036] yes=7,no=8,missing=7
			7:leaf=-0.113655291
			8:leaf=-0.107595555
		4:[f10<281.125] yes=9,no=10,missing=9
			9:leaf=-0.106687389
			10:leaf=-0.0922934934
	2:[f17<0.322244287] yes=5,no=6,missing=5
		5:[f5<0.596586704] yes=11,no=12,missing=11
			11:leaf=-0.114656858
			12:leaf=-0.112468474
		6:[f5<0.475996166] yes=13,no=14,missing=13
			13:leaf=-0.114326097
			14:leaf=-0.108069435
booster[14]:
0:[f13<0.797622681] yes=1,no=2,missing=1
	1:[f5<0.614652514] yes=3,no=4,missing=3
		3:[f5<0.480162352] yes=7,no=8,missing=7
			7:leaf=-0.111247711
			8:leaf=-0.103966512
		4:[f3<610.229248] yes=9,no=10,missing=9
			9:leaf=-0.106126368
			10:leaf=-0.0891401544
	2:[f13<1.28380203] yes=5,no=6,missing=5
		5:[f5<0.594175577] yes=11,no=12,missing=11
			11:leaf=-0.110472582
			12:leaf=-0.103041194
		6:[f17<0.322244287] yes=13,no=14,missing=13
			13:leaf=-0.111355141
			14:leaf=-0.108656064
booster[15]:
0:[f17<0.372762084] yes=1,no=2,missing=1
	1:[f5<0.596379876] yes=3,no=4,missing=3
		3:[f2<3.1409049] yes=7,no=8,missing=7
			7:leaf=-0.110516503
			8:leaf=-0.011179789
		4:[f13<1.32374573] yes=9,no=10,missing=9
			9:leaf=-0.10130465
			10:leaf=-0.107776336
	2:[f3<590.970459] yes=5,no=6,missing=5
		5:[f13<0.645729065] yes=11,no=12,missing=11
			11:leaf=-0.104566753
			12:leaf=-0.109820567
		6:[f5<0.564229727] yes=13,no=14,missing=13
			13:leaf=-0.107369557
			14:leaf=-0.0898887515
booster[16]:
0:[f13<0.881816864] yes=1,no=2,missing=1
	1:[f5<0.591537952] yes=3,no=4,missing=3
		3:[f5<0.45497036] yes=7,no=8,missing=7
			7:leaf=-0.108641677
			8:leaf=-0.100717805
		4:[f10<281.125] yes=9,no=10,missing=9
			9:leaf=-0.0994811133
			10:leaf=-0.0818329826
	2:[f13<1.28377724] yes=5,no=6,missing=5
		5:[f5<0.489288062] yes=11,no=12,missing=11
			11:leaf=-0.109201968
			12:leaf=-0.0994568542
		6:[f5<0.582641602] yes=13,no=14,missing=13
			13:leaf=-0.109332673
			14:leaf=-0.105736755
booster[17]:
0:[f13<0.797639847] yes=1,no=2,missing=1
	1:[f5<0.614652514] yes=3,no=4,missing=3
		3:[f5<0.480162352] yes=7,no=8,missing=7
			7:leaf=-0.10656289
			8:leaf=-0.097201094
		4:[f3<610.229248] yes=9,no=10,missing=9
			9:leaf=-0.0999008492
			10:leaf=-0.0792557672
	2:[f13<1.27619171] yes=5,no=6,missing=5
		5:[f5<0.594175577] yes=11,no=12,missing=11
			11:leaf=-0.105565168
			12:leaf=-0.0960779265
		6:[f17<0.322244287] yes=13,no=14,missing=13
			13:leaf=-0.106710173
			14:leaf=-0.103169002
booster[18]:
0:[f13<0.936435699] yes=1,no=2,missing=1
	1:[f5<0.564477384] yes=3,no=4,missing=3
		3:[f5<0.45497036] yes=7,no=8,missing=7
			7:leaf=-0.106013611
			8:leaf=-0.0976465642
		4:[f10<281.125] yes=9,no=10,missing=9
			9:leaf=-0.0955831856
			10:leaf=-0.0764231309
	2:[f17<0.322244287] yes=5,no=6,missing=5
		5:[f5<0.596586704] yes=11,no=12,missing=11
			11:leaf=-0.107610598
			12:leaf=-0.104192019
		6:[f5<0.475996166] yes=13,no=14,missing=13
			13:leaf=-0.107016824
			14:leaf=-0.0975774303
booster[19]:
0:[f17<0.372762084] yes=1,no=2,missing=1
	1:[f5<0.596377254] yes=3,no=4,missing=3
		3:[f3<640.734009] yes=7,no=8,missing=7
			7:leaf=-0.0965493247
			8:leaf=-0.105742119
		4:[f13<1.32374573] yes=9,no=10,missing=9
			9:leaf=-0.0925042853
			10:leaf=-0.101495862
	2:[f3<590.970459] yes=5,no=6,missing=5
		5:[f13<0.645729065] yes=11,no=12,missing=11
			11:leaf=-0.096960634
			12:leaf=-0.10415969
		6:[f5<0.563500106] yes=13,no=14,missing=13
			13:leaf=-0.100920968
			14:leaf=-0.0778576359
booster[20]:
0:[f13<0.881812096] yes=1,no=2,missing=1
	1:[f5<0.559413373] yes=3,no=4,missing=3
		3:[f7<369.875] yes=7,no=8,missing=7
			7:leaf=-0.0902737007
			8:leaf=-0.102251902
		4:[f3<608.143738] yes=9,no=10,missing=9
			9:leaf=-0.0948615372
			10:leaf=-0.0721806735
	2:[f13<1.28377724] yes=5,no=6,missing=5
		5:[f3<648.499878] yes=11,no=12,missing=11
			11:leaf=-0.10183765
			12:leaf=-0.0903008357
		6:[f5<0.582641602] yes=13,no=14,missing=13
			13:leaf=-0.104700185
			14:leaf=-0.099636361
booster[21]:
0:[f13<0.797622681] yes=1,no=2,missing=1
	1:[f5<0.614652514] yes=3,no=4,missing=3
		3:[f5<0.480162352] yes=7,no=8,missing=7
			7:leaf=-0.101685397
			8:leaf=-0.0888402537
		4:[f3<644.788391] yes=9,no=10,missing=9
			9:leaf=-0.0897078142
			10:leaf=-0.0645220503
	2:[f13<1.28377724] yes=5,no=6,missing=5
		5:[f5<0.594175577] yes=11,no=12,missing=11
			11:leaf=-0.100306109
			12:leaf=-0.0874081478
		6:[f17<0.322244287] yes=13,no=14,missing=13
			13:leaf=-0.101880662
			14:leaf=-0.0969760418
booster[22]:
0:[f17<0.372762084] yes=1,no=2,missing=1
	1:[f5<0.596379876] yes=3,no=4,missing=3
		3:[f7<374.875] yes=7,no=8,missing=7
			7:leaf=-0.0974219963
			8:leaf=-0.103623085
		4:[f13<1.32374573] yes=9,no=10,missing=9
			9:leaf=-0.0862078816
			10:leaf=-0.0973286405
	2:[f3<590.970459] yes=5,no=6,missing=5
		5:[f13<0.645729065] yes=11,no=12,missing=11
			11:leaf=-0.0915474817
			12:leaf=-0.100623004
		6:[f5<0.558337867] yes=13,no=14,missing=13
			13:leaf=-0.0968993455
			14:leaf=-0.0689213574
booster[23]:
0:[f13<1.02417755] yes=1,no=2,missing=1
	1:[f5<0.591537952] yes=3,no=4,missing=3
		3:[f5<0.454971313] yes=7,no=8,missing=7
			7:leaf=-0.10095115
			8:leaf=-0.0869058967
		4:[f10<278.625] yes=9,no=10,missing=9
			9:leaf=-0.0859639272
			10:leaf=-0.060397435
	2:[f17<0.321909219] yes=5,no=6,missing=5
		5:[f5<0.596586704] yes=11,no=12,missing=11
			11:leaf=-0.103347443
			12:leaf=-0.0978900194
		6:[f3<656.539368] yes=13,no=14,missing=13
			13:leaf=-0.0999360383
			14:leaf=-0.0886841565
booster[24]:
0:[f13<0.647132874] yes=1,no=2,missing=1
	1:[f5<0.564248443] yes=3,no=4,missing=3
		3:[f7<369.875] yes=7,no=8,missing=7
			7:leaf=-0.0787665322
			8:leaf=-0.0970065668
		4:[f3<594.065674] yes=9,no=10,missing=9
			9:leaf=-0.0872010291
			10:leaf=-0.0564001612
	2:[f17<0.353561938] yes=5,no=6,missing=5
		5:[f5<0.594290257] yes=11,no=12,missing=11
			11:leaf=-0.10146936
			12:leaf=-0.0935505852
		6:[f3<656.539368] yes=13,no=14,missing=13
			13:leaf=-0.0951893553
			14:leaf=-0.0788570121
booster[25]:
0:[f13<1.04376602] yes=1,no=2,missing=1
	1:[f5<0.558341861] yes=3,no=4,missing=3
		3:[f5<0.454971313] yes=7,no=8,missing=7
			7:leaf=-0.0991312265
			8:leaf=-0.0842484459
		4:[f10<278.625] yes=9,no=10,missing=9
			9:leaf=-0.0819302797
			10:leaf=-0.0553148277
	2:[f17<0.321909219] yes=5,no=6,missing=5
		5:[f5<0.596586704] yes=11,no=12,missing=11
			11:leaf=-0.102023281
			12:leaf=-0.0955897272
		6:[f5<0.512691498] yes=13,no=14,missing=13
			13:leaf=-0.0996873826
			14:leaf=-0.0854465216
booster[26]:
0:[f17<0.372762084] yes=1,no=2,missing=1
	1:[f5<0.596379876] yes=3,no=4,missing=3
		3:[f7<374.875] yes=7,no=8,missing=7
			7:leaf=-0.0918962583
			8:leaf=-0.100654721
		4:[f13<1.32374573] yes=9,no=10,missing=9
			9:leaf=-0.0770336017
			10:leaf=-0.0918619856
	2:[f3<588.371704] yes=5,no=6,missing=5
		5:[f13<0.645729065] yes=11,no=12,missing=11
			11:leaf=-0.0842976049
			12:leaf=-0.0966937169
		6:[f5<0.622401953] yes=13,no=14,missing=13
			13:leaf=-0.0867663324
			14:leaf=-0.0551448055
booster[27]:
0:[f13<0.841934204] yes=1,no=2,missing=1
	1:[f5<0.509307027] yes=3,no=4,missing=3
		3:[f7<369.625] yes=7,no=8,missing=7
			7:leaf=-0.0774083957
			8:leaf=-0.0968946591
		4:[f3<593.92511] yes=9,no=10,missing=9
			9:leaf=-0.0832043663
			10:leaf=-0.0516343825
	2:[f13<1.28376961] yes=5,no=6,missing=5
		5:[f5<0.489289343] yes=11,no=12,missing=11
			11:leaf=-0.0986249968
			12:leaf=-0.0753355846
		6:[f5<0.582641602] yes=13,no=14,missing=13
			13:leaf=-0.0987892225
			14:leaf=-0.089671962
booster[28]:
0:[f13<1.04376602] yes=1,no=2,missing=1
	1:[f5<0.591537952] yes=3,no=4,missing=3
		3:[f5<0.454971313] yes=7,no=8,missing=7
			7:leaf=-0.0964177549
			8:leaf=-0.0765052959
		4:[f10<277.375] yes=9,no=10,missing=9
			9:leaf=-0.075381808
			10:leaf=-0.0447932854
	2:[f17<0.321909219] yes=5,no=6,missing=5
		5:[f5<0.596586704] yes=11,no=12,missing=11
			11:leaf=-0.100174807
			12:leaf=-0.0918955058
		6:[f3<658.020691] yes=13,no=14,missing=13
			13:leaf=-0.0952071548
			14:leaf=-0.0786769018
booster[29]:
0:[f13<0.629886627] yes=1,no=2,missing=1
	1:[f5<0.564248443] yes=3,no=4,missing=3
		3:[f7<369.875] yes=7,no=8,missing=7
			7:leaf=-0.06539388
			8:leaf=-0.0909245089
		4:[f3<590.969849] yes=9,no=10,missing=9
			9:leaf=-0.0774321035
			10:leaf=-0.039898131
	2:[f13<1.27619171] yes=5,no=6,missing=5
		5:[f5<0.489289343] yes=11,no=12,missing=11
			11:leaf=-0.0963470787
			12:leaf=-0.068552576
		6:[f5<0.611375213] yes=13,no=14,missing=13
			13:leaf=-0.0964869857
			14:leaf=-0.0861906335
booster[30]:
0:[f17<0.372762084] yes=1,no=2,missing=1
	1:[f5<0.596379876] yes=3,no=4,missing=3
		3:[f7<374.875] yes=7,no=8,missing=7
			7:leaf=-0.085667856
			8:leaf=-0.0979583412
		4:[f13<1.47408295] yes=9,no=10,missing=9
			9:leaf=-0.0695878342
			10:leaf=-0.087444298
	2:[f3<588.371704] yes=5,no=6,missing=5
		5:[f13<0.645729065] yes=11,no=12,missing=11
			11:leaf=-0.076017417
			12:leaf=-0.092648603
		6:[f5<0.648425817] yes=13,no=14,missing=13
			13:leaf=-0.0769918784
			14:leaf=-0.0417308062
booster[31]:
0:[f5<0.50656414] yes=1,no=2,missing=1
	1:[f7<375.625] yes=3,no=4,missing=3
		3:[f6<0.913095236] yes=7,no=8,missing=7
			7:leaf=-0.0791696385
			8:leaf=-0.00899491087
		4:[f5<0.454972386] yes=9,no=10,missing=9
			9:leaf=-0.0980346203
			10:leaf=-0.0862941369
	2:[f10<277.375] yes=5,no=6,missing=5
		5:[f13<0.649612427] yes=11,no=12,missing=11
			11:leaf=-0.0638127103
			12:leaf=-0.083933495
		6:[f6<0.558296919] yes=13,no=14,missing=13
			13:leaf=-0.0826731995
			14:leaf=-0.0372124277
booster[32]:
0:[f13<1.08851624] yes=1,no=2,missing=1
	1:[f5<0.509227931] yes=3,no=4,missing=3
		3:[f7<375.625] yes=7,no=8,missing=7
			7:leaf=-0.0680230334
			8:leaf=-0.0923512205
		4:[f3<608.121704] yes=9,no=10,missing=9
			9:leaf=-0.0729537979
			10:leaf=-0.0386604816
	2:[f17<0.322244287] yes=5,no=6,missing=5
		5:[f5<0.596586704] yes=11,no=12,missing=11
			11:leaf=-0.0975591764
			12:leaf=-0.0869725347
		6:[f3<658.020691] yes=13,no=14,missing=13
			13:leaf=-0.0918316022
			14:leaf=-0.0706817508
booster[33]:
0:[f13<0.629886627] yes=1,no=2,missing=1
	1:[f5<0.518595576] yes=3,no=4,missing=3
		3:[f7<395.125] yes=7,no=8,missing=7
			7:leaf=-0.0627539977
			8:leaf=-0.090798296
		4:[f3<556.992432] yes=9,no=10,missing=9
			9:leaf=-0.0756476447
			10:leaf=-0.0303255599
	2:[f13<1.28376961] yes=5,no=6,missing=5
		5:[f5<0.489289343] yes=11,no=12,missing=11
			11:leaf=-0.0925217569
			12:leaf=-0.0585523322
		6:[f5<0.582641602] yes=13,no=14,missing=13
			13:leaf=-0.093971096
			14:leaf=-0.0798053965
booster[34]:
0:[f17<0.358153254] yes=1,no=2,missing=1
	1:[f5<0.611375213] yes=3,no=4,missing=3
		3:[f5<0.412674546] yes=7,no=8,missing=7
			7:leaf=-0.0999431908
			8:leaf=-0.0877603963
		4:[f13<1.71628189] yes=9,no=10,missing=9
			9:leaf=-0.0660054386
			10:leaf=-0.0859291553
	2:[f5<0.480162352] yes=5,no=6,missing=5
		5:[f7<370.125] yes=11,no=12,missing=11
			11:leaf=-0.0657020509
			12:leaf=-0.0931040198
		6:[f3<644.808472] yes=13,no=14,missing=13
			13:leaf=-0.066215001
			14:leaf=-0.0328445211
booster[35]:
0:[f13<0.936435699] yes=1,no=2,missing=1
	1:[f5<0.623668432] yes=3,no=4,missing=3
		3:[f5<0.45497036] yes=7,no=8,missing=7
			7:leaf=-0.0887196064
			8:leaf=-0.0584032349
		4:[f3<588.890503] yes=9,no=10,missing=9
			9:leaf=-0.0685739666
			10:leaf=-0.0253485795
	2:[f17<0.321909219] yes=5,no=6,missing=5
		5:[f5<0.596586704] yes=11,no=12,missing=11
			11:leaf=-0.0958327204
			12:leaf=-0.0817383155
		6:[f3<658.020691] yes=13,no=14,missing=13
			13:leaf=-0.0849852487
			14:leaf=-0.0597245358
booster[36]:
0:[f17<0.354320258] yes=1,no=2,missing=1
	1:[f5<0.611375213] yes=3,no=4,missing=3
		3:[f7<428.625] yes=7,no=8,missing=7
			7:leaf=-0.0830324069
			8:leaf=-0.096525982
		4:[f13<1.71628189] yes=9,no=10,missing=9
			9:leaf=-0.062120378
			10:leaf=-0.0828026757
	2:[f6<0.507344127] yes=5,no=6,missing=5
		5:[f3<860.066162] yes=11,no=12,missing=11
			11:leaf=-0.0635093898
			12:leaf=-0.0915419087
		6:[f10<277.375] yes=13,no=14,missing=13
			13:leaf=-0.0600945316
			14:leaf=-0.0254810285
booster[37]:
0:[f5<0.50656414] yes=1,no=2,missing=1
	1:[f7<375.625] yes=3,no=4,missing=3
		3:[f5<0.418812335] yes=7,no=8,missing=7
			7:leaf=-0.0816970989
			8:leaf=-0.0446162596
		4:[f5<0.454972386] yes=9,no=10,missing=9
			9:leaf=-0.0941419229
			10:leaf=-0.0763724446
	2:[f10<265.625] yes=5,no=6,missing=5
		5:[f13<0.66601944] yes=11,no=12,missing=11
			11:leaf=-0.0499099195
			12:leaf=-0.0757444352
		6:[f6<0.540527225] yes=13,no=14,missing=13
			13:leaf=-0.0746030211
			14:leaf=-0.0221321415
booster[38]:
0:[f5<0.596379876] yes=1,no=2,missing=1
	1:[f5<0.454974711] yes=3,no=4,missing=3
		3:[f7<352.375] yes=7,no=8,missing=7
			7:leaf=-0.0607959889
			8:leaf=-0.0925139487
		4:[f3<897.299683] yes=9,no=10,missing=9
			9:leaf=-0.0460219346
			10:leaf=-0.0773900673
	2:[f10<286.125] yes=5,no=6,missing=5
		5:[f13<0.649612427] yes=11,no=12,missing=11
			11:leaf=-0.0425640531
			12:leaf=-0.0698671639
		6:[f6<0.608524919] yes=13,no=14,missing=13
			13:leaf=-0.0630727634
			14:leaf=-0.00811828021
booster[39]:
0:[f13<1.09394073] yes=1,no=2,missing=1
	1:[f5<0.684899449] yes=3,no=4,missing=3
		3:[f7<429.375] yes=7,no=8,missing=7
			7:leaf=-0.0401197337
			8:leaf=-0.0739528984
		4:[f3<710.915527] yes=9,no=10,missing=9
			9:leaf=-0.0445148684
			10:leaf=-0.00104044087
	2:[f5<0.75022769] yes=5,no=6,missing=5
		5:[f5<0.472242117] yes=11,no=12,missing=11
			11:leaf=-0.0929684862
			12:leaf=-0.0727956071
		6:[f10<285.125] yes=13,no=14,missing=13
			13:leaf=-0.0740496144
			14:leaf=-0.0385605358
booster[40]:
0:[f13<0.61036396] yes=1,no=2,missing=1
	1:[f5<0.803302765] yes=3,no=4,missing=3
		3:[f6<0.516840458] yes=7,no=8,missing=7
			7:leaf=-0.0805414394
			8:leaf=-0.0330355279
		4:[f3<711.339111] yes=9,no=10,missing=9
			9:leaf=-0.0287968498
			10:leaf=0.0299297702
	2:[f5<0.471016616] yes=5,no=6,missing=5
		5:[f5<0.417160243] yes=11,no=12,missing=11
			11:leaf=-0.0959275141
			12:leaf=-0.073531419
		6:[f10<276.625] yes=13,no=14,missing=13
			13:leaf=-0.0666369423
			14:leaf=-0.0382602476
booster[41]:
0:[f5<0.480162352] yes=1,no=2,missing=1
	1:[f7<352.375] yes=3,no=4,missing=3
		3:[f6<0.913095236] yes=7,no=8,missing=7
			7:leaf=-0.0540715717
			8:leaf=0.106403351
		4:[f5<0.384954631] yes=9,no=10,missing=9
			9:leaf=-0.0941167101
			10:leaf=-0.0797430724
	2:[f13<1.27619171] yes=5,no=6,missing=5
		5:[f3<558.375427] yes=11,no=12,missing=11
			11:leaf=-0.0656219274
			12:leaf=-0.0196031202
		6:[f13<2.00153351] yes=13,no=14,missing=13
			13:leaf=-0.0599873774
			14:leaf=-0.0846140459
booster[42]:
0:[f17<0.353143275] yes=1,no=2,missing=1
	1:[f5<0.684028625] yes=3,no=4,missing=3
		3:[f7<428.625] yes=7,no=8,missing=7
			7:leaf=-0.0699765906
			8:leaf=-0.0902579129
		4:[f13<1.7159729] yes=9,no=10,missing=9
			9:leaf=-0.0442791954
			10:leaf=-0.0735172778
	2:[f6<0.507344127] yes=5,no=6,missing=5
		5:[f3<860.066162] yes=11,no=12,missing=11
			11:leaf=-0.0495475046
			12:leaf=-0.0859457478
		6:[f3<608.121704] yes=13,no=14,missing=13
			13:leaf=-0.0536379106
			14:leaf=-0.0134267481
booster[43]:
0:[f5<0.480162352] yes=1,no=2,missing=1
	1:[f7<352.375] yes=3,no=4,missing=3
		3:[f6<0.913095236] yes=7,no=8,missing=7
			7:leaf=-0.0494409017
			8:leaf=0.0943515152
		4:[f5<0.384954631] yes=9,no=10,missing=9
			9:leaf=-0.0929671973
			10:leaf=-0.0768486485
	2:[f13<0.605106354] yes=5,no=6,missing=5
		5:[f3<531.164551] yes=11,no=12,missing=11
			11:leaf=-0.0639254525
			12:leaf=-0.00603114953
		6:[f10<263.875] yes=13,no=14,missing=13
			13:leaf=-0.0632614791
			14:leaf=-0.0323751383
booster[44]:
0:[f4<132.703888] yes=1,no=2,missing=1
	1:[f13<1.09394073] yes=3,no=4,missing=3
		3:[f6<0.507344127] yes=7,no=8,missing=7
			7:leaf=-0.0666977614
			8:leaf=-0.0112152603
		4:[f13<1.72050476] yes=9,no=10,missing=9
			9:leaf=-0.0450967103
			10:leaf=-0.072832413
	2:[f4<192.023026] yes=5,no=6,missing=5
		5:[f16<0.531796575] yes=11,no=12,missing=11
			11:leaf=-0.0752285644
			12:leaf=-0.0434171073
		6:[f6<0.810081184] yes=13,no=14,missing=13
			13:leaf=-0.0934665799
			14:leaf=-0.0783211961
booster[45]:
0:[f5<0.480162352] yes=1,no=2,missing=1
	1:[f7<372.375] yes=3,no=4,missing=3
		3:[f5<0.361557275] yes=7,no=8,missing=7
			7:leaf=-0.0864004865
			8:leaf=-0.0267745685
		4:[f5<0.382229596] yes=9,no=10,missing=9
			9:leaf=-0.0930583179
			10:leaf=-0.0761325732
	2:[f10<286.125] yes=5,no=6,missing=5
		5:[f7<269.875] yes=11,no=12,missing=11
			11:leaf=-0.0663966238
			12:leaf=-0.0331715085
		6:[f6<0.605372488] yes=13,no=14,missing=13
			13:leaf=-0.0553453937
			14:leaf=0.00205879007
booster[46]:
0:[f5<0.803182542] yes=1,no=2,missing=1
	1:[f5<0.454974711] yes=3,no=4,missing=3
		3:[f7<352.375] yes=7,no=8,missing=7
			7:leaf=-0.0415612943
			8:leaf=-0.0851382017
		4:[f17<0.38125211] yes=9,no=10,missing=9
			9:leaf=-0.0549222045
			10:leaf=-0.0247458275
	2:[f10<313.625] yes=5,no=6,missing=5
		5:[f7<291.875] yes=11,no=12,missing=11
			11:leaf=-0.0582358241
			12:leaf=-0.0168655775
		6:[f6<0.609121323] yes=13,no=14,missing=13
			13:leaf=-0.0384648256
			14:leaf=0.0445414633
booster[47]:
0:[f4<132.703888] yes=1,no=2,missing=1
	1:[f13<0.556106567] yes=3,no=4,missing=3
		3:[f6<0.433079451] yes=7,no=8,missing=7
			7:leaf=-0.0793925747
			8:leaf=0.00243936782
		4:[f5<0.419306755] yes=9,no=10,missing=9
			9:leaf=-0.0880290791
			10:leaf=-0.0303443708
	2:[f4<192.023026] yes=5,no=6,missing=5
		5:[f16<0.531796575] yes=11,no=12,missing=11
			11:leaf=-0.071369715
			12:leaf=-0.0372528397
		6:[f6<0.849077702] yes=13,no=14,missing=13
			13:leaf=-0.0898525566
			14:leaf=-0.0687470511
booster[48]:
0:[f5<0.726769447] yes=1,no=2,missing=1
	1:[f3<957.158447] yes=3,no=4,missing=3
		3:[f4<127.242203] yes=7,no=8,missing=7
			7:leaf=-0.0241014063
			8:leaf=-0.0736471638
		4:[f6<0.724783182] yes=9,no=10,missing=9
			9:leaf=-0.0791735277
			10:leaf=-0.0476831309
	2:[f10<314.375] yes=5,no=6,missing=5
		5:[f7<287.125] yes=11,no=12,missing=11
			11:leaf=-0.0547646061
			12:leaf=-0.0187915768
		6:[f6<0.608621597] yes=13,no=14,missing=13
			13:leaf=-0.0423123054
			14:leaf=0.0310376529
booster[49]:
0:[f4<132.703888] yes=1,no=2,missing=1
	1:[f13<1.27619171] yes=3,no=4,missing=3
		3:[f6<0.464036345] yes=7,no=8,missing=7
			7:leaf=-0.066198431
			8:leaf=-0.00558965188
		4:[f16<0.332187653] yes=9,no=10,missing=9
			9:leaf=-0.0785072371
			10:leaf=-0.0443017371
	2:[f4<192.023026] yes=5,no=6,missing=5
		5:[f14<-3.0050354] yes=11,no=12,missing=11
			11:leaf=-0.0175998937
			12:leaf=-0.0609903634
		6:[f6<0.810081184] yes=13,no=14,missing=13
			13:leaf=-0.0901796818
			14:leaf=-0.0715283677
booster[50]:
0:[f5<0.454974711] yes=1,no=2,missing=1
	1:[f7<352.375] yes=3,no=4,missing=3
		3:[f5<0.365179241] yes=7,no=8,missing=7
			7:leaf=-0.0811103135
			8:leaf=-0.00695496798
		4:[f5<0.326682806] yes=9,no=10,missing=9
			9:leaf=-0.0953621715
			10:leaf=-0.074650526
	2:[f7<273.375] yes=5,no=6,missing=5
		5:[f0<55.0008087] yes=11,no=12,missing=11
			11:leaf=-0.0448868014
			12:leaf=-0.0674726814
		6:[f4<132.703888] yes=13,no=14,missing=13
			13:leaf=-0.00536249345
			14:leaf=-0.0576079562
booster[51]:
0:[f5<0.803182542] yes=1,no=2,missing=1
	1:[f5<0.418827593] yes=3,no=4,missing=3
		3:[f5<0.326682806] yes=7,no=8,missing=7
			7:leaf=-0.0944034383
			8:leaf=-0.0689927265
		4:[f6<0.511288583] yes=9,no=10,missing=9
			9:leaf=-0.0667809397
			10:leaf=-0.0209466349
	2:[f10<331.125] yes=5,no=6,missing=5
		5:[f7<298.625] yes=11,no=12,missing=11
			11:leaf=-0.0463424139
			12:leaf=-0.00603296608
		6:[f6<0.538957119] yes=13,no=14,missing=13
			13:leaf=-0.0445021577
			14:leaf=0.0465752557
booster[52]:
0:[f13<1.27619171] yes=1,no=2,missing=1
	1:[f4<121.35022] yes=3,no=4,missing=3
		3:[f3<531.164551] yes=7,no=8,missing=7
			7:leaf=-0.0545897745
			8:leaf=-0.00102261652
		4:[f4<192.023026] yes=9,no=10,missing=9
			9:leaf=-0.0355494358
			10:leaf=-0.0782161281
	2:[f13<2.00153351] yes=5,no=6,missing=5
		5:[f4<66.5887451] yes=11,no=12,missing=11
			11:leaf=-0.0314574167
			12:leaf=-0.0610892475
		6:[f2<3.10573864] yes=13,no=14,missing=13
			13:leaf=-0.0747893751
			14:leaf=0.0375574715
booster[53]:
0:[f13<0.605443001] yes=1,no=2,missing=1
	1:[f6<0.432235956] yes=3,no=4,missing=3
		3:[f10<287.375] yes=7,no=8,missing=7
			7:leaf=0.00975042302
			8:leaf=-0.0805894211
		4:[f3<531.164551] yes=9,no=10,missing=9
			9:leaf=-0.0482245646
			10:leaf=0.00735173468
	2:[f5<0.417160243] yes=5,no=6,missing=5
		5:[f6<0.893158793] yes=11,no=12,missing=11
			11:leaf=-0.0898266807
			12:leaf=-0.055741407
		6:[f10<263.875] yes=13,no=14,missing=13
			13:leaf=-0.0460635535
			14:leaf=-0.0170239955
booster[54]:
0:[f5<0.558341861] yes=1,no=2,missing=1
	1:[f7<392.375] yes=3,no=4,missing=3
		3:[f5<0.361557275] yes=7,no=8,missing=7
			7:leaf=-0.078044869
			8:leaf=-0.00714733778
		4:[f5<0.454972386] yes=9,no=10,missing=9
			9:leaf=-0.0803144798
			10:leaf=-0.0519428812
	2:[f10<313.625] yes=5,no=6,missing=5
		5:[f13<0.795230985] yes=11,no=12,missing=11
			11:leaf=-0.0104329986
			12:leaf=-0.0391717367
		6:[f6<0.804703832] yes=13,no=14,missing=13
			13:leaf=-0.0135231707
			14:leaf=0.0414896868
booster[55]:
0:[f4<132.703888] yes=1,no=2,missing=1
	1:[f6<0.406735241] yes=3,no=4,missing=3
		3:[f10<286.625] yes=7,no=8,missing=7
			7:leaf=-0.0203520451
			8:leaf=-0.082289286
		4:[f13<0.422866821] yes=9,no=10,missing=9
			9:leaf=0.0123789432
			10:leaf=-0.0160436798
	2:[f4<192.023026] yes=5,no=6,missing=5
		5:[f6<0.829234362] yes=11,no=12,missing=11
			11:leaf=-0.0526509658
			12:leaf=-0.00525809405
		6:[f6<0.849077702] yes=13,no=14,missing=13
			13:leaf=-0.0834378675
			14:leaf=-0.0553334542
booster[56]:
0:[f5<0.803182542] yes=1,no=2,missing=1
	1:[f5<0.418827593] yes=3,no=4,missing=3
		3:[f5<0.326682806] yes=7,no=8,missing=7
			7:leaf=-0.0924928933
			8:leaf=-0.0612954013
		4:[f4<81.6764221] yes=9,no=10,missing=9
			9:leaf=-0.0111392578
			10:leaf=-0.040151909
	2:[f10<331.125] yes=5,no=6,missing=5
		5:[f7<291.875] yes=11,no=12,missing=11
			11:leaf=-0.0414661877
			12:leaf=-0.00172376039
		6:[f6<0.543951452] yes=13,no=14,missing=13
			13:leaf=-0.035214439
			14:leaf=0.0418704711
booster[57]:
0:[f17<0.322244287] yes=1,no=2,missing=1
	1:[f5<0.611834705] yes=3,no=4,missing=3
		3:[f6<0.914783001] yes=7,no=8,missing=7
			7:leaf=-0.0802284256
			8:leaf=0.0150216594
		4:[f16<0.369465709] yes=9,no=10,missing=9
			9:leaf=-0.0640175566
			10:leaf=-0.028374169
	2:[f6<0.406735241] yes=5,no=6,missing=5
		5:[f10<286.625] yes=11,no=12,missing=11
			11:leaf=-0.0137947025
			12:leaf=-0.0791708082
		6:[f3<531.164551] yes=13,no=14,missing=13
			13:leaf=-0.0505939014
			14:leaf=-0.00089641643
booster[58]:
0:[f4<132.703888] yes=1,no=2,missing=1
	1:[f6<0.402247667] yes=3,no=4,missing=3
		3:[f10<286.625] yes=7,no=8,missing=7
			7:leaf=-0.0215062294
			8:leaf=-0.0792770237
		4:[f7<269.875] yes=9,no=10,missing=9
			9:leaf=-0.0453887098
			10:leaf=0.000404975115
	2:[f4<192.023026] yes=5,no=6,missing=5
		5:[f16<0.531796575] yes=11,no=12,missing=11
			11:leaf=-0.0567390993
			12:leaf=-0.0123653011
		6:[f6<0.810081184] yes=13,no=14,missing=13
			13:leaf=-0.0839543119
			14:leaf=-0.058945477
booster[59]:
0:[f5<0.454974711] yes=1,no=2,missing=1
	1:[f7<352.375] yes=3,no=4,missing=3
		3:[f6<0.903294802] yes=7,no=8,missing=7
			7:leaf=-0.0257166307
			8:leaf=0.128497854
		4:[f5<0.326682806] yes=9,no=10,missing=9
			9:leaf=-0.0919947699
			10:leaf=-0.0635660216
	2:[f13<1.27619171] yes=5,no=6,missing=5
		5:[f3<556.992432] yes=11,no=12,missing=11
			11:leaf=-0.0374884456
			12:leaf=0.00316114421
		6:[f13<2.00153351] yes=13,no=14,missing=13
			13:leaf=-0.0294283312
			14:leaf=-0.0659205541
booster[60]:
0:[f5<0.726769447] yes=1,no=2,missing=1
	1:[f7<481.625] yes=3,no=4,missing=3
		3:[f5<0.372215778] yes=7,no=8,missing=7
			7:leaf=-0.0756211132
			8:leaf=-0.010185726
		4:[f6<0.70975244] yes=9,no=10,missing=9
			9:leaf=-0.0717382059
			10:leaf=-0.0345269628
	2:[f10<349.125] yes=5,no=6,missing=5
		5:[f14<3.06664133] yes=11,no=12,missing=11
			11:leaf=-0.0140184388
			12:leaf=0.0233553592
		6:[f6<0.804202199] yes=13,no=14,missing=13
			13:leaf=1.65116562e-05
			14:leaf=0.0704254285
booster[61]:
0:[f13<0.346382141] yes=1,no=2,missing=1
	1:[f4<189.269104] yes=3,no=4,missing=3
		3:[f3<497.839355] yes=7,no=8,missing=7
			7:leaf=-0.0573996566
			8:leaf=0.0173281766
		4:[f14<3.13179636] yes=9,no=10,missing=9
			9:leaf=-0.0807009265
			10:leaf=0.0496757925
	2:[f5<0.822661161] yes=5,no=6,missing=5
		5:[f5<0.414531171] yes=11,no=12,missing=11
			11:leaf=-0.0729331598
			12:leaf=-0.020818159
		6:[f3<720.45874] yes=13,no=14,missing=13
			13:leaf=-0.0219372418
			14:leaf=0.0140875047
booster[62]:
0:[f4<97.0434113] yes=1,no=2,missing=1
	1:[f6<0.402247667] yes=3,no=4,missing=3
		3:[f10<314.875] yes=7,no=8,missing=7
			7:leaf=-0.0226170998
			8:leaf=-0.0797446743
		4:[f13<1.47408295] yes=9,no=10,missing=9
			9:leaf=0.00465812488
			10:leaf=-0.0364678539
	2:[f4<192.023026] yes=5,no=6,missing=5
		5:[f14<-3.06627512] yes=11,no=12,missing=11
			11:leaf=0.0150603717
			12:leaf=-0.0306568984
		6:[f4<246.505188] yes=13,no=14,missing=13
			13:leaf=-0.0586771034
			14:leaf=-0.0855750516
booster[63]:
0:[f4<132.703888] yes=1,no=2,missing=1
	1:[f6<0.402247667] yes=3,no=4,missing=3
		3:[f10<329.625] yes=7,no=8,missing=7
			7:leaf=-0.0332165398
			8:leaf=-0.0779816434
		4:[f7<269.875] yes=9,no=10,missing=9
			9:leaf=-0.0387667492
			10:leaf=0.0022682061
	2:[f4<192.023026] yes=5,no=6,missing=5
		5:[f14<-2.91970825] yes=11,no=12,missing=11
			11:leaf=0.00344487093
			12:leaf=-0.0457951613
		6:[f4<246.505188] yes=13,no=14,missing=13
			13:leaf=-0.0561152585
			14:leaf=-0.0841335878
booster[64]:
0:[f5<0.480162352] yes=1,no=2,missing=1
	1:[f7<372.375] yes=3,no=4,missing=3
		3:[f1<-2.98785377] yes=7,no=8,missing=7
			7:leaf=0.0731538758
			8:leaf=-0.0222762544
		4:[f5<0.382229596] yes=9,no=10,missing=9
			9:leaf=-0.0801586583
			10:leaf=-0.0519944802
	2:[f13<0.422866821] yes=5,no=6,missing=5
		5:[f15<3.05705976] yes=11,no=12,missing=11
			11:leaf=-0.000976361509
			12:leaf=0.0301334113
		6:[f3<703.316528] yes=13,no=14,missing=13
			13:leaf=-0.0275617633
			14:leaf=-0.00368680106
booster[65]:
0:[f13<1.44093323] yes=1,no=2,missing=1
	1:[f5<0.803302765] yes=3,no=4,missing=3
		3:[f6<0.601705611] yes=7,no=8,missing=7
			7:leaf=-0.040549688
			8:leaf=-0.0054834215
		4:[f3<720.202515] yes=9,no=10,missing=9
			9:leaf=-0.00952403992
			10:leaf=0.0271873716
	2:[f16<0.332187653] yes=5,no=6,missing=5
		5:[f5<0.902583718] yes=11,no=12,missing=11
			11:leaf=-0.0700401738
			12:leaf=-0.0110263852
		6:[f4<66.3833008] yes=13,no=14,missing=13
			13:leaf=-0.0185963474
			14:leaf=-0.0501757376
booster[66]:
0:[f4<95.839798] yes=1,no=2,missing=1
	1:[f6<0.46567139] yes=3,no=4,missing=3
		3:[f3<860.066162] yes=7,no=8,missing=7
			7:leaf=-0.00489131687
			8:leaf=-0.069317311
		4:[f10<314.375] yes=9,no=10,missing=9
			9:leaf=-0.0076983138
			10:leaf=0.014264538
	2:[f4<192.023026] yes=5,no=6,missing=5
		5:[f18<0.814581633] yes=11,no=12,missing=11
			11:leaf=-0.00518211396
			12:leaf=-0.0383773968
		6:[f6<0.810081184] yes=13,no=14,missing=13
			13:leaf=-0.0775858089
			14:leaf=-0.0465047397
booster[67]:
0:[f5<0.418827593] yes=1,no=2,missing=1
	1:[f5<0.326682806] yes=3,no=4,missing=3
		3:[f10<678.5] yes=7,no=8,missing=7
			7:leaf=-0.0899910554
			8:leaf=-0.00796801504
		4:[f7<426.875] yes=9,no=10,missing=9
			9:leaf=-0.021818256
			10:leaf=-0.0659471005
	2:[f6<0.834050179] yes=5,no=6,missing=5
		5:[f4<147.309219] yes=11,no=12,missing=11
			11:leaf=-0.00612734398
			12:leaf=-0.0547855757
		6:[f10<406.875] yes=13,no=14,missing=13
			13:leaf=0.00500035845
			14:leaf=0.0697670877
booster[68]:
0:[f13<1.14857101] yes=1,no=2,missing=1
	1:[f3<531.164551] yes=3,no=4,missing=3
		3:[f15<1.4528625] yes=7,no=8,missing=7
			7:leaf=-0.0885860845
			8:leaf=-0.0299265068
		4:[f6<0.507344127] yes=9,no=10,missing=9
			9:leaf=-0.0343188718
			10:leaf=0.00624250714
	2:[f13<2.00153351] yes=5,no=6,missing=5
		5:[f3<703.324341] yes=11,no=12,missing=11
			11:leaf=-0.0493239984
			12:leaf=-0.0134624513
		6:[f13<2.29911804] yes=13,no=14,missing=13
			13:leaf=-0.0443078838
			14:leaf=-0.0726307556
booster[69]:
0:[f5<0.614652514] yes=1,no=2,missing=1
	1:[f7<428.625] yes=3,no=4,missing=3
		3:[f5<0.342845708] yes=7,no=8,missing=7
			7:leaf=-0.0823035762
			8:leaf=0.00280732522
		4:[f17<0.402952492] yes=9,no=10,missing=9
			9:leaf=-0.0673839077
			10:leaf=-0.0378821418
	2:[f7<299.875] yes=5,no=6,missing=5
		5:[f13<0.781158447] yes=11,no=12,missing=11
			11:leaf=-0.00593772763
			12:leaf=-0.0426688865
		6:[f6<0.464039624] yes=13,no=14,missing=13
			13:leaf=-0.039395228
			14:leaf=0.00740287686
booster[70]:
0:[f5<0.855022073] yes=1,no=2,missing=1
	1:[f13<0.356147766] yes=3,no=4,missing=3
		3:[f15<2.96698475] yes=7,no=8,missing=7
			7:leaf=-0.0133355577
			8:leaf=0.0163105819
		4:[f13<1.74964142] yes=9,no=10,missing=9
			9:leaf=-0.0126014892
			10:leaf=-0.0518033206
	2:[f10<375.125] yes=5,no=6,missing=5
		5:[f7<304.625] yes=11,no=12,missing=11
			11:leaf=-0.018607242
			12:leaf=0.0120960409
		6:[f6<0.776339054] yes=13,no=14,missing=13
			13:leaf=0.0093880808
			14:leaf=0.0812684819
booster[71]:
0:[f4<95.839798] yes=1,no=2,missing=1
	1:[f6<0.367019176] yes=3,no=4,missing=3
		3:[f10<312.125] yes=7,no=8,missing=7
			7:leaf=-0.0220324881
			8:leaf=-0.0833630934
		4:[f5<0.378434002] yes=9,no=10,missing=9
			9:leaf=-0.0673881695
			10:leaf=0.00384655828
	2:[f4<192.023026] yes=5,no=6,missing=5
		5:[f18<0.814581633] yes=11,no=12,missing=11
			11:leaf=-0.00249079918
			12:leaf=-0.0348291658
		6:[f4<246.505188] yes=13,no=14,missing=13
			13:leaf=-0.0469596945
			14:leaf=-0.0799067095
booster[72]:
0:[f6<0.834050179] yes=1,no=2,missing=1
	1:[f4<147.309219] yes=3,no=4,missing=3
		3:[f5<0.591537952] yes=7,no=8,missing=7
			7:leaf=-0.031507533
			8:leaf=-0.00197566557
		4:[f14<-3.06487131] yes=9,no=10,missing=9
			9:leaf=-0.00571356155
			10:leaf=-0.0587821007
	2:[f10<342.125] yes=5,no=6,missing=5
		5:[f17<0.462217152] yes=11,no=12,missing=11
			11:leaf=0.00332399388
			12:leaf=-0.0472637601
		6:[f10<517.25] yes=13,no=14,missing=13
			13:leaf=0.0278701968
			14:leaf=0.104146294
booster[73]:
0:[f13<0.346382141] yes=1,no=2,missing=1
	1:[f3<497.839355] yes=3,no=4,missing=3
		3:[f12<3.05151367] yes=7,no=8,missing=7
			7:leaf=-0.0542356372
			8:leaf=0.164192244
		4:[f4<189.269104] yes=9,no=10,missing=9
			9:leaf=0.0146661745
			10:leaf=-0.0651435778
	2:[f13<1.72050476] yes=5,no=6,missing=5
		5:[f3<705.163574] yes=11,no=12,missing=11
			11:leaf=-0.0188524667
			12:leaf=0.000695522816
		6:[f2<3.12305784] yes=13,no=14,missing=13
			13:leaf=-0.042445872
			14:leaf=0.17197223
booster[74]:
0:[f5<0.417091936] yes=1,no=2,missing=1
	1:[f5<0.326682806] yes=3,no=4,missing=3
		3:[f10<678.5] yes=7,no=8,missing=7
			7:leaf=-0.0870846137
			8:leaf=0.000950464339
		4:[f7<426.875] yes=9,no=10,missing=9
			9:leaf=-0.011684618
			10:leaf=-0.0617878996
	2:[f6<0.367020309] yes=5,no=6,missing=5
		5:[f18<0.688440323] yes=11,no=12,missing=11
			11:leaf=0.0228508431
			12:leaf=-0.0748318583
		6:[f4<66.1637421] yes=13,no=14,missing=13
			13:leaf=0.00641123718
			14:leaf=-0.0109037366
booster[75]:
0:[f5<0.824985266] yes=1,no=2,missing=1
	1:[f6<0.601705611] yes=3,no=4,missing=3
		3:[f3<862.269226] yes=7,no=8,missing=7
			7:leaf=0.000894794997
			8:leaf=-0.0577992871
		4:[f16<0.594483018] yes=9,no=10,missing=9
			9:leaf=-0.00130325963
			10:leaf=-0.0393346585
	2:[f7<560.75] yes=5,no=6,missing=5
		5:[f13<0.797622681] yes=11,no=12,missing=11
			11:leaf=0.0124746151
			12:leaf=-0.00947114453
		6:[f6<0.688303471] yes=13,no=14,missing=13
			13:leaf=0.00316906977
			14:leaf=0.106403425
booster[76]:
0:[f17<0.322244287] yes=1,no=2,missing=1
	1:[f13<2.29911804] yes=3,no=4,missing=3
		3:[f5<0.611834705] yes=7,no=8,missing=7
			7:leaf=-0.0600381792
			8:leaf=-0.0165775921
		4:[f2<3.08330321] yes=9,no=10,missing=9
			9:leaf=-0.0689017549
			10:leaf=0.0495820642
	2:[f6<0.769611716] yes=5,no=6,missing=5
		5:[f7<473.875] yes=11,no=12,missing=11
			11:leaf=-0.00308269868
			12:leaf=-0.0280105378
		6:[f3<808.394409] yes=13,no=14,missing=13
			13:leaf=-0.00357127818
			14:leaf=0.0288045648
booster[77]:
0:[f5<0.373175919] yes=1,no=2,missing=1
	1:[f4<5.20699215] yes=3,no=4,missing=3
		3:leaf=0.0945407897
		4:[f5<0.30292064] yes=7,no=8,missing=7
			7:leaf=-0.0898365974
			8:leaf=-0.0532288365
	2:[f16<0.747032046] yes=5,no=6,missing=5
		5:[f13<0.233104706] yes=9,no=10,missing=9
			9:leaf=0.0151391374
			10:leaf=-0.00393939065
		6:[f14<1.17575073] yes=11,no=12,missing=11
			11:leaf=-0.0812017024
			12:leaf=-0.0313804671
booster[78]:
0:[f4<192.023026] yes=1,no=2,missing=1
	1:[f6<0.367020309] yes=3,no=4,missing=3
		3:[f5<0.843318462] yes=7,no=8,missing=7
			7:leaf=-0.0802572221
			8:leaf=-0.027146263
		4:[f7<269.875] yes=9,no=10,missing=9
			9:leaf=-0.0284180399
			10:leaf=0.00265599345
	2:[f14<3.06969309] yes=5,no=6,missing=5
		5:[f10<549.25] yes=11,no=12,missing=11
			11:leaf=-0.0680283532
			12:leaf=0.0213323515
		6:[f14<3.07804608] yes=13,no=14,missing=13
			13:leaf=0.142798215
			14:leaf=-0.034745086
booster[79]:
0:[f13<1.28376961] yes=1,no=2,missing=1
	1:[f16<0.747032046] yes=3,no=4,missing=3
		3:[f6<0.367019415] yes=7,no=8,missing=7
			7:leaf=-0.063330017
			8:leaf=0.00310709351
		4:[f9<3.02758789] yes=9,no=10,missing=9
			9:leaf=-0.0698070899
			10:leaf=0.0706017464
	2:[f4<66.5887451] yes=5,no=6,missing=5
		5:[f13<2.29397583] yes=11,no=12,missing=11
			11:leaf=-0.00768354535
			12:leaf=-0.0656239465
		6:[f14<-1.60314941] yes=13,no=14,missing=13
			13:leaf=-0.0236889236
			14:leaf=-0.0568281077
booster[80]:
0:[f5<0.855022073] yes=1,no=2,missing=1
	1:[f5<0.373175919] yes=3,no=4,missing=3
		3:[f5<0.326682806] yes=7,no=8,missing=7
			7:leaf=-0.0816930458
			8:leaf=-0.0409518443
		4:[f4<81.6934662] yes=9,no=10,missing=9
			9:leaf=9.79506058e-06
			10:leaf=-0.018348759
	2:[f7<592.25] yes=5,no=6,missing=5
		5:[f4<135.865875] yes=11,no=12,missing=11
			11:leaf=0.0115109952
			12:leaf=-0.0388109498
		6:[f12<-2.65454102] yes=13,no=14,missing=13
			13:leaf=0.233095571
			14:leaf=0.0555209517
booster[81]:
0:[f15<1.5038929] yes=1,no=2,missing=1
	1:[f5<0.901626348] yes=3,no=4,missing=3
		3:[f12<-2.85449219] yes=7,no=8,missing=7
			7:leaf=-0.00259311567
			8:leaf=-0.0863607898
		4:[f16<0.834491849] yes=9,no=10,missing=9
			9:leaf=0.142033562
			10:leaf=-0.0739476979
	2:[f13<1.04376602] yes=5,no=6,missing=5
		5:[f15<3.05691314] yes=11,no=12,missing=11
			11:leaf=-0.00438548019
			12:leaf=0.0103860255
		6:[f3<658.020691] yes=13,no=14,missing=13
			13:leaf=-0.0477580018
			14:leaf=-0.0107013145
booster[82]:
0:[f4<192.023026] yes=1,no=2,missing=1
	1:[f6<0.402247667] yes=3,no=4,missing=3
		3:[f18<0.688440323] yes=7,no=8,missing=7
			7:leaf=0.053093154
			8:leaf=-0.0567793138
		4:[f13<0.346382141] yes=9,no=10,missing=9
			9:leaf=0.0108436309
			10:leaf=-0.00402825093
	2:[f4<246.505188] yes=5,no=6,missing=5
		5:[f7<515.75] yes=11,no=12,missing=11
			11:leaf=-0.0641052946
			12:leaf=0.0170513745
		6:[f8<0.875183105] yes=13,no=14,missing=13
			13:leaf=-0.0833526179
			14:leaf=-0.016343018
booster[83]:
0:[f6<0.834050179] yes=1,no=2,missing=1
	1:[f4<86.4010468] yes=3,no=4,missing=3
		3:[f5<0.511577606] yes=7,no=8,missing=7
			7:leaf=-0.0328664072
			8:leaf=0.000811970793
		4:[f4<192.023026] yes=9,no=10,missing=9
			9:leaf=-0.0180806592
			10:leaf=-0.0592076741
	2:[f3<657.417847] yes=5,no=6,missing=5
		5:[f13<0.270896912] yes=11,no=12,missing=11
			11:leaf=0.0112276664
			12:leaf=-0.025270192
		6:[f10<517.25] yes=13,no=14,missing=13
			13:leaf=0.014646952
			14:leaf=0.0735556483
booster[84]:
0:[f5<0.726769447] yes=1,no=2,missing=1
	1:[f7<481.625] yes=3,no=4,missing=3
		3:[f0<87.5708466] yes=7,no=8,missing=7
			7:leaf=0.00867617782
			8:leaf=-0.0141256889
		4:[f6<0.63067162] yes=9,no=10,missing=9
			9:leaf=-0.0653983578
			10:leaf=-0.0263524093
	2:[f7<432.875] yes=5,no=6,missing=5
		5:[f14<3.06664276] yes=11,no=12,missing=11
			11:leaf=-0.00693797925
			12:leaf=0.021935435
		6:[f6<0.679452181] yes=13,no=14,missing=13
			13:leaf=-0.0108333509
			14:leaf=0.0369818509
booster[85]:
0:[f5<0.373175919] yes=1,no=2,missing=1
	1:[f5<0.326682806] yes=3,no=4,missing=3
		3:[f10<678.5] yes=7,no=8,missing=7
			7:leaf=-0.0823719427
			8:leaf=0.0196251143
		4:[f5<0.327617735] yes=9,no=10,missing=9
			9:leaf=0.149812236
			10:leaf=-0.0421634056
	2:[f7<247.8125] yes=5,no=6,missing=5
		5:[f12<3.03442383] yes=11,no=12,missing=11
			11:leaf=-0.0415907316
			12:leaf=0.0966951773
		6:[f4<41.229847] yes=13,no=14,missing=13
			13:leaf=0.00989408139
			14:leaf=-0.00407752208
booster[86]:
0:[f15<1.45289934] yes=1,no=2,missing=1
	1:[f12<-2.87573242] yes=3,no=4,missing=3
		3:[f7<338.125] yes=7,no=8,missing=7
			7:leaf=0.0995226279
			8:leaf=-0.06273707
		4:[f14<1.17575073] yes=9,no=10,missing=9
			9:leaf=-0.0895135254
			10:leaf=-0.0237512477
	2:[f13<1.44093323] yes=5,no=6,missing=5
		5:[f6<0.367019415] yes=11,no=12,missing=11
			11:leaf=-0.0586869232
			12:leaf=0.00245116185
		6:[f13<2.29911804] yes=13,no=14,missing=13
			13:leaf=-0.0178514123
			14:leaf=-0.0615179911
booster[87]:
0:[f15<1.45289934] yes=1,no=2,missing=1
	1:[f12<-2.87573242] yes=3,no=4,missing=3
		3:[f7<327.875] yes=7,no=8,missing=7
			7:leaf=0.099654682
			8:leaf=-0.0627985075
		4:[f14<1.17575073] yes=9,no=10,missing=9
			9:leaf=-0.0884199813
			10:leaf=-0.0221482422
	2:[f5<0.414531171] yes=5,no=6,missing=5
		5:[f5<0.326682806] yes=11,no=12,missing=11
			11:leaf=-0.0774311349
			12:leaf=-0.0277367588
		6:[f7<247.8125] yes=13,no=14,missing=13
			13:leaf=-0.0347523093
			14:leaf=0.00180590653
booster[88]:
0:[f4<192.023026] yes=1,no=2,missing=1
	1:[f5<0.857574821] yes=3,no=4,missing=3
		3:[f6<0.359638602] yes=7,no=8,missing=7
			7:leaf=-0.0732085034
			8:leaf=-0.00255227694
		4:[f7<462.625] yes=9,no=10,missing=9
			9:leaf=0.005848228
			10:leaf=0.0347677022
	2:[f4<246.505188] yes=5,no=6,missing=5
		5:[f7<515.75] yes=11,no=12,missing=11
			11:leaf=-0.0598115735
			12:leaf=0.0201026984
		6:[f8<0.597473145] yes=13,no=14,missing=13
			13:leaf=-0.0845836401
			14:leaf=-0.0246681683
booster[89]:
0:[f13<0.556106567] yes=1,no=2,missing=1
	1:[f16<0.476636231] yes=3,no=4,missing=3
		3:[f3<774.369873] yes=7,no=8,missing=7
			7:leaf=0.0697595999
			8:leaf=-0.0118239131
		4:[f17<0.439020753] yes=9,no=10,missing=9
			9:leaf=0.0114241643
			10:leaf=-0.00639398396
	2:[f3<703.316528] yes=5,no=6,missing=5
		5:[f14<3.06881452] yes=11,no=12,missing=11
			11:leaf=-0.0248060022
			12:leaf=0.0238885768
		6:[f5<0.628971338] yes=13,no=14,missing=13
			13:leaf=-0.0244190302
			14:leaf=0.00334419496
booster[90]:
0:[f6<0.769611716] yes=1,no=2,missing=1
	1:[f3<920.591614] yes=3,no=4,missing=3
		3:[f4<85.7475967] yes=7,no=8,missing=7
			7:leaf=0.00466937805
			8:leaf=-0.0245547108
		4:[f5<0.687992334] yes=9,no=10,missing=9
			9:leaf=-0.0501954556
			10:leaf=-0.00685260771
	2:[f10<406.875] yes=5,no=6,missing=5
		5:[f14<3.05367899] yes=11,no=12,missing=11
			11:leaf=-0.00407695165
			12:leaf=0.0208702758
		6:[f5<0.657212079] yes=13,no=14,missing=13
			13:leaf=-0.0140277399
			14:leaf=0.0486451648
booster[91]:
0:[f14<-3.0454092] yes=1,no=2,missing=1
	1:[f6<0.80288887] yes=3,no=4,missing=3
		3:[f10<381.375] yes=7,no=8,missing=7
			7:leaf=0.0161500853
			8:leaf=-0.027860323
		4:[f6<0.803916395] yes=9,no=10,missing=9
			9:leaf=0.165505514
			10:leaf=0.0239125229
	2:[f4<41.2298355] yes=5,no=6,missing=5
		5:[f10<334.875] yes=11,no=12,missing=11
			11:leaf=-0.00176124333
			12:leaf=0.0209797192
		6:[f14<3.06607676] yes=13,no=14,missing=13
			13:leaf=-0.0136576397
			14:leaf=0.00571879372
booster[92]:
0:[f16<0.332187653] yes=1,no=2,missing=1
	1:[f12<-1.81677246] yes=3,no=4,missing=3
		3:[f12<-1.91918945] yes=7,no=8,missing=7
			7:leaf=-0.0328983925
			8:leaf=0.160193026
		4:[f5<0.907431066] yes=9,no=10,missing=9
			9:leaf=-0.0638815761
			10:leaf=0.0228576045
	2:[f16<0.772937536] yes=5,no=6,missing=5
		5:[f6<0.847970009] yes=11,no=12,missing=11
			11:leaf=-0.00257658539
			12:leaf=0.0102433432
		6:[f9<3.05883789] yes=13,no=14,missing=13
			13:leaf=-0.0671566054
			14:leaf=0.0990076438
booster[93]:
0:[f4<220.241638] yes=1,no=2,missing=1
	1:[f13<0.233104706] yes=3,no=4,missing=3
		3:[f16<0.488557696] yes=7,no=8,missing=7
			7:leaf=0.0336099975
			8:leaf=0.00598641206
		4:[f16<0.332187653] yes=9,no=10,missing=9
			9:leaf=-0.0458588898
			10:leaf=-0.0021180003
	2:[f14<3.06969309] yes=5,no=6,missing=5
		5:[f2<-1.17026854] yes=11,no=12,missing=11
			11:leaf=-0.0266845953
			12:leaf=-0.0832825303
		6:[f12<2.62915039] yes=13,no=14,missing=13
			13:leaf=-0.038402535
			14:leaf=0.241968855
booster[94]:
0:[f5<0.326682806] yes=1,no=2,missing=1
	1:[f2<2.54533172] yes=3,no=4,missing=3
		3:[f3<595.354858] yes=7,no=8,missing=7
			7:leaf=0.022708267
			8:leaf=-0.0858340189
		4:[f2<2.75561905] yes=9,no=10,missing=9
			9:leaf=0.0923362598
			10:leaf=-0.0739994347
	2:[f3<531.164551] yes=5,no=6,missing=5
		5:[f12<3.12670898] yes=11,no=12,missing=11
			11:leaf=-0.025996251
			12:leaf=0.245454475
		6:[f6<0.367020309] yes=13,no=14,missing=13
			13:leaf=-0.0558005869
			14:leaf=0.00188123097
booster[95]:
0:[f15<1.45289934] yes=1,no=2,missing=1
	1:[f12<-2.87573242] yes=3,no=4,missing=3
		3:[f7<328.75] yes=7,no=8,missing=7
			7:leaf=0.0991431475
			8:leaf=-0.0587895326
		4:[f14<1.17575073] yes=9,no=10,missing=9
			9:leaf=-0.0858250558
			10:leaf=-0.0150627075
	2:[f13<1.44093323] yes=5,no=6,missing=5
		5:[f4<246.505188] yes=11,no=12,missing=11
			11:leaf=0.00201331032
			12:leaf=-0.064010106
		6:[f9<3.01489258] yes=13,no=14,missing=13
			13:leaf=-0.0209893342
			14:leaf=0.0824636146
booster[96]:
0:[f5<0.372215778] yes=1,no=2,missing=1
	1:[f5<0.30292064] yes=3,no=4,missing=3
		3:[f2<2.54533172] yes=7,no=8,missing=7
			7:leaf=-0.0891818926
			8:leaf=-0.0248799324
		4:[f14<3.11607981] yes=9,no=10,missing=9
			9:leaf=-0.0421047546
			10:leaf=0.0564723387
	2:[f14<-3.06896067] yes=5,no=6,missing=5
		5:[f6<0.777673602] yes=11,no=12,missing=11
			11:leaf=-0.0014302585
			12:leaf=0.0248628035
		6:[f4<41.2298355] yes=13,no=14,missing=13
			13:leaf=0.00655637076
			14:leaf=-0.00747605413
booster[97]:
0:[f7<247.8125] yes=1,no=2,missing=1
	1:[f11<-0.369842529] yes=3,no=4,missing=3
		3:[f6<0.817048967] yes=7,no=8,missing=7
			7:leaf=-0.0324046463
			8:leaf=0.0350239798
		4:[f0<68.1181641] yes=9,no=10,missing=9
			9:leaf=-0.0322457738
			10:leaf=-0.069643639
	2:[f5<0.780917048] yes=5,no=6,missing=5
		5:[f7<484.375] yes=11,no=12,missing=11
			11:leaf=4.71135863e-05
			12:leaf=-0.0246088784
		6:[f7<595.75] yes=13,no=14,missing=13
			13:leaf=0.0031202836
			14:leaf=0.0555069111
booster[98]:
0:[f6<0.342645466] yes=1,no=2,missing=1
	1:[f18<0.688440323] yes=3,no=4,missing=3
		3:[f18<0.636872292] yes=7,no=8,missing=7
			7:leaf=-0.066666089
			8:leaf=0.126336262
		4:[f5<0.913356781] yes=9,no=10,missing=9
			9:leaf=-0.0740216151
			10:leaf=0.032822717
	2:[f13<0.233104706] yes=5,no=6,missing=5
		5:[f17<0.464325547] yes=11,no=12,missing=11
			11:leaf=0.0148978224
			12:leaf=-0.00701984763
		6:[f4<95.8398895] yes=13,no=14,missing=13
			13:leaf=-0.00023828882
			14:leaf=-0.0158486906
booster[99]:
0:[f15<1.45289934] yes=1,no=2,missing=1
	1:[f12<-2.87573242] yes=3,no=4,missing=3
		3:[f7<319.75] yes=7,no=8,missing=7
			7:leaf=0.0992511809
			8:leaf=-0.0585960113
		4:[f14<1.17575073] yes=9,no=10,missing=9
			9:leaf=-0.0842888206
			10:leaf=-0.0127811329
	2:[f17<0.302899837] yes=5,no=6,missing=5
		5:[f2<3.10108185] yes=11,no=12,missing=11
			11:leaf=-0.0294845533
			12:leaf=0.186041027
		6:[f6<0.402247667] yes=13,no=14,missing=13
			13:leaf=-0.0378927328
			14:leaf=0.00162818935
booster[100]:
0:[f4<246.505188] yes=1,no=2,missing=1
	1:[f5<0.326682806] yes=3,no=4,missing=3
		3:[f7<773.75] yes=7,no=8,missing=7
			7:leaf=-0.0747732818
			8:leaf=0.0438477285
		4:[f7<269.875] yes=9,no=10,missing=9
			9:leaf=-0.0192783028
			10:leaf=0.00172985648
	2:[f8<0.597473145] yes=5,no=6,missing=5
		5:[f16<0.422343135] yes=11,no=12,missing=11
			11:leaf=0.0498208366
			12:leaf=-0.0849183276
		6:[f13<0.127441406] yes=13,no=14,missing=13
			13:leaf=0.128728613
			14:leaf=-0.0383115299
booster[101]:
0:[f5<0.857574821] yes=1,no=2,missing=1
	1:[f6<0.349123001] yes=3,no=4,missing=3
		3:[f18<0.688440323] yes=7,no=8,missing=7
			7:leaf=0.0225348063
			8:leaf=-0.0766656324
		4:[f16<0.351107776] yes=9,no=10,missing=9
			9:leaf=-0.0406595394
			10:leaf=-0.00169502944
	2:[f5<0.858449101] yes=5,no=6,missing=5
		5:[f0<80.4268341] yes=11,no=12,missing=11
			11:leaf=0.178612545
			12:leaf=0.000410960114
		6:[f0<151.950119] yes=13,no=14,missing=13
			13:leaf=0.0024373557
			14:leaf=0.0269208793
booster[102]:
0:[f14<3.06607676] yes=1,no=2,missing=1
	1:[f14<-3.0454092] yes=3,no=4,missing=3
		3:[f17<0.466000974] yes=7,no=8,missing=7
			7:leaf=0.0123399962
			8:leaf=-0.0283493306
		4:[f10<384.875] yes=9,no=10,missing=9
			9:leaf=-0.0097771138
			10:leaf=0.0114817005
	2:[f3<952.122498] yes=5,no=6,missing=5
		5:[f17<0.44028759] yes=11,no=12,missing=11
			11:leaf=0.0265209023
			12:leaf=0.00232723728
		6:[f5<0.701450109] yes=13,no=14,missing=13
			13:leaf=-0.0433786847
			14:leaf=0.00812685397
booster[103]:
0:[f16<0.772937536] yes=1,no=2,missing=1
	1:[f6<0.847970009] yes=3,no=4,missing=3
		3:[f4<147.309219] yes=7,no=8,missing=7
			7:leaf=-0.00127724942
			8:leaf=-0.0317143872
		4:[f10<517.25] yes=9,no=10,missing=9
			9:leaf=0.00556518463
			10:leaf=0.0647019818
	2:[f9<3.05761719] yes=5,no=6,missing=5
		5:[f12<0.149597168] yes=11,no=12,missing=11
			11:leaf=-0.0393699482
			12:leaf=-0.0805252939
		6:leaf=0.0981794521
booster[104]:
0:[f5<0.326682806] yes=1,no=2,missing=1
	1:[f2<2.54533172] yes=3,no=4,missing=3
		3:[f3<595.354858] yes=7,no=8,missing=7
			7:leaf=0.0345204063
			8:leaf=-0.0819081068
		4:[f2<2.75561905] yes=9,no=10,missing=9
			9:leaf=0.0949644744
			10:leaf=-0.0701478049
	2:[f15<1.45289934] yes=5,no=6,missing=5
		5:[f12<-2.87573242] yes=11,no=12,missing=11
			11:leaf=0.0200941116
			12:leaf=-0.0712688565
		6:[f13<0.233104706] yes=13,no=14,missing=13
			13:leaf=0.00857513305
			14:leaf=-0.00205542799
booster[105]:
0:[f6<0.507346153] yes=1,no=2,missing=1
	1:[f3<860.066162] yes=3,no=4,missing=3
		3:[f4<75.6764221] yes=7,no=8,missing=7
			7:leaf=0.0291535314
			8:leaf=-0.0241399035
		4:[f5<0.836720347] yes=9,no=10,missing=9
			9:leaf=-0.0572043322
			10:leaf=-0.014835136
	2:[f3<707.322266] yes=5,no=6,missing=5
		5:[f17<0.45108062] yes=11,no=12,missing=11
			11:leaf=0.000490536622
			12:leaf=-0.0282521881
		6:[f5<0.752465665] yes=13,no=14,missing=13
			13:leaf=-0.00481712678
			14:leaf=0.0117117418
booster[106]:
0:[f13<0.659139633] yes=1,no=2,missing=1
	1:[f16<0.47676608] yes=3,no=4,missing=3
		3:[f3<773.067383] yes=7,no=8,missing=7
			7:leaf=0.0497567765
			8:leaf=-0.0105537586
		4:[f17<0.439020753] yes=9,no=10,missing=9
			9:leaf=0.00813421048
			10:leaf=-0.00733381603
	2:[f3<607.578369] yes=5,no=6,missing=5
		5:[f8<-2.06323242] yes=11,no=12,missing=11
			11:leaf=0.119434491
			12:leaf=-0.0362141989
		6:[f5<0.417160243] yes=13,no=14,missing=13
			13:leaf=-0.057557743
			14:leaf=-0.00163853471
booster[107]:
0:[f4<246.505188] yes=1,no=2,missing=1
	1:[f16<0.332187653] yes=3,no=4,missing=3
		3:[f12<-1.81677246] yes=7,no=8,missing=7
			7:leaf=0.00133351143
			8:leaf=-0.0495479368
		4:[f6<0.769611716] yes=9,no=10,missing=9
			9:leaf=-0.00428882148
			10:leaf=0.00447350927
	2:[f8<0.875183105] yes=5,no=6,missing=5
		5:[f16<0.43777734] yes=11,no=12,missing=11
			11:leaf=0.0626525208
			12:leaf=-0.0800547749
		6:[f8<0.979309082] yes=13,no=14,missing=13
			13:leaf=0.170438409
			14:leaf=-0.0476744398
booster[108]:
0:[f6<0.319866121] yes=1,no=2,missing=1
	1:[f12<-2.6262207] yes=3,no=4,missing=3
		3:[f10<382.75] yes=7,no=8,missing=7
			7:leaf=0.118738689
			8:leaf=-0.0622538142
		4:[f8<-1.18774414] yes=9,no=10,missing=9
			9:leaf=0.00385495578
			10:leaf=-0.0837339386
	2:[f4<192.023026] yes=5,no=6,missing=5
		5:[f13<0.231208801] yes=11,no=12,missing=11
			11:leaf=0.00831758603
			12:leaf=-0.00170576468
		6:[f14<3.07359934] yes=13,no=14,missing=13
			13:leaf=-0.0446699709
			14:leaf=0.0195709653
booster[109]:
0:[f12<-1.94641113] yes=1,no=2,missing=1
	1:[f4<40.2118378] yes=3,no=4,missing=3
		3:[f8<-2.03881836] yes=7,no=8,missing=7
			7:leaf=0.126367077
			8:leaf=-0.000268862263
		4:[f17<0.417729914] yes=9,no=10,missing=9
			9:leaf=-0.00264127948
			10:leaf=-0.0263283141
	2:[f13<0.346382141] yes=5,no=6,missing=5
		5:[f17<0.467133313] yes=11,no=12,missing=11
			11:leaf=0.0130761964
			12:leaf=-0.0103723621
		6:[f3<705.163574] yes=13,no=14,missing=13
			13:leaf=-0.0115405684
			14:leaf=0.00273771537
booster[110]:
0:[f5<0.326682806] yes=1,no=2,missing=1
	1:[f10<676.25] yes=3,no=4,missing=3
		3:[f9<-2.65405273] yes=7,no=8,missing=7
			7:leaf=0.0106183281
			8:leaf=-0.0775279924
		4:leaf=0.0497925505
	2:[f14<-3.06896067] yes=5,no=6,missing=5
		5:[f18<0.830293417] yes=9,no=10,missing=9
			9:leaf=0.0269186478
			10:leaf=0.00141189352
		6:[f4<41.2298355] yes=11,no=12,missing=11
			11:leaf=0.00547418883
			12:leaf=-0.00625793263
booster[111]:
0:[f14<3.06607676] yes=1,no=2,missing=1
	1:[f14<-3.0454092] yes=3,no=4,missing=3
		3:[f17<0.466000974] yes=7,no=8,missing=7
			7:leaf=0.00983170513
			8:leaf=-0.026160175
		4:[f10<406.875] yes=9,no=10,missing=9
			9:leaf=-0.00794105139
			10:leaf=0.0142193427
	2:[f6<0.670656204] yes=5,no=6,missing=5
		5:[f7<326.375] yes=11,no=12,missing=11
			11:leaf=0.0767326057
			12:leaf=-0.0261929575
		6:[f13<0.0100250244] yes=13,no=14,missing=13
			13:leaf=0.0981204733
			14:leaf=0.014349048
booster[112]:
0:[f13<2.29911804] yes=1,no=2,missing=1
	1:[f6<0.319866121] yes=3,no=4,missing=3
		3:[f12<-2.6262207] yes=7,no=8,missing=7
			7:leaf=0.0275358539
			8:leaf=-0.0738901943
		4:[f4<221.24173] yes=9,no=10,missing=9
			9:leaf=0.000844193797
			10:leaf=-0.0439131074
	2:[f9<-2.96533203] yes=5,no=6,missing=5
		5:leaf=0.0450077169
		6:[f18<0.98572892] yes=11,no=12,missing=11
			11:leaf=-0.0572172478
			12:leaf=0.0308202039
booster[113]:
0:[f7<247.8125] yes=1,no=2,missing=1
	1:[f4<71.653244] yes=3,no=4,missing=3
		3:[f12<3.03442383] yes=7,no=8,missing=7
			7:leaf=-0.0180886369
			8:leaf=0.142104164
		4:[f7<211.9375] yes=9,no=10,missing=9
			9:leaf=0.0334889218
			10:leaf=-0.0712142512
	2:[f5<0.373175919] yes=5,no=6,missing=5
		5:[f5<0.30292064] yes=11,no=12,missing=11
			11:leaf=-0.0772912279
			12:leaf=-0.026765788
		6:[f0<543.621338] yes=13,no=14,missing=13
			13:leaf=0.0013050423
			14:leaf=-0.0401133187
booster[114]:
0:[f5<0.857574821] yes=1,no=2,missing=1
	1:[f15<3.32832241] yes=3,no=4,missing=3
		3:[f16<0.518520117] yes=7,no=8,missing=7
			7:leaf=0.00289043342
			8:leaf=-0.00886859093
		4:[f6<0.532088995] yes=9,no=10,missing=9
			9:leaf=-0.0730453804
			10:leaf=-0.0140500665
	2:[f5<0.858449101] yes=5,no=6,missing=5
		5:[f0<80.4268341] yes=11,no=12,missing=11
			11:leaf=0.134302512
			12:leaf=0.000641021237
		6:[f0<151.950119] yes=13,no=14,missing=13
			13:leaf=0.00111185282
			14:leaf=0.0250001233
booster[115]:
0:[f15<1.45289934] yes=1,no=2,missing=1
	1:[f5<0.901626348] yes=3,no=4,missing=3
		3:[f14<0.877166748] yes=7,no=8,missing=7
			7:leaf=-0.0872091055
			8:leaf=-0.0172041785
		4:[f18<0.784723282] yes=9,no=10,missing=9
			9:leaf=-0.0529152751
			10:leaf=0.0996098593
	2:[f0<160.549438] yes=5,no=6,missing=5
		5:[f14<2.98265839] yes=11,no=12,missing=11
			11:leaf=-0.00519080181
			12:leaf=0.0053859246
		6:[f5<0.710110426] yes=13,no=14,missing=13
			13:leaf=-0.0125969267
			14:leaf=0.0193360429
booster[116]:
0:[f12<-1.94641113] yes=1,no=2,missing=1
	1:[f5<0.870319366] yes=3,no=4,missing=3
		3:[f4<40.1847954] yes=7,no=8,missing=7
			7:leaf=-0.00219927263
			8:leaf=-0.0174651947
		4:[f3<1224.31787] yes=9,no=10,missing=9
			9:leaf=-0.000634086668
			10:leaf=0.130456418
	2:[f13<0.547470093] yes=5,no=6,missing=5
		5:[f16<0.494408667] yes=11,no=12,missing=11
			11:leaf=0.0182609688
			12:leaf=0.000880260486
		6:[f3<723.226562] yes=13,no=14,missing=13
			13:leaf=-0.0136919515
			14:leaf=0.00193189573
booster[117]:
0:[f6<0.319866121] yes=1,no=2,missing=1
	1:[f12<-2.6262207] yes=3,no=4,missing=3
		3:[f18<0.903035998] yes=7,no=8,missing=7
			7:leaf=0.109922886
			8:leaf=-0.0621369779
		4:[f8<-1.18774414] yes=9,no=10,missing=9
			9:leaf=0.00979196746
			10:leaf=-0.0809469149
	2:[f4<246.505188] yes=5,no=6,missing=5
		5:[f13<2.29911804] yes=11,no=12,missing=11
			11:leaf=0.00070616306
			12:leaf=-0.0451699309
		6:[f8<0.597473145] yes=13,no=14,missing=13
			13:leaf=-0.0743080974
			14:leaf=0.00260616583
booster[118]:
0:[f6<0.847970009] yes=1,no=2,missing=1
	1:[f4<137.098785] yes=3,no=4,missing=3
		3:[f5<0.581345797] yes=7,no=8,missing=7
			7:leaf=-0.0154273612
			8:leaf=0.000542513037
		4:[f10<554.75] yes=9,no=10,missing=9
			9:leaf=-0.0298706684
			10:leaf=0.0607506819
	2:[f3<743.551025] yes=5,no=6,missing=5
		5:[f5<0.522216082] yes=11,no=12,missing=11
			11:leaf=0.0563767441
			12:leaf=-0.00844716374
		6:[f14<-3.12059641] yes=13,no=14,missing=13
			13:leaf=0.0563565791
			14:leaf=0.0127634918
booster[119]:
0:[f5<0.30292064] yes=1,no=2,missing=1
	1:[f2<2.54533172] yes=3,no=4,missing=3
		3:[f12<2.79223633] yes=7,no=8,missing=7
			7:leaf=-0.088265799
			8:leaf=-0.000101646081
		4:[f17<0.413048595] yes=9,no=10,missing=9
			9:leaf=-0.0555212386
			10:leaf=0.0498868972
	2:[f7<247.8125] yes=5,no=6,missing=5
		5:[f11<-0.369842529] yes=11,no=12,missing=11
			11:leaf=0.00415356411
			12:leaf=-0.0387185775
		6:[f6<0.507346153] yes=13,no=14,missing=13
			13:leaf=-0.0146476151
			14:leaf=0.00150769611
booster[120]:
0:[f13<1.72050476] yes=1,no=2,missing=1
	1:[f17<0.4643327] yes=3,no=4,missing=3
		3:[f0<36.7551117] yes=7,no=8,missing=7
			7:leaf=0.0136912493
			8:leaf=5.75813538e-05
		4:[f3<752.729248] yes=9,no=10,missing=9
			9:leaf=-0.03180876
			10:leaf=0.0113051552
	2:[f3<901.612427] yes=5,no=6,missing=5
		5:[f18<0.603022456] yes=11,no=12,missing=11
			11:leaf=0.105431974
			12:leaf=-0.056157466
		6:[f2<3.10108185] yes=13,no=14,missing=13
			13:leaf=-0.00999081414
			14:leaf=0.179483414
booster[121]:
0:[f4<323.402405] yes=1,no=2,missing=1
	1:[f0<160.549438] yes=3,no=4,missing=3
		3:[f17<0.467601836] yes=7,no=8,missing=7
			7:leaf=-0.000179096969
			8:leaf=-0.0186464824
		4:[f18<0.774032235] yes=9,no=10,missing=9
			9:leaf=-0.00187048037
			10:leaf=0.0273756273
	2:[f0<151.174896] yes=5,no=6,missing=5
		5:leaf=-0.00136707968
		6:[f9<2.56176758] yes=11,no=12,missing=11
			11:leaf=-0.0929980427
			12:leaf=-0.0152789252
booster[122]:
0:[f13<0.835245132] yes=1,no=2,missing=1
	1:[f17<0.437717974] yes=3,no=4,missing=3
		3:[f7<354.125] yes=7,no=8,missing=7
			7:leaf=0.0224841386
			8:leaf=0.000383778883
		4:[f4<43.3021317] yes=9,no=10,missing=9
			9:leaf=0.00686337007
			10:leaf=-0.0130172074
	2:[f3<657.860962] yes=5,no=6,missing=5
		5:[f5<0.759322166] yes=11,no=12,missing=11
			11:leaf=-0.00441555632
			12:leaf=-0.0407475308
		6:[f8<0.906555176] yes=13,no=14,missing=13
			13:leaf=0.0011745356
			14:leaf=-0.0171433277
booster[123]:
0:[f17<0.627437472] yes=1,no=2,missing=1
	1:[f0<160.549438] yes=3,no=4,missing=3
		3:[f13<1.2849884] yes=7,no=8,missing=7
			7:leaf=5.47215393e-07
			8:leaf=-0.0150847612
		4:[f18<0.774032235] yes=9,no=10,missing=9
			9:leaf=-0.00223972392
			10:leaf=0.0270104297
	2:[f5<0.906362414] yes=5,no=6,missing=5
		5:[f12<-2.87573242] yes=11,no=12,missing=11
			11:leaf=0.0299605913
			12:leaf=-0.0849247202
		6:leaf=0.0253678262
booster[124]:
0:[f6<0.319866121] yes=1,no=2,missing=1
	1:[f12<-2.6262207] yes=3,no=4,missing=3
		3:[f3<909.320679] yes=7,no=8,missing=7
			7:leaf=0.105563797
			8:leaf=-0.061595317
		4:[f8<-1.18774414] yes=9,no=10,missing=9
			9:leaf=0.0101539418
			10:leaf=-0.0790430382
	2:[f16<0.518592238] yes=5,no=6,missing=5
		5:[f4<86.4417267] yes=11,no=12,missing=11
			11:leaf=0.0053203362
			12:leaf=-0.0148280831
		6:[f17<0.415249288] yes=13,no=14,missing=13
			13:leaf=0.00345248962
			14:leaf=-0.0173987132
booster[125]:
0:[f13<0.233104706] yes=1,no=2,missing=1
	1:[f16<0.491452217] yes=3,no=4,missing=3
		3:[f4<42.7932396] yes=7,no=8,missing=7
			7:leaf=0.0453847051
			8:leaf=0.00104853348
		4:[f17<0.440608799] yes=9,no=10,missing=9
			9:leaf=0.0129127447
			10:leaf=-0.0122217862
	2:[f3<701.096069] yes=5,no=6,missing=5
		5:[f17<0.447784841] yes=11,no=12,missing=11
			11:leaf=-0.00206136657
			12:leaf=-0.0277901534
		6:[f6<0.565087795] yes=13,no=14,missing=13
			13:leaf=-0.0191879105
			14:leaf=0.00288520358
booster[126]:
0:[f5<0.30292064] yes=1,no=2,missing=1
	1:[f2<2.54533172] yes=3,no=4,missing=3
		3:[f12<2.79272461] yes=7,no=8,missing=7
			7:leaf=-0.0872773156
			8:leaf=-7.90353442e-05
		4:[f17<0.416631401] yes=9,no=10,missing=9
			9:leaf=-0.0553229153
			10:leaf=0.0498665534
	2:[f12<-1.94641113] yes=5,no=6,missing=5
		5:[f17<0.417395949] yes=11,no=12,missing=11
			11:leaf=0.000726227241
			12:leaf=-0.0134930685
		6:[f13<0.346382141] yes=13,no=14,missing=13
			13:leaf=0.00741705298
			14:leaf=-0.00134175713
booster[127]:
0:[f5<0.887496829] yes=1,no=2,missing=1
	1:[f16<0.315380096] yes=3,no=4,missing=3
		3:[f16<0.30329451] yes=7,no=8,missing=7
			7:leaf=-0.0346111618
			8:leaf=-0.086218439
		4:[f16<0.518526852] yes=9,no=10,missing=9
			9:leaf=0.00168130198
			10:leaf=-0.00717119267
	2:[f14<3.13290143] yes=5,no=6,missing=5
		5:[f5<0.890525818] yes=11,no=12,missing=11
			11:leaf=0.0391797088
			12:leaf=0.0039920304
		6:[f12<1.80541992] yes=13,no=14,missing=13
			13:leaf=0.0309600085
			14:leaf=0.214509249
booster[128]:
0:[f4<323.402405] yes=1,no=2,missing=1
	1:[f0<160.549438] yes=3,no=4,missing=3
		3:[f17<0.467601836] yes=7,no=8,missing=7
			7:leaf=-0.000135548224
			8:leaf=-0.017572742
		4:[f5<0.710110426] yes=9,no=10,missing=9
			9:leaf=-0.0111168204
			10:leaf=0.0162255466
	2:[f0<151.174896] yes=5,no=6,missing=5
		5:leaf=-0.000416646013
		6:[f9<2.56176758] yes=11,no=12,missing=11
			11:leaf=-0.0922667459
			12:leaf=-0.0144158974
booster[129]:
0:[f14<-3.06810617] yes=1,no=2,missing=1
	1:[f18<0.845926881] yes=3,no=4,missing=3
		3:[f4<42.4614487] yes=7,no=8,missing=7
			7:leaf=-0.00375352288
			8:leaf=0.0326441675
		4:[f6<0.778113842] yes=9,no=10,missing=9
			9:leaf=-0.0138622141
			10:leaf=0.0102230711
	2:[f4<121.35022] yes=5,no=6,missing=5
		5:[f16<0.520213723] yes=11,no=12,missing=11
			11:leaf=0.00269117742
			12:leaf=-0.00777353114
		6:[f18<0.706412911] yes=13,no=14,missing=13
			13:leaf=0.00385554577
			14:leaf=-0.0304504428
booster[130]:
0:[f13<0.61036396] yes=1,no=2,missing=1
	1:[f16<0.466390878] yes=3,no=4,missing=3
		3:[f10<339.375] yes=7,no=8,missing=7
			7:leaf=0.0970185995
			8:leaf=-0.0204585716
		4:[f12<3.13208008] yes=9,no=10,missing=9
			9:leaf=0.00139018614
			10:leaf=0.139306888
	2:[f3<607.578369] yes=5,no=6,missing=5
		5:[f1<-3.84483576] yes=11,no=12,missing=11
			11:leaf=0.068661198
			12:leaf=-0.0286421962
		6:[f5<0.417160243] yes=13,no=14,missing=13
			13:leaf=-0.0508968495
			14:leaf=-0.000970180437
booster[131]:
0:[f14<3.06607676] yes=1,no=2,missing=1
	1:[f14<-3.0454092] yes=3,no=4,missing=3
		3:[f0<160.996765] yes=7,no=8,missing=7
			7:leaf=0.00351829804
			8:leaf=0.0468044579
		4:[f10<406.875] yes=9,no=10,missing=9
			9:leaf=-0.006506701
			10:leaf=0.0120450081
	2:[f6<0.670656204] yes=5,no=6,missing=5
		5:[f7<326.375] yes=11,no=12,missing=11
			11:leaf=0.062803857
			12:leaf=-0.023947468
		6:[f8<-1.37145996] yes=13,no=14,missing=13
			13:leaf=-0.0208949503
			14:leaf=0.0141530158
booster[132]:
0:[f6<0.298714995] yes=1,no=2,missing=1
	1:[f8<0.879272461] yes=3,no=4,missing=3
		3:[f11<-0.912902832] yes=7,no=8,missing=7
			7:leaf=-0.0145372916
			8:leaf=-0.0930967852
		4:[f8<1.10571289] yes=9,no=10,missing=9
			9:leaf=0.0997061431
			10:leaf=-0.0620259121
	2:[f5<0.30292064] yes=5,no=6,missing=5
		5:[f2<2.54533172] yes=11,no=12,missing=11
			11:leaf=-0.0800575167
			12:leaf=-0.00514384313
		6:[f13<2.29911804] yes=13,no=14,missing=13
			13:leaf=0.00047944588
			14:leaf=-0.040203955
booster[133]:
0:[f16<0.597013235] yes=1,no=2,missing=1
	1:[f0<158.949524] yes=3,no=4,missing=3
		3:[f18<0.660624862] yes=7,no=8,missing=7
			7:leaf=0.0341596454
			8:leaf=-0.00182827213
		4:[f2<-3.12009716] yes=9,no=10,missing=9
			9:leaf=0.215853527
			10:leaf=0.0132380892
	2:[f5<0.518910885] yes=5,no=6,missing=5
		5:[f3<564.194702] yes=11,no=12,missing=11
			11:leaf=-0.00174150616
			12:leaf=-0.0738664418
		6:[f6<0.852885962] yes=13,no=14,missing=13
			13:leaf=-0.0171949863
			14:leaf=0.0170313939
booster[134]:
0:[f13<0.424198151] yes=1,no=2,missing=1
	1:[f16<0.517768025] yes=3,no=4,missing=3
		3:[f17<0.427562535] yes=7,no=8,missing=7
			7:leaf=0.081047684
			8:leaf=0.00639918679
		4:[f17<0.415493011] yes=9,no=10,missing=9
			9:leaf=0.00836296752
			10:leaf=-0.0150672412
	2:[f12<3.13696289] yes=5,no=6,missing=5
		5:[f0<135.333344] yes=11,no=12,missing=11
			11:leaf=-0.00532570295
			12:leaf=0.00502785714
		6:[f16<0.476716042] yes=13,no=14,missing=13
			13:leaf=-0.064130418
			14:leaf=0.305702448
booster[135]:
0:[f4<246.505188] yes=1,no=2,missing=1
	1:[f6<0.834050179] yes=3,no=4,missing=3
		3:[f4<147.309219] yes=7,no=8,missing=7
			7:leaf=-0.00117972214
			8:leaf=-0.0237572026
		4:[f3<807.438782] yes=9,no=10,missing=9
			9:leaf=-0.00236603967
			10:leaf=0.0144815398
	2:[f2<-1.29222095] yes=5,no=6,missing=5
		5:[f8<0.764099121] yes=11,no=12,missing=11
			11:leaf=-0.0423921719
			12:leaf=0.141662523
		6:[f14<3.06967783] yes=13,no=14,missing=13
			13:leaf=-0.0913032219
			14:leaf=0.0217423048
booster[136]:
0:[f12<-1.94567871] yes=1,no=2,missing=1
	1:[f17<0.417395949] yes=3,no=4,missing=3
		3:[f14<-2.95673871] yes=7,no=8,missing=7
			7:leaf=0.0220273696
			8:leaf=-0.00897867791
		4:[f4<32.3351021] yes=9,no=10,missing=9
			9:leaf=0.00403980725
			10:leaf=-0.0204322413
	2:[f13<0.233169556] yes=5,no=6,missing=5
		5:[f5<0.790962934] yes=11,no=12,missing=11
			11:leaf=0.000537149317
			12:leaf=0.015534698
		6:[f0<161.529388] yes=13,no=14,missing=13
			13:leaf=-0.00284192874
			14:leaf=0.00925990939
booster[137]:
0:[f0<543.621338] yes=1,no=2,missing=1
	1:[f15<2.60041976] yes=3,no=4,missing=3
		3:[f5<0.485693634] yes=7,no=8,missing=7
			7:leaf=-0.0662249774
			8:leaf=0.0195176695
		4:[f17<0.4643327] yes=9,no=10,missing=9
			9:leaf=0.000639767735
			10:leaf=-0.0120370863
	2:[f5<0.906433761] yes=5,no=6,missing=5
		5:[f6<0.860351801] yes=11,no=12,missing=11
			11:leaf=-0.056111522
			12:leaf=0.00757338107
		6:[f10<451] yes=13,no=14,missing=13
			13:leaf=0.107958592
			14:leaf=-0.0582985356
booster[138]:
0:[f16<0.597013235] yes=1,no=2,missing=1
	1:[f0<158.949524] yes=3,no=4,missing=3
		3:[f17<0.467601836] yes=7,no=8,missing=7
			7:leaf=0.000312960445
			8:leaf=-0.0163405575
		4:[f10<846.25] yes=9,no=10,missing=9
			9:leaf=0.0104835285
			10:leaf=0.162546933
	2:[f5<0.518910885] yes=5,no=6,missing=5
		5:[f3<564.194702] yes=11,no=12,missing=11
			11:leaf=0.00180419907
			12:leaf=-0.0716030523
		6:[f0<221.152252] yes=13,no=14,missing=13
			13:leaf=-0.028739756
			14:leaf=0.00136858283
booster[139]:
0:[f14<3.04709482] yes=1,no=2,missing=1
	1:[f14<2.757267] yes=3,no=4,missing=3
		3:[f4<200.049911] yes=7,no=8,missing=7
			7:leaf=0.00154925638
			8:leaf=-0.0460108481
		4:[f10<376.875] yes=9,no=10,missing=9
			9:leaf=-0.01319848
			10:leaf=0.00968743581
	2:[f10<279.625] yes=5,no=6,missing=5
		5:[f6<0.563194633] yes=11,no=12,missing=11
			11:leaf=0.0877080336
			12:leaf=0.0196345989
		6:[f6<0.66905117] yes=13,no=14,missing=13
			13:leaf=-0.0172292758
			14:leaf=0.00656739203
booster[140]:
0:[f13<0.795230985] yes=1,no=2,missing=1
	1:[f17<0.437717974] yes=3,no=4,missing=3
		3:[f7<371.625] yes=7,no=8,missing=7
			7:leaf=0.0195468441
			8:leaf=-0.00206045457
		4:[f3<695.437622] yes=9,no=10,missing=9
			9:leaf=-0.0158381816
			10:leaf=0.003623344
	2:[f3<705.192322] yes=5,no=6,missing=5
		5:[f0<26.3038979] yes=11,no=12,missing=11
			11:leaf=0.0256934371
			12:leaf=-0.0238495134
		6:[f6<0.507891417] yes=13,no=14,missing=13
			13:leaf=-0.0303334929
			14:leaf=0.00147918414
booster[141]:
0:[f16<0.518592238] yes=1,no=2,missing=1
	1:[f4<72.0871124] yes=3,no=4,missing=3
		3:[f0<154.286804] yes=7,no=8,missing=7
			7:leaf=0.00371343317
			8:leaf=0.0296806823
		4:[f18<0.865682364] yes=9,no=10,missing=9
			9:leaf=0.00296794693
			10:leaf=-0.0177215338
	2:[f10<434.625] yes=5,no=6,missing=5
		5:[f17<0.415157944] yes=11,no=12,missing=11
			11:leaf=0.00169991073
			12:leaf=-0.0233164858
		6:[f14<-3.11536264] yes=13,no=14,missing=13
			13:leaf=0.117130153
			14:leaf=0.0180954915
booster[142]:
0:[f13<0.556106567] yes=1,no=2,missing=1
	1:[f16<0.487869143] yes=3,no=4,missing=3
		3:[f3<844.172668] yes=7,no=8,missing=7
			7:leaf=0.0290825795
			8:leaf=-0.0156268682
		4:[f17<0.432503045] yes=9,no=10,missing=9
			9:leaf=0.00624153158
			10:leaf=-0.00785937998
	2:[f17<0.425651908] yes=5,no=6,missing=5
		5:[f0<8.65575695] yes=11,no=12,missing=11
			11:leaf=0.0747750029
			12:leaf=-0.000672607857
		6:[f3<795.5047] yes=13,no=14,missing=13
			13:leaf=-0.0231698155
			14:leaf=-0.00386539707
booster[143]:
0:[f8<-2.42553711] yes=1,no=2,missing=1
	1:leaf=0.1974902
	2:[f13<1.08851624] yes=3,no=4,missing=3
		3:[f16<0.494398773] yes=5,no=6,missing=5
			5:leaf=0.00653252238
			6:leaf=-0.00265244651
		4:[f3<658.020691] yes=7,no=8,missing=7
			7:leaf=-0.0340839699
			8:leaf=-0.00422196975
booster[144]:
0:[f8<-2.4309082] yes=1,no=2,missing=1
	1:leaf=0.197806761
	2:[f13<0.279251099] yes=3,no=4,missing=3
		3:[f16<0.491452217] yes=5,no=6,missing=5
			5:leaf=0.0193985738
			6:leaf=0.000653964409
		4:[f7<206.0625] yes=7,no=8,missing=7
			7:leaf=0.166191146
			8:leaf=-0.00206040521
booster[145]:
0:[f8<-2.43579102] yes=1,no=2,missing=1
	1:leaf=0.197724715
	2:[f6<0.298714995] yes=3,no=4,missing=3
		3:[f8<0.879272461] yes=5,no=6,missing=5
			5:leaf=-0.080340296
			6:leaf=0.0111042541
		4:[f5<0.30292064] yes=7,no=8,missing=7
			7:leaf=-0.0688342452
			8:leaf=0.000179397757
booster[146]:
0:[f8<-2.43774414] yes=1,no=2,missing=1
	1:leaf=0.194440588
	2:[f4<323.402405] yes=3,no=4,missing=3
		3:[f13<2.31889343] yes=5,no=6,missing=5
			5:leaf=0.000252495374
			6:leaf=-0.0393188633
		4:[f0<162.485809] yes=7,no=8,missing=7
			7:leaf=-0.000628368638
			8:leaf=-0.0834784657
booster[147]:
0:[f5<0.95123291] yes=1,no=2,missing=1
	1:[f5<0.887906313] yes=3,no=4,missing=3
		3:[f16<0.315380096] yes=7,no=8,missing=7
			7:leaf=-0.042997241
			8:leaf=-0.00085268257
		4:[f14<3.13290143] yes=9,no=10,missing=9
			9:leaf=0.00740561634
			10:leaf=0.0744126365
	2:[f14<-3.12375498] yes=5,no=6,missing=5
		5:leaf=0.103428952
		6:[f4<125.543228] yes=11,no=12,missing=11
			11:leaf=-0.0678404942
			12:leaf=0.044815626
booster[148]:
0:[f18<0.449611306] yes=1,no=2,missing=1
	1:[f6<0.865252554] yes=3,no=4,missing=3
		3:[f9<2.0690918] yes=7,no=8,missing=7
			7:leaf=-0.0698597729
			8:leaf=0.00386837986
		4:[f3<818.68634] yes=9,no=10,missing=9
			9:leaf=-0.064514555
			10:leaf=0.125612184
	2:[f18<0.468646407] yes=5,no=6,missing=5
		5:[f13<0.754074097] yes=11,no=12,missing=11
			11:leaf=-0.00511449762
			12:leaf=0.193785504
		6:[f13<0.346382141] yes=13,no=14,missing=13
			13:leaf=0.00396031281
			14:leaf=-0.0020885875
booster[149]:
0:[f16<0.520135045] yes=1,no=2,missing=1
	1:[f4<86.4417267] yes=3,no=4,missing=3
		3:[f0<154.287537] yes=7,no=8,missing=7
			7:leaf=0.00259320508
			8:leaf=0.0228648204
		4:[f18<0.753282428] yes=9,no=10,missing=9
			9:leaf=0.0286972076
			10:leaf=-0.0177394059
	2:[f10<434.625] yes=5,no=6,missing=5
		5:[f17<0.415157944] yes=11,no=12,missing=11
			11:leaf=0.00129607623
			12:leaf=-0.0222683679
		6:[f6<0.609416366] yes=13,no=14,missing=13
			13:leaf=-0.0300892647
			14:leaf=0.0398428179
booster[150]:
0:[f8<1.64367676] yes=1,no=2,missing=1
	1:[f8<1.63171387] yes=3,no=4,missing=3
		3:[f11<1.23815918] yes=7,no=8,missing=7
			7:leaf=-0.00057980651
			8:leaf=0.0110205831
		4:[f18<0.803084016] yes=9,no=10,missing=9
			9:leaf=-0.03896394
			10:leaf=0.147084519
	2:[f9<2.4597168] yes=5,no=6,missing=5
		5:[f1<4.05631161] yes=11,no=12,missing=11
			11:leaf=-0.0379984044
			12:leaf=-0.00124983676
		6:[f4<26.3164635] yes=13,no=14,missing=13
			13:leaf=-0.0814319178
			14:leaf=0.0681328103
booster[151]:
0:[f5<0.310616463] yes=1,no=2,missing=1
	1:[f2<2.54533172] yes=3,no=4,missing=3
		3:[f14<3.0150578] yes=7,no=8,missing=7
			7:leaf=-0.0914543867
			8:leaf=-0.0224991888
		4:[f17<0.420981109] yes=9,no=10,missing=9
			9:leaf=-0.0567726865
			10:leaf=0.0995094553
	2:[f4<323.402405] yes=5,no=6,missing=5
		5:[f17<0.439567685] yes=11,no=12,missing=11
			11:leaf=0.00219335384
			12:leaf=-0.00373112643
		6:[f0<162.673889] yes=13,no=14,missing=13
			13:leaf=-0.000253319682
			14:leaf=-0.0820693374
booster[152]:
0:[f6<0.298714995] yes=1,no=2,missing=1
	1:[f8<0.879272461] yes=3,no=4,missing=3
		3:[f11<-0.912902832] yes=7,no=8,missing=7
			7:leaf=-0.00819419511
			8:leaf=-0.0917225033
		4:[f14<-2.93102121] yes=9,no=10,missing=9
			9:leaf=0.0997380242
			10:leaf=-0.0620101281
	2:[f12<-2.06225586] yes=5,no=6,missing=5
		5:[f12<-2.10424805] yes=11,no=12,missing=11
			11:leaf=-0.00420349929
			12:leaf=-0.0531978793
		6:[f5<0.454974711] yes=13,no=14,missing=13
			13:leaf=-0.0204218365
			14:leaf=0.00193568121
booster[153]:
0:[f13<1.44093323] yes=1,no=2,missing=1
	1:[f16<0.518592238] yes=3,no=4,missing=3
		3:[f0<154.287537] yes=7,no=8,missing=7
			7:leaf=0.00150597142
			8:leaf=0.0223347209
		4:[f14<-3.12984324] yes=9,no=10,missing=9
			9:leaf=0.0517170392
			10:leaf=-0.00529264379
	2:[f9<3.01489258] yes=5,no=6,missing=5
		5:[f5<0.869938493] yes=11,no=12,missing=11
			11:leaf=-0.0183507036
			12:leaf=0.0101766577
		6:[f13<1.58111572] yes=13,no=14,missing=13
			13:leaf=-0.0555605963
			14:leaf=0.135595664
booster[154]:
0:[f13<0.427062511] yes=1,no=2,missing=1
	1:[f16<0.557576895] yes=3,no=4,missing=3
		3:[f17<0.432867646] yes=7,no=8,missing=7
			7:leaf=0.0250776857
			8:leaf=-0.000180626623
		4:[f2<-2.35059357] yes=9,no=10,missing=9
			9:leaf=0.021391727
			10:leaf=-0.0135309668
	2:[f12<3.13696289] yes=5,no=6,missing=5
		5:[f14<3.02300167] yes=11,no=12,missing=11
			11:leaf=-0.00488916039
			12:leaf=0.00468310108
		6:[f16<0.486792624] yes=13,no=14,missing=13
			13:leaf=-0.0375586823
			14:leaf=0.259225458
booster[155]:
0:[f15<2.60041976] yes=1,no=2,missing=1
	1:[f5<0.710380614] yes=3,no=4,missing=3
		3:[f4<5.93225861] yes=7,no=8,missing=7
			7:leaf=0.162901267
			8:leaf=-0.014868103
		4:[f9<2.50708008] yes=9,no=10,missing=9
			9:leaf=0.01418823
			10:leaf=0.0864974037
	2:[f17<0.4643327] yes=5,no=6,missing=5
		5:[f16<0.520026684] yes=11,no=12,missing=11
			11:leaf=0.00281411852
			12:leaf=-0.00567084132
		6:[f3<751.892822] yes=13,no=14,missing=13
			13:leaf=-0.0403717831
			14:leaf=0.00917267613
booster[156]:
0:[f13<0.742454529] yes=1,no=2,missing=1
	1:[f17<0.437717974] yes=3,no=4,missing=3
		3:[f0<82.1285095] yes=7,no=8,missing=7
			7:leaf=0.0230988059
			8:leaf=-0.000111127229
		4:[f3<695.437622] yes=9,no=10,missing=9
			9:leaf=-0.0139315566
			10:leaf=0.00285890698
	2:[f3<656.495972] yes=5,no=6,missing=5
		5:[f8<-2.26098633] yes=11,no=12,missing=11
			11:leaf=0.164985776
			12:leaf=-0.0208394248
		6:[f5<0.688952088] yes=13,no=14,missing=13
			13:leaf=-0.0126248552
			14:leaf=0.00238997745
booster[157]:
0:[f6<0.769611716] yes=1,no=2,missing=1
	1:[f3<874.476074] yes=3,no=4,missing=3
		3:[f4<114.085175] yes=7,no=8,missing=7
			7:leaf=0.00514487363
			8:leaf=-0.0293514337
		4:[f5<0.687773347] yes=9,no=10,missing=9
			9:leaf=-0.0371657759
			10:leaf=-0.0039137383
	2:[f7<578.25] yes=5,no=6,missing=5
		5:[f16<0.494398773] yes=11,no=12,missing=11
			11:leaf=0.00588745205
			12:leaf=-0.00467782142
		6:[f5<0.668746233] yes=13,no=14,missing=13
			13:leaf=-0.0158826318
			14:leaf=0.0503639765
booster[158]:
0:[f13<0.233104706] yes=1,no=2,missing=1
	1:[f13<0.232963562] yes=3,no=4,missing=3
		3:[f16<0.494408667] yes=7,no=8,missing=7
			7:leaf=0.0168947484
			8:leaf=0.000685498875
		4:leaf=0.231147125
	2:[f8<-1.21594238] yes=5,no=6,missing=5
		5:[f1<-3.07133341] yes=9,no=10,missing=9
			9:leaf=-0.00161903666
			10:leaf=-0.03187057
		6:[f17<0.409890711] yes=11,no=12,missing=11
			11:leaf=0.00376166753
			12:leaf=-0.0040720934
booster[159]:
0:[f17<0.627437472] yes=1,no=2,missing=1
	1:[f15<2.60041976] yes=3,no=4,missing=3
		3:[f5<0.469380766] yes=7,no=8,missing=7
			7:leaf=-0.0602539554
			8:leaf=0.0169116892
		4:[f16<0.706949592] yes=9,no=10,missing=9
			9:leaf=-0.000503396208
			10:leaf=-0.0660751462
	2:[f12<-2.87573242] yes=5,no=6,missing=5
		5:leaf=0.0373416543
		6:[f5<0.906362414] yes=11,no=12,missing=11
			11:leaf=-0.0804961175
			12:leaf=0.0339434743
booster[160]:
0:[f5<0.95123291] yes=1,no=2,missing=1
	1:[f5<0.887906313] yes=3,no=4,missing=3
		3:[f6<0.680574298] yes=7,no=8,missing=7
			7:leaf=-0.00693146465
			8:leaf=0.000808681536
		4:[f12<1.92687988] yes=9,no=10,missing=9
			9:leaf=0.00294054928
			10:leaf=0.0259798747
	2:[f14<-3.12375498] yes=5,no=6,missing=5
		5:[f6<0.822904289] yes=11,no=12,missing=11
			11:leaf=-0.0542380624
			12:leaf=0.190901369
		6:[f4<125.543228] yes=13,no=14,missing=13
			13:leaf=-0.0656780973
			14:leaf=0.0409262702
booster[161]:
0:[f16<0.26067853] yes=1,no=2,missing=1
	1:[f2<2.04905319] yes=3,no=4,missing=3
		3:[f5<0.553987205] yes=7,no=8,missing=7
			7:leaf=-0.0001118812
			8:leaf=-0.0918806866
		4:[f5<0.838987708] yes=9,no=10,missing=9
			9:leaf=-0.0638744012
			10:leaf=0.14905782
	2:[f8<-2.43774414] yes=5,no=6,missing=5
		5:leaf=0.163717031
		6:[f18<0.382048368] yes=11,no=12,missing=11
			11:leaf=-0.0688250065
			12:leaf=0.000140208344
booster[162]:
0:[f13<0.936435699] yes=1,no=2,missing=1
	1:[f16<0.441843212] yes=3,no=4,missing=3
		3:[f10<397.125] yes=7,no=8,missing=7
			7:leaf=0.0799188614
			8:leaf=-0.0560501404
		4:[f17<0.41201967] yes=9,no=10,missing=9
			9:leaf=0.00831140857
			10:leaf=-0.00180557685
	2:[f2<3.11920619] yes=5,no=6,missing=5
		5:[f9<3.0168457] yes=11,no=12,missing=11
			11:leaf=-0.00638887426
			12:leaf=0.0435764641
		6:[f9<2.25146484] yes=13,no=14,missing=13
			13:leaf=-0.0107405735
			14:leaf=0.246024996
booster[163]:
0:[f6<0.298714995] yes=1,no=2,missing=1
	1:[f8<0.879272461] yes=3,no=4,missing=3
		3:[f11<-0.912902832] yes=7,no=8,missing=7
			7:leaf=-0.00734109199
			8:leaf=-0.0908995196
		4:[f2<0.483246148] yes=9,no=10,missing=9
			9:leaf=-0.0617795251
			10:leaf=0.0997426435
	2:[f4<323.402405] yes=5,no=6,missing=5
		5:[f8<1.64367676] yes=11,no=12,missing=11
			11:leaf=0.000592270866
			12:leaf=-0.0157777946
		6:[f0<163.721207] yes=13,no=14,missing=13
			13:leaf=-0.000310450851
			14:leaf=-0.0802170336
booster[164]:
0:[f5<0.30292064] yes=1,no=2,missing=1
	1:[f15<3.08478975] yes=3,no=4,missing=3
		3:[f14<2.89149213] yes=7,no=8,missing=7
			7:leaf=-0.0607467107
			8:leaf=0.0507127121
		4:leaf=-0.0877355561
	2:[f13<0.346382141] yes=5,no=6,missing=5
		5:[f16<0.485400915] yes=9,no=10,missing=9
			9:leaf=0.0203568488
			10:leaf=0.000685401901
		6:[f17<0.411401451] yes=11,no=12,missing=11
			11:leaf=0.00189627742
			12:leaf=-0.00582381664
booster[165]:
0:[f17<0.627437472] yes=1,no=2,missing=1
	1:[f15<2.60041976] yes=3,no=4,missing=3
		3:[f4<132.687592] yes=7,no=8,missing=7
			7:leaf=0.0165619757
			8:leaf=-0.0391351655
		4:[f17<0.4643327] yes=9,no=10,missing=9
			9:leaf=0.000426483108
			10:leaf=-0.0109941959
	2:[f10<208.3125] yes=5,no=6,missing=5
		5:leaf=0.0383098461
		6:[f5<0.906347215] yes=11,no=12,missing=11
			11:leaf=-0.0788681358
			12:leaf=0.0294063687
booster[166]:
0:[f13<0.629886627] yes=1,no=2,missing=1
	1:[f16<0.47676608] yes=3,no=4,missing=3
		3:[f3<774.369873] yes=7,no=8,missing=7
			7:leaf=0.0415483899
			8:leaf=-0.0146639813
		4:[f0<29.5847549] yes=9,no=10,missing=9
			9:leaf=-0.0216527563
			10:leaf=0.00162430538
	2:[f3<705.192322] yes=5,no=6,missing=5
		5:[f6<0.57946682] yes=11,no=12,missing=11
			11:leaf=0.0419215225
			12:leaf=-0.0165135153
		6:[f5<0.432429433] yes=13,no=14,missing=13
			13:leaf=-0.0403432362
			14:leaf=0.000990017084
booster[167]:
0:[f16<0.52213347] yes=1,no=2,missing=1
	1:[f16<0.521986723] yes=3,no=4,missing=3
		3:[f4<66.4394073] yes=7,no=8,missing=7
			7:leaf=0.00422821101
			8:leaf=-0.00632917648
		4:[f17<0.439167917] yes=9,no=10,missing=9
			9:leaf=0.240900546
			10:leaf=-0.0705164671
	2:[f4<54.3411789] yes=5,no=6,missing=5
		5:[f3<1025.0354] yes=11,no=12,missing=11
			11:leaf=-0.0154385287
			12:leaf=0.0232702587
		6:[f14<-3.11348581] yes=13,no=14,missing=13
			13:leaf=0.0507209189
			14:leaf=-0.000536068401
booster[168]:
0:[f6<0.507346153] yes=1,no=2,missing=1
	1:[f3<860.066162] yes=3,no=4,missing=3
		3:[f2<-1.64364529] yes=7,no=8,missing=7
			7:leaf=-0.0184841789
			8:leaf=0.0274862405
		4:[f2<-2.98647904] yes=9,no=10,missing=9
			9:leaf=0.0881637484
			10:leaf=-0.0392751247
	2:[f3<707.322266] yes=5,no=6,missing=5
		5:[f17<0.447784841] yes=11,no=12,missing=11
			11:leaf=0.00237094122
			12:leaf=-0.0201978702
		6:[f5<0.752465665] yes=13,no=14,missing=13
			13:leaf=-0.003651676
			14:leaf=0.00678686146
booster[169]:
0:[f13<0.427062511] yes=1,no=2,missing=1
	1:[f16<0.557576895] yes=3,no=4,missing=3
		3:[f17<0.405302942] yes=7,no=8,missing=7
			7:leaf=0.0575506091
			8:leaf=0.00359638571
		4:[f18<0.717777133] yes=9,no=10,missing=9
			9:leaf=-0.00201258482
			10:leaf=-0.0281126946
	2:[f2<3.1379869] yes=5,no=6,missing=5
		5:[f0<130.862183] yes=11,no=12,missing=11
			11:leaf=-0.00457119895
			12:leaf=0.00424073124
		6:[f18<0.882773519] yes=13,no=14,missing=13
			13:leaf=0.254249215
			14:leaf=-0.0629121736
booster[170]:
0:[f16<0.518592238] yes=1,no=2,missing=1
	1:[f4<132.704651] yes=3,no=4,missing=3
		3:[f0<154.389496] yes=7,no=8,missing=7
			7:leaf=0.000955946103
			8:leaf=0.0198265687
		4:[f6<0.807930112] yes=9,no=10,missing=9
			9:leaf=-0.0463194437
			10:leaf=-0.00283844047
	2:[f10<434.625] yes=5,no=6,missing=5
		5:[f17<0.415157944] yes=11,no=12,missing=11
			11:leaf=0.001279096
			12:leaf=-0.0190938748
		6:[f8<-0.319671631] yes=13,no=14,missing=13
			13:leaf=-0.0126014743
			14:leaf=0.036833223
booster[171]:
0:[f15<2.60041976] yes=1,no=2,missing=1
	1:[f0<543.621338] yes=3,no=4,missing=3
		3:[f5<0.485693634] yes=7,no=8,missing=7
			7:leaf=-0.0589360595
			8:leaf=0.0187906921
		4:[f5<0.906433761] yes=9,no=10,missing=9
			9:leaf=-0.0314293504
			10:leaf=0.0626409575
	2:[f16<0.59418714] yes=5,no=6,missing=5
		5:[f17<0.440558046] yes=11,no=12,missing=11
			11:leaf=0.00225547887
			12:leaf=-0.0046774256
		6:[f6<0.385378718] yes=13,no=14,missing=13
			13:leaf=0.198164254
			14:leaf=-0.0180078801
booster[172]:
0:[f13<0.233104706] yes=1,no=2,missing=1
	1:[f9<1.38195801] yes=3,no=4,missing=3
		3:[f17<0.422097504] yes=7,no=8,missing=7
			7:leaf=0.0132927122
			8:leaf=-0.00421068491
		4:[f1<-2.19468665] yes=9,no=10,missing=9
			9:leaf=0.0403557718
			10:leaf=0.00571091613
	2:[f8<-1.21594238] yes=5,no=6,missing=5
		5:[f1<-3.07133341] yes=11,no=12,missing=11
			11:leaf=-0.00134511851
			12:leaf=-0.0299184211
		6:[f8<-1.19128418] yes=13,no=14,missing=13
			13:leaf=0.044339519
			14:leaf=-0.000765431381
booster[173]:
0:[f5<0.95123291] yes=1,no=2,missing=1
	1:[f5<0.948325694] yes=3,no=4,missing=3
		3:[f13<0.841934204] yes=7,no=8,missing=7
			7:leaf=0.00159450748
			8:leaf=-0.00412506936
		4:[f8<0.85357666] yes=9,no=10,missing=9
			9:leaf=0.016788302
			10:leaf=0.254416704
	2:[f14<-3.12375498] yes=5,no=6,missing=5
		5:[f6<0.822904289] yes=11,no=12,missing=11
			11:leaf=-0.0528612733
			12:leaf=0.164624557
		6:[f4<125.543228] yes=13,no=14,missing=13
			13:leaf=-0.0632831901
			14:leaf=0.0370665155
booster[174]:
0:[f16<0.518592238] yes=1,no=2,missing=1
	1:[f4<66.4394073] yes=3,no=4,missing=3
		3:[f13<0.233055115] yes=7,no=8,missing=7
			7:leaf=0.0133398985
			8:leaf=0.00218256889
		4:[f18<0.864066839] yes=9,no=10,missing=9
			9:leaf=0.00552145811
			10:leaf=-0.013132791
	2:[f4<71.2779541] yes=5,no=6,missing=5
		5:[f15<2.80015659] yes=11,no=12,missing=11
			11:leaf=0.00501216576
			12:leaf=-0.0154450824
		6:[f14<-3.09779358] yes=13,no=14,missing=13
			13:leaf=0.04309012
			14:leaf=0.0006176756
booster[175]:
0:[f4<323.402405] yes=1,no=2,missing=1
	1:[f16<0.26067853] yes=3,no=4,missing=3
		3:[f2<2.04905319] yes=7,no=8,missing=7
			7:leaf=-0.0833570212
			8:leaf=0.0313981511
		4:[f11<1.23815918] yes=9,no=10,missing=9
			9:leaf=-0.000605336216
			10:leaf=0.00809102505
	2:[f0<164.61853] yes=5,no=6,missing=5
		5:leaf=-0.000246716198
		6:[f9<2.5222168] yes=11,no=12,missing=11
			11:leaf=-0.0882087573
			12:leaf=-0.000223716255
booster[176]:
0:[f6<0.298714995] yes=1,no=2,missing=1
	1:[f8<0.879272461] yes=3,no=4,missing=3
		3:[f11<-0.912902832] yes=7,no=8,missing=7
			7:leaf=-0.00668099103
			8:leaf=-0.0899972692
		4:[f2<0.665333152] yes=9,no=10,missing=9
			9:leaf=-0.0614972599
			10:leaf=0.0997947827
	2:[f18<0.382048368] yes=5,no=6,missing=5
		5:[f18<0.282369971] yes=11,no=12,missing=11
			11:leaf=0.0493896827
			12:leaf=-0.0818892121
		6:[f18<0.388621569] yes=13,no=14,missing=13
			13:leaf=0.149448887
			14:leaf=0.000120150507
booster[177]:
0:[f13<1.72050476] yes=1,no=2,missing=1
	1:[f16<0.360745013] yes=3,no=4,missing=3
		3:[f8<-0.265533447] yes=7,no=8,missing=7
			7:leaf=0.165607572
			8:leaf=0.0141534479
		4:[f16<0.494398773] yes=9,no=10,missing=9
			9:leaf=0.00304783834
			10:leaf=-0.00235061557
	2:[f3<901.612427] yes=5,no=6,missing=5
		5:[f18<0.603022456] yes=11,no=12,missing=11
			11:leaf=0.0805878267
			12:leaf=-0.0525983386
		6:[f3<1494.66113] yes=13,no=14,missing=13
			13:leaf=0.00741777197
			14:leaf=-0.0443840176
booster[178]:
0:[f12<-2.06225586] yes=1,no=2,missing=1
	1:[f12<-2.10424805] yes=3,no=4,missing=3
		3:[f12<-2.10522461] yes=7,no=8,missing=7
			7:leaf=-0.00390333543
			8:leaf=0.190291151
		4:[f9<0.776489258] yes=9,no=10,missing=9
			9:leaf=0.0250998642
			10:leaf=-0.0589600317
	2:[f13<0.233169556] yes=5,no=6,missing=5
		5:[f12<-2.04467773] yes=11,no=12,missing=11
			11:leaf=0.131550357
			12:leaf=0.00573063409
		6:[f10<218.5625] yes=13,no=14,missing=13
			13:leaf=-0.0170526914
			14:leaf=0.000301773311
booster[179]:
0:[f6<0.847970009] yes=1,no=2,missing=1
	1:[f14<3.12843943] yes=3,no=4,missing=3
		3:[f4<147.309219] yes=7,no=8,missing=7
			7:leaf=-0.0013863839
			8:leaf=-0.0221061055
		4:[f9<2.99731445] yes=9,no=10,missing=9
			9:leaf=0.013674669
			10:leaf=0.13950254
	2:[f10<522.75] yes=5,no=6,missing=5
		5:[f9<-3.13598633] yes=11,no=12,missing=11
			11:leaf=0.170304254
			12:leaf=0.00198491593
		6:[f12<1.34411621] yes=13,no=14,missing=13
			13:leaf=0.0670392364
			14:leaf=-0.0237686783
booster[180]:
0:[f17<0.439567685] yes=1,no=2,missing=1
	1:[f7<368.625] yes=3,no=4,missing=3
		3:[f13<0.711212158] yes=7,no=8,missing=7
			7:leaf=0.0182457473
			8:leaf=-0.00308983726
		4:[f5<0.647288322] yes=9,no=10,missing=9
			9:leaf=-0.0193472672
			10:leaf=0.00217352714
	2:[f3<796.575317] yes=5,no=6,missing=5
		5:[f16<0.489097983] yes=11,no=12,missing=11
			11:leaf=0.00626108656
			12:leaf=-0.0254339967
		6:[f6<0.594356418] yes=13,no=14,missing=13
			13:leaf=-0.0283709709
			14:leaf=0.0120795332
booster[181]:
0:[f15<2.60041976] yes=1,no=2,missing=1
	1:[f4<132.687592] yes=3,no=4,missing=3
		3:[f4<124.027542] yes=7,no=8,missing=7
			7:leaf=0.0119876554
			8:leaf=0.108259514
		4:[f6<0.890575647] yes=9,no=10,missing=9
			9:leaf=-0.0536418557
			10:leaf=0.0782722533
	2:[f17<0.4643327] yes=5,no=6,missing=5
		5:[f17<0.464302033] yes=11,no=12,missing=11
			11:leaf=0.000278474123
			12:leaf=0.178414002
		6:[f3<751.892822] yes=13,no=14,missing=13
			13:leaf=-0.037123438
			14:leaf=0.00691107614
booster[182]:
0:[f8<-2.43774414] yes=1,no=2,missing=1
	1:leaf=0.139825046
	2:[f12<3.13208008] yes=3,no=4,missing=3
		3:[f12<3.12231445] yes=5,no=6,missing=5
			5:leaf=-6.06548165e-05
			6:leaf=-0.0607445613
		4:[f4<53.2109833] yes=7,no=8,missing=7
			7:leaf=0.134514555
			8:leaf=-0.0370090082
booster[183]:
0:[f0<818.321472] yes=1,no=2,missing=1
	1:[f15<2.47260857] yes=3,no=4,missing=3
		3:[f9<2.82250977] yes=7,no=8,missing=7
			7:leaf=0.0105077969
			8:leaf=0.0875364169
		4:[f16<0.52213347] yes=9,no=10,missing=9
			9:leaf=0.00122113002
			10:leaf=-0.00533630513
	2:[f15<1.85681117] yes=5,no=6,missing=5
		5:leaf=-0.0898258463
		6:[f15<2.06888413] yes=11,no=12,missing=11
			11:leaf=0.0983295143
			12:leaf=-0.0611634739
booster[184]:
0:[f8<1.64367676] yes=1,no=2,missing=1
	1:[f8<1.63171387] yes=3,no=4,missing=3
		3:[f11<1.23815918] yes=7,no=8,missing=7
			7:leaf=-0.000493125233
			8:leaf=0.00907140132
		4:[f2<-0.305008769] yes=9,no=10,missing=9
			9:leaf=-0.00728928763
			10:leaf=0.146244988
	2:[f9<2.4597168] yes=5,no=6,missing=5
		5:[f17<0.45850879] yes=11,no=12,missing=11
			11:leaf=-0.0157737341
			12:leaf=-0.0691972226
		6:[f10<254.875] yes=13,no=14,missing=13
			13:leaf=0.120831013
			14:leaf=0.000396503747
booster[185]:
0:[f5<0.30292064] yes=1,no=2,missing=1
	1:[f2<2.54533172] yes=3,no=4,missing=3
		3:[f12<2.60083008] yes=7,no=8,missing=7
			7:leaf=-0.0800437853
			8:leaf=-5.61789784e-05
		4:leaf=0.006615113
	2:[f5<0.95123291] yes=5,no=6,missing=5
		5:[f13<0.422859192] yes=9,no=10,missing=9
			9:leaf=0.0029805745
			10:leaf=-0.00180516043
		6:[f14<-2.98448801] yes=11,no=12,missing=11
			11:leaf=0.0119105
			12:leaf=-0.0678434148
booster[186]:
0:[f2<-3.14080524] yes=1,no=2,missing=1
	1:leaf=0.148240075
	2:[f4<323.402405] yes=3,no=4,missing=3
		3:[f0<160.549438] yes=5,no=6,missing=5
			5:leaf=-0.00107526919
			6:leaf=0.00528417248
		4:[f17<0.414976656] yes=7,no=8,missing=7
			7:leaf=-0.0764379799
			8:leaf=-0.000360606908
booster[187]:
0:[f2<-3.14090681] yes=1,no=2,missing=1
	1:leaf=0.147732228
	2:[f6<0.298714995] yes=3,no=4,missing=3
		3:[f8<0.879272461] yes=5,no=6,missing=5
			5:leaf=-0.0732615739
			6:leaf=0.011804482
		4:[f16<0.26067853] yes=7,no=8,missing=7
			7:leaf=-0.0560699366
			8:leaf=0.000127988387
booster[188]:
0:[f2<-3.14102125] yes=1,no=2,missing=1
	1:leaf=0.147715703
	2:[f0<818.321472] yes=3,no=4,missing=3
		3:[f15<2.47260857] yes=5,no=6,missing=5
			5:leaf=0.0124303317
			6:leaf=-0.000409596745
		4:[f15<1.85681117] yes=7,no=8,missing=7
			7:leaf=-0.0888319165
			8:leaf=0.0124740442
booster[189]:
0:[f16<0.494398773] yes=1,no=2,missing=1
	1:[f13<0.623908997] yes=3,no=4,missing=3
		3:[f15<2.84547806] yes=7,no=8,missing=7
			7:leaf=0.0556311607
			8:leaf=0.0067810514
		4:[f17<0.444542408] yes=9,no=10,missing=9
			9:leaf=-0.000406665466
			10:leaf=-0.0324613824
	2:[f0<41.0186081] yes=5,no=6,missing=5
		5:[f17<0.446256876] yes=11,no=12,missing=11
			11:leaf=0.0219099354
			12:leaf=-0.0417075083
		6:[f0<41.4988976] yes=13,no=14,missing=13
			13:leaf=0.134806916
			14:leaf=-0.00142144598
booster[190]:
0:[f17<0.439567685] yes=1,no=2,missing=1
	1:[f0<26.6811085] yes=3,no=4,missing=3
		3:[f15<3.15051413] yes=7,no=8,missing=7
			7:leaf=0.193748534
			8:leaf=0.0170760714
		4:[f13<0.742378235] yes=9,no=10,missing=9
			9:leaf=0.00467655342
			10:leaf=-0.00426234957
	2:[f3<696.179688] yes=5,no=6,missing=5
		5:[f16<0.475647062] yes=11,no=12,missing=11
			11:leaf=0.0141926063
			12:leaf=-0.020728929
		6:[f4<39.9837418] yes=13,no=14,missing=13
			13:leaf=0.0110875284
			14:leaf=-0.0054949983
booster[191]:
0:[f1<-4.63084412] yes=1,no=2,missing=1
	1:[f4<28.3194427] yes=3,no=4,missing=3
		3:[f4<27.4230404] yes=7,no=8,missing=7
			7:leaf=0.0151469326
			8:leaf=0.208008811
		4:[f0<26.9544792] yes=9,no=10,missing=9
			9:leaf=-0.0287721548
			10:leaf=-0.0869363546
	2:[f1<-3.73688173] yes=5,no=6,missing=5
		5:[f17<0.439800441] yes=11,no=12,missing=11
			11:leaf=0.0303498358
			12:leaf=-0.00324247382
		6:[f8<-1.26135254] yes=13,no=14,missing=13
			13:leaf=-0.0138573498
			14:leaf=0.000325066474
booster[192]:
0:[f6<0.956010699] yes=1,no=2,missing=1
	1:[f6<0.769611716] yes=3,no=4,missing=3
		3:[f7<386.375] yes=7,no=8,missing=7
			7:leaf=0.00393765979
			8:leaf=-0.00921024289
		4:[f3<808.394409] yes=9,no=10,missing=9
			9:leaf=-0.00296627777
			10:leaf=0.00950537622
	2:[f2<-2.12771845] yes=5,no=6,missing=5
		5:leaf=0.0315822512
		6:[f16<0.452488184] yes=11,no=12,missing=11
			11:leaf=0.00165951333
			12:leaf=-0.0936355367
booster[193]:
0:[f5<0.30292064] yes=1,no=2,missing=1
	1:[f15<3.08478975] yes=3,no=4,missing=3
		3:[f14<2.89149213] yes=7,no=8,missing=7
			7:leaf=-0.0562042855
			8:leaf=0.0514841564
		4:leaf=-0.085665755
	2:[f7<243.5625] yes=5,no=6,missing=5
		5:[f11<-0.391815186] yes=9,no=10,missing=9
			9:leaf=0.0103516597
			10:leaf=-0.0324129909
		6:[f7<244.0625] yes=11,no=12,missing=11
			11:leaf=0.128634259
			12:leaf=0.000298438274
booster[194]:
0:[f18<0.382048368] yes=1,no=2,missing=1
	1:[f18<0.282915354] yes=3,no=4,missing=3
		3:leaf=0.049224481
		4:[f2<-2.45120573] yes=7,no=8,missing=7
			7:leaf=-0.000800292299
			8:leaf=-0.0892284811
	2:[f18<0.388621569] yes=5,no=6,missing=5
		5:leaf=0.130643681
		6:[f16<0.960059166] yes=9,no=10,missing=9
			9:leaf=9.34199852e-05
			10:leaf=-0.0760053471
booster[195]:
0:[f12<-1.94567871] yes=1,no=2,missing=1
	1:[f17<0.417395949] yes=3,no=4,missing=3
		3:[f6<0.865070641] yes=7,no=8,missing=7
			7:leaf=-0.00459055649
			8:leaf=0.0278551169
		4:[f0<121.144669] yes=9,no=10,missing=9
			9:leaf=-0.0150998253
			10:leaf=0.0112722758
	2:[f12<-1.94421387] yes=5,no=6,missing=5
		5:leaf=0.150280952
		6:[f13<0.233169556] yes=11,no=12,missing=11
			11:leaf=0.00601108465
			12:leaf=-0.000689698965
booster[196]:
0:[f16<0.52213347] yes=1,no=2,missing=1
	1:[f16<0.521977246] yes=3,no=4,missing=3
		3:[f4<132.327408] yes=7,no=8,missing=7
			7:leaf=0.00180192001
			8:leaf=-0.022107264
		4:[f9<0.63269043] yes=9,no=10,missing=9
			9:leaf=0.188735262
			10:leaf=-0.0290211327
	2:[f4<56.5537415] yes=5,no=6,missing=5
		5:[f2<2.33112621] yes=11,no=12,missing=11
			11:leaf=-0.00751033286
			12:leaf=-0.0342012905
		6:[f14<-3.09779358] yes=13,no=14,missing=13
			13:leaf=0.0354674309
			14:leaf=-0.00118057488
booster[197]:
0:[f15<2.76398277] yes=1,no=2,missing=1
	1:[f2<-3.10007095] yes=3,no=4,missing=3
		3:[f0<360.669159] yes=7,no=8,missing=7
			7:leaf=0.214444622
			8:leaf=-0.0590176545
		4:[f15<2.76359701] yes=9,no=10,missing=9
			9:leaf=0.00472669909
			10:leaf=0.258909434
	2:[f16<0.592368305] yes=5,no=6,missing=5
		5:[f17<0.409828871] yes=11,no=12,missing=11
			11:leaf=0.0041503096
			12:leaf=-0.00274353777
		6:[f4<141.917465] yes=13,no=14,missing=13
			13:leaf=-0.0295691229
			14:leaf=0.0259636622
booster[198]:
0:[f13<1.16834259] yes=1,no=2,missing=1
	1:[f16<0.431726277] yes=3,no=4,missing=3
		3:[f17<0.421207845] yes=7,no=8,missing=7
			7:leaf=0.0196817126
			8:leaf=0.0926543176
		4:[f17<0.391561389] yes=9,no=10,missing=9
			9:leaf=0.00870288629
			10:leaf=-0.00134215283
	2:[f17<0.393379807] yes=5,no=6,missing=5
		5:[f4<190.011719] yes=11,no=12,missing=11
			11:leaf=-0.0022040992
			12:leaf=-0.0790991634
		6:[f3<1638.64026] yes=13,no=14,missing=13
			13:leaf=-0.0382207707
			14:leaf=0.105035722
booster[199]:
0:[f13<1.02417755] yes=1,no=2,missing=1
	1:[f16<0.44918412] yes=3,no=4,missing=3
		3:[f17<0.427320004] yes=7,no=8,missing=7
			7:leaf=0.047779534
			8:leaf=0.00195184257
		4:[f17<0.3906928] yes=9,no=10,missing=9
			9:leaf=0.00969705731
			10:leaf=-0.00157567603
	2:[f9<3.01489258] yes=5,no=6,missing=5
		5:[f9<-2.37915039] yes=11,no=12,missing=11
			11:leaf=0.013645838
			12:leaf=-0.00863069855
		6:[f8<0.301727295] yes=13,no=14,missing=13
			13:leaf=-0.0256441534
			14:leaf=0.136323839
booster[200]:
0:[f16<0.520135045] yes=1,no=2,missing=1
	1:[f13<0.421897888] yes=3,no=4,missing=3
		3:[f17<0.429701984] yes=7,no=8,missing=7
			7:leaf=0.0472365357
			8:leaf=0.00376748713
		4:[f3<455.174561] yes=9,no=10,missing=9
			9:leaf=0.123443775
			10:leaf=-0.00167407084
	2:[f10<434.625] yes=5,no=6,missing=5
		5:[f17<0.415157944] yes=11,no=12,missing=11
			11:leaf=0.000747021695
			12:leaf=-0.0181296375
		6:[f0<86.2650223] yes=13,no=14,missing=13
			13:leaf=-0.0954749137
			14:leaf=0.02441632
booster[201]:
0:[f16<0.559883773] yes=1,no=2,missing=1
	1:[f13<0.338516235] yes=3,no=4,missing=3
		3:[f18<0.708593607] yes=7,no=8,missing=7
			7:leaf=0.115433931
			8:leaf=0.00531201949
		4:[f3<455.174561] yes=9,no=10,missing=9
			9:leaf=0.0935891345
			10:leaf=-0.0018385424
	2:[f11<1.3314209] yes=5,no=6,missing=5
		5:[f0<112.975189] yes=11,no=12,missing=11
			11:leaf=-0.047660172
			12:leaf=-0.00629978208
		6:[f1<2.57363248] yes=13,no=14,missing=13
			13:leaf=0.0783992335
			14:leaf=-0.00172742957
booster[202]:
0:[f15<2.60041976] yes=1,no=2,missing=1
	1:[f5<0.710380614] yes=3,no=4,missing=3
		3:[f8<-0.601867676] yes=7,no=8,missing=7
			7:leaf=0.033685945
			8:leaf=-0.0231387205
		4:[f9<2.47729492] yes=9,no=10,missing=9
			9:leaf=0.0105088977
			10:leaf=0.0632048026
	2:[f17<0.4643327] yes=5,no=6,missing=5
		5:[f16<0.535522699] yes=11,no=12,missing=11
			11:leaf=0.0020968779
			12:leaf=-0.00636131037
		6:[f3<751.892822] yes=13,no=14,missing=13
			13:leaf=-0.0348822139
			14:leaf=0.00524647301
booster[203]:
0:[f8<1.1505127] yes=1,no=2,missing=1
	1:[f8<1.12902832] yes=3,no=4,missing=3
		3:[f6<0.367020309] yes=7,no=8,missing=7
			7:leaf=-0.0323972367
			8:leaf=0.00064712629
		4:[f16<0.486226976] yes=9,no=10,missing=9
			9:leaf=0.102817595
			10:leaf=0.00156776945
	2:[f7<368.125] yes=5,no=6,missing=5
		5:[f11<1.49450684] yes=11,no=12,missing=11
			11:leaf=-0.0032627061
			12:leaf=0.0325941332
		6:[f0<185.603394] yes=13,no=14,missing=13
			13:leaf=-0.0259871427
			14:leaf=0.0150868474
booster[204]:
0:[f4<246.505188] yes=1,no=2,missing=1
	1:[f0<235.570709] yes=3,no=4,missing=3
		3:[f16<0.602874994] yes=7,no=8,missing=7
			7:leaf=-7.97654502e-05
			8:leaf=-0.0268388148
		4:[f14<-3.09422922] yes=9,no=10,missing=9
			9:leaf=0.111248612
			10:leaf=0.00689187273
	2:[f2<-1.29222095] yes=5,no=6,missing=5
		5:[f8<0.764099121] yes=11,no=12,missing=11
			11:leaf=-0.0311643872
			12:leaf=0.141422436
		6:[f14<3.06967783] yes=13,no=14,missing=13
			13:leaf=-0.0887314007
			14:leaf=0.0308776088
booster[205]:
0:[f18<0.456284463] yes=1,no=2,missing=1
	1:[f2<-2.75485659] yes=3,no=4,missing=3
		3:[f9<-2.72216797] yes=7,no=8,missing=7
			7:leaf=-0.055082798
			8:leaf=0.165718839
		4:[f11<-0.308929443] yes=9,no=10,missing=9
			9:leaf=-0.0811897442
			10:leaf=-0.0156857949
	2:[f18<0.468646407] yes=5,no=6,missing=5
		5:[f5<0.703465879] yes=11,no=12,missing=11
			11:leaf=-0.0383820012
			12:leaf=0.181969658
		6:[f13<0.881808281] yes=13,no=14,missing=13
			13:leaf=0.001352299
			14:leaf=-0.00404727412
booster[206]:
0:[f8<-2.43774414] yes=1,no=2,missing=1
	1:leaf=0.121980466
	2:[f8<-1.42248535] yes=3,no=4,missing=3
		3:[f17<0.435932398] yes=5,no=6,missing=5
			5:leaf=-0.00144811103
