booster[0]:
0:[f9<0.997984409] yes=1,no=2,missing=1
	1:[f9<0.989603579] yes=3,no=4,missing=3
		3:[f6<104.09375] yes=7,no=8,missing=7
			7:leaf=-0.199659124
			8:leaf=-0.19676809
		4:[f6<100.34375] yes=9,no=10,missing=9
			9:leaf=-0.198409185
			10:leaf=-0.160479963
	2:[f6<96.96875] yes=5,no=6,missing=5
		5:[f12<2.52229878e-12] yes=11,no=12,missing=11
			11:leaf=-0.00580897462
			12:leaf=-0.195338458
		6:[f6<144.8125] yes=13,no=14,missing=13
			13:leaf=0.0733094662
			14:leaf=-0.189084545
booster[1]:
0:[f9<0.997984409] yes=1,no=2,missing=1
	1:[f9<0.991077483] yes=3,no=4,missing=3
		3:[f6<104.09375] yes=7,no=8,missing=7
			7:leaf=-0.181548402
			8:leaf=-0.178699598
		4:[f6<100.34375] yes=9,no=10,missing=9
			9:leaf=-0.180267736
			10:leaf=-0.140165895
	2:[f6<91.65625] yes=5,no=6,missing=5
		5:[f11<0.00182141061] yes=11,no=12,missing=11
			11:leaf=-0.179401755
			12:leaf=-0.0424717776
		6:[f6<147.0625] yes=13,no=14,missing=13
			13:leaf=0.0571520589
			14:leaf=-0.174855798
booster[2]:
0:[f9<0.997984409] yes=1,no=2,missing=1
	1:[f9<0.987314463] yes=3,no=4,missing=3
		3:[f6<106.28125] yes=7,no=8,missing=7
			7:leaf=-0.167943597
			8:leaf=-0.165566832
		4:[f6<103.59375] yes=9,no=10,missing=9
			9:leaf=-0.166649193
			10:leaf=-0.136289403
	2:[f6<96.96875] yes=5,no=6,missing=5
		5:[f12<2.52229878e-12] yes=11,no=12,missing=11
			11:leaf=0.000906728033
			12:leaf=-0.164502233
		6:[f6<144.8125] yes=13,no=14,missing=13
			13:leaf=0.0606019311
			14:leaf=-0.158905193
booster[3]:
0:[f9<0.993970335] yes=1,no=2,missing=1
	1:[f6<104.09375] yes=3,no=4,missing=3
		3:leaf=-0.157351017
		4:[f10<0.000486635545] yes=7,no=8,missing=7
			7:leaf=-0.138197616
			8:leaf=-0.15585205
	2:[f6<99.03125] yes=5,no=6,missing=5
		5:[f12<6.1969852e-14] yes=9,no=10,missing=9
			9:leaf=0.0374767072
			10:leaf=-0.156083226
		6:[f6<141.5625] yes=11,no=12,missing=11
			11:leaf=-0.0545761548
			12:leaf=-0.151727363
booster[4]:
0:[f9<0.991707504] yes=1,no=2,missing=1
	1:[f6<104.09375] yes=3,no=4,missing=3
		3:leaf=-0.14894034
		4:[f10<0.000945493113] yes=7,no=8,missing=7
			7:leaf=-0.134521171
			8:leaf=-0.147764847
	2:[f6<111.21875] yes=5,no=6,missing=5
		5:[f6<96.53125] yes=9,no=10,missing=9
			9:leaf=-0.147915587
			10:leaf=-0.126604363
		6:[f6<141.5625] yes=11,no=12,missing=11
			11:leaf=-0.0398151092
			12:leaf=-0.143556908
booster[5]:
0:[f9<0.997984409] yes=1,no=2,missing=1
	1:[f9<0.987313747] yes=3,no=4,missing=3
		3:[f6<104.09375] yes=7,no=8,missing=7
			7:leaf=-0.142117247
			8:leaf=-0.139578566
		4:[f6<103.59375] yes=9,no=10,missing=9
			9:leaf=-0.140667498
			10:leaf=-0.109541051
	2:[f10<2.02009724e-05] yes=5,no=6,missing=5
		5:[f6<149.75] yes=11,no=12,missing=11
			11:leaf=0.1579739
			12:leaf=-0.122577064
		6:[f6<91.65625] yes=13,no=14,missing=13
			13:leaf=-0.139445931
			14:leaf=-0.0430993326
booster[6]:
0:[f9<0.991703749] yes=1,no=2,missing=1
	1:[f6<106.28125] yes=3,no=4,missing=3
		3:[f6<92.53125] yes=7,no=8,missing=7
			7:leaf=-0.136542872
			8:leaf=-0.135484144
		4:[f10<0.000532625359] yes=9,no=10,missing=9
			9:leaf=-0.117484324
			10:leaf=-0.134719133
	2:[f6<111.21875] yes=5,no=6,missing=5
		5:[f6<96.53125] yes=11,no=12,missing=11
			11:leaf=-0.135301992
			12:leaf=-0.111744955
		6:[f6<141.5625] yes=13,no=14,missing=13
			13:leaf=-0.0274874903
			14:leaf=-0.130374864
booster[7]:
0:[f9<0.993970335] yes=1,no=2,missing=1
	1:[f9<0.973455191] yes=3,no=4,missing=3
		3:[f6<102.34375] yes=7,no=8,missing=7
			7:leaf=-0.131791413
			8:leaf=-0.130211517
		4:[f6<103.65625] yes=9,no=10,missing=9
			9:leaf=-0.131118491
			10:leaf=-0.113192715
	2:[f6<99.03125] yes=5,no=6,missing=5
		5:[f12<6.1969852e-14] yes=11,no=12,missing=11
			11:leaf=0.0720623285
			12:leaf=-0.130118877
		6:[f10<0.000165107776] yes=13,no=14,missing=13
			13:leaf=-0.00938250311
			14:leaf=-0.10211134
booster[8]:
0:[f9<0.991247892] yes=1,no=2,missing=1
	1:[f6<104.09375] yes=3,no=4,missing=3
		3:[f6<89.71875] yes=7,no=8,missing=7
			7:leaf=-0.127839521
			8:leaf=-0.126887977
		4:[f10<0.000945493113] yes=9,no=10,missing=9
			9:leaf=-0.11027725
			10:leaf=-0.126101151
	2:[f6<100.21875] yes=5,no=6,missing=5
		5:[f12<4.17278449e-14] yes=11,no=12,missing=11
			11:leaf=0.075615339
			12:leaf=-0.125904009
		6:[f6<144.8125] yes=13,no=14,missing=13
			13:leaf=-0.0474094339
			14:leaf=-0.125429377
booster[9]:
0:[f9<0.991077483] yes=1,no=2,missing=1
	1:[f6<104.09375] yes=3,no=4,missing=3
		3:[f6<88.28125] yes=7,no=8,missing=7
			7:leaf=-0.124435976
			8:leaf=-0.123475216
		4:[f9<0.970937967] yes=9,no=10,missing=9
			9:leaf=-0.122612499
			10:leaf=-0.106372975
	2:[f6<111.15625] yes=5,no=6,missing=5
		5:[f6<91.65625] yes=11,no=12,missing=11
			11:leaf=-0.123543642
			12:leaf=-0.100791872
		6:[f6<141.5625] yes=13,no=14,missing=13
			13:leaf=-0.0187934507
			14:leaf=-0.11682301
booster[10]:
0:[f9<0.992514133] yes=1,no=2,missing=1
	1:[f6<104.09375] yes=3,no=4,missing=3
		3:[f6<88.21875] yes=7,no=8,missing=7
			7:leaf=-0.121497072
			8:leaf=-0.120445862
		4:[f10<0.000902932952] yes=9,no=10,missing=9
			9:leaf=-0.100224711
			10:leaf=-0.11932198
	2:[f6<100.34375] yes=5,no=6,missing=5
		5:[f12<6.1969852e-14] yes=11,no=12,missing=11
			11:leaf=0.0643247738
			12:leaf=-0.119063213
		6:[f10<0.000106826919] yes=13,no=14,missing=13
			13:leaf=0.00547683192
			14:leaf=-0.0865900218
booster[11]:
0:[f9<0.990170717] yes=1,no=2,missing=1
	1:[f6<104.09375] yes=3,no=4,missing=3
		3:[f6<88.21875] yes=7,no=8,missing=7
			7:leaf=-0.118962996
			8:leaf=-0.117927551
		4:[f10<0.000945455162] yes=9,no=10,missing=9
			9:leaf=-0.0986292288
			10:leaf=-0.116686404
	2:[f6<100.21875] yes=5,no=6,missing=5
		5:[f6<91.65625] yes=11,no=12,missing=11
			11:leaf=-0.117961787
			12:leaf=-0.100165941
		6:[f6<145.3125] yes=13,no=14,missing=13
			13:leaf=-0.0395042002
			14:leaf=-0.115520075
booster[12]:
0:[f9<0.989603579] yes=1,no=2,missing=1
	1:[f6<104.09375] yes=3,no=4,missing=3
		3:[f6<88.21875] yes=7,no=8,missing=7
			7:leaf=-0.116748169
			8:leaf=-0.115650706
		4:[f9<0.970937967] yes=9,no=10,missing=9
			9:leaf=-0.114306144
			10:leaf=-0.0953662917
	2:[f6<100.21875] yes=5,no=6,missing=5
		5:[f6<91.65625] yes=11,no=12,missing=11
			11:leaf=-0.115693703
			12:leaf=-0.0975422785
		6:[f10<0.000223722309] yes=13,no=14,missing=13
			13:leaf=-0.0199050233
			14:leaf=-0.0906368792
booster[13]:
0:[f9<0.989603579] yes=1,no=2,missing=1
	1:[f6<104.09375] yes=3,no=4,missing=3
		3:[f13<305.625] yes=7,no=8,missing=7
			7:leaf=-0.114779368
			8:leaf=-0.113446228
		4:[f10<0.000945455162] yes=9,no=10,missing=9
			9:leaf=-0.0917331204
			10:leaf=-0.112075865
	2:[f6<100.21875] yes=5,no=6,missing=5
		5:[f6<91.65625] yes=11,no=12,missing=11
			11:leaf=-0.113632716
			12:leaf=-0.0943192244
		6:[f6<145.3125] yes=13,no=14,missing=13
			13:leaf=-0.0340929739
			14:leaf=-0.110640816
booster[14]:
0:[f9<0.987314463] yes=1,no=2,missing=1
	1:[f6<104.09375] yes=3,no=4,missing=3
		3:[f13<305.625] yes=7,no=8,missing=7
			7:leaf=-0.113085173
			8:leaf=-0.111712478
		4:[f9<0.965659738] yes=9,no=10,missing=9
			9:leaf=-0.110548876
			10:leaf=-0.0925185159
	2:[f6<111.15625] yes=5,no=6,missing=5
		5:[f6<91.59375] yes=11,no=12,missing=11
			11:leaf=-0.111930706
			12:leaf=-0.0867865682
		6:[f6<145.1875] yes=13,no=14,missing=13
			13:leaf=-0.0161302667
			14:leaf=-0.108213902
booster[15]:
0:[f9<0.991248131] yes=1,no=2,missing=1
	1:[f6<104.09375] yes=3,no=4,missing=3
		3:[f6<88.21875] yes=7,no=8,missing=7
			7:leaf=-0.111585438
			8:leaf=-0.110012554
		4:[f10<0.000532494916] yes=9,no=10,missing=9
			9:leaf=-0.0783753991
			10:leaf=-0.107544683
	2:[f6<111.15625] yes=5,no=6,missing=5
		5:[f6<91.65625] yes=11,no=12,missing=11
			11:leaf=-0.109843254
			12:leaf=-0.079203926
		6:[f6<141.5625] yes=13,no=14,missing=13
			13:leaf=0.00569009734
			14:leaf=-0.0978178754
booster[16]:
0:[f9<0.987314463] yes=1,no=2,missing=1
	1:[f6<104.09375] yes=3,no=4,missing=3
		3:[f13<305.625] yes=7,no=8,missing=7
			7:leaf=-0.11022073
			8:leaf=-0.108594656
		4:[f10<0.00106871431] yes=9,no=10,missing=9
			9:leaf=-0.084911868
			10:leaf=-0.106888048
	2:[f6<100.65625] yes=5,no=6,missing=5
		5:[f6<91.59375] yes=11,no=12,missing=11
			11:leaf=-0.108807467
			12:leaf=-0.0862645879
		6:[f18<0.370783031] yes=13,no=14,missing=13
			13:leaf=-0.0937974602
			14:leaf=-0.0209174063
booster[17]:
0:[f9<0.987314463] yes=1,no=2,missing=1
	1:[f6<104.09375] yes=3,no=4,missing=3
		3:[f13<305.625] yes=7,no=8,missing=7
			7:leaf=-0.109013438
			8:leaf=-0.107247531
		4:[f9<0.96706903] yes=9,no=10,missing=9
			9:leaf=-0.105465136
			10:leaf=-0.082270436
	2:[f6<100.65625] yes=5,no=6,missing=5
		5:[f6<91.59375] yes=11,no=12,missing=11
			11:leaf=-0.107455492
			12:leaf=-0.0833476633
		6:[f10<0.000436109665] yes=13,no=14,missing=13
			13:leaf=-0.0118815424
			14:leaf=-0.0838776603
booster[18]:
0:[f9<0.987314463] yes=1,no=2,missing=1
	1:[f6<104.09375] yes=3,no=4,missing=3
		3:[f6<88.21875] yes=7,no=8,missing=7
			7:leaf=-0.10797184
			8:leaf=-0.106231324
		4:[f10<0.000820996356] yes=9,no=10,missing=9
			9:leaf=-0.0764622465
			10:leaf=-0.103586249
	2:[f6<100.65625] yes=5,no=6,missing=5
		5:[f6<91.59375] yes=11,no=12,missing=11
			11:leaf=-0.106211863
			12:leaf=-0.0804494917
		6:[f6<145.9375] yes=13,no=14,missing=13
			13:leaf=-0.0205674302
			14:leaf=-0.102321588
booster[19]:
0:[f9<0.987314463] yes=1,no=2,missing=1
	1:[f6<104.09375] yes=3,no=4,missing=3
		3:[f6<88.21875] yes=7,no=8,missing=7
			7:leaf=-0.106996894
			8:leaf=-0.105094574
		4:[f9<0.965659738] yes=9,no=10,missing=9
			9:leaf=-0.102793925
			10:leaf=-0.076728493
	2:[f6<103.59375] yes=5,no=6,missing=5
		5:[f6<91.59375] yes=11,no=12,missing=11
			11:leaf=-0.105057873
			12:leaf=-0.0761701018
		6:[f6<145.1875] yes=13,no=14,missing=13
			13:leaf=-0.0147417355
			14:leaf=-0.0987663716
booster[20]:
0:[f9<0.987314463] yes=1,no=2,missing=1
	1:[f6<104.09375] yes=3,no=4,missing=3
		3:[f13<305.625] yes=7,no=8,missing=7
			7:leaf=-0.106063999
			8:leaf=-0.103735738
		4:[f10<0.00106871431] yes=9,no=10,missing=9
			9:leaf=-0.0717725754
			10:leaf=-0.101198353
	2:[f6<96.53125] yes=5,no=6,missing=5
		5:[f6<91.59375] yes=11,no=12,missing=11
			11:leaf=-0.103977218
			12:leaf=-0.0787629187
		6:[f18<0.370783031] yes=13,no=14,missing=13
			13:leaf=-0.085542433
			14:leaf=-0.0104661137
booster[21]:
0:[f9<0.987314463] yes=1,no=2,missing=1
	1:[f6<104.09375] yes=3,no=4,missing=3
		3:[f6<88.21875] yes=7,no=8,missing=7
			7:leaf=-0.105308786
			8:leaf=-0.103011213
		4:[f9<0.965659738] yes=9,no=10,missing=9
			9:leaf=-0.100213431
			10:leaf=-0.070334889
	2:[f6<111.21875] yes=5,no=6,missing=5
		5:[f6<91.59375] yes=11,no=12,missing=11
			11:leaf=-0.102955438
			12:leaf=-0.0678008199
		6:[f6<145.1875] yes=13,no=14,missing=13
			13:leaf=0.00565708848
			14:leaf=-0.0956369638
booster[22]:
0:[f9<0.987314463] yes=1,no=2,missing=1
	1:[f6<104.09375] yes=3,no=4,missing=3
		3:[f6<88.21875] yes=7,no=8,missing=7
			7:leaf=-0.104568861
			8:leaf=-0.102053441
		4:[f10<0.00112517469] yes=9,no=10,missing=9
			9:leaf=-0.0655478165
			10:leaf=-0.0987605602
	2:[f6<96.53125] yes=5,no=6,missing=5
		5:[f6<91.59375] yes=11,no=12,missing=11
			11:leaf=-0.101979651
			12:leaf=-0.0735729784
		6:[f10<0.000393183029] yes=13,no=14,missing=13
			13:leaf=0.00354802539
			14:leaf=-0.072607778
booster[23]:
0:[f9<0.987314463] yes=1,no=2,missing=1
	1:[f6<104.09375] yes=3,no=4,missing=3
		3:[f13<305.625] yes=7,no=8,missing=7
			7:leaf=-0.1038201
			8:leaf=-0.100739375
		4:[f9<0.965659738] yes=9,no=10,missing=9
			9:leaf=-0.0977456272
			10:leaf=-0.0637392178
	2:[f6<96.53125] yes=5,no=6,missing=5
		5:[f6<89.15625] yes=11,no=12,missing=11
			11:leaf=-0.101510219
			12:leaf=-0.0766562894
		6:[f14<1.0654335] yes=13,no=14,missing=13
			13:leaf=-0.00221109507
			14:leaf=-0.0804484785
booster[24]:
0:[f9<0.987314463] yes=1,no=2,missing=1
	1:[f6<104.09375] yes=3,no=4,missing=3
		3:[f6<88.21875] yes=7,no=8,missing=7
			7:leaf=-0.10325294
			8:leaf=-0.100212231
		4:[f10<0.00106871431] yes=9,no=10,missing=9
			9:leaf=-0.0580477118
			10:leaf=-0.0961706042
	2:[f6<96.53125] yes=5,no=6,missing=5
		5:[f6<89.15625] yes=11,no=12,missing=11
			11:leaf=-0.100633457
			12:leaf=-0.0740936324
		6:[f10<0.000436109665] yes=13,no=14,missing=13
			13:leaf=0.00493518496
			14:leaf=-0.0693775117
booster[25]:
0:[f9<0.987314463] yes=1,no=2,missing=1
	1:[f6<104.09375] yes=3,no=4,missing=3
		3:[f6<88.21875] yes=7,no=8,missing=7
			7:leaf=-0.102657415
			8:leaf=-0.099327527
		4:[f9<0.96706903] yes=9,no=10,missing=9
			9:leaf=-0.0950381234
			10:leaf=-0.0557286404
	2:[f6<100.65625] yes=5,no=6,missing=5
		5:[f6<91.59375] yes=11,no=12,missing=11
			11:leaf=-0.0992235988
			12:leaf=-0.0631767064
		6:[f6<145.9375] yes=13,no=14,missing=13
			13:leaf=-0.00307546533
			14:leaf=-0.0932150558
booster[26]:
0:[f9<0.982644618] yes=1,no=2,missing=1
	1:[f6<104.09375] yes=3,no=4,missing=3
		3:[f13<281.125] yes=7,no=8,missing=7
			7:leaf=-0.102238119
			8:leaf=-0.0989813432
		4:[f10<0.00106875645] yes=9,no=10,missing=9
			9:leaf=-0.0599957071
			10:leaf=-0.0944571719
	2:[f6<101.34375] yes=5,no=6,missing=5
		5:[f6<89.15625] yes=11,no=12,missing=11
			11:leaf=-0.100147679
			12:leaf=-0.0698806196
		6:[f6<146.0625] yes=13,no=14,missing=13
			13:leaf=0.0015418852
			14:leaf=-0.091363959
booster[27]:
0:[f9<0.982644618] yes=1,no=2,missing=1
	1:[f6<104.09375] yes=3,no=4,missing=3
		3:[f13<303.875] yes=7,no=8,missing=7
			7:leaf=-0.101558648
			8:leaf=-0.0973715708
		4:[f9<0.949427247] yes=9,no=10,missing=9
			9:leaf=-0.0955273136
			10:leaf=-0.06552279
	2:[f6<101.34375] yes=5,no=6,missing=5
		5:[f6<89.15625] yes=11,no=12,missing=11
			11:leaf=-0.0994167253
			12:leaf=-0.0671671256
		6:[f6<146.0625] yes=13,no=14,missing=13
			13:leaf=0.00138622697
			14:leaf=-0.0893805251
booster[28]:
0:[f9<0.982644618] yes=1,no=2,missing=1
	1:[f6<104.09375] yes=3,no=4,missing=3
		3:[f13<281.125] yes=7,no=8,missing=7
			7:leaf=-0.101211727
			8:leaf=-0.0973114818
		4:[f10<0.00106875645] yes=9,no=10,missing=9
			9:leaf=-0.0530913882
			10:leaf=-0.0919458941
	2:[f6<101.34375] yes=5,no=6,missing=5
		5:[f6<89.15625] yes=11,no=12,missing=11
			11:leaf=-0.0986880288
			12:leaf=-0.0644251406
		6:[f18<0.370892048] yes=13,no=14,missing=13
			13:leaf=-0.0703677312
			14:leaf=0.0114246579
booster[29]:
0:[f9<0.981507659] yes=1,no=2,missing=1
	1:[f6<104.09375] yes=3,no=4,missing=3
		3:[f13<281.125] yes=7,no=8,missing=7
			7:leaf=-0.100726925
			8:leaf=-0.0965224281
		4:[f9<0.949427247] yes=9,no=10,missing=9
			9:leaf=-0.0933248177
			10:leaf=-0.0605855882
	2:[f6<101.34375] yes=5,no=6,missing=5
		5:[f6<89.15625] yes=11,no=12,missing=11
			11:leaf=-0.098173134
			12:leaf=-0.0640080497
		6:[f10<0.000227473851] yes=13,no=14,missing=13
			13:leaf=0.0328637622
			14:leaf=-0.0504502319
booster[30]:
0:[f9<0.981507659] yes=1,no=2,missing=1
	1:[f6<104.09375] yes=3,no=4,missing=3
		3:[f13<281.125] yes=7,no=8,missing=7
			7:leaf=-0.10025125
			8:leaf=-0.0956540778
		4:[f9<0.949427247] yes=9,no=10,missing=9
			9:leaf=-0.0921236649
			10:leaf=-0.0578435659
	2:[f6<101.34375] yes=5,no=6,missing=5
		5:[f6<89.15625] yes=11,no=12,missing=11
			11:leaf=-0.097448498
			12:leaf=-0.0612715296
		6:[f6<149.1875] yes=13,no=14,missing=13
			13:leaf=0.00401559891
			14:leaf=-0.0914888382
booster[31]:
0:[f9<0.981507659] yes=1,no=2,missing=1
	1:[f6<104.09375] yes=3,no=4,missing=3
		3:[f13<277.125] yes=7,no=8,missing=7
			7:leaf=-0.0998251587
			8:leaf=-0.0949162468
		4:[f10<0.00171578792] yes=9,no=10,missing=9
			9:leaf=-0.0492208488
			10:leaf=-0.0892738551
	2:[f6<108.21875] yes=5,no=6,missing=5
		5:[f6<89.15625] yes=11,no=12,missing=11
			11:leaf=-0.0967073664
			12:leaf=-0.0549483672
		6:[f10<0.000436109665] yes=13,no=14,missing=13
			13:leaf=0.0337044932
			14:leaf=-0.0543481298
booster[32]:
0:[f6<103.96875] yes=1,no=2,missing=1
	1:[f9<0.992514074] yes=3,no=4,missing=3
		3:[f6<88.21875] yes=7,no=8,missing=7
			7:leaf=-0.0989852026
			8:leaf=-0.0915301666
		4:[f6<93.90625] yes=9,no=10,missing=9
			9:leaf=-0.0885092914
			10:leaf=0.00335183716
	2:[f10<0.000810872647] yes=5,no=6,missing=5
		5:[f18<0.371096939] yes=11,no=12,missing=11
			11:leaf=-0.0667817369
			12:leaf=0.0317443572
		6:[f6<144.4375] yes=13,no=14,missing=13
			13:leaf=-0.0735389441
			14:leaf=-0.0977063924
booster[33]:
0:[f9<0.973455191] yes=1,no=2,missing=1
	1:[f6<102.34375] yes=3,no=4,missing=3
		3:[f16<3.19619083] yes=7,no=8,missing=7
			7:leaf=-0.0960759595
			8:leaf=-0.100349925
		4:[f9<0.947384119] yes=9,no=10,missing=9
			9:leaf=-0.0891501158
			10:leaf=-0.0567377023
	2:[f6<101.34375] yes=5,no=6,missing=5
		5:[f6<89.15625] yes=11,no=12,missing=11
			11:leaf=-0.0957105234
			12:leaf=-0.0620786659
		6:[f6<149.1875] yes=13,no=14,missing=13
			13:leaf=0.00620052684
			14:leaf=-0.0892976522
booster[34]:
0:[f6<103.96875] yes=1,no=2,missing=1
	1:[f9<0.992514074] yes=3,no=4,missing=3
		3:[f6<88.21875] yes=7,no=8,missing=7
			7:leaf=-0.0979681835
			8:leaf=-0.0891275629
		4:[f6<91.21875] yes=9,no=10,missing=9
			9:leaf=-0.0876377001
			10:leaf=2.13243438e-05
	2:[f10<0.000902932952] yes=5,no=6,missing=5
		5:[f18<0.375971109] yes=11,no=12,missing=11
			11:leaf=-0.0598657727
			12:leaf=0.0314842425
		6:[f6<146.3125] yes=13,no=14,missing=13
			13:leaf=-0.070343338
			14:leaf=-0.0970717296
booster[35]:
0:[f6<103.96875] yes=1,no=2,missing=1
	1:[f9<0.992514074] yes=3,no=4,missing=3
		3:[f6<88.21875] yes=7,no=8,missing=7
			7:leaf=-0.0974366665
			8:leaf=-0.0878090858
		4:[f6<91.21875] yes=9,no=10,missing=9
			9:leaf=-0.0862325653
			10:leaf=1.92152147e-05
	2:[f10<0.000918258505] yes=5,no=6,missing=5
		5:[f14<1.14770508] yes=11,no=12,missing=11
			11:leaf=0.0239884593
			12:leaf=-0.0657516494
		6:[f10<0.00725278491] yes=13,no=14,missing=13
			13:leaf=-0.0605218224
			14:leaf=-0.0882802457
booster[36]:
0:[f9<0.973455191] yes=1,no=2,missing=1
	1:[f6<102.34375] yes=3,no=4,missing=3
		3:[f16<3.19614077] yes=7,no=8,missing=7
			7:leaf=-0.0937324762
			8:leaf=-0.0993649587
		4:[f9<0.944166958] yes=9,no=10,missing=9
			9:leaf=-0.0858947709
			10:leaf=-0.0492959283
	2:[f6<108.21875] yes=5,no=6,missing=5
		5:[f6<89.15625] yes=11,no=12,missing=11
			11:leaf=-0.0932425708
			12:leaf=-0.0496963076
		6:[f6<149.1875] yes=13,no=14,missing=13
			13:leaf=0.0221474804
			14:leaf=-0.0863111615
booster[37]:
0:[f6<101.65625] yes=1,no=2,missing=1
	1:[f9<0.989904583] yes=3,no=4,missing=3
		3:[f13<277.125] yes=7,no=8,missing=7
			7:leaf=-0.0968044773
			8:leaf=-0.0884761214
		4:[f6<87.15625] yes=9,no=10,missing=9
			9:leaf=-0.0874266475
			10:leaf=-0.0190045629
	2:[f10<0.000641198945] yes=5,no=6,missing=5
		5:[f14<1.06588745] yes=11,no=12,missing=11
			11:leaf=0.0332061499
			12:leaf=-0.0566776171
		6:[f9<0.948409081] yes=13,no=14,missing=13
			13:leaf=-0.0848968029
			14:leaf=-0.0516523197
booster[38]:
0:[f6<101.65625] yes=1,no=2,missing=1
	1:[f9<0.989904583] yes=3,no=4,missing=3
		3:[f13<277.125] yes=7,no=8,missing=7
			7:leaf=-0.0962420478
			8:leaf=-0.0872060433
		4:[f6<81.34375] yes=9,no=10,missing=9
			9:leaf=-0.0901370868
			10:leaf=-0.0260242615
	2:[f10<0.000918258505] yes=5,no=6,missing=5
		5:[f6<152.3125] yes=11,no=12,missing=11
			11:leaf=0.0170041155
			12:leaf=-0.0842216536
		6:[f6<146.3125] yes=13,no=14,missing=13
			13:leaf=-0.0615884177
			14:leaf=-0.0945629627
booster[39]:
0:[f6<101.65625] yes=1,no=2,missing=1
	1:[f9<0.987332463] yes=3,no=4,missing=3
		3:[f16<3.19617271] yes=7,no=8,missing=7
			7:leaf=-0.0900831968
			8:leaf=-0.0980839655
		4:[f6<91.59375] yes=9,no=10,missing=9
			9:leaf=-0.0832745284
			10:leaf=-0.0139781414
	2:[f9<0.961527348] yes=5,no=6,missing=5
		5:[f18<0.370936573] yes=11,no=12,missing=11
			11:leaf=-0.0924067497
			12:leaf=-0.065308623
		6:[f6<152.5625] yes=13,no=14,missing=13
			13:leaf=0.0093357265
			14:leaf=-0.0874852985
booster[40]:
0:[f6<101.65625] yes=1,no=2,missing=1
	1:[f9<0.987332463] yes=3,no=4,missing=3
		3:[f16<3.19613647] yes=7,no=8,missing=7
			7:leaf=-0.088976644
			8:leaf=-0.0976848155
		4:[f6<89.15625] yes=9,no=10,missing=9
			9:leaf=-0.0834873542
			10:leaf=-0.0180120431
	2:[f9<0.949871778] yes=5,no=6,missing=5
		5:[f18<0.391034216] yes=11,no=12,missing=11
			11:leaf=-0.0903402641
			12:leaf=-0.0670956001
		6:[f6<146.0625] yes=13,no=14,missing=13
			13:leaf=0.00792318489
			14:leaf=-0.0780676529
booster[41]:
0:[f6<106.78125] yes=1,no=2,missing=1
	1:[f6<89.71875] yes=3,no=4,missing=3
		3:[f16<3.19221354] yes=7,no=8,missing=7
			7:leaf=-0.0887424275
			8:leaf=-0.0979207084
		4:[f9<0.960686386] yes=9,no=10,missing=9
			9:leaf=-0.0863992125
			10:leaf=-0.0392269678
	2:[f10<0.00180486171] yes=5,no=6,missing=5
		5:[f14<1.06573486] yes=11,no=12,missing=11
			11:leaf=0.0297098495
			12:leaf=-0.0568712726
		6:[f6<144.4375] yes=13,no=14,missing=13
			13:leaf=-0.0572057627
			14:leaf=-0.0924214423
booster[42]:
0:[f6<101.65625] yes=1,no=2,missing=1
	1:[f9<0.989904583] yes=3,no=4,missing=3
		3:[f13<277.125] yes=7,no=8,missing=7
			7:leaf=-0.0937047675
			8:leaf=-0.0808698386
		4:[f6<81.34375] yes=9,no=10,missing=9
			9:leaf=-0.0852398723
			10:leaf=-0.0132549843
	2:[f9<0.949871778] yes=5,no=6,missing=5
		5:[f18<0.391034216] yes=11,no=12,missing=11
			11:leaf=-0.0883414298
			12:leaf=-0.0625556335
		6:[f18<0.370892048] yes=13,no=14,missing=13
			13:leaf=-0.0575445481
			14:leaf=0.0173555352
booster[43]:
0:[f6<101.65625] yes=1,no=2,missing=1
	1:[f9<0.987332463] yes=3,no=4,missing=3
		3:[f16<3.19613075] yes=7,no=8,missing=7
			7:leaf=-0.0851495042
			8:leaf=-0.0963908434
		4:[f6<89.15625] yes=9,no=10,missing=9
			9:leaf=-0.0782796741
			10:leaf=-0.0104688583
	2:[f10<0.00117385876] yes=5,no=6,missing=5
		5:[f14<1.44523621] yes=11,no=12,missing=11
			11:leaf=0.0195559468
			12:leaf=-0.0734575838
		6:[f6<146.3125] yes=13,no=14,missing=13
			13:leaf=-0.0523039289
			14:leaf=-0.0911972746
booster[44]:
0:[f6<106.78125] yes=1,no=2,missing=1
	1:[f6<88.21875] yes=3,no=4,missing=3
		3:[f16<3.19222403] yes=7,no=8,missing=7
			7:leaf=-0.0853371844
			8:leaf=-0.0968135372
		4:[f9<0.960686386] yes=9,no=10,missing=9
			9:leaf=-0.0824686214
			10:leaf=-0.032706406
	2:[f10<0.000227473851] yes=5,no=6,missing=5
		5:[f14<1.42423248] yes=11,no=12,missing=11
			11:leaf=0.0539096966
			12:leaf=-0.0659167394
		6:[f6<144.8125] yes=13,no=14,missing=13
			13:leaf=-0.0310089346
			14:leaf=-0.0857579783
booster[45]:
0:[f6<101.65625] yes=1,no=2,missing=1
	1:[f9<0.997456908] yes=3,no=4,missing=3
		3:[f6<88.21875] yes=7,no=8,missing=7
			7:leaf=-0.0898906291
			8:leaf=-0.0675569251
		4:[f6<86.1875] yes=9,no=10,missing=9
			9:leaf=-0.0511750095
			10:leaf=0.329137683
	2:[f9<0.949427247] yes=5,no=6,missing=5
		5:[f18<0.394679517] yes=11,no=12,missing=11
			11:leaf=-0.0847532004
			12:leaf=-0.0550455339
		6:[f6<153.4375] yes=13,no=14,missing=13
			13:leaf=0.0113164056
			14:leaf=-0.0833367407
booster[46]:
0:[f6<110.03125] yes=1,no=2,missing=1
	1:[f6<89.71875] yes=3,no=4,missing=3
		3:[f16<3.19222116] yes=7,no=8,missing=7
			7:leaf=-0.0818719417
			8:leaf=-0.0958601385
		4:[f9<0.941362858] yes=9,no=10,missing=9
			9:leaf=-0.0819692314
			10:leaf=-0.0356428921
	2:[f6<147.3125] yes=5,no=6,missing=5
		5:[f10<0.00384094752] yes=11,no=12,missing=11
			11:leaf=0.0269235019
			12:leaf=-0.0551403761
		6:[f12<1.18356214e-10] yes=13,no=14,missing=13
			13:leaf=-0.0296475571
			14:leaf=-0.0846147537
booster[47]:
0:[f6<92.34375] yes=1,no=2,missing=1
	1:[f16<3.19221354] yes=3,no=4,missing=3
		3:[f9<0.991718054] yes=7,no=8,missing=7
			7:leaf=-0.0812722296
			8:leaf=-0.0254733246
		4:[f16<3.35396767] yes=9,no=10,missing=9
			9:leaf=-0.0904629454
			10:leaf=-0.0976932719
	2:[f9<0.944166958] yes=5,no=6,missing=5
		5:[f14<0.748311996] yes=11,no=12,missing=11
			11:leaf=-0.0540570989
			12:leaf=-0.0837469026
		6:[f18<0.370892048] yes=13,no=14,missing=13
			13:leaf=-0.0526692159
			14:leaf=0.0180159751
booster[48]:
0:[f6<112.53125] yes=1,no=2,missing=1
	1:[f6<88.21875] yes=3,no=4,missing=3
		3:[f16<3.19221735] yes=7,no=8,missing=7
			7:leaf=-0.0790936202
			8:leaf=-0.0948714539
		4:[f9<0.941366434] yes=9,no=10,missing=9
			9:leaf=-0.078538239
			10:leaf=-0.0332412049
	2:[f6<147.3125] yes=5,no=6,missing=5
		5:[f12<5.26399546e-08] yes=11,no=12,missing=11
			11:leaf=0.0538467132
			12:leaf=-0.0284609701
		6:[f6<161.6875] yes=13,no=14,missing=13
			13:leaf=-0.0535018444
			14:leaf=-0.0883567557
booster[49]:
0:[f6<92.34375] yes=1,no=2,missing=1
	1:[f16<3.19221354] yes=3,no=4,missing=3
		3:[f13<303.875] yes=7,no=8,missing=7
			7:leaf=-0.0804166943
			8:leaf=-0.0471987091
		4:[f16<3.35391688] yes=9,no=10,missing=9
			9:leaf=-0.0883847997
			10:leaf=-0.0970227793
	2:[f9<0.94133687] yes=5,no=6,missing=5
		5:[f14<0.748311996] yes=11,no=12,missing=11
			11:leaf=-0.0496314876
			12:leaf=-0.0822394788
		6:[f14<1.38119507] yes=13,no=14,missing=13
			13:leaf=0.0119237741
			14:leaf=-0.0671723559
booster[50]:
0:[f6<92.34375] yes=1,no=2,missing=1
	1:[f16<3.19221354] yes=3,no=4,missing=3
		3:[f9<0.991718054] yes=7,no=8,missing=7
			7:leaf=-0.076115109
			8:leaf=-0.011239375
		4:[f16<3.35391688] yes=9,no=10,missing=9
			9:leaf=-0.0872468203
			10:leaf=-0.0966425166
	2:[f10<0.00384770427] yes=5,no=6,missing=5
		5:[f14<1.06570435] yes=11,no=12,missing=11
			11:leaf=0.019502962
			12:leaf=-0.0481748395
		6:[f18<0.371472538] yes=13,no=14,missing=13
			13:leaf=-0.0840615109
			14:leaf=-0.0494851582
booster[51]:
0:[f6<92.34375] yes=1,no=2,missing=1
	1:[f16<3.19221354] yes=3,no=4,missing=3
		3:[f13<301.375] yes=7,no=8,missing=7
			7:leaf=-0.077194266
			8:leaf=-0.041217979
		4:[f16<3.35391688] yes=9,no=10,missing=9
			9:leaf=-0.0860268697
			10:leaf=-0.0962326601
	2:[f9<0.94133687] yes=5,no=6,missing=5
		5:[f18<0.398787498] yes=11,no=12,missing=11
			11:leaf=-0.0796457902
			12:leaf=-0.0454673208
		6:[f6<153.4375] yes=13,no=14,missing=13
			13:leaf=0.00904954877
			14:leaf=-0.0782285556
booster[52]:
0:[f13<276.375] yes=1,no=2,missing=1
	1:[f9<0.97309494] yes=3,no=4,missing=3
		3:[f14<0.712295532] yes=7,no=8,missing=7
			7:leaf=-0.0680218264
			8:leaf=-0.0880694687
		4:[f14<1.06134796] yes=9,no=10,missing=9
			9:leaf=-0.0232181773
			10:leaf=-0.0731943771
	2:[f12<6.07791506e-08] yes=5,no=6,missing=5
		5:[f6<152.3125] yes=11,no=12,missing=11
			11:leaf=0.0503618196
			12:leaf=-0.0623295978
		6:[f6<139.9375] yes=13,no=14,missing=13
			13:leaf=-0.0240345076
			14:leaf=-0.0743312389
booster[53]:
0:[f6<112.53125] yes=1,no=2,missing=1
	1:[f6<81.53125] yes=3,no=4,missing=3
		3:[f16<3.14902973] yes=7,no=8,missing=7
			7:leaf=-0.0717233047
			8:leaf=-0.0911959335
		4:[f9<0.996866345] yes=9,no=10,missing=9
			9:leaf=-0.049591668
			10:leaf=0.0834315643
	2:[f6<151.3125] yes=5,no=6,missing=5
		5:[f14<0.946022987] yes=11,no=12,missing=11
			11:leaf=0.0359513871
			12:leaf=-0.0336114094
		6:[f6<161.6875] yes=13,no=14,missing=13
			13:leaf=-0.0491306633
			14:leaf=-0.0838029459
booster[54]:
0:[f13<276.375] yes=1,no=2,missing=1
	1:[f9<0.967127562] yes=3,no=4,missing=3
		3:[f14<0.712295532] yes=7,no=8,missing=7
			7:leaf=-0.066032663
			8:leaf=-0.0869304016
		4:[f6<80.15625] yes=9,no=10,missing=9
			9:leaf=-0.0832806751
			10:leaf=-0.0260131452
	2:[f12<1.52062711e-07] yes=5,no=6,missing=5
		5:[f6<161.6875] yes=11,no=12,missing=11
			11:leaf=0.0400081053
			12:leaf=-0.0715909526
		6:[f14<0.853279114] yes=13,no=14,missing=13
			13:leaf=-0.0168111846
			14:leaf=-0.0624455698
booster[55]:
0:[f6<92.34375] yes=1,no=2,missing=1
	1:[f16<3.19221354] yes=3,no=4,missing=3
		3:[f9<0.991718054] yes=7,no=8,missing=7
			7:leaf=-0.0666179955
			8:leaf=0.00782519858
		4:[f16<3.38384962] yes=9,no=10,missing=9
			9:leaf=-0.0817303881
			10:leaf=-0.0952471122
	2:[f9<0.933738112] yes=5,no=6,missing=5
		5:[f14<0.942115784] yes=11,no=12,missing=11
			11:leaf=-0.0423742272
			12:leaf=-0.0811971053
		6:[f18<0.316773117] yes=13,no=14,missing=13
			13:leaf=-0.0706257448
			14:leaf=0.0115851033
booster[56]:
0:[f13<276.375] yes=1,no=2,missing=1
	1:[f9<0.967127562] yes=3,no=4,missing=3
		3:[f14<0.712295532] yes=7,no=8,missing=7
			7:leaf=-0.061801143
			8:leaf=-0.0845818371
		4:[f14<1.37796021] yes=9,no=10,missing=9
			9:leaf=-0.0222938936
			10:leaf=-0.0804547295
	2:[f12<1.52062711e-07] yes=5,no=6,missing=5
		5:[f6<161.6875] yes=11,no=12,missing=11
			11:leaf=0.0361124389
			12:leaf=-0.0691842213
		6:[f6<139.9375] yes=13,no=14,missing=13
			13:leaf=-0.0181351788
			14:leaf=-0.0704998598
booster[57]:
0:[f6<89.71875] yes=1,no=2,missing=1
	1:[f16<3.21759653] yes=3,no=4,missing=3
		3:[f13<305.875] yes=7,no=8,missing=7
			7:leaf=-0.0676942989
			8:leaf=-0.0309082512
		4:[f10<0.126246214] yes=9,no=10,missing=9
			9:leaf=-0.090414159
			10:leaf=-0.0428735167
	2:[f10<0.00384770427] yes=5,no=6,missing=5
		5:[f14<1.44520569] yes=11,no=12,missing=11
			11:leaf=0.0160240531
			12:leaf=-0.0572582074
		6:[f18<0.371472538] yes=13,no=14,missing=13
			13:leaf=-0.0753438473
			14:leaf=-0.0355219059
booster[58]:
0:[f6<112.53125] yes=1,no=2,missing=1
	1:[f6<81.53125] yes=3,no=4,missing=3
		3:[f16<3.14902973] yes=7,no=8,missing=7
			7:leaf=-0.0616557673
			8:leaf=-0.0868051574
		4:[f14<1.02831984] yes=9,no=10,missing=9
			9:leaf=-0.0194126647
			10:leaf=-0.0660077035
	2:[f6<140.0625] yes=5,no=6,missing=5
		5:[f14<0.946022987] yes=11,no=12,missing=11
			11:leaf=0.0416985266
			12:leaf=-0.0196738113
		6:[f12<4.3549552e-12] yes=13,no=14,missing=13
			13:leaf=0.110253289
			14:leaf=-0.0554544739
booster[59]:
0:[f13<287.125] yes=1,no=2,missing=1
	1:[f9<0.972620845] yes=3,no=4,missing=3
		3:[f14<1.20585632] yes=7,no=8,missing=7
			7:leaf=-0.0566248484
			8:leaf=-0.0857142657
		4:[f14<1.06134796] yes=9,no=10,missing=9
			9:leaf=-0.00806014147
			10:leaf=-0.0596983619
	2:[f6<152.1875] yes=5,no=6,missing=5
		5:[f6<119.65625] yes=11,no=12,missing=11
			11:leaf=-0.0166208148
			12:leaf=0.0422471426
		6:[f7<382.125] yes=13,no=14,missing=13
			13:leaf=0.019706497
			14:leaf=-0.0726575702
booster[60]:
0:[f6<88.21875] yes=1,no=2,missing=1
	1:[f16<3.21759653] yes=3,no=4,missing=3
		3:[f13<305.875] yes=7,no=8,missing=7
			7:leaf=-0.0625500306
			8:leaf=-0.0228002127
		4:[f10<0.126246214] yes=9,no=10,missing=9
			9:leaf=-0.0880338475
			10:leaf=-0.0282853544
	2:[f9<0.933738112] yes=5,no=6,missing=5
		5:[f14<0.942115784] yes=11,no=12,missing=11
			11:leaf=-0.0350568928
			12:leaf=-0.0758157596
		6:[f18<0.301527798] yes=13,no=14,missing=13
			13:leaf=-0.0704712793
			14:leaf=0.0117192911
booster[61]:
0:[f13<272.125] yes=1,no=2,missing=1
	1:[f9<0.954066396] yes=3,no=4,missing=3
		3:[f14<0.712295532] yes=7,no=8,missing=7
			7:leaf=-0.0554240458
			8:leaf=-0.0812091231
		4:[f6<75.28125] yes=9,no=10,missing=9
			9:leaf=-0.0781936273
			10:leaf=-0.0199569594
	2:[f12<7.71810338e-10] yes=5,no=6,missing=5
		5:[f6<119.40625] yes=11,no=12,missing=11
			11:leaf=-0.0091103809
			12:leaf=0.0831332728
		6:[f6<153.3125] yes=13,no=14,missing=13
			13:leaf=-0.00467434386
			14:leaf=-0.0735477582
booster[62]:
0:[f6<86.21875] yes=1,no=2,missing=1
	1:[f16<3.14902973] yes=3,no=4,missing=3
		3:[f19<0.999077916] yes=7,no=8,missing=7
			7:leaf=-0.0501975305
			8:leaf=0.256525993
		4:[f16<3.35391974] yes=9,no=10,missing=9
			9:leaf=-0.0706241354
			10:leaf=-0.0916212797
	2:[f9<0.933738112] yes=5,no=6,missing=5
		5:[f14<0.942115784] yes=11,no=12,missing=11
			11:leaf=-0.031850379
			12:leaf=-0.0731222481
		6:[f4<0.558675051] yes=13,no=14,missing=13
			13:leaf=-0.0494246297
			14:leaf=0.0139727322
booster[63]:
0:[f13<263.375] yes=1,no=2,missing=1
	1:[f9<0.96387738] yes=3,no=4,missing=3
		3:[f16<3.1839304] yes=7,no=8,missing=7
			7:leaf=-0.0545628369
			8:leaf=-0.0839844048
		4:[f6<75.28125] yes=9,no=10,missing=9
			9:leaf=-0.0762256533
			10:leaf=-0.0189497601
	2:[f14<1.47444153] yes=5,no=6,missing=5
		5:[f6<152.4375] yes=11,no=12,missing=11
			11:leaf=0.0167704094
			12:leaf=-0.0596463159
		6:[f9<0.997780561] yes=13,no=14,missing=13
			13:leaf=-0.0617784075
			14:leaf=0.0979846492
booster[64]:
0:[f6<81.59375] yes=1,no=2,missing=1
	1:[f16<3.08764362] yes=3,no=4,missing=3
		3:[f10<0.0451591834] yes=7,no=8,missing=7
			7:leaf=-0.0553704575
			8:leaf=0.0108953444
		4:[f3<197.076721] yes=9,no=10,missing=9
			9:leaf=-0.075728409
			10:leaf=0.126730859
	2:[f9<0.905239344] yes=5,no=6,missing=5
		5:[f14<0.994491577] yes=11,no=12,missing=11
			11:leaf=-0.0404544771
			12:leaf=-0.0765639395
		6:[f18<0.316507101] yes=13,no=14,missing=13
			13:leaf=-0.0614299141
			14:leaf=0.0101379389
booster[65]:
0:[f6<112.53125] yes=1,no=2,missing=1
	1:[f14<1.37796021] yes=3,no=4,missing=3
		3:[f2<557.602356] yes=7,no=8,missing=7
			7:leaf=-0.0579105392
			8:leaf=-0.0157472417
		4:[f9<0.996904731] yes=9,no=10,missing=9
			9:leaf=-0.0796601996
			10:leaf=0.0528225265
	2:[f4<0.688868463] yes=5,no=6,missing=5
		5:[f6<140.6875] yes=11,no=12,missing=11
			11:leaf=-0.0128876539
			12:leaf=-0.0632140413
		6:[f12<3.67899267e-10] yes=13,no=14,missing=13
			13:leaf=0.0892522335
			14:leaf=0.00750151603
booster[66]:
0:[f13<287.125] yes=1,no=2,missing=1
	1:[f14<0.833457947] yes=3,no=4,missing=3
		3:[f2<556.736084] yes=7,no=8,missing=7
			7:leaf=-0.0523357764
			8:leaf=0.00256334641
		4:[f10<2.2939199e-05] yes=9,no=10,missing=9
			9:leaf=0.0327714756
			10:leaf=-0.0596907996
	2:[f5<0.762552738] yes=5,no=6,missing=5
		5:[f2<844.191101] yes=11,no=12,missing=11
			11:leaf=0.0145592783
			12:leaf=-0.0411530025
		6:[f10<4.76047644e-05] yes=13,no=14,missing=13
			13:leaf=0.123448148
			14:leaf=0.019583704
booster[67]:
0:[f6<81.53125] yes=1,no=2,missing=1
	1:[f16<3.08764362] yes=3,no=4,missing=3
		3:[f10<0.0451591834] yes=7,no=8,missing=7
			7:leaf=-0.0494275428
			8:leaf=0.0181178804
		4:[f3<171.019455] yes=9,no=10,missing=9
			9:leaf=-0.0717814565
			10:leaf=0.0798647627
	2:[f4<0.67748332] yes=5,no=6,missing=5
		5:[f6<140.6875] yes=11,no=12,missing=11
			11:leaf=-0.0197970364
			12:leaf=-0.0615739636
		6:[f5<0.794937372] yes=13,no=14,missing=13
			13:leaf=-0.0106179556
			14:leaf=0.0334795341
booster[68]:
0:[f9<0.949427247] yes=1,no=2,missing=1
	1:[f14<1.13629913] yes=3,no=4,missing=3
		3:[f2<694.032959] yes=7,no=8,missing=7
			7:leaf=-0.0462029129
			8:leaf=-0.00456703454
		4:[f7<334.375] yes=9,no=10,missing=9
			9:leaf=-0.0806431696
			10:leaf=-0.057197459
	2:[f14<0.441794395] yes=5,no=6,missing=5
		5:[f17<0.514406919] yes=11,no=12,missing=11
			11:leaf=0.0700675473
			12:leaf=0.00324322702
		6:[f18<0.286975324] yes=13,no=14,missing=13
			13:leaf=-0.0751517043
			14:leaf=-0.00693042949
booster[69]:
0:[f6<119.59375] yes=1,no=2,missing=1
	1:[f9<0.9968611] yes=3,no=4,missing=3
		3:[f14<1.38118744] yes=7,no=8,missing=7
			7:leaf=-0.0243473407
			8:leaf=-0.0699913725
		4:[f19<0.873471677] yes=9,no=10,missing=9
			9:leaf=0.0205611642
			10:leaf=0.147256941
	2:[f6<139.9375] yes=5,no=6,missing=5
		5:[f12<3.65804997e-10] yes=11,no=12,missing=11
			11:leaf=0.105988219
			12:leaf=0.018646704
		6:[f12<4.3549552e-12] yes=13,no=14,missing=13
			13:leaf=0.0894742534
			14:leaf=-0.0433835648
booster[70]:
0:[f13<263.375] yes=1,no=2,missing=1
	1:[f9<0.954066396] yes=3,no=4,missing=3
		3:[f14<0.712295532] yes=7,no=8,missing=7
			7:leaf=-0.0399405174
			8:leaf=-0.070295766
		4:[f3<89.4939957] yes=9,no=10,missing=9
			9:leaf=-0.0310542341
			10:leaf=0.0303093493
	2:[f6<161.6875] yes=5,no=6,missing=5
		5:[f14<0.391159058] yes=11,no=12,missing=11
			11:leaf=0.038880527
			12:leaf=-0.00525791524
		6:[f5<0.727405429] yes=13,no=14,missing=13
			13:leaf=-0.0843891576
			14:leaf=-0.0496194474
booster[71]:
0:[f14<1.47571993] yes=1,no=2,missing=1
	1:[f2<570.771851] yes=3,no=4,missing=3
		3:[f16<1.5121243] yes=7,no=8,missing=7
			7:leaf=-0.103526138
			8:leaf=-0.0380594507
		4:[f6<161.6875] yes=9,no=10,missing=9
			9:leaf=0.0113578886
			10:leaf=-0.0622426942
	2:[f14<2.23182678] yes=5,no=6,missing=5
		5:[f9<0.97622925] yes=11,no=12,missing=11
			11:leaf=-0.063574113
			12:leaf=-0.0131409941
		6:[f9<0.998106122] yes=13,no=14,missing=13
			13:leaf=-0.0909224972
			14:leaf=0.0472193882
booster[72]:
0:[f6<81.28125] yes=1,no=2,missing=1
	1:[f10<0.0323930196] yes=3,no=4,missing=3
		3:[f3<89.6300125] yes=7,no=8,missing=7
			7:leaf=-0.0670613945
			8:leaf=-0.00714424253
		4:[f14<0.0868930817] yes=9,no=10,missing=9
			9:leaf=0.0942654088
			10:leaf=-0.0230627414
	2:[f10<0.00784216262] yes=5,no=6,missing=5
		5:[f5<0.80013001] yes=11,no=12,missing=11
			11:leaf=-0.00718507404
			12:leaf=0.0293325968
		6:[f14<0.732498169] yes=13,no=14,missing=13
			13:leaf=-0.0203637555
			14:leaf=-0.0532880425
booster[73]:
0:[f6<119.59375] yes=1,no=2,missing=1
	1:[f9<0.9968611] yes=3,no=4,missing=3
		3:[f14<1.38118744] yes=7,no=8,missing=7
			7:leaf=-0.0201938543
			8:leaf=-0.0641009733
		4:[f19<0.873471677] yes=9,no=10,missing=9
			9:leaf=0.0192504432
			10:leaf=0.125466973
	2:[f6<139.9375] yes=5,no=6,missing=5
		5:[f12<3.65804997e-10] yes=11,no=12,missing=11
			11:leaf=0.0901392698
			12:leaf=0.0164585765
		6:[f12<1.07105901e-10] yes=13,no=14,missing=13
			13:leaf=0.0381500944
			14:leaf=-0.0432322808
booster[74]:
0:[f9<0.911487103] yes=1,no=2,missing=1
	1:[f18<0.391448349] yes=3,no=4,missing=3
		3:[f16<3.39256763] yes=7,no=8,missing=7
			7:leaf=-0.0547714606
			8:leaf=-0.0804655999
		4:[f11<0.00424747355] yes=9,no=10,missing=9
			9:leaf=-0.0673125759
			10:leaf=-0.0218910836
	2:[f6<74.21875] yes=5,no=6,missing=5
		5:[f0<49.825119] yes=11,no=12,missing=11
			11:leaf=-0.0717900619
			12:leaf=-0.0318353698
		6:[f4<0.558555126] yes=13,no=14,missing=13
			13:leaf=-0.0385549515
			14:leaf=0.0128347846
booster[75]:
0:[f14<1.47571993] yes=1,no=2,missing=1
	1:[f2<556.736084] yes=3,no=4,missing=3
		3:[f16<1.5121243] yes=7,no=8,missing=7
			7:leaf=-0.103201471
			8:leaf=-0.0347128846
		4:[f6<161.6875] yes=9,no=10,missing=9
			9:leaf=0.010261829
			10:leaf=-0.0575199686
	2:[f14<2.23182678] yes=5,no=6,missing=5
		5:[f12<2.2354925e-06] yes=11,no=12,missing=11
			11:leaf=-0.0180872884
			12:leaf=-0.0658988878
		6:[f9<0.998106122] yes=13,no=14,missing=13
			13:leaf=-0.0891514942
			14:leaf=0.0410751887
booster[76]:
0:[f9<0.904164314] yes=1,no=2,missing=1
	1:[f18<0.391448349] yes=3,no=4,missing=3
		3:[f5<0.885929167] yes=7,no=8,missing=7
			7:leaf=-0.0677751526
			8:leaf=-0.0185035076
		4:[f11<0.00424747355] yes=9,no=10,missing=9
			9:leaf=-0.0676697269
			10:leaf=-0.0210601445
	2:[f14<0.441794395] yes=5,no=6,missing=5
		5:[f17<0.514406919] yes=11,no=12,missing=11
			11:leaf=0.0543817654
			12:leaf=0.000195637971
		6:[f13<305.375] yes=13,no=14,missing=13
			13:leaf=-0.0269536916
			14:leaf=0.00605210522
booster[77]:
0:[f9<0.996760488] yes=1,no=2,missing=1
	1:[f6<119.59375] yes=3,no=4,missing=3
		3:[f14<1.38118744] yes=7,no=8,missing=7
			7:leaf=-0.0171491783
			8:leaf=-0.0581116863
		4:[f6<139.9375] yes=9,no=10,missing=9
			9:leaf=0.0239457674
			10:leaf=-0.0291364174
	2:[f10<9.57984157e-05] yes=5,no=6,missing=5
		5:[f4<0.528172851] yes=11,no=12,missing=11
			11:leaf=-0.0505399965
			12:leaf=0.129245564
		6:[f6<132.8125] yes=13,no=14,missing=13
			13:leaf=0.0278455596
			14:leaf=-0.0656781048
booster[78]:
0:[f14<1.86256409] yes=1,no=2,missing=1
	1:[f2<603.073425] yes=3,no=4,missing=3
		3:[f16<1.50935173] yes=7,no=8,missing=7
			7:leaf=-0.10087575
			8:leaf=-0.0244652089
		4:[f12<3.76088656e-06] yes=9,no=10,missing=9
			9:leaf=0.0170248821
			10:leaf=-0.0191057306
	2:[f14<2.23182678] yes=5,no=6,missing=5
		5:[f9<0.935493588] yes=11,no=12,missing=11
			11:leaf=-0.0781281516
			12:leaf=-0.0250468832
		6:[f8<-2.14135742] yes=13,no=14,missing=13
			13:leaf=0.0138040856
			14:leaf=-0.0878387019
booster[79]:
0:[f14<0.788459778] yes=1,no=2,missing=1
	1:[f2<556.736084] yes=3,no=4,missing=3
		3:[f10<0.165598303] yes=7,no=8,missing=7
			7:leaf=-0.0357113071
			8:leaf=0.273652166
		4:[f5<0.629196346] yes=9,no=10,missing=9
			9:leaf=-0.0259348284
			10:leaf=0.0231788401
	2:[f12<6.4144624e-06] yes=5,no=6,missing=5
		5:[f5<0.862909198] yes=11,no=12,missing=11
			11:leaf=-0.0210423898
			12:leaf=0.0511268154
		6:[f16<3.41816664] yes=13,no=14,missing=13
			13:leaf=-0.0392124504
			14:leaf=-0.0721828416
booster[80]:
0:[f6<74.40625] yes=1,no=2,missing=1
	1:[f10<0.0151328705] yes=3,no=4,missing=3
		3:[f4<0.719106793] yes=7,no=8,missing=7
			7:leaf=-0.0244379509
			8:leaf=-0.0705273151
		4:[f14<0.0868930817] yes=9,no=10,missing=9
			9:leaf=0.110318802
			10:leaf=-0.0144275194
	2:[f4<0.679637194] yes=5,no=6,missing=5
		5:[f4<0.431627095] yes=11,no=12,missing=11
			11:leaf=-0.0642024353
			12:leaf=-0.0157793444
		6:[f5<0.794937372] yes=13,no=14,missing=13
			13:leaf=-0.00558826746
			14:leaf=0.0291075315
booster[81]:
0:[f17<0.713149428] yes=1,no=2,missing=1
	1:[f14<1.47571993] yes=3,no=4,missing=3
		3:[f6<119.59375] yes=7,no=8,missing=7
			7:leaf=-0.00994031038
			8:leaf=0.0171183087
		4:[f14<2.23182678] yes=9,no=10,missing=9
			9:leaf=-0.0284456257
			10:leaf=-0.0835056156
	2:[f9<0.998477042] yes=5,no=6,missing=5
		5:[f16<1.44961333] yes=11,no=12,missing=11
			11:leaf=-0.102224745
			12:leaf=-0.0673561469
		6:[f3<35.1081848] yes=13,no=14,missing=13
			13:leaf=0.13903521
			14:leaf=0.0301469956
booster[82]:
0:[f9<0.996760488] yes=1,no=2,missing=1
	1:[f11<0.00780244032] yes=3,no=4,missing=3
		3:[f12<1.30043563e-11] yes=7,no=8,missing=7
			7:leaf=0.0424971245
			8:leaf=-0.0326553136
		4:[f6<107.53125] yes=9,no=10,missing=9
			9:leaf=-0.0212493744
			10:leaf=0.0160750262
	2:[f10<9.67017841e-05] yes=5,no=6,missing=5
		5:[f6<151.3125] yes=11,no=12,missing=11
			11:leaf=0.11517816
			12:leaf=-0.0828375891
		6:[f6<132.8125] yes=13,no=14,missing=13
			13:leaf=0.0246220343
			14:leaf=-0.0632169992
booster[83]:
0:[f9<0.904164314] yes=1,no=2,missing=1
	1:[f18<0.391448349] yes=3,no=4,missing=3
		3:[f5<0.885929167] yes=7,no=8,missing=7
			7:leaf=-0.0615576692
			8:leaf=-0.00958559476
		4:[f10<0.175692618] yes=9,no=10,missing=9
			9:leaf=-0.0229767133
			10:leaf=0.157689363
	2:[f14<0.441794395] yes=5,no=6,missing=5
		5:[f12<4.95091945e-12] yes=11,no=12,missing=11
			11:leaf=0.124265574
			12:leaf=0.0143250749
		6:[f14<2.1632843] yes=13,no=14,missing=13
			13:leaf=-0.00464653317
			14:leaf=-0.0781185552
booster[84]:
0:[f17<0.674341142] yes=1,no=2,missing=1
	1:[f16<3.4169414] yes=3,no=4,missing=3
		3:[f5<0.523116589] yes=7,no=8,missing=7
			7:leaf=-0.0406340174
			8:leaf=0.00693514151
		4:[f14<2.23182678] yes=9,no=10,missing=9
			9:leaf=-0.0296492018
			10:leaf=-0.0794002041
	2:[f9<0.998477042] yes=5,no=6,missing=5
		5:[f16<1.44977355] yes=11,no=12,missing=11
			11:leaf=-0.100869395
			12:leaf=-0.0568058193
		6:[f10<0.000141535682] yes=13,no=14,missing=13
			13:leaf=0.162398368
			14:leaf=0.001112447
booster[85]:
0:[f6<161.6875] yes=1,no=2,missing=1
	1:[f6<119.59375] yes=3,no=4,missing=3
		3:[f9<0.997995496] yes=7,no=8,missing=7
			7:leaf=-0.0155213568
			8:leaf=0.0785669908
		4:[f12<4.44907002e-12] yes=9,no=10,missing=9
			9:leaf=0.117387153
			10:leaf=0.0100086434
	2:[f11<0.0143363755] yes=5,no=6,missing=5
		5:[f12<4.36688489e-12] yes=11,no=12,missing=11
			11:leaf=0.0240007471
			12:leaf=-0.0885736644
		6:[f9<0.984086275] yes=13,no=14,missing=13
			13:leaf=-0.0423279963
			14:leaf=0.230086565
booster[86]:
0:[f17<0.713149428] yes=1,no=2,missing=1
	1:[f9<0.871491551] yes=3,no=4,missing=3
		3:[f10<0.182137206] yes=7,no=8,missing=7
			7:leaf=-0.0367952511
			8:leaf=0.164122507
		4:[f4<0.468668967] yes=9,no=10,missing=9
			9:leaf=-0.0499463081
			10:leaf=0.00659876922
	2:[f9<0.998477042] yes=5,no=6,missing=5
		5:[f0<487.529846] yes=11,no=12,missing=11
			11:leaf=-0.0546324924
			12:leaf=-0.0953341648
		6:[f3<35.1081848] yes=13,no=14,missing=13
			13:leaf=0.114676379
			14:leaf=0.0207958333
booster[87]:
0:[f13<305.625] yes=1,no=2,missing=1
	1:[f9<0.949347258] yes=3,no=4,missing=3
		3:[f14<1.20585632] yes=7,no=8,missing=7
			7:leaf=-0.0252919886
			8:leaf=-0.0604960993
		4:[f14<0.308502197] yes=9,no=10,missing=9
			9:leaf=0.0259776991
			10:leaf=-0.0132083846
	2:[f5<0.762552738] yes=5,no=6,missing=5
		5:[f2<843.803101] yes=11,no=12,missing=11
			11:leaf=0.0220566075
			12:leaf=-0.030735353
		6:[f12<2.19202477e-12] yes=13,no=14,missing=13
			13:leaf=0.182446986
			14:leaf=0.0262524039
booster[88]:
0:[f17<0.713149428] yes=1,no=2,missing=1
	1:[f16<3.673949] yes=3,no=4,missing=3
		3:[f4<0.431627095] yes=7,no=8,missing=7
			7:leaf=-0.057677336
			8:leaf=0.00383590022
		4:[f8<-2.14135742] yes=9,no=10,missing=9
			9:leaf=0.0447372086
			10:leaf=-0.0714437664
	2:[f9<0.998206675] yes=5,no=6,missing=5
		5:[f16<1.44961333] yes=11,no=12,missing=11
			11:leaf=-0.0979826599
			12:leaf=-0.0606072433
		6:[f16<1.71806312] yes=13,no=14,missing=13
			13:leaf=-0.077225104
			14:leaf=0.129378989
booster[89]:
0:[f13<232.5625] yes=1,no=2,missing=1
	1:[f3<77.5297089] yes=3,no=4,missing=3
		3:[f10<0.156776085] yes=7,no=8,missing=7
			7:leaf=-0.0381946824
			8:leaf=0.141341493
		4:[f10<0.000141118144] yes=9,no=10,missing=9
			9:leaf=0.12617074
			10:leaf=-0.00723655755
	2:[f5<0.523116589] yes=5,no=6,missing=5
		5:[f13<386.125] yes=11,no=12,missing=11
			11:leaf=-0.013075267
			12:leaf=-0.0698671564
		6:[f4<0.682417035] yes=13,no=14,missing=13
			13:leaf=-0.0134941237
			14:leaf=0.0140408203
booster[90]:
0:[f6<161.6875] yes=1,no=2,missing=1
	1:[f6<119.59375] yes=3,no=4,missing=3
		3:[f9<0.997995496] yes=7,no=8,missing=7
			7:leaf=-0.0132488823
			8:leaf=0.0686555654
		4:[f10<0.000334348384] yes=9,no=10,missing=9
			9:leaf=0.0418131202
			10:leaf=-0.00263944943
	2:[f11<0.0143363755] yes=5,no=6,missing=5
		5:[f12<4.36688489e-12] yes=11,no=12,missing=11
			11:leaf=0.0232934039
			12:leaf=-0.0867646411
		6:[f9<0.984086275] yes=13,no=14,missing=13
			13:leaf=-0.0363494754
			14:leaf=0.193412423
booster[91]:
0:[f17<0.608673453] yes=1,no=2,missing=1
	1:[f16<3.10457253] yes=3,no=4,missing=3
		3:[f10<0.000107610467] yes=7,no=8,missing=7
			7:leaf=0.0548795648
			8:leaf=0.00540484628
		4:[f5<0.853475809] yes=9,no=10,missing=9
			9:leaf=-0.0179962348
			10:leaf=0.0205173772
	2:[f16<1.48482716] yes=5,no=6,missing=5
		5:[f13<203.1875] yes=11,no=12,missing=11
			11:leaf=0.0499653555
			12:leaf=-0.0979409143
		6:[f15<-3.03767252] yes=13,no=14,missing=13
			13:leaf=0.0356265679
			14:leaf=-0.0365388803
booster[92]:
0:[f6<74.34375] yes=1,no=2,missing=1
	1:[f10<0.0494379774] yes=3,no=4,missing=3
		3:[f0<62.8259392] yes=7,no=8,missing=7
			7:leaf=-0.06347581
			8:leaf=-0.0220350679
		4:[f16<3.08881903] yes=9,no=10,missing=9
			9:leaf=0.0705621541
			10:leaf=-0.00683524413
	2:[f11<0.00790416356] yes=5,no=6,missing=5
		5:[f9<0.995697021] yes=11,no=12,missing=11
			11:leaf=-0.0290693231
			12:leaf=0.0263877567
		6:[f10<0.00977791008] yes=13,no=14,missing=13
			13:leaf=0.022729218
			14:leaf=-0.0217696
booster[93]:
0:[f18<0.301763535] yes=1,no=2,missing=1
	1:[f14<2.23182678] yes=3,no=4,missing=3
		3:[f12<3.38409798e-08] yes=7,no=8,missing=7
			7:leaf=0.00739038456
			8:leaf=-0.0531549715
		4:[f8<-2.14135742] yes=9,no=10,missing=9
			9:leaf=0.0425006673
			10:leaf=-0.0786147416
	2:[f17<0.593947411] yes=5,no=6,missing=5
		5:[f4<0.746967852] yes=11,no=12,missing=11
			11:leaf=-0.00981224235
			12:leaf=0.0137088774
		6:[f16<1.48482716] yes=13,no=14,missing=13
			13:leaf=-0.0925842822
			14:leaf=-0.0248068105
booster[94]:
0:[f6<161.6875] yes=1,no=2,missing=1
	1:[f6<119.59375] yes=3,no=4,missing=3
		3:[f3<64.6774445] yes=7,no=8,missing=7
			7:leaf=-0.0173599403
			8:leaf=0.00849025603
		4:[f12<4.44907002e-12] yes=9,no=10,missing=9
			9:leaf=0.0927043483
			10:leaf=0.00801323261
	2:[f11<0.0143363755] yes=5,no=6,missing=5
		5:[f12<4.36688489e-12] yes=11,no=12,missing=11
			11:leaf=0.0202332288
			12:leaf=-0.0852317587
		6:[f6<252.5625] yes=13,no=14,missing=13
			13:leaf=-0.0354643576
			14:leaf=0.126066193
booster[95]:
0:[f14<0.788459778] yes=1,no=2,missing=1
	1:[f11<0.00938905124] yes=3,no=4,missing=3
		3:[f9<0.995697021] yes=7,no=8,missing=7
			7:leaf=-0.0206822213
			8:leaf=0.0306390859
		4:[f2<610.505127] yes=9,no=10,missing=9
			9:leaf=-0.0145126646
			10:leaf=0.0300560053
	2:[f5<0.863880515] yes=5,no=6,missing=5
		5:[f14<2.23187256] yes=11,no=12,missing=11
			11:leaf=-0.0174062103
			12:leaf=-0.0770252794
		6:[f10<6.47710258e-05] yes=13,no=14,missing=13
			13:leaf=0.142956078
			14:leaf=0.00585460942
booster[96]:
0:[f6<144.8125] yes=1,no=2,missing=1
	1:[f6<119.59375] yes=3,no=4,missing=3
		3:[f15<3.06273508] yes=7,no=8,missing=7
			7:leaf=-0.00270862877
			8:leaf=-0.0308860075
		4:[f4<0.817969084] yes=9,no=10,missing=9
			9:leaf=0.000587360177
			10:leaf=0.0426024422
	2:[f0<118.097733] yes=5,no=6,missing=5
		5:[f12<9.33547462e-09] yes=11,no=12,missing=11
			11:leaf=0.0470225848
			12:leaf=-0.0376093462
		6:[f11<0.0132117523] yes=13,no=14,missing=13
			13:leaf=-0.0716255233
			14:leaf=-0.0286517497
booster[97]:
0:[f17<0.713149428] yes=1,no=2,missing=1
	1:[f5<0.409862399] yes=3,no=4,missing=3
		3:[f13<287.875] yes=7,no=8,missing=7
			7:leaf=0.0469541363
			8:leaf=-0.0763867423
		4:[f6<66.59375] yes=9,no=10,missing=9
			9:leaf=-0.0315861069
			10:leaf=0.00509073399
	2:[f9<0.998477042] yes=5,no=6,missing=5
		5:[f0<487.529846] yes=11,no=12,missing=11
			11:leaf=-0.0425133295
			12:leaf=-0.0887704268
		6:[f3<35.1081848] yes=13,no=14,missing=13
			13:leaf=0.103283562
			14:leaf=0.0160327628
booster[98]:
0:[f4<0.431627095] yes=1,no=2,missing=1
	1:[f6<225.6875] yes=3,no=4,missing=3
		3:[f12<1.05151346e-10] yes=7,no=8,missing=7
			7:leaf=0.0410155766
			8:leaf=-0.0672077239
		4:[f9<0.945611477] yes=9,no=10,missing=9
			9:leaf=0.373159885
			10:leaf=-0.0607341528
	2:[f13<306.875] yes=5,no=6,missing=5
		5:[f14<1.1440506] yes=11,no=12,missing=11
			11:leaf=-0.0024381862
			12:leaf=-0.0318331234
		6:[f5<0.629196346] yes=13,no=14,missing=13
			13:leaf=-0.0279081296
			14:leaf=0.0209931023
booster[99]:
0:[f9<0.871491551] yes=1,no=2,missing=1
	1:[f10<0.182137206] yes=3,no=4,missing=3
		3:[f9<0.808444619] yes=7,no=8,missing=7
			7:leaf=-0.0674279258
			8:leaf=-0.0251439959
		4:[f5<0.870430589] yes=9,no=10,missing=9
			9:leaf=0.236253411
			10:leaf=-0.0615709797
	2:[f11<0.010846151] yes=5,no=6,missing=5
		5:[f9<0.996760488] yes=11,no=12,missing=11
			11:leaf=-0.0161564704
			12:leaf=0.0327389501
		6:[f6<75.03125] yes=13,no=14,missing=13
			13:leaf=-0.0316106454
			14:leaf=0.0188121125
booster[100]:
0:[f14<0.376939774] yes=1,no=2,missing=1
	1:[f17<0.518269062] yes=3,no=4,missing=3
		3:[f12<4.93055492e-11] yes=7,no=8,missing=7
			7:leaf=0.142520726
			8:leaf=0.0223318394
		4:[f0<64.2250748] yes=9,no=10,missing=9
			9:leaf=-0.069400914
			10:leaf=0.000624956039
	2:[f5<0.853419542] yes=5,no=6,missing=5
		5:[f14<2.23187256] yes=11,no=12,missing=11
			11:leaf=-0.0111507196
			12:leaf=-0.0746599957
		6:[f10<4.43036588e-05] yes=13,no=14,missing=13
			13:leaf=0.117812417
			14:leaf=0.00566867506
booster[101]:
0:[f6<163.3125] yes=1,no=2,missing=1
	1:[f5<0.932787657] yes=3,no=4,missing=3
		3:[f16<1.50935173] yes=7,no=8,missing=7
			7:leaf=-0.0905721188
			8:leaf=0.00121479528
		4:[f12<3.14581598e-07] yes=9,no=10,missing=9
			9:leaf=0.173825979
			10:leaf=0.0285028275
	2:[f7<371.625] yes=5,no=6,missing=5
		5:[f4<0.501040697] yes=11,no=12,missing=11
			11:leaf=-0.0427272506
			12:leaf=0.285728186
		6:[f6<209.0625] yes=13,no=14,missing=13
			13:leaf=-0.0590905845
			14:leaf=0.013768849
booster[102]:
0:[f17<0.593947411] yes=1,no=2,missing=1
	1:[f16<3.13106561] yes=3,no=4,missing=3
		3:[f11<0.00832883548] yes=7,no=8,missing=7
			7:leaf=-0.00670537679
			8:leaf=0.0212550033
		4:[f16<3.13565874] yes=9,no=10,missing=9
			9:leaf=-0.0630496442
			10:leaf=-0.00552672846
	2:[f15<-3.03136301] yes=5,no=6,missing=5
		5:[f7<584.75] yes=11,no=12,missing=11
			11:leaf=0.102879621
			12:leaf=-0.0610128939
		6:[f16<1.44977355] yes=13,no=14,missing=13
			13:leaf=-0.0887542069
			14:leaf=-0.0304317828
booster[103]:
0:[f9<0.871491551] yes=1,no=2,missing=1
	1:[f10<0.000960988109] yes=3,no=4,missing=3
		3:[f8<-1.42382812] yes=7,no=8,missing=7
			7:leaf=0.0750619918
			8:leaf=-0.0672733113
		4:[f14<1.46302795] yes=9,no=10,missing=9
			9:leaf=-0.0160579868
			10:leaf=-0.0656512678
	2:[f11<0.0124469139] yes=5,no=6,missing=5
		5:[f9<0.996760488] yes=11,no=12,missing=11
			11:leaf=-0.0123637402
			12:leaf=0.029632885
		6:[f6<107.53125] yes=13,no=14,missing=13
			13:leaf=-0.0128784841
			14:leaf=0.0236120429
booster[104]:
0:[f6<144.8125] yes=1,no=2,missing=1
	1:[f5<0.921378613] yes=3,no=4,missing=3
		3:[f14<0.207920074] yes=7,no=8,missing=7
			7:leaf=0.0220091026
			8:leaf=-0.00352888531
		4:[f12<3.12674103e-07] yes=9,no=10,missing=9
			9:leaf=0.143230021
			10:leaf=0.0200930107
	2:[f0<118.097733] yes=5,no=6,missing=5
		5:[f12<9.33547462e-09] yes=11,no=12,missing=11
			11:leaf=0.0374938063
			12:leaf=-0.0342755467
		6:[f11<0.0132117523] yes=13,no=14,missing=13
			13:leaf=-0.0680370852
			14:leaf=-0.0265082866
booster[105]:
0:[f5<0.409862399] yes=1,no=2,missing=1
	1:[f12<1.45906568e-11] yes=3,no=4,missing=3
		3:[f14<0.717193604] yes=7,no=8,missing=7
			7:leaf=0.00788685959
			8:leaf=0.194073752
		4:[f2<652.458191] yes=9,no=10,missing=9
			9:leaf=0.0917961448
			10:leaf=-0.0771100298
	2:[f16<3.6772573] yes=5,no=6,missing=5
		5:[f2<694.764404] yes=11,no=12,missing=11
			11:leaf=-0.00934359711
			12:leaf=0.00912025478
		6:[f15<-3.12782907] yes=13,no=14,missing=13
			13:leaf=0.0271540135
			14:leaf=-0.0641202405
booster[106]:
0:[f4<0.431627095] yes=1,no=2,missing=1
	1:[f6<225.6875] yes=3,no=4,missing=3
		3:[f10<4.64718105e-05] yes=7,no=8,missing=7
			7:leaf=0.104568399
			8:leaf=-0.0592002571
		4:[f11<0.0325642079] yes=9,no=10,missing=9
			9:leaf=-0.0602534115
			10:leaf=0.290174246
	2:[f14<2.23182678] yes=5,no=6,missing=5
		5:[f17<0.593947411] yes=11,no=12,missing=11
			11:leaf=0.00460434379
			12:leaf=-0.0280855335
		6:[f8<-2.14135742] yes=13,no=14,missing=13
			13:leaf=0.0606130362
			14:leaf=-0.0709889978
booster[107]:
0:[f6<138.5625] yes=1,no=2,missing=1
	1:[f6<119.59375] yes=3,no=4,missing=3
		3:[f12<7.51078921e-11] yes=7,no=8,missing=7
			7:leaf=-0.0347985886
			8:leaf=-0.00152144057
		4:[f10<1.13356473e-05] yes=9,no=10,missing=9
			9:leaf=0.155137286
			10:leaf=0.014669125
	2:[f12<1.18356214e-10] yes=5,no=6,missing=5
		5:[f5<0.812875628] yes=11,no=12,missing=11
			11:leaf=-0.00271274592
			12:leaf=0.105785392
		6:[f4<0.496907413] yes=13,no=14,missing=13
			13:leaf=-0.0668148249
			14:leaf=-0.0204320624
booster[108]:
0:[f5<0.523116589] yes=1,no=2,missing=1
	1:[f13<417.375] yes=3,no=4,missing=3
		3:[f12<5.11360138e-12] yes=7,no=8,missing=7
			7:leaf=0.141889408
			8:leaf=-0.0153075447
		4:[f0<21.3320732] yes=9,no=10,missing=9
			9:leaf=-0.138146013
			10:leaf=-0.0540035963
	2:[f13<313.375] yes=5,no=6,missing=5
		5:[f9<0.945305884] yes=11,no=12,missing=11
			11:leaf=-0.0245439466
			12:leaf=0.00168898131
		6:[f5<0.813801646] yes=13,no=14,missing=13
			13:leaf=-0.00125220558
			14:leaf=0.0311331544
booster[109]:
0:[f4<0.381723404] yes=1,no=2,missing=1
	1:[f6<210.6875] yes=3,no=4,missing=3
		3:[f10<0.00022871542] yes=7,no=8,missing=7
			7:leaf=-0.00112397445
			8:leaf=-0.0840693116
		4:[f4<0.346519887] yes=9,no=10,missing=9
			9:leaf=0.24748902
			10:leaf=-0.0516859405
	2:[f0<487.529846] yes=5,no=6,missing=5
		5:[f11<0.00780244032] yes=11,no=12,missing=11
			11:leaf=-0.00938507821
			12:leaf=0.00777462963
		6:[f2<714.256592] yes=13,no=14,missing=13
			13:leaf=-0.0900526643
			14:leaf=-0.0190346669
booster[110]:
0:[f4<0.799907804] yes=1,no=2,missing=1
	1:[f9<0.994142473] yes=3,no=4,missing=3
		3:[f10<5.48859025e-05] yes=7,no=8,missing=7
			7:leaf=-0.0580318347
			8:leaf=-0.00525653688
		4:[f10<0.000196089575] yes=9,no=10,missing=9
			9:leaf=0.0621038862
			10:leaf=-0.0236872155
	2:[f6<115.53125] yes=5,no=6,missing=5
		5:[f19<0.955910087] yes=11,no=12,missing=11
			11:leaf=-0.0158249307
			12:leaf=0.0246045832
		6:[f10<0.00011088379] yes=13,no=14,missing=13
			13:leaf=0.0673046634
			14:leaf=0.00870740227
booster[111]:
0:[f6<163.3125] yes=1,no=2,missing=1
	1:[f14<2.23182678] yes=3,no=4,missing=3
		3:[f8<-0.64251709] yes=7,no=8,missing=7
			7:leaf=0.0172307622
			8:leaf=-0.00222109398
		4:[f4<0.524412394] yes=9,no=10,missing=9
			9:leaf=0.0349555686
			10:leaf=-0.0687579662
	2:[f7<388.625] yes=5,no=6,missing=5
		5:[f4<0.625411272] yes=11,no=12,missing=11
			11:leaf=-0.0213414021
			12:leaf=0.268906295
		6:[f11<0.0143363755] yes=13,no=14,missing=13
			13:leaf=-0.0789700896
			14:leaf=-0.0296614598
booster[112]:
0:[f5<0.409862399] yes=1,no=2,missing=1
	1:[f13<287.875] yes=3,no=4,missing=3
		3:[f17<0.498394668] yes=7,no=8,missing=7
			7:leaf=0.11173892
			8:leaf=-0.0284327362
		4:[f12<1.45906568e-11] yes=9,no=10,missing=9
			9:leaf=0.103937685
			10:leaf=-0.077639848
	2:[f14<0.376939774] yes=5,no=6,missing=5
		5:[f17<0.482905447] yes=11,no=12,missing=11
			11:leaf=0.0711840764
			12:leaf=0.00586653315
		6:[f9<0.992621005] yes=13,no=14,missing=13
			13:leaf=-0.00969637651
			14:leaf=0.0160375033
booster[113]:
0:[f11<0.00780244032] yes=1,no=2,missing=1
	1:[f9<0.99341315] yes=3,no=4,missing=3
		3:[f10<0.00065709278] yes=7,no=8,missing=7
			7:leaf=-0.0589723177
			8:leaf=-0.011850263
		4:[f10<8.85714762e-05] yes=9,no=10,missing=9
			9:leaf=0.0447312109
			10:leaf=-0.0134697948
	2:[f14<0.370863914] yes=5,no=6,missing=5
		5:[f2<521.302002] yes=11,no=12,missing=11
			11:leaf=-0.0408053175
			12:leaf=0.0299609005
		6:[f4<0.95519197] yes=13,no=14,missing=13
			13:leaf=-0.00284705195
			14:leaf=0.275273979
booster[114]:
0:[f6<138.5625] yes=1,no=2,missing=1
	1:[f6<119.59375] yes=3,no=4,missing=3
		3:[f12<7.51078921e-11] yes=7,no=8,missing=7
			7:leaf=-0.0323546268
			8:leaf=-0.000455401139
		4:[f10<1.13356473e-05] yes=9,no=10,missing=9
			9:leaf=0.141369224
			10:leaf=0.0125565482
	2:[f12<1.05899946e-12] yes=5,no=6,missing=5
		5:[f10<5.28842247e-06] yes=11,no=12,missing=11
			11:leaf=-0.0408361666
			12:leaf=0.138548508
		6:[f4<0.511960626] yes=13,no=14,missing=13
			13:leaf=-0.0554828718
			14:leaf=-0.0147837168
booster[115]:
0:[f17<0.713149428] yes=1,no=2,missing=1
	1:[f9<0.871491551] yes=3,no=4,missing=3
		3:[f10<0.000960988109] yes=7,no=8,missing=7
			7:leaf=-0.0594210811
			8:leaf=-0.0172608569
		4:[f11<0.00790416356] yes=9,no=10,missing=9
			9:leaf=-0.00852015615
			10:leaf=0.0099810129
	2:[f0<487.529846] yes=5,no=6,missing=5
		5:[f12<1.66061068e-10] yes=11,no=12,missing=11
			11:leaf=0.101521514
			12:leaf=-0.0450232811
		6:[f10<0.00020945353] yes=13,no=14,missing=13
			13:leaf=-0.103521846
			14:leaf=-0.055988688
booster[116]:
0:[f16<3.6772573] yes=1,no=2,missing=1
	1:[f17<0.550237894] yes=3,no=4,missing=3
		3:[f16<3.10359621] yes=7,no=8,missing=7
			7:leaf=0.0142877968
			8:leaf=-0.00430423021
		4:[f12<1.93246721e-12] yes=9,no=10,missing=9
			9:leaf=0.0839144513
			10:leaf=-0.0200389177
	2:[f15<-3.12782907] yes=5,no=6,missing=5
		5:[f9<0.970909595] yes=11,no=12,missing=11
			11:leaf=-0.0613759048
			12:leaf=0.211007401
		6:[f8<1.82092285] yes=13,no=14,missing=13
			13:leaf=-0.0634837672
			14:leaf=0.0685328096
booster[117]:
0:[f5<0.419555634] yes=1,no=2,missing=1
	1:[f10<3.50985356e-05] yes=3,no=4,missing=3
		3:[f6<104.75] yes=7,no=8,missing=7
			7:leaf=-0.0522943735
			8:leaf=0.127793133
		4:[f2<652.458191] yes=9,no=10,missing=9
			9:leaf=0.0695566386
			10:leaf=-0.0675135776
	2:[f6<66.59375] yes=5,no=6,missing=5
		5:[f10<0.00744554913] yes=11,no=12,missing=11
			11:leaf=-0.0561474226
			12:leaf=0.0163457692
		6:[f4<0.67748332] yes=13,no=14,missing=13
			13:leaf=-0.0116888527
			14:leaf=0.00802273769
booster[118]:
0:[f18<0.478632569] yes=1,no=2,missing=1
	1:[f14<0.390871048] yes=3,no=4,missing=3
		3:[f17<0.471755773] yes=7,no=8,missing=7
			7:leaf=0.115853034
			8:leaf=0.00948154274
		4:[f14<0.393001556] yes=9,no=10,missing=9
			9:leaf=-0.0913281813
			10:leaf=-0.00318661681
	2:[f13<417.875] yes=5,no=6,missing=5
		5:[f8<1.22424316] yes=11,no=12,missing=11
			11:leaf=-0.0596536472
			12:leaf=0.0792583525
		6:[f6<138.1875] yes=13,no=14,missing=13
			13:leaf=0.0869655088
			14:leaf=-0.0763245746
booster[119]:
0:[f11<0.00172659161] yes=1,no=2,missing=1
	1:[f10<7.51394036e-05] yes=3,no=4,missing=3
		3:[f6<152] yes=7,no=8,missing=7
			7:leaf=0.0864552408
			8:leaf=-0.0928692892
		4:[f9<0.997744322] yes=9,no=10,missing=9
			9:leaf=-0.0575117655
			10:leaf=-0.0157444868
	2:[f17<0.674996734] yes=5,no=6,missing=5
		5:[f9<0.996760488] yes=11,no=12,missing=11
			11:leaf=0.00133684126
			12:leaf=0.045303382
		6:[f16<3.10402918] yes=13,no=14,missing=13
			13:leaf=-0.056363035
			14:leaf=0.0945547745
booster[120]:
0:[f5<0.523116589] yes=1,no=2,missing=1
	1:[f13<417.375] yes=3,no=4,missing=3
		3:[f17<0.494121909] yes=7,no=8,missing=7
			7:leaf=-0.0259044766
			8:leaf=0.0235885028
		4:[f0<21.3320732] yes=9,no=10,missing=9
			9:leaf=-0.131641269
			10:leaf=-0.0482847318
	2:[f13<232.5625] yes=5,no=6,missing=5
		5:[f3<70.6882935] yes=11,no=12,missing=11
			11:leaf=-0.0277799666
			12:leaf=0.0173165444
		6:[f17<0.545647502] yes=13,no=14,missing=13
			13:leaf=0.00840839278
			14:leaf=-0.0158279724
booster[121]:
0:[f4<0.381723404] yes=1,no=2,missing=1
	1:[f6<199.9375] yes=3,no=4,missing=3
		3:[f12<5.83369442e-09] yes=7,no=8,missing=7
			7:leaf=-0.022690177
			8:leaf=-0.090061456
		4:[f10<0.00648055272] yes=9,no=10,missing=9
			9:leaf=0.186828598
			10:leaf=-0.0547816753
	2:[f8<-0.64251709] yes=5,no=6,missing=5
		5:[f9<0.995121002] yes=11,no=12,missing=11
			11:leaf=0.00682772184
			12:leaf=0.0843160301
		6:[f8<-0.00725746155] yes=13,no=14,missing=13
			13:leaf=-0.0175050329
			14:leaf=0.00485739205
booster[122]:
0:[f16<3.46434951] yes=1,no=2,missing=1
	1:[f11<0.00780244032] yes=3,no=4,missing=3
		3:[f11<0.00741773658] yes=7,no=8,missing=7
			7:leaf=-0.00427494245
			8:leaf=-0.0671458617
		4:[f10<0.00724130776] yes=9,no=10,missing=9
			9:leaf=0.0135151045
			10:leaf=-0.00971713942
	2:[f9<0.977655053] yes=5,no=6,missing=5
		5:[f0<53.0014725] yes=11,no=12,missing=11
			11:leaf=-0.0630669892
			12:leaf=-0.0228922423
		6:[f19<0.914740562] yes=13,no=14,missing=13
			13:leaf=-0.0286159944
			14:leaf=0.0714038387
booster[123]:
0:[f6<138.5625] yes=1,no=2,missing=1
	1:[f5<0.921378613] yes=3,no=4,missing=3
		3:[f13<508.625] yes=7,no=8,missing=7
			7:leaf=-0.000283811358
			8:leaf=0.0472283177
		4:[f6<90.21875] yes=9,no=10,missing=9
			9:leaf=-0.0420771912
			10:leaf=0.10989549
	2:[f12<1.07105901e-10] yes=5,no=6,missing=5
		5:[f5<0.594296873] yes=11,no=12,missing=11
			11:leaf=-0.0645257831
			12:leaf=0.0448038429
		6:[f11<0.0214214809] yes=13,no=14,missing=13
			13:leaf=-0.0381438583
			14:leaf=0.000255476072
booster[124]:
0:[f14<2.23182678] yes=1,no=2,missing=1
	1:[f11<0.000490733655] yes=3,no=4,missing=3
		3:[f9<0.99949652] yes=7,no=8,missing=7
			7:leaf=-0.0691615194
			8:leaf=0.0808599591
		4:[f5<0.357280314] yes=9,no=10,missing=9
			9:leaf=-0.0694300383
			10:leaf=0.00212360825
	2:[f8<-2.14135742] yes=5,no=6,missing=5
		5:leaf=0.0666823685
		6:[f5<0.909813523] yes=11,no=12,missing=11
			11:leaf=-0.0681079626
			12:leaf=0.0434717797
booster[125]:
0:[f6<163.3125] yes=1,no=2,missing=1
	1:[f18<0.478632569] yes=3,no=4,missing=3
		3:[f14<0.17263031] yes=7,no=8,missing=7
			7:leaf=0.0200608205
			8:leaf=-0.000553526392
		4:[f19<0.99942112] yes=9,no=10,missing=9
			9:leaf=-0.0348359086
			10:leaf=0.372457355
	2:[f7<388.625] yes=5,no=6,missing=5
		5:[f10<0.00279301265] yes=11,no=12,missing=11
			11:leaf=0.158847973
			12:leaf=-0.0495710447
		6:[f6<201.0625] yes=13,no=14,missing=13
			13:leaf=-0.053721156
			14:leaf=0.0096348552
booster[126]:
0:[f9<0.871491551] yes=1,no=2,missing=1
	1:[f10<0.000368645764] yes=3,no=4,missing=3
		3:[f13<446.5] yes=7,no=8,missing=7
			7:leaf=-0.083080411
			8:leaf=0.0431025513
		4:[f12<7.38525387e-06] yes=9,no=10,missing=9
			9:leaf=0.00363638671
			10:leaf=-0.0263240132
	2:[f11<0.00790416356] yes=5,no=6,missing=5
		5:[f1<-2.75527334] yes=11,no=12,missing=11
			11:leaf=0.0310643055
			12:leaf=-0.014302887
		6:[f6<74.21875] yes=13,no=14,missing=13
			13:leaf=-0.0265235603
			14:leaf=0.0107806716
booster[127]:
0:[f5<0.862909675] yes=1,no=2,missing=1
	1:[f5<0.862339854] yes=3,no=4,missing=3
		3:[f16<3.20785689] yes=7,no=8,missing=7
			7:leaf=0.00164885202
			8:leaf=-0.01758839
		4:[f6<136.375] yes=9,no=10,missing=9
			9:leaf=-0.0929298028
			10:leaf=0.102756165
	2:[f10<3.7167345e-05] yes=5,no=6,missing=5
		5:[f6<155.25] yes=11,no=12,missing=11
			11:leaf=0.128652021
			12:leaf=-0.0751356259
		6:[f6<139.8125] yes=13,no=14,missing=13
			13:leaf=0.0158973485
			14:leaf=-0.0338765047
booster[128]:
0:[f4<0.381723404] yes=1,no=2,missing=1
	1:[f6<199.9375] yes=3,no=4,missing=3
		3:[f10<5.51414232e-05] yes=7,no=8,missing=7
			7:leaf=0.0617667995
			8:leaf=-0.0735111833
		4:[f8<-0.545959473] yes=9,no=10,missing=9
			9:leaf=-0.0587793104
			10:leaf=0.158009499
	2:[f17<0.786214948] yes=5,no=6,missing=5
		5:[f11<0.000490733655] yes=11,no=12,missing=11
			11:leaf=-0.0503781922
			12:leaf=0.00195952761
		6:[f13<205.1875] yes=13,no=14,missing=13
			13:leaf=0.135829687
			14:leaf=-0.086444661
booster[129]:
0:[f5<0.385941863] yes=1,no=2,missing=1
	1:[f7<289.375] yes=3,no=4,missing=3
		3:leaf=0.164082393
		4:[f12<1.05041573e-10] yes=7,no=8,missing=7
			7:leaf=0.0497569665
			8:leaf=-0.0718124062
	2:[f9<0.998930395] yes=5,no=6,missing=5
		5:[f11<0.00103662442] yes=9,no=10,missing=9
			9:leaf=-0.0572186299
			10:leaf=0.00161546783
		6:[f10<5.72181125e-05] yes=11,no=12,missing=11
			11:leaf=0.112883568
			12:leaf=0.0191951171
booster[130]:
0:[f4<0.799907804] yes=1,no=2,missing=1
	1:[f10<1.5887379e-05] yes=3,no=4,missing=3
		3:[f3<79.065094] yes=7,no=8,missing=7
			7:leaf=-0.0675810277
			8:leaf=0.0900471061
		4:[f10<2.24242394e-05] yes=9,no=10,missing=9
			9:leaf=0.128067285
			10:leaf=-0.00431071501
	2:[f6<113.03125] yes=5,no=6,missing=5
		5:[f6<108.09375] yes=11,no=12,missing=11
			11:leaf=0.000894783821
			12:leaf=-0.0375246108
		6:[f10<0.000229314552] yes=13,no=14,missing=13
			13:leaf=0.0471536666
			14:leaf=0.00137455901
booster[131]:
0:[f16<3.6772573] yes=1,no=2,missing=1
	1:[f17<0.550237894] yes=3,no=4,missing=3
		3:[f0<41.7423935] yes=7,no=8,missing=7
			7:leaf=-0.00999651756
			8:leaf=0.00856390502
		4:[f12<1.93246721e-12] yes=9,no=10,missing=9
			9:leaf=0.0721347257
			10:leaf=-0.0172253363
	2:[f15<-3.12782907] yes=5,no=6,missing=5
		5:[f3<35.0526352] yes=11,no=12,missing=11
			11:leaf=-0.0740947202
			12:leaf=0.174629539
		6:[f8<1.82092285] yes=13,no=14,missing=13
			13:leaf=-0.0585360043
			14:leaf=0.0740401372
booster[132]:
0:[f6<163.3125] yes=1,no=2,missing=1
	1:[f16<1.44966722] yes=3,no=4,missing=3
		3:[f13<203.5625] yes=7,no=8,missing=7
			7:leaf=0.0971035138
			8:leaf=-0.0880275443
		4:[f8<-0.64251709] yes=9,no=10,missing=9
			9:leaf=0.0126030436
			10:leaf=-0.00191228488
	2:[f11<0.0143363755] yes=5,no=6,missing=5
		5:[f7<398.125] yes=11,no=12,missing=11
			11:leaf=0.0418928899
			12:leaf=-0.0756100938
		6:[f14<0.0906219482] yes=13,no=14,missing=13
			13:leaf=0.0789194182
			14:leaf=-0.0249289013
booster[133]:
0:[f5<0.685934007] yes=1,no=2,missing=1
	1:[f2<849.98175] yes=3,no=4,missing=3
		3:[f10<0.000157729199] yes=7,no=8,missing=7
			7:leaf=0.064213194
			8:leaf=-0.00467559369
		4:[f2<890.521851] yes=9,no=10,missing=9
			9:leaf=-0.0700329542
			10:leaf=-0.0243015029
	2:[f2<709.848511] yes=5,no=6,missing=5
		5:[f14<0.846420288] yes=11,no=12,missing=11
			11:leaf=-0.00140152115
			12:leaf=-0.035693679
		6:[f12<1.49344586e-07] yes=13,no=14,missing=13
			13:leaf=0.0219245404
			14:leaf=0.00110573228
booster[134]:
0:[f6<138.5625] yes=1,no=2,missing=1
	1:[f5<0.921378613] yes=3,no=4,missing=3
		3:[f13<540.75] yes=7,no=8,missing=7
			7:leaf=-2.35435782e-05
			8:leaf=0.052269429
		4:[f6<90.21875] yes=9,no=10,missing=9
			9:leaf=-0.0405290946
			10:leaf=0.0875886083
	2:[f12<9.98382583e-13] yes=5,no=6,missing=5
		5:[f6<148.0625] yes=11,no=12,missing=11
			11:leaf=0.165491343
			12:leaf=-0.00223099673
		6:[f11<0.013746703] yes=13,no=14,missing=13
			13:leaf=-0.0322931893
			14:leaf=-0.00320774619
booster[135]:
0:[f9<0.851391792] yes=1,no=2,missing=1
	1:[f10<0.168934196] yes=3,no=4,missing=3
		3:[f9<0.811392188] yes=7,no=8,missing=7
			7:leaf=-0.0581194758
			8:leaf=-0.0173213407
		4:[f5<0.72077167] yes=9,no=10,missing=9
			9:leaf=0.272068828
			10:leaf=-0.00540160481
	2:[f14<0.17244339] yes=5,no=6,missing=5
		5:[f17<0.518269062] yes=11,no=12,missing=11
			11:leaf=0.0397115611
			12:leaf=-0.00417244295
		6:[f18<0.454336166] yes=13,no=14,missing=13
			13:leaf=0.00178079994
			14:leaf=-0.0192363746
booster[136]:
0:[f14<2.23182678] yes=1,no=2,missing=1
	1:[f3<230.896225] yes=3,no=4,missing=3
		3:[f18<0.469249576] yes=7,no=8,missing=7
			7:leaf=0.00288913189
			8:leaf=-0.0188387856
		4:[f10<5.01681134e-05] yes=9,no=10,missing=9
			9:leaf=0.146828979
			10:leaf=-0.0672179088
	2:[f19<0.949423611] yes=5,no=6,missing=5
		5:[f4<0.900841177] yes=11,no=12,missing=11
			11:leaf=-0.0738327578
			12:leaf=0.0633315071
		6:[f2<1396.99072] yes=13,no=14,missing=13
			13:leaf=-0.0436241589
			14:leaf=0.128494486
booster[137]:
0:[f5<0.357280314] yes=1,no=2,missing=1
	1:[f10<3.13725759e-05] yes=3,no=4,missing=3
		3:[f3<44.9421234] yes=7,no=8,missing=7
			7:leaf=0.141968027
			8:leaf=0.00229146192
		4:[f2<672.455811] yes=9,no=10,missing=9
			9:leaf=0.0582169853
			10:leaf=-0.0845846161
	2:[f2<1605.97778] yes=5,no=6,missing=5
		5:[f13<518.75] yes=11,no=12,missing=11
			11:leaf=-0.000164633486
			12:leaf=0.0408056751
		6:[f17<0.549832404] yes=13,no=14,missing=13
			13:leaf=-0.0595228635
			14:leaf=0.105621926
booster[138]:
0:[f4<0.381723404] yes=1,no=2,missing=1
	1:[f6<199.9375] yes=3,no=4,missing=3
		3:[f6<124.34375] yes=7,no=8,missing=7
			7:leaf=0.0197797082
			8:leaf=-0.0758344159
		4:[f9<0.889570117] yes=9,no=10,missing=9
			9:leaf=-0.0576804243
			10:leaf=0.139486596
	2:[f0<506.123718] yes=5,no=6,missing=5
		5:[f0<41.7423935] yes=11,no=12,missing=11
			11:leaf=-0.009458079
			12:leaf=0.00437689666
		6:[f2<1309.81946] yes=13,no=14,missing=13
			13:leaf=-0.0605643354
			14:leaf=0.0718799457
booster[139]:
0:[f4<0.676721811] yes=1,no=2,missing=1
	1:[f4<0.676478624] yes=3,no=4,missing=3
		3:[f10<0.0106251445] yes=7,no=8,missing=7
			7:leaf=-0.00194948353
			8:leaf=-0.0333991162
		4:leaf=-0.10729932
	2:[f0<74.7537231] yes=5,no=6,missing=5
		5:[f17<0.503362] yes=9,no=10,missing=9
			9:leaf=0.00264834356
			10:leaf=-0.0361155011
		6:[f0<94.6428299] yes=11,no=12,missing=11
			11:leaf=0.0409138724
			12:leaf=0.00352985226
booster[140]:
0:[f11<0.00172659161] yes=1,no=2,missing=1
	1:[f10<5.80268388e-05] yes=3,no=4,missing=3
		3:[f6<149.5625] yes=7,no=8,missing=7
			7:leaf=0.0873489454
			8:leaf=-0.0831267089
		4:[f9<0.997744322] yes=9,no=10,missing=9
			9:leaf=-0.0493792668
			10:leaf=-0.012824133
	2:[f10<2.6371521e-05] yes=5,no=6,missing=5
		5:[f7<439.125] yes=11,no=12,missing=11
			11:leaf=0.0247063525
			12:leaf=-0.0661953315
		6:[f10<3.07382506e-05] yes=13,no=14,missing=13
			13:leaf=0.119821109
			14:leaf=0.00244390126
booster[141]:
0:[f14<0.788459778] yes=1,no=2,missing=1
	1:[f17<0.471363842] yes=3,no=4,missing=3
		3:[f19<0.987921715] yes=7,no=8,missing=7
			7:leaf=0.0722035393
			8:leaf=-0.0249050204
		4:[f0<19.0336151] yes=9,no=10,missing=9
			9:leaf=-0.047241088
			10:leaf=0.00282486621
	2:[f18<0.414998889] yes=5,no=6,missing=5
		5:[f12<3.80366214e-06] yes=11,no=12,missing=11
			11:leaf=0.00722189993
			12:leaf=-0.0212455112
		6:[f17<0.464469105] yes=13,no=14,missing=13
			13:leaf=-0.0124350442
			14:leaf=-0.0700896159
booster[142]:
0:[f1<5.17086697] yes=1,no=2,missing=1
	1:[f1<4.45465183] yes=3,no=4,missing=3
		3:[f19<0.590347886] yes=7,no=8,missing=7
			7:leaf=-0.026317969
			8:leaf=0.00167964387
		4:[f5<0.800129175] yes=9,no=10,missing=9
			9:leaf=-0.0751259699
			10:leaf=0.0217779521
	2:[f12<3.85143917e-09] yes=5,no=6,missing=5
		5:[f7<480] yes=11,no=12,missing=11
			11:leaf=0.376001894
			12:leaf=0.0322479159
		6:[f5<0.753177166] yes=13,no=14,missing=13
			13:leaf=-0.0401603356
			14:leaf=0.125674397
booster[143]:
0:[f5<0.523116589] yes=1,no=2,missing=1
	1:[f1<-0.57370621] yes=3,no=4,missing=3
		3:[f6<62.796875] yes=7,no=8,missing=7
			7:leaf=0.12736617
			8:leaf=-0.0497410856
		4:[f10<0.000215407053] yes=9,no=10,missing=9
			9:leaf=0.0775443017
			10:leaf=-0.01949949
	2:[f17<0.513399005] yes=5,no=6,missing=5
		5:[f14<0.44165802] yes=11,no=12,missing=11
			11:leaf=0.0244629681
			12:leaf=-0.000990171335
		6:[f0<64.2255859] yes=13,no=14,missing=13
			13:leaf=-0.0570043996
			14:leaf=-0.00195503421
booster[144]:
0:[f16<3.4169414] yes=1,no=2,missing=1
	1:[f17<0.445997626] yes=3,no=4,missing=3
		3:[f10<0.000174155764] yes=7,no=8,missing=7
			7:leaf=0.0694519803
			8:leaf=0.00566162309
		4:[f14<0.999217987] yes=9,no=10,missing=9
			9:leaf=0.00149821304
			10:leaf=-0.0260713603
	2:[f1<-3.66532922] yes=5,no=6,missing=5
		5:[f0<22.5545998] yes=11,no=12,missing=11
			11:leaf=-0.0173368584
			12:leaf=0.149361417
		6:[f6<115.59375] yes=13,no=14,missing=13
			13:leaf=-0.0509756505
			14:leaf=-0.0100216651
booster[145]:
0:[f6<138.5625] yes=1,no=2,missing=1
	1:[f5<0.862909436] yes=3,no=4,missing=3
		3:[f10<2.6371521e-05] yes=7,no=8,missing=7
			7:leaf=-0.0291793793
			8:leaf=0.00115255383
		4:[f2<638.914612] yes=9,no=10,missing=9
			9:leaf=-0.0170388874
			10:leaf=0.0324447528
	2:[f12<1.07105901e-10] yes=5,no=6,missing=5
		5:[f15<-3.12651682] yes=11,no=12,missing=11
			11:leaf=0.263945371
			12:leaf=0.011057348
		6:[f11<0.013746703] yes=13,no=14,missing=13
			13:leaf=-0.0376844071
			14:leaf=-0.00375044206
booster[146]:
0:[f11<0.000205955352] yes=1,no=2,missing=1
	1:[f5<0.849534452] yes=3,no=4,missing=3
		3:[f10<3.01430046e-05] yes=7,no=8,missing=7
			7:leaf=0.0483167507
			8:leaf=-0.0908711106
		4:[f6<118.84375] yes=9,no=10,missing=9
			9:leaf=-0.0460975431
			10:leaf=0.117673256
	2:[f5<0.357280314] yes=5,no=6,missing=5
		5:[f1<4.02479696] yes=11,no=12,missing=11
			11:leaf=-0.0731809661
			12:leaf=0.0934829339
		6:[f9<0.999122381] yes=13,no=14,missing=13
			13:leaf=0.000463457138
			14:leaf=0.0835084394
booster[147]:
0:[f17<0.859135747] yes=1,no=2,missing=1
	1:[f0<41.7423935] yes=3,no=4,missing=3
		3:[f9<0.993032515] yes=7,no=8,missing=7
			7:leaf=-0.0165196788
			8:leaf=0.0428159013
		4:[f11<0.0124467071] yes=9,no=10,missing=9
			9:leaf=-0.00574709196
			10:leaf=0.0117217833
	2:[f13<203.3125] yes=5,no=6,missing=5
		5:leaf=0.0470475405
		6:[f14<1.10214233] yes=11,no=12,missing=11
			11:leaf=-0.0981796533
			12:leaf=-0.00179174508
booster[148]:
0:[f3<230.896225] yes=1,no=2,missing=1
	1:[f3<55.7421417] yes=3,no=4,missing=3
		3:[f7<307.125] yes=7,no=8,missing=7
			7:leaf=-0.0206480529
			8:leaf=0.00120843644
		4:[f11<0.0121337874] yes=9,no=10,missing=9
			9:leaf=-0.00680507673
			10:leaf=0.0208225623
	2:[f12<2.05017444e-11] yes=5,no=6,missing=5
		5:[f18<0.353077829] yes=11,no=12,missing=11
			11:leaf=0.258486539
			12:leaf=-0.0574055426
		6:[f6<81.34375] yes=13,no=14,missing=13
			13:leaf=0.15166299
			14:leaf=-0.0723252967
booster[149]:
0:[f6<163.3125] yes=1,no=2,missing=1
	1:[f9<0.93193996] yes=3,no=4,missing=3
		3:[f10<0.000960404403] yes=7,no=8,missing=7
			7:leaf=-0.0427818969
			8:leaf=-0.00181441277
		4:[f8<-0.644348145] yes=9,no=10,missing=9
			9:leaf=0.0198126342
			10:leaf=-0.000812985876
	2:[f4<0.815045595] yes=5,no=6,missing=5
		5:[f14<0.0943908691] yes=11,no=12,missing=11
			11:leaf=0.0601258278
			12:leaf=-0.0261671785
		6:[f5<0.810823441] yes=13,no=14,missing=13
			13:leaf=-0.0979044661
			14:leaf=-0.0418483429
booster[150]:
0:[f4<0.543653607] yes=1,no=2,missing=1
	1:[f11<0.00491169281] yes=3,no=4,missing=3
		3:[f8<0.590209961] yes=7,no=8,missing=7
			7:leaf=-0.0718003064
			8:leaf=0.0541693345
		4:[f10<0.000244311232] yes=9,no=10,missing=9
			9:leaf=0.0434019677
			10:leaf=-0.0193333589
	2:[f1<0.899067044] yes=5,no=6,missing=5
		5:[f8<-0.64251709] yes=11,no=12,missing=11
			11:leaf=0.0104456646
			12:leaf=-0.0132588614
		6:[f12<3.06937798e-13] yes=13,no=14,missing=13
			13:leaf=0.188093349
			14:leaf=0.00683671096
booster[151]:
0:[f16<3.6772573] yes=1,no=2,missing=1
	1:[f17<0.550237894] yes=3,no=4,missing=3
		3:[f16<3.04680872] yes=7,no=8,missing=7
			7:leaf=0.0132428724
			8:leaf=-0.00185009919
		4:[f0<142.829056] yes=9,no=10,missing=9
			9:leaf=-0.0346517451
			10:leaf=-0.00295616942
	2:[f15<-3.12782907] yes=5,no=6,missing=5
		5:[f9<0.970909595] yes=11,no=12,missing=11
			11:leaf=-0.0496863015
			12:leaf=0.182203516
		6:[f8<1.82092285] yes=13,no=14,missing=13
			13:leaf=-0.0537897423
			14:leaf=0.0753995031
booster[152]:
0:[f3<7.82459641] yes=1,no=2,missing=1
	1:[f3<7.19818497] yes=3,no=4,missing=3
		3:[f19<0.901952863] yes=7,no=8,missing=7
			7:leaf=-0.0286336076
			8:leaf=0.0688165203
		4:[f11<0.0066901464] yes=9,no=10,missing=9
			9:leaf=0.107209243
			10:leaf=-0.0966141596
	2:[f5<0.762629509] yes=5,no=6,missing=5
		5:[f13<386.125] yes=11,no=12,missing=11
			11:leaf=0.00208671321
			12:leaf=-0.0296709687
		6:[f2<710.084839] yes=13,no=14,missing=13
			13:leaf=-0.00740553532
			14:leaf=0.0159364771
booster[153]:
0:[f4<0.381723404] yes=1,no=2,missing=1
	1:[f6<199.9375] yes=3,no=4,missing=3
		3:[f12<5.83369442e-09] yes=7,no=8,missing=7
			7:leaf=-0.0122227697
			8:leaf=-0.0854647234
		4:[f2<1022.72351] yes=9,no=10,missing=9
			9:leaf=-0.0334683172
			10:leaf=0.130001232
	2:[f18<0.469249576] yes=5,no=6,missing=5
		5:[f1<-3.95569992] yes=11,no=12,missing=11
			11:leaf=0.0437004976
			12:leaf=0.000421716104
		6:[f8<0.839294434] yes=13,no=14,missing=13
			13:leaf=-0.0261802357
			14:leaf=0.0478071868
booster[154]:
0:[f14<0.788459778] yes=1,no=2,missing=1
	1:[f17<0.487283587] yes=3,no=4,missing=3
		3:[f5<0.599504113] yes=7,no=8,missing=7
			7:leaf=-0.036544051
			8:leaf=0.0332755148
		4:[f0<45.2706528] yes=9,no=10,missing=9
			9:leaf=-0.0364596546
			10:leaf=0.00321109849
	2:[f18<0.415032685] yes=5,no=6,missing=5
		5:[f9<0.979358256] yes=11,no=12,missing=11
			11:leaf=-0.0120039647
			12:leaf=0.0116770044
		6:[f17<0.464469105] yes=13,no=14,missing=13
			13:leaf=-0.0121773286
			14:leaf=-0.0672957376
booster[155]:
0:[f2<1605.97778] yes=1,no=2,missing=1
	1:[f13<518.75] yes=3,no=4,missing=3
		3:[f1<-3.74283385] yes=7,no=8,missing=7
			7:leaf=0.0225520544
			8:leaf=-0.00204947474
		4:[f5<0.761327505] yes=9,no=10,missing=9
			9:leaf=-0.00396121992
			10:leaf=0.0845961422
	2:[f17<0.549869418] yes=5,no=6,missing=5
		5:[f4<0.878101826] yes=11,no=12,missing=11
			11:leaf=-0.0640082583
			12:leaf=0.0322210379
		6:[f5<0.700280905] yes=13,no=14,missing=13
			13:leaf=-0.0469283164
			14:leaf=0.170718804
booster[156]:
0:[f6<144.8125] yes=1,no=2,missing=1
	1:[f0<64.4864807] yes=3,no=4,missing=3
		3:[f0<58.3494339] yes=7,no=8,missing=7
			7:leaf=0.000741067051
			8:leaf=-0.040168684
		4:[f15<-3.02166605] yes=9,no=10,missing=9
			9:leaf=0.0367631316
			10:leaf=0.00214762404
	2:[f0<118.097733] yes=5,no=6,missing=5
		5:[f2<1008.52643] yes=11,no=12,missing=11
			11:leaf=0.023164494
			12:leaf=-0.0381067395
		6:[f0<123.165909] yes=13,no=14,missing=13
			13:leaf=-0.101071991
			14:leaf=-0.0242300276
booster[157]:
0:[f9<0.871491551] yes=1,no=2,missing=1
	1:[f10<0.000303143897] yes=3,no=4,missing=3
		3:[f13<446.5] yes=7,no=8,missing=7
			7:leaf=-0.0869022459
			8:leaf=0.0327641927
		4:[f15<-3.07155466] yes=9,no=10,missing=9
			9:leaf=-0.0424755327
			10:leaf=-0.00556269195
	2:[f3<7.82459641] yes=5,no=6,missing=5
		5:[f7<440.125] yes=11,no=12,missing=11
			11:leaf=-0.0495351069
			12:leaf=0.0988471881
		6:[f14<0.37085247] yes=13,no=14,missing=13
			13:leaf=0.0119763957
			14:leaf=-0.00218092673
booster[158]:
0:[f11<0.00172659161] yes=1,no=2,missing=1
	1:[f10<4.04299171e-05] yes=3,no=4,missing=3
		3:[f4<0.643472552] yes=7,no=8,missing=7
			7:leaf=-0.0425043963
			8:leaf=0.0933739394
		4:[f6<120.96875] yes=9,no=10,missing=9
			9:leaf=-0.0139969317
			10:leaf=-0.0485704951
	2:[f9<0.996760488] yes=5,no=6,missing=5
		5:[f9<0.996664524] yes=11,no=12,missing=11
			11:leaf=0.000608478382
			12:leaf=-0.0761656538
		6:[f4<0.690104127] yes=13,no=14,missing=13
			13:leaf=-0.0269978195
			14:leaf=0.0668599457
booster[159]:
0:[f17<0.859135747] yes=1,no=2,missing=1
	1:[f14<2.23182678] yes=3,no=4,missing=3
		3:[f1<5.17086697] yes=7,no=8,missing=7
			7:leaf=0.000395778537
			8:leaf=0.0824571997
		4:[f19<0.949423611] yes=9,no=10,missing=9
			9:leaf=-0.0605145656
			10:leaf=0.014628035
	2:[f13<203.3125] yes=5,no=6,missing=5
		5:leaf=0.0460284986
		6:[f17<1.11370337] yes=11,no=12,missing=11
			11:leaf=-0.101794206
			12:leaf=-0.0289763901
booster[160]:
0:[f3<220.214783] yes=1,no=2,missing=1
	1:[f11<0.000209743361] yes=3,no=4,missing=3
		3:[f13<425.875] yes=7,no=8,missing=7
			7:leaf=-0.0858324319
			8:leaf=0.00328438659
		4:[f15<-3.13963938] yes=9,no=10,missing=9
			9:leaf=-0.0580861382
			10:leaf=0.00130494067
	2:[f10<5.01681134e-05] yes=5,no=6,missing=5
		5:[f1<0.519913673] yes=11,no=12,missing=11
			11:leaf=-0.0138439182
			12:leaf=0.222495601
		6:[f15<-3.11534739] yes=13,no=14,missing=13
			13:leaf=0.0911836922
			14:leaf=-0.0647965968
booster[161]:
0:[f4<0.799907804] yes=1,no=2,missing=1
	1:[f10<1.61421322e-05] yes=3,no=4,missing=3
		3:[f9<0.994166017] yes=7,no=8,missing=7
			7:leaf=-0.0780898854
			8:leaf=0.0206268132
		4:[f10<2.24242394e-05] yes=9,no=10,missing=9
			9:leaf=0.113934867
			10:leaf=-0.00336076808
	2:[f6<157.0625] yes=5,no=6,missing=5
		5:[f6<116.21875] yes=11,no=12,missing=11
			11:leaf=-0.00629480183
			12:leaf=0.0186244082
		6:[f10<0.000552248559] yes=13,no=14,missing=13
			13:leaf=-0.0868794844
			14:leaf=-0.00909542479
booster[162]:
0:[f19<0.590347886] yes=1,no=2,missing=1
	1:[f15<-2.98068857] yes=3,no=4,missing=3
		3:[f2<761.143982] yes=7,no=8,missing=7
			7:leaf=0.12052007
			8:leaf=-0.0200094786
		4:[f9<0.995972514] yes=9,no=10,missing=9
			9:leaf=-0.0430615209
			10:leaf=0.0389165431
	2:[f19<0.592578113] yes=5,no=6,missing=5
		5:[f6<111.84375] yes=11,no=12,missing=11
			11:leaf=-0.0543510914
			12:leaf=0.263036042
		6:[f3<164.806763] yes=13,no=14,missing=13
			13:leaf=0.00167360588
			14:leaf=-0.0345548354
booster[163]:
0:[f5<0.419555634] yes=1,no=2,missing=1
	1:[f13<292.625] yes=3,no=4,missing=3
		3:[f4<0.779048145] yes=7,no=8,missing=7
			7:leaf=-0.0367369317
			8:leaf=0.0988401622
		4:[f12<1.45906568e-11] yes=9,no=10,missing=9
			9:leaf=0.0858729556
			10:leaf=-0.0600334704
	2:[f6<66.59375] yes=5,no=6,missing=5
		5:[f10<0.0580505654] yes=11,no=12,missing=11
			11:leaf=-0.034014985
			12:leaf=0.0655969456
		6:[f10<0.0111774299] yes=13,no=14,missing=13
			13:leaf=0.00532846106
			14:leaf=-0.0148734553
booster[164]:
0:[f14<0.17244339] yes=1,no=2,missing=1
	1:[f8<0.916931152] yes=3,no=4,missing=3
		3:[f14<0.171321869] yes=7,no=8,missing=7
			7:leaf=0.00218853983
			8:leaf=0.282518387
		4:[f7<377.875] yes=9,no=10,missing=9
			9:leaf=0.128149062
			10:leaf=-0.000337527745
	2:[f0<64.4864807] yes=5,no=6,missing=5
		5:[f17<0.504586458] yes=11,no=12,missing=11
			11:leaf=-0.00307524274
			12:leaf=-0.0666267425
		6:[f4<0.641283035] yes=13,no=14,missing=13
			13:leaf=-0.0165413376
			14:leaf=0.00780270714
booster[165]:
0:[f18<0.469249576] yes=1,no=2,missing=1
	1:[f14<0.441794395] yes=3,no=4,missing=3
		3:[f17<0.510595441] yes=7,no=8,missing=7
			7:leaf=0.0344451629
			8:leaf=-0.00414861366
		4:[f14<0.443723679] yes=9,no=10,missing=9
			9:leaf=-0.118013822
			10:leaf=-0.00234864396
	2:[f2<825.630737] yes=5,no=6,missing=5
		5:[f16<2.92095733] yes=11,no=12,missing=11
			11:leaf=-0.00795786362
			12:leaf=-0.0570247769
		6:[f14<0.312011719] yes=13,no=14,missing=13
			13:leaf=0.0545977317
			14:leaf=-0.0500280373
booster[166]:
0:[f6<136.6875] yes=1,no=2,missing=1
	1:[f13<490.625] yes=3,no=4,missing=3
		3:[f5<0.920750737] yes=7,no=8,missing=7
			7:leaf=-0.000373584568
			8:leaf=0.0516072027
		4:[f0<75.312767] yes=9,no=10,missing=9
			9:leaf=-0.00663518487
			10:leaf=0.0675707832
	2:[f4<0.871393085] yes=5,no=6,missing=5
		5:[f15<-3.12380075] yes=11,no=12,missing=11
			11:leaf=0.0600967892
			12:leaf=-0.019354051
		6:[f6<149.6875] yes=13,no=14,missing=13
			13:leaf=0.057234019
			14:leaf=-0.0543123893
booster[167]:
0:[f18<0.4568367] yes=1,no=2,missing=1
	1:[f8<-1.8079834] yes=3,no=4,missing=3
		3:[f19<0.873345017] yes=7,no=8,missing=7
			7:leaf=0.00353363203
			8:leaf=0.177420631
		4:[f14<0.391144753] yes=9,no=10,missing=9
			9:leaf=0.0126708988
			10:leaf=-0.00310777826
	2:[f4<0.898615718] yes=5,no=6,missing=5
		5:[f6<134.0625] yes=11,no=12,missing=11
			11:leaf=-0.00799873192
			12:leaf=-0.0448215194
		6:[f10<0.00474188011] yes=13,no=14,missing=13
			13:leaf=0.0769075975
			14:leaf=-0.021425223
booster[168]:
0:[f11<0.00172659161] yes=1,no=2,missing=1
	1:[f10<5.80268388e-05] yes=3,no=4,missing=3
		3:[f6<149.5625] yes=7,no=8,missing=7
			7:leaf=0.0741192326
			8:leaf=-0.077252768
		4:[f12<3.28515307e-05] yes=9,no=10,missing=9
			9:leaf=-0.0445770361
			10:leaf=-0.00589126302
	2:[f9<0.996760488] yes=5,no=6,missing=5
		5:[f9<0.996664524] yes=11,no=12,missing=11
			11:leaf=0.000662780076
			12:leaf=-0.0728538036
		6:[f4<0.690104127] yes=13,no=14,missing=13
			13:leaf=-0.0251381639
			14:leaf=0.058418531
booster[169]:
0:[f17<0.545655012] yes=1,no=2,missing=1
	1:[f18<0.4568367] yes=3,no=4,missing=3
		3:[f14<0.308486938] yes=7,no=8,missing=7
			7:leaf=0.0317988954
			8:leaf=-2.73517689e-05
		4:[f17<0.490347683] yes=9,no=10,missing=9
			9:leaf=0.00427319715
			10:leaf=-0.0276287105
	2:[f17<0.545775652] yes=5,no=6,missing=5
		5:[f15<-2.90214276] yes=11,no=12,missing=11
			11:leaf=0.00653060758
			12:leaf=-0.169292778
		6:[f12<1.93246721e-12] yes=13,no=14,missing=13
			13:leaf=0.0672040358
			14:leaf=-0.0113125704
booster[170]:
0:[f15<-3.13965082] yes=1,no=2,missing=1
	1:[f2<833.305054] yes=3,no=4,missing=3
		3:[f5<0.842586756] yes=7,no=8,missing=7
			7:leaf=-0.0071162954
			8:leaf=-0.113887027
		4:[f14<0.999694824] yes=9,no=10,missing=9
			9:leaf=-0.0330799334
			10:leaf=0.17390345
	2:[f15<-3.13547373] yes=5,no=6,missing=5
		5:[f9<0.965596497] yes=11,no=12,missing=11
			11:leaf=0.00798329618
			12:leaf=0.129315689
		6:[f5<0.862909675] yes=13,no=14,missing=13
			13:leaf=-0.00285216817
			14:leaf=0.0099704098
booster[171]:
0:[f2<1605.97778] yes=1,no=2,missing=1
	1:[f13<518.75] yes=3,no=4,missing=3
		3:[f7<579.75] yes=7,no=8,missing=7
			7:leaf=0.000503654999
			8:leaf=-0.0314023905
		4:[f5<0.761327505] yes=9,no=10,missing=9
			9:leaf=-0.0036985972
			10:leaf=0.0709992051
	2:[f17<0.549869418] yes=5,no=6,missing=5
		5:[f8<-1.05102539] yes=11,no=12,missing=11
			11:leaf=0.0355336107
			12:leaf=-0.0612737052
		6:[f2<1734.28198] yes=13,no=14,missing=13
			13:leaf=-0.0300614387
			14:leaf=0.159646794
booster[172]:
0:[f11<0.00790416356] yes=1,no=2,missing=1
	1:[f11<0.00741773658] yes=3,no=4,missing=3
		3:[f10<8.82863897e-05] yes=7,no=8,missing=7
			7:leaf=0.0315194204
			8:leaf=-0.0119090974
		4:[f7<430.375] yes=9,no=10,missing=9
			9:leaf=-0.0719652995
			10:leaf=0.117756881
	2:[f9<0.979397058] yes=5,no=6,missing=5
		5:[f11<0.0259335563] yes=11,no=12,missing=11
			11:leaf=-0.0153902424
			12:leaf=0.00628553284
		6:[f1<-3.04144001] yes=13,no=14,missing=13
			13:leaf=-0.0215517692
			14:leaf=0.0253578126
booster[173]:
0:[f16<3.73517179] yes=1,no=2,missing=1
	1:[f17<0.550237894] yes=3,no=4,missing=3
		3:[f18<0.4568367] yes=7,no=8,missing=7
			7:leaf=0.00530568324
			8:leaf=-0.0106708221
		4:[f0<142.829056] yes=9,no=10,missing=9
			9:leaf=-0.033040911
			10:leaf=-0.00200680038
	2:[f8<-2.14135742] yes=5,no=6,missing=5
		5:leaf=0.0811152235
		6:[f1<4.05459404] yes=11,no=12,missing=11
			11:leaf=-0.0571594834
			12:leaf=0.046193745
booster[174]:
0:[f4<0.381723404] yes=1,no=2,missing=1
	1:[f10<0.000494192471] yes=3,no=4,missing=3
		3:[f3<29.1025238] yes=7,no=8,missing=7
			7:leaf=-0.0717574283
			8:leaf=0.068013154
		4:[f6<226.4375] yes=9,no=10,missing=9
			9:leaf=-0.0787149668
			10:leaf=0.0896355435
	2:[f14<1.38118744] yes=5,no=6,missing=5
		5:[f17<0.419378132] yes=11,no=12,missing=11
			11:leaf=0.0567664392
			12:leaf=0.000709244923
		6:[f13<270.375] yes=13,no=14,missing=13
			13:leaf=-0.0385128073
			14:leaf=0.000624508655
booster[175]:
0:[f5<0.357280314] yes=1,no=2,missing=1
	1:[f1<4.02479696] yes=3,no=4,missing=3
		3:[f12<5.96220827e-13] yes=7,no=8,missing=7
			7:leaf=0.103346445
			8:leaf=-0.0749394149
		4:[f18<0.42373544] yes=9,no=10,missing=9
			9:leaf=0.215449885
			10:leaf=-0.0362737998
	2:[f11<0.000205955352] yes=5,no=6,missing=5
		5:[f9<0.984346986] yes=11,no=12,missing=11
			11:leaf=-0.0850852281
			12:leaf=-0.00271577598
		6:[f16<3.22204828] yes=13,no=14,missing=13
			13:leaf=0.00293730712
			14:leaf=-0.00926756952
booster[176]:
0:[f6<136.6875] yes=1,no=2,missing=1
	1:[f6<119.59375] yes=3,no=4,missing=3
		3:[f10<0.000280038221] yes=7,no=8,missing=7
			7:leaf=-0.0187354479
			8:leaf=0.0046140519
		4:[f12<3.65804997e-10] yes=9,no=10,missing=9
			9:leaf=0.0412583053
			10:leaf=0.00186248962
	2:[f12<7.71657477e-13] yes=5,no=6,missing=5
		5:[f6<148.0625] yes=11,no=12,missing=11
			11:leaf=0.166716442
			12:leaf=-0.0108054234
		6:[f3<27.5964756] yes=13,no=14,missing=13
			13:leaf=-0.0397152826
			14:leaf=-0.00479892502
booster[177]:
0:[f9<0.808444619] yes=1,no=2,missing=1
	1:[f10<0.182137206] yes=3,no=4,missing=3
		3:[f5<0.707919836] yes=7,no=8,missing=7
			7:leaf=-0.0104559241
			8:leaf=-0.0705946386
		4:[f14<0.396835327] yes=9,no=10,missing=9
			9:leaf=0.251200676
			10:leaf=-0.0122654922
	2:[f17<0.859135747] yes=5,no=6,missing=5
		5:[f15<-3.13965082] yes=11,no=12,missing=11
			11:leaf=-0.055718869
			12:leaf=0.0010910834
		6:[f13<230.8125] yes=13,no=14,missing=13
			13:leaf=-0.0354777128
			14:leaf=-0.101085149
booster[178]:
0:[f3<274.140686] yes=1,no=2,missing=1
	1:[f0<41.7423935] yes=3,no=4,missing=3
		3:[f9<0.993032515] yes=7,no=8,missing=7
			7:leaf=-0.0140381176
			8:leaf=0.0358255878
		4:[f11<0.0124467071] yes=9,no=10,missing=9
			9:leaf=-0.00546164578
			10:leaf=0.0102344276
	2:[f12<5.92110996e-12] yes=5,no=6,missing=5
		5:leaf=0.131519973
		6:[f6<144.8125] yes=11,no=12,missing=11
			11:leaf=-0.0944286883
			12:leaf=0.00106452755
booster[179]:
0:[f8<0.00319504738] yes=1,no=2,missing=1
	1:[f8<-0.64251709] yes=3,no=4,missing=3
		3:[f10<6.81255769e-05] yes=7,no=8,missing=7
			7:leaf=0.0645947903
			8:leaf=0.000788232312
		4:[f10<0.000118652533] yes=9,no=10,missing=9
			9:leaf=-0.0383960158
			10:leaf=-0.00301200338
	2:[f14<0.149078369] yes=5,no=6,missing=5
		5:[f10<0.000238951179] yes=11,no=12,missing=11
			11:leaf=0.0898454115
			12:leaf=0.0132333403
		6:[f18<0.414507091] yes=13,no=14,missing=13
			13:leaf=0.0117373457
			14:leaf=-0.00989027973
booster[180]:
0:[f1<5.17086697] yes=1,no=2,missing=1
	1:[f1<4.69161797] yes=3,no=4,missing=3
		3:[f9<0.851391792] yes=7,no=8,missing=7
			7:leaf=-0.0183802154
			8:leaf=0.00139493868
		4:[f9<0.99197036] yes=9,no=10,missing=9
			9:leaf=-0.0146152927
			10:leaf=-0.108075194
	2:[f12<3.85143917e-09] yes=5,no=6,missing=5
		5:[f7<480] yes=11,no=12,missing=11
			11:leaf=0.301157326
			12:leaf=0.0258134957
		6:[f5<0.725675941] yes=13,no=14,missing=13
			13:leaf=-0.0548910797
			14:leaf=0.0835954472
booster[181]:
0:[f17<0.514406919] yes=1,no=2,missing=1
	1:[f16<3.14903069] yes=3,no=4,missing=3
		3:[f12<3.23048845e-11] yes=7,no=8,missing=7
			7:leaf=0.0718162581
			8:leaf=0.00572910486
		4:[f18<0.437120497] yes=9,no=10,missing=9
			9:leaf=-0.00136643928
			10:leaf=-0.0379553139
	2:[f0<64.2255859] yes=5,no=6,missing=5
		5:[f14<0.182556152] yes=11,no=12,missing=11
			11:leaf=-0.00204405235
			12:leaf=-0.0844585449
		6:[f15<-3.00264597] yes=13,no=14,missing=13
			13:leaf=0.0274000652
			14:leaf=-0.00850479677
booster[182]:
0:[f6<136.6875] yes=1,no=2,missing=1
	1:[f13<490.625] yes=3,no=4,missing=3
		3:[f13<480.875] yes=7,no=8,missing=7
			7:leaf=0.00138019316
			8:leaf=-0.0669509917
		4:[f5<0.610913992] yes=9,no=10,missing=9
			9:leaf=-0.0277541671
			10:leaf=0.0472442321
	2:[f4<0.871393085] yes=5,no=6,missing=5
		5:[f15<-3.12009096] yes=11,no=12,missing=11
			11:leaf=0.043896351
			12:leaf=-0.0180147048
		6:[f10<0.00061274902] yes=13,no=14,missing=13
			13:leaf=0.0674325451
			14:leaf=-0.021332588
booster[183]:
0:[f2<1614.62146] yes=1,no=2,missing=1
	1:[f17<0.545655012] yes=3,no=4,missing=3
		3:[f13<229.1875] yes=7,no=8,missing=7
			7:leaf=-0.0155241881
			8:leaf=0.00429078564
		4:[f17<0.545775652] yes=9,no=10,missing=9
			9:leaf=-0.146926105
			10:leaf=-0.00792382564
	2:[f4<0.878101826] yes=5,no=6,missing=5
		5:[f17<0.549869418] yes=11,no=12,missing=11
			11:leaf=-0.0609432757
			12:leaf=0.0504129939
		6:[f19<0.828437865] yes=13,no=14,missing=13
			13:leaf=0.15752922
			14:leaf=-0.0269338079
booster[184]:
0:[f14<0.841190338] yes=1,no=2,missing=1
	1:[f17<0.460061252] yes=3,no=4,missing=3
		3:[f19<0.990325093] yes=7,no=8,missing=7
			7:leaf=0.108854644
			8:leaf=-0.0174332187
		4:[f18<0.420350015] yes=9,no=10,missing=9
			9:leaf=0.0122217955
			10:leaf=-0.00457820995
	2:[f18<0.414313018] yes=5,no=6,missing=5
		5:[f4<0.874194503] yes=11,no=12,missing=11
			11:leaf=-0.00699789217
			12:leaf=0.0256512146
		6:[f2<895.954651] yes=13,no=14,missing=13
			13:leaf=-0.0442039073
			14:leaf=0.00674753264
booster[185]:
0:[f5<0.419555634] yes=1,no=2,missing=1
	1:[f7<269.125] yes=3,no=4,missing=3
		3:leaf=0.198819444
		4:[f19<0.907666922] yes=7,no=8,missing=7
			7:leaf=-0.0112936804
			8:leaf=-0.0739035234
	2:[f9<0.998930395] yes=5,no=6,missing=5
		5:[f11<0.0010218278] yes=9,no=10,missing=9
			9:leaf=-0.046757374
			10:leaf=0.00120253244
		6:[f15<-2.99754071] yes=11,no=12,missing=11
			11:leaf=-0.00252897176
			12:leaf=0.0857175216
booster[186]:
0:[f3<156.857666] yes=1,no=2,missing=1
	1:[f3<103.841827] yes=3,no=4,missing=3
		3:[f3<102.26149] yes=7,no=8,missing=7
			7:leaf=2.81960565e-05
			8:leaf=-0.0745178014
		4:[f10<4.25737053e-05] yes=9,no=10,missing=9
			9:leaf=0.115329646
			10:leaf=0.0106375413
	2:[f6<86.28125] yes=5,no=6,missing=5
		5:[f13<244.1875] yes=11,no=12,missing=11
			11:leaf=0.244807109
			12:leaf=0.0410566516
		6:[f12<6.45736309e-09] yes=13,no=14,missing=13
			13:leaf=0.019603936
			14:leaf=-0.0473128706
booster[187]:
0:[f4<0.381723404] yes=1,no=2,missing=1
	1:[f6<199.9375] yes=3,no=4,missing=3
		3:[f6<124.34375] yes=7,no=8,missing=7
			7:leaf=0.0335283577
			8:leaf=-0.0696361288
		4:[f9<0.889570117] yes=9,no=10,missing=9
			9:leaf=-0.0560766757
			10:leaf=0.115659595
	2:[f14<1.03954315] yes=5,no=6,missing=5
		5:[f17<0.445775509] yes=11,no=12,missing=11
			11:leaf=0.0636774376
			12:leaf=0.001269678
		6:[f4<0.874194503] yes=13,no=14,missing=13
			13:leaf=-0.013834131
			14:leaf=0.0235376786
booster[188]:
0:[f17<0.859135747] yes=1,no=2,missing=1
	1:[f9<0.808444619] yes=3,no=4,missing=3
		3:[f10<0.182137206] yes=7,no=8,missing=7
			7:leaf=-0.0558111742
			8:leaf=0.107957244
		4:[f3<7.82459641] yes=9,no=10,missing=9
			9:leaf=-0.0263397004
			10:leaf=0.00135052053
	2:[f13<203.5625] yes=5,no=6,missing=5
		5:leaf=0.0458716787
		6:[f17<1.11370337] yes=11,no=12,missing=11
			11:leaf=-0.100206688
			12:leaf=-0.0181760266
booster[189]:
0:[f15<3.13487864] yes=1,no=2,missing=1
	1:[f15<3.13365793] yes=3,no=4,missing=3
		3:[f15<3.13278818] yes=7,no=8,missing=7
			7:leaf=-0.000468085287
			8:leaf=0.105532043
		4:[f11<0.0203891862] yes=9,no=10,missing=9
			9:leaf=0.0492917113
			10:leaf=-0.0918184593
	2:[f9<0.961846948] yes=5,no=6,missing=5
		5:[f18<0.411677718] yes=11,no=12,missing=11
			11:leaf=-0.0713544264
			12:leaf=0.0237131622
		6:[f15<3.14066172] yes=13,no=14,missing=13
			13:leaf=0.111240976
			14:leaf=-0.0351399295
booster[190]:
0:[f19<0.590347886] yes=1,no=2,missing=1
	1:[f15<-2.98068857] yes=3,no=4,missing=3
		3:[f10<6.784992e-05] yes=7,no=8,missing=7
			7:leaf=0.201426223
			8:leaf=0.00374743226
		4:[f9<0.995972514] yes=9,no=10,missing=9
			9:leaf=-0.0391727686
			10:leaf=0.0350856632
	2:[f19<0.593059182] yes=5,no=6,missing=5
		5:[f15<2.9830842] yes=11,no=12,missing=11
			11:leaf=0.0369658619
			12:leaf=0.347055912
		6:[f3<164.806763] yes=13,no=14,missing=13
			13:leaf=0.0014169917
			14:leaf=-0.0310025159
booster[191]:
0:[f4<0.929111123] yes=1,no=2,missing=1
	1:[f4<0.895021319] yes=3,no=4,missing=3
		3:[f5<0.777557254] yes=7,no=8,missing=7
			7:leaf=-0.00664127851
			8:leaf=0.00410106499
		4:[f6<113.03125] yes=9,no=10,missing=9
			9:leaf=-0.0180894416
			10:leaf=0.0423593856
	2:[f3<46.6975174] yes=5,no=6,missing=5
		5:[f3<33.5852051] yes=11,no=12,missing=11
			11:leaf=0.022502074
			12:leaf=-0.0932365879
		6:[f12<1.35884437e-09] yes=13,no=14,missing=13
			13:leaf=0.158053502
			14:leaf=-0.0173362959
booster[192]:
0:[f14<2.23182678] yes=1,no=2,missing=1
	1:[f17<0.490387499] yes=3,no=4,missing=3
		3:[f14<0.507614136] yes=7,no=8,missing=7
			7:leaf=0.0281029642
			8:leaf=-0.000956013915
		4:[f0<45.2706528] yes=9,no=10,missing=9
			9:leaf=-0.0373542011
			10:leaf=-0.000251611433
	2:[f19<0.949423611] yes=5,no=6,missing=5
		5:[f5<0.909813523] yes=11,no=12,missing=11
			11:leaf=-0.0631180331
			12:leaf=0.0893509164
		6:[f2<1396.99072] yes=13,no=14,missing=13
			13:leaf=-0.034964975
			14:leaf=0.135345802
booster[193]:
0:[f6<136.6875] yes=1,no=2,missing=1
	1:[f13<540.75] yes=3,no=4,missing=3
		3:[f5<0.920750737] yes=7,no=8,missing=7
			7:leaf=7.95063097e-05
			8:leaf=0.0397549495
		4:[f5<0.777594447] yes=9,no=10,missing=9
			9:leaf=0.0011590221
			10:leaf=0.0913503692
	2:[f10<0.000399751298] yes=5,no=6,missing=5
		5:[f7<352.875] yes=11,no=12,missing=11
			11:leaf=0.0935083106
			12:leaf=-0.00335344858
		6:[f11<0.0508478843] yes=13,no=14,missing=13
			13:leaf=-0.0272188578
			14:leaf=0.025839746
booster[194]:
0:[f11<0.000691010617] yes=1,no=2,missing=1
	1:[f9<0.999218822] yes=3,no=4,missing=3
		3:[f16<3.07301521] yes=7,no=8,missing=7
			7:leaf=-0.00619413331
			8:leaf=-0.0739291981
		4:[f3<112.289558] yes=9,no=10,missing=9
			9:leaf=0.0681854859
			10:leaf=-0.0685813501
	2:[f18<0.460736632] yes=5,no=6,missing=5
		5:[f1<-3.95569992] yes=11,no=12,missing=11
			11:leaf=0.0360483564
			12:leaf=0.00097948953
		6:[f13<205.4375] yes=13,no=14,missing=13
			13:leaf=0.180512607
			14:leaf=-0.011847523
booster[195]:
0:[f5<0.345095754] yes=1,no=2,missing=1
	1:[f1<4.02479696] yes=3,no=4,missing=3
		3:[f10<5.37569285e-05] yes=7,no=8,missing=7
			7:leaf=0.0633453876
			8:leaf=-0.0838496983
		4:[f18<0.414802849] yes=9,no=10,missing=9
			9:leaf=0.206887871
			10:leaf=-0.0280226059
	2:[f15<-3.13965082] yes=5,no=6,missing=5
		5:[f12<2.15081786e-10] yes=11,no=12,missing=11
			11:leaf=0.12530978
			12:leaf=-0.0675544292
		6:[f15<-3.13547373] yes=13,no=14,missing=13
			13:leaf=0.0597128831
			14:leaf=1.21445037e-05
booster[196]:
0:[f8<-0.00725746155] yes=1,no=2,missing=1
	1:[f5<0.661637306] yes=3,no=4,missing=3
		3:[f13<386.125] yes=7,no=8,missing=7
			7:leaf=-0.00597059913
			8:leaf=-0.0567872003
		4:[f13<371.125] yes=9,no=10,missing=9
			9:leaf=-0.00566872256
			10:leaf=0.0244415402
	2:[f4<0.661540985] yes=5,no=6,missing=5
		5:[f6<41.578125] yes=11,no=12,missing=11
			11:leaf=0.190988973
			12:leaf=-0.0155860605
		6:[f12<3.65853486e-10] yes=13,no=14,missing=13
			13:leaf=0.0340416767
			14:leaf=0.004106618
booster[197]:
0:[f11<0.00790416356] yes=1,no=2,missing=1
	1:[f11<0.00741773658] yes=3,no=4,missing=3
		3:[f10<8.82863897e-05] yes=7,no=8,missing=7
			7:leaf=0.026601959
			8:leaf=-0.0102136843
		4:[f6<125.90625] yes=9,no=10,missing=9
			9:leaf=-0.0711968616
			10:leaf=0.0783668086
	2:[f9<0.979397058] yes=5,no=6,missing=5
		5:[f11<0.0259335563] yes=11,no=12,missing=11
			11:leaf=-0.013785339
			12:leaf=0.00535446545
		6:[f1<-3.04144001] yes=13,no=14,missing=13
			13:leaf=-0.0194775444
			14:leaf=0.0223177802
booster[198]:
0:[f10<2.6371521e-05] yes=1,no=2,missing=1
	1:[f7<439.125] yes=3,no=4,missing=3
		3:[f6<111.15625] yes=7,no=8,missing=7
			7:leaf=-0.0321180895
			8:leaf=0.0716944262
		4:[f8<-0.645202637] yes=9,no=10,missing=9
			9:leaf=0.0886227712
			10:leaf=-0.0666177496
	2:[f10<3.07382506e-05] yes=5,no=6,missing=5
		5:[f11<0.0757273287] yes=11,no=12,missing=11
			11:leaf=0.120065026
			12:leaf=-0.0900136307
		6:[f10<3.08674753e-05] yes=13,no=14,missing=13
			13:leaf=-0.104954086
			14:leaf=0.00102257694
booster[199]:
0:[f16<3.22204828] yes=1,no=2,missing=1
	1:[f17<0.468553603] yes=3,no=4,missing=3
		3:[f0<16.6041698] yes=7,no=8,missing=7
			7:leaf=0.115468062
			8:leaf=0.0141751571
		4:[f0<19.0336151] yes=9,no=10,missing=9
			9:leaf=-0.0348907635
			10:leaf=8.66412884e-05
	2:[f16<3.2432971] yes=5,no=6,missing=5
		5:[f0<108.743973] yes=11,no=12,missing=11
			11:leaf=-0.0565737151
			12:leaf=0.0437685661
		6:[f6<98.46875] yes=13,no=14,missing=13
			13:leaf=-0.031216491
			14:leaf=0.00746492669
booster[200]:
0:[f17<0.550237894] yes=1,no=2,missing=1
	1:[f14<0.439277649] yes=3,no=4,missing=3
		3:[f18<0.42031759] yes=7,no=8,missing=7
			7:leaf=0.0587901585
			8:leaf=0.00412763376
		4:[f14<0.446159363] yes=9,no=10,missing=9
