booster[0]:
0:[f0<106.71875] yes=1,no=2,missing=1
	1:[f7<0.993856549] yes=3,no=4,missing=3
		3:[f0<92.28125] yes=7,no=8,missing=7
			7:leaf=-0.198936045
			8:leaf=-0.193522722
		4:[f0<99.21875] yes=9,no=10,missing=9
			9:leaf=-0.185753569
			10:leaf=-0.0227795616
	2:[f2<0.984109998] yes=5,no=6,missing=5
		5:[f2<0.964651108] yes=11,no=12,missing=11
			11:leaf=-0.189414591
			12:leaf=-0.143551782
		6:[f7<0.982708812] yes=13,no=14,missing=13
			13:leaf=-0.0864140913
			14:leaf=0.0969077721
booster[1]:
0:[f0<108.71875] yes=1,no=2,missing=1
	1:[f0<92.28125] yes=3,no=4,missing=3
		3:[f7<0.999224544] yes=7,no=8,missing=7
			7:leaf=-0.180770829
			8:leaf=0.0815027952
		4:[f2<0.994168878] yes=9,no=10,missing=9
			9:leaf=-0.175597355
			10:leaf=-0.0603670739
	2:[f2<0.984109998] yes=5,no=6,missing=5
		5:[f7<0.978113055] yes=11,no=12,missing=11
			11:leaf=-0.171364933
			12:leaf=-0.120734252
		6:[f0<141.5625] yes=13,no=14,missing=13
			13:leaf=0.00998983439
			14:leaf=-0.149711922
booster[2]:
0:[f0<106.71875] yes=1,no=2,missing=1
	1:[f7<0.99383986] yes=3,no=4,missing=3
		3:[f0<91.59375] yes=7,no=8,missing=7
			7:leaf=-0.167324826
			8:leaf=-0.162663877
		4:[f0<99.21875] yes=9,no=10,missing=9
			9:leaf=-0.154693484
			10:leaf=-0.0047664009
	2:[f2<0.974254608] yes=5,no=6,missing=5
		5:[f7<0.978113055] yes=11,no=12,missing=11
			11:leaf=-0.161114052
			12:leaf=-0.124224976
		6:[f7<0.965751529] yes=13,no=14,missing=13
			13:leaf=-0.103320576
			14:leaf=0.0292849187
booster[3]:
0:[f0<106.71875] yes=1,no=2,missing=1
	1:[f7<0.993279934] yes=3,no=4,missing=3
		3:[f0<92.28125] yes=7,no=8,missing=7
			7:leaf=-0.156741306
			8:leaf=-0.151943475
		4:[f0<88.96875] yes=9,no=10,missing=9
			9:leaf=-0.148333579
			10:leaf=-0.0916086286
	2:[f2<0.992707729] yes=5,no=6,missing=5
		5:[f2<0.970971644] yes=11,no=12,missing=11
			11:leaf=-0.147183105
			12:leaf=-0.0900423303
		6:[f0<141.5625] yes=13,no=14,missing=13
			13:leaf=0.0694358721
			14:leaf=-0.114728086
booster[4]:
0:[f0<108.71875] yes=1,no=2,missing=1
	1:[f0<92.28125] yes=3,no=4,missing=3
		3:[f7<0.999224544] yes=7,no=8,missing=7
			7:leaf=-0.148152098
			8:leaf=0.0985251814
		4:[f2<0.98537004] yes=9,no=10,missing=9
			9:leaf=-0.145053476
			10:leaf=-0.0878623351
	2:[f2<0.992707729] yes=5,no=6,missing=5
		5:[f2<0.971996546] yes=11,no=12,missing=11
			11:leaf=-0.137745589
			12:leaf=-0.0811092481
		6:[f0<141.5625] yes=13,no=14,missing=13
			13:leaf=0.0763827711
			14:leaf=-0.10540849
booster[5]:
0:[f0<106.71875] yes=1,no=2,missing=1
	1:[f7<0.993875265] yes=3,no=4,missing=3
		3:[f2<0.987267435] yes=7,no=8,missing=7
			7:leaf=-0.141194195
			8:leaf=-0.133730412
		4:[f0<99.21875] yes=9,no=10,missing=9
			9:leaf=-0.127758503
			10:leaf=0.0170608349
	2:[f2<0.974254608] yes=5,no=6,missing=5
		5:[f7<0.976668715] yes=11,no=12,missing=11
			11:leaf=-0.135075808
			12:leaf=-0.0958302245
		6:[f7<0.957750082] yes=13,no=14,missing=13
			13:leaf=-0.0887610242
			14:leaf=0.027210135
booster[6]:
0:[f0<106.71875] yes=1,no=2,missing=1
	1:[f7<0.993279934] yes=3,no=4,missing=3
		3:[f0<92.28125] yes=7,no=8,missing=7
			7:leaf=-0.135731295
			8:leaf=-0.130068958
		4:[f2<0.985103369] yes=9,no=10,missing=9
			9:leaf=-0.123440079
			10:leaf=-0.0421794094
	2:[f2<0.974254608] yes=5,no=6,missing=5
		5:[f7<0.981640697] yes=11,no=12,missing=11
			11:leaf=-0.128217623
			12:leaf=-0.0844637081
		6:[f7<0.977213383] yes=13,no=14,missing=13
			13:leaf=-0.071629487
			14:leaf=0.048479002
booster[7]:
0:[f0<106.59375] yes=1,no=2,missing=1
	1:[f7<0.993875265] yes=3,no=4,missing=3
		3:[f0<91.59375] yes=7,no=8,missing=7
			7:leaf=-0.130942255
			8:leaf=-0.125095084
		4:[f0<99.21875] yes=9,no=10,missing=9
			9:leaf=-0.116261616
			10:leaf=0.0382703729
	2:[f2<0.984186769] yes=5,no=6,missing=5
		5:[f2<0.953364134] yes=11,no=12,missing=11
			11:leaf=-0.123836517
			12:leaf=-0.0847242996
		6:[f0<144.5625] yes=13,no=14,missing=13
			13:leaf=0.0153302643
			14:leaf=-0.118166924
booster[8]:
0:[f0<108.71875] yes=1,no=2,missing=1
	1:[f0<92.28125] yes=3,no=4,missing=3
		3:[f7<0.998859584] yes=7,no=8,missing=7
			7:leaf=-0.126698941
			8:leaf=0.0113752922
		4:[f2<0.996998787] yes=9,no=10,missing=9
			9:leaf=-0.119261764
			10:leaf=0.155391753
	2:[f2<0.992707729] yes=5,no=6,missing=5
		5:[f7<0.97847271] yes=11,no=12,missing=11
			11:leaf=-0.112461329
			12:leaf=-0.0464678332
		6:[f0<141.5625] yes=13,no=14,missing=13
			13:leaf=0.0734407976
			14:leaf=-0.0857225433
booster[9]:
0:[f0<106.59375] yes=1,no=2,missing=1
	1:[f7<0.993243814] yes=3,no=4,missing=3
		3:[f0<92.28125] yes=7,no=8,missing=7
			7:leaf=-0.123372674
			8:leaf=-0.116581798
		4:[f0<89.15625] yes=9,no=10,missing=9
			9:leaf=-0.111939982
			10:leaf=-0.0418037735
	2:[f2<0.971996546] yes=5,no=6,missing=5
		5:[f7<0.991177201] yes=11,no=12,missing=11
			11:leaf=-0.113041572
			12:leaf=-0.0462522283
		6:[f7<0.9574821] yes=13,no=14,missing=13
			13:leaf=-0.0691596791
			14:leaf=0.0300815757
booster[10]:
0:[f0<106.59375] yes=1,no=2,missing=1
	1:[f7<0.993875265] yes=3,no=4,missing=3
		3:[f0<91.59375] yes=7,no=8,missing=7
			7:leaf=-0.120344751
			8:leaf=-0.113118671
		4:[f0<99.21875] yes=9,no=10,missing=9
			9:leaf=-0.102262609
			10:leaf=0.0500409417
	2:[f2<0.970971644] yes=5,no=6,missing=5
		5:[f7<0.991177201] yes=11,no=12,missing=11
			11:leaf=-0.109456614
			12:leaf=-0.0406783372
		6:[f7<0.957750082] yes=13,no=14,missing=13
			13:leaf=-0.0644848794
			14:leaf=0.0246843453
booster[11]:
0:[f0<106.59375] yes=1,no=2,missing=1
	1:[f7<0.993243814] yes=3,no=4,missing=3
		3:[f0<92.28125] yes=7,no=8,missing=7
			7:leaf=-0.117690705
			8:leaf=-0.109717026
		4:[f2<0.984645486] yes=9,no=10,missing=9
			9:leaf=-0.101438299
			10:leaf=-0.00576825254
	2:[f2<0.964651108] yes=5,no=6,missing=5
		5:[f7<0.976668715] yes=11,no=12,missing=11
			11:leaf=-0.110070422
			12:leaf=-0.0727311522
		6:[f7<0.9574821] yes=13,no=14,missing=13
			13:leaf=-0.0645736977
			14:leaf=0.0207206793
booster[12]:
0:[f0<106.59375] yes=1,no=2,missing=1
	1:[f7<0.993243814] yes=3,no=4,missing=3
		3:[f0<92.28125] yes=7,no=8,missing=7
			7:leaf=-0.115353696
			8:leaf=-0.106699727
		4:[f0<89.15625] yes=9,no=10,missing=9
			9:leaf=-0.101592265
			10:leaf=-0.0262037758
	2:[f2<0.959451199] yes=5,no=6,missing=5
		5:[f7<0.983075678] yes=11,no=12,missing=11
			11:leaf=-0.107362784
			12:leaf=-0.0684679076
		6:[f7<0.958166599] yes=13,no=14,missing=13
			13:leaf=-0.0633915141
			14:leaf=0.0205869228
booster[13]:
0:[f0<106.59375] yes=1,no=2,missing=1
	1:[f0<91.59375] yes=3,no=4,missing=3
		3:[f7<0.992625237] yes=7,no=8,missing=7
			7:leaf=-0.113349594
			8:leaf=-0.0972503051
		4:[f2<0.994187236] yes=9,no=10,missing=9
			9:leaf=-0.104990199
			10:leaf=0.0825852975
	2:[f2<0.953364134] yes=5,no=6,missing=5
		5:[f7<0.998952627] yes=11,no=12,missing=11
			11:leaf=-0.102208115
			12:leaf=0.324117631
		6:[f7<0.97721076] yes=13,no=14,missing=13
			13:leaf=-0.054979559
			14:leaf=0.038628608
booster[14]:
0:[f0<106.59375] yes=1,no=2,missing=1
	1:[f0<91.59375] yes=3,no=4,missing=3
		3:[f7<0.992625237] yes=7,no=8,missing=7
			7:leaf=-0.111494958
			8:leaf=-0.0941668823
		4:[f2<0.985361814] yes=9,no=10,missing=9
			9:leaf=-0.105636753
			10:leaf=-0.012069704
	2:[f2<0.974254608] yes=5,no=6,missing=5
		5:[f7<0.976668715] yes=11,no=12,missing=11
			11:leaf=-0.0990437791
			12:leaf=-0.0491033867
		6:[f0<147.1875] yes=13,no=14,missing=13
			13:leaf=0.00893342961
			14:leaf=-0.106260851
booster[15]:
0:[f0<106.59375] yes=1,no=2,missing=1
	1:[f0<91.59375] yes=3,no=4,missing=3
		3:[f7<0.992625237] yes=7,no=8,missing=7
			7:leaf=-0.109821372
			8:leaf=-0.0911753997
		4:[f2<0.985361814] yes=9,no=10,missing=9
			9:leaf=-0.103331111
			10:leaf=-0.0109603545
	2:[f2<0.953364134] yes=5,no=6,missing=5
		5:[f7<0.976668715] yes=11,no=12,missing=11
			11:leaf=-0.101405047
			12:leaf=-0.0686840415
		6:[f0<147.1875] yes=13,no=14,missing=13
			13:leaf=-0.00795418397
			14:leaf=-0.0996252745
booster[16]:
0:[f0<106.59375] yes=1,no=2,missing=1
	1:[f7<0.993279934] yes=3,no=4,missing=3
		3:[f0<92.28125] yes=7,no=8,missing=7
			7:leaf=-0.108207762
			8:leaf=-0.0963637754
		4:[f0<78] yes=9,no=10,missing=9
			9:leaf=-0.0939384699
			10:leaf=-0.0124420896
	2:[f2<0.953364134] yes=5,no=6,missing=5
		5:[f7<0.976668715] yes=11,no=12,missing=11
			11:leaf=-0.0990023836
			12:leaf=-0.0648683831
		6:[f7<0.97721076] yes=13,no=14,missing=13
			13:leaf=-0.0456963144
			14:leaf=0.0389905535
booster[17]:
0:[f0<106.59375] yes=1,no=2,missing=1
	1:[f0<91.59375] yes=3,no=4,missing=3
		3:[f7<0.992625237] yes=7,no=8,missing=7
			7:leaf=-0.106902316
			8:leaf=-0.0853533968
		4:[f2<0.985361814] yes=9,no=10,missing=9
			9:leaf=-0.0991684198
			10:leaf=-0.00110141421
	2:[f3<0.00091210613] yes=5,no=6,missing=5
		5:[f7<0.983098507] yes=11,no=12,missing=11
			11:leaf=-0.0326144621
			12:leaf=0.0715691894
		6:[f7<0.996217728] yes=13,no=14,missing=13
			13:leaf=-0.0872202441
			14:leaf=0.0310706329
booster[18]:
0:[f0<106.59375] yes=1,no=2,missing=1
	1:[f0<91.59375] yes=3,no=4,missing=3
		3:[f7<0.992625237] yes=7,no=8,missing=7
			7:leaf=-0.105608165
			8:leaf=-0.0824920759
		4:[f2<0.985361814] yes=9,no=10,missing=9
			9:leaf=-0.0971034542
			10:leaf=-0.000992370187
	2:[f2<0.950873673] yes=5,no=6,missing=5
		5:[f7<0.976668715] yes=11,no=12,missing=11
			11:leaf=-0.0952477157
			12:leaf=-0.0603587441
		6:[f0<146.0625] yes=13,no=14,missing=13
			13:leaf=-0.00142546685
			14:leaf=-0.089832142
booster[19]:
0:[f0<104.09375] yes=1,no=2,missing=1
	1:[f7<0.993279934] yes=3,no=4,missing=3
		3:[f0<91.59375] yes=7,no=8,missing=7
			7:leaf=-0.104338422
			8:leaf=-0.0912434086
		4:[f0<78] yes=9,no=10,missing=9
			9:leaf=-0.0863575563
			10:leaf=-0.00232304633
	2:[f2<0.984186769] yes=5,no=6,missing=5
		5:[f2<0.941401839] yes=11,no=12,missing=11
			11:leaf=-0.0901775584
			12:leaf=-0.046712067
		6:[f0<153.4375] yes=13,no=14,missing=13
			13:leaf=0.031822063
			14:leaf=-0.104180552
booster[20]:
0:[f0<104.09375] yes=1,no=2,missing=1
	1:[f7<0.992676735] yes=3,no=4,missing=3
		3:[f0<91.59375] yes=7,no=8,missing=7
			7:leaf=-0.103250243
			8:leaf=-0.0890757143
		4:[f0<75.3125] yes=9,no=10,missing=9
			9:leaf=-0.085912399
			10:leaf=-0.0161354262
	2:[f2<0.984186769] yes=5,no=6,missing=5
		5:[f7<0.993324041] yes=11,no=12,missing=11
			11:leaf=-0.0747450516
			12:leaf=0.0279655699
		6:[f2<0.998049974] yes=13,no=14,missing=13
			13:leaf=-0.00137628929
			14:leaf=0.174761876
booster[21]:
0:[f0<104.09375] yes=1,no=2,missing=1
	1:[f7<0.993279934] yes=3,no=4,missing=3
		3:[f0<92.28125] yes=7,no=8,missing=7
			7:leaf=-0.102028601
			8:leaf=-0.0861658379
		4:[f2<0.984645486] yes=9,no=10,missing=9
			9:leaf=-0.0725979134
			10:leaf=0.0549375489
	2:[f2<0.944162488] yes=5,no=6,missing=5
		5:[f7<0.97671771] yes=11,no=12,missing=11
			11:leaf=-0.0915653929
			12:leaf=-0.0540679656
		6:[f7<0.994838595] yes=13,no=14,missing=13
			13:leaf=-0.0252628904
			14:leaf=0.115451947
booster[22]:
0:[f0<104.09375] yes=1,no=2,missing=1
	1:[f0<91.59375] yes=3,no=4,missing=3
		3:[f7<0.992625237] yes=7,no=8,missing=7
			7:leaf=-0.101119809
			8:leaf=-0.0714160725
		4:[f2<0.994187236] yes=9,no=10,missing=9
			9:leaf=-0.0858362988
			10:leaf=0.131270275
	2:[f2<0.947810054] yes=5,no=6,missing=5
		5:[f7<0.959604502] yes=11,no=12,missing=11
			11:leaf=-0.0910747871
			12:leaf=-0.0581471436
		6:[f9<0.0445986241] yes=13,no=14,missing=13
			13:leaf=0.00494801998
			14:leaf=-0.0664035007
booster[23]:
0:[f0<104.09375] yes=1,no=2,missing=1
	1:[f0<91.59375] yes=3,no=4,missing=3
		3:[f7<0.992625237] yes=7,no=8,missing=7
			7:leaf=-0.100097768
			8:leaf=-0.068535991
		4:[f2<0.985378861] yes=9,no=10,missing=9
			9:leaf=-0.0890601054
			10:leaf=0.0183607098
	2:[f3<0.00091210613] yes=5,no=6,missing=5
		5:[f0<153.4375] yes=11,no=12,missing=11
			11:leaf=0.01356846
			12:leaf=-0.0894635394
		6:[f7<0.977113366] yes=13,no=14,missing=13
			13:leaf=-0.078941606
			14:leaf=-0.0321008526
booster[24]:
0:[f0<103.96875] yes=1,no=2,missing=1
	1:[f7<0.991672277] yes=3,no=4,missing=3
		3:[f0<80.15625] yes=7,no=8,missing=7
			7:leaf=-0.100320436
			8:leaf=-0.0860085189
		4:[f0<80.6875] yes=9,no=10,missing=9
			9:leaf=-0.0776467994
			10:leaf=0.00719200075
	2:[f2<0.941401839] yes=5,no=6,missing=5
		5:[f10<6.84169409e-13] yes=11,no=12,missing=11
			11:leaf=0.158771992
			12:leaf=-0.0801511258
		6:[f2<0.996748924] yes=13,no=14,missing=13
			13:leaf=-0.020939976
			14:leaf=0.100471251
booster[25]:
0:[f0<102.53125] yes=1,no=2,missing=1
	1:[f7<0.991672277] yes=3,no=4,missing=3
		3:[f0<80.15625] yes=7,no=8,missing=7
			7:leaf=-0.0994262546
			8:leaf=-0.0848366842
		4:[f0<80.6875] yes=9,no=10,missing=9
			9:leaf=-0.0751056597
			10:leaf=0.00228664698
	2:[f2<0.941401839] yes=5,no=6,missing=5
		5:[f7<0.972676635] yes=11,no=12,missing=11
			11:leaf=-0.0866920501
			12:leaf=-0.0437546298
		6:[f0<153.5] yes=13,no=14,missing=13
			13:leaf=0.0011311
			14:leaf=-0.0887101665
booster[26]:
0:[f0<102.53125] yes=1,no=2,missing=1
	1:[f7<0.991672277] yes=3,no=4,missing=3
		3:[f0<80.15625] yes=7,no=8,missing=7
			7:leaf=-0.0985383019
			8:leaf=-0.0827982649
		4:[f6<286.75] yes=9,no=10,missing=9
			9:leaf=-0.072432071
			10:leaf=0.00589881418
	2:[f3<0.00091210613] yes=5,no=6,missing=5
		5:[f9<0.0505126044] yes=11,no=12,missing=11
			11:leaf=0.0227463897
			12:leaf=-0.0596249178
		6:[f7<0.959538341] yes=13,no=14,missing=13
			13:leaf=-0.0771744922
			14:leaf=-0.0328977481
booster[27]:
0:[f0<101.59375] yes=1,no=2,missing=1
	1:[f0<80.15625] yes=3,no=4,missing=3
		3:[f7<0.994754672] yes=7,no=8,missing=7
			7:leaf=-0.0973965973
			8:leaf=-0.055693645
		4:[f2<0.985894024] yes=9,no=10,missing=9
			9:leaf=-0.0861009434
			10:leaf=0.0243221615
	2:[f2<0.944162488] yes=5,no=6,missing=5
		5:[f7<0.963045955] yes=11,no=12,missing=11
			11:leaf=-0.083987236
			12:leaf=-0.0442015491
		6:[f9<0.049951151] yes=13,no=14,missing=13
			13:leaf=0.00858510565
			14:leaf=-0.0607330874
booster[28]:
0:[f0<101.59375] yes=1,no=2,missing=1
	1:[f7<0.988746643] yes=3,no=4,missing=3
		3:[f0<80.15625] yes=7,no=8,missing=7
			7:leaf=-0.0968797952
			8:leaf=-0.0807802007
		4:[f0<82.4375] yes=9,no=10,missing=9
			9:leaf=-0.0752347037
			10:leaf=0.0164814163
	2:[f2<0.941401839] yes=5,no=6,missing=5
		5:[f7<0.97671771] yes=11,no=12,missing=11
			11:leaf=-0.0802743956
			12:leaf=-0.0341981687
		6:[f2<0.998049974] yes=13,no=14,missing=13
			13:leaf=-0.0128009962
			14:leaf=0.157813743
booster[29]:
0:[f0<101.59375] yes=1,no=2,missing=1
	1:[f0<80.15625] yes=3,no=4,missing=3
		3:[f7<0.994754672] yes=7,no=8,missing=7
			7:leaf=-0.0955279171
			8:leaf=-0.04876142
		4:[f2<0.985894024] yes=9,no=10,missing=9
			9:leaf=-0.0825599656
			10:leaf=0.0304726791
	2:[f2<0.941401839] yes=5,no=6,missing=5
		5:[f7<0.965187192] yes=11,no=12,missing=11
			11:leaf=-0.080453299
			12:leaf=-0.0383988768
		6:[f7<0.994838595] yes=13,no=14,missing=13
			13:leaf=-0.0142694516
			14:leaf=0.108001806
booster[30]:
0:[f0<101.59375] yes=1,no=2,missing=1
	1:[f7<0.988746643] yes=3,no=4,missing=3
		3:[f0<80.15625] yes=7,no=8,missing=7
			7:leaf=-0.0950424746
			8:leaf=-0.0766842961
		4:[f0<82.4375] yes=9,no=10,missing=9
			9:leaf=-0.0701124668
			10:leaf=0.0227448922
	2:[f2<0.992494106] yes=5,no=6,missing=5
		5:[f7<0.959538341] yes=11,no=12,missing=11
			11:leaf=-0.0578851998
			12:leaf=-0.00666202558
		6:[f9<0.00584451854] yes=13,no=14,missing=13
			13:leaf=0.150509685
			14:leaf=0.0237292107
booster[31]:
0:[f0<92.28125] yes=1,no=2,missing=1
	1:[f7<0.992625237] yes=3,no=4,missing=3
		3:[f0<72.03125] yes=7,no=8,missing=7
			7:leaf=-0.0947723314
			8:leaf=-0.0830104277
		4:[f3<0.118278362] yes=9,no=10,missing=9
			9:leaf=-0.0466381125
			10:leaf=0.333287686
	2:[f2<0.953373075] yes=5,no=6,missing=5
		5:[f7<0.998623013] yes=11,no=12,missing=11
			11:leaf=-0.0666320622
			12:leaf=0.31764701
		6:[f9<0.049951151] yes=13,no=14,missing=13
			13:leaf=0.0154548315
			14:leaf=-0.0546476915
booster[32]:
0:[f0<92.28125] yes=1,no=2,missing=1
	1:[f7<0.992625237] yes=3,no=4,missing=3
		3:[f0<72.03125] yes=7,no=8,missing=7
			7:leaf=-0.0938246548
			8:leaf=-0.0811868012
		4:[f6<286.875] yes=9,no=10,missing=9
			9:leaf=-0.062021967
			10:leaf=0.0377212204
	2:[f2<0.953373075] yes=5,no=6,missing=5
		5:[f7<0.974062562] yes=11,no=12,missing=11
			11:leaf=-0.0735374466
			12:leaf=-0.0291956067
		6:[f0<141.5625] yes=13,no=14,missing=13
			13:leaf=0.0136156818
			14:leaf=-0.0604926348
booster[33]:
0:[f0<92.28125] yes=1,no=2,missing=1
	1:[f7<0.992625237] yes=3,no=4,missing=3
		3:[f0<72.03125] yes=7,no=8,missing=7
			7:leaf=-0.092835024
			8:leaf=-0.0792846084
		4:[f3<0.118278362] yes=9,no=10,missing=9
			9:leaf=-0.0416646264
			10:leaf=0.247719392
	2:[f2<0.941401839] yes=5,no=6,missing=5
		5:[f7<0.974062562] yes=11,no=12,missing=11
			11:leaf=-0.0747642294
			12:leaf=-0.032509312
		6:[f0<153.5] yes=13,no=14,missing=13
			13:leaf=0.00575163681
			14:leaf=-0.0800221488
booster[34]:
0:[f0<92.28125] yes=1,no=2,missing=1
	1:[f7<0.992625237] yes=3,no=4,missing=3
		3:[f9<0.0297938734] yes=7,no=8,missing=7
			7:leaf=-0.0816034675
			8:leaf=-0.0945504233
		4:[f6<345.625] yes=9,no=10,missing=9
			9:leaf=-0.0474202707
			10:leaf=0.0928590819
	2:[f3<0.00092768349] yes=5,no=6,missing=5
		5:[f9<0.00702437945] yes=11,no=12,missing=11
			11:leaf=0.0650792941
			12:leaf=-0.00791167747
		6:[f7<0.959538341] yes=13,no=14,missing=13
			13:leaf=-0.0651437715
			14:leaf=-0.0218417794
booster[35]:
0:[f0<108.71875] yes=1,no=2,missing=1
	1:[f2<0.987267435] yes=3,no=4,missing=3
		3:[f7<0.988301516] yes=7,no=8,missing=7
			7:leaf=-0.0842932463
			8:leaf=-0.0398636572
		4:[f0<75.9375] yes=9,no=10,missing=9
			9:leaf=-0.0834419951
			10:leaf=0.0280134231
	2:[f3<0.000382697006] yes=5,no=6,missing=5
		5:[f0<154.6875] yes=11,no=12,missing=11
			11:leaf=0.0495931022
			12:leaf=-0.0775286183
		6:[f7<0.996217728] yes=13,no=14,missing=13
			13:leaf=-0.0386481509
			14:leaf=0.0813817605
booster[36]:
0:[f0<92.28125] yes=1,no=2,missing=1
	1:[f7<0.992625237] yes=3,no=4,missing=3
		3:[f0<72.03125] yes=7,no=8,missing=7
			7:leaf=-0.0897032544
			8:leaf=-0.072724849
		4:[f6<286.875] yes=9,no=10,missing=9
			9:leaf=-0.0532195382
			10:leaf=0.0421963632
	2:[f2<0.941401839] yes=5,no=6,missing=5
		5:[f7<0.974521875] yes=11,no=12,missing=11
			11:leaf=-0.0688506216
			12:leaf=-0.0260177385
		6:[f2<0.997935176] yes=13,no=14,missing=13
			13:leaf=-0.00524047716
			14:leaf=0.143913463
booster[37]:
0:[f0<91.59375] yes=1,no=2,missing=1
	1:[f7<0.992625237] yes=3,no=4,missing=3
		3:[f9<0.0297938734] yes=7,no=8,missing=7
			7:leaf=-0.0761510432
			8:leaf=-0.0920395777
		4:[f0<90.25] yes=9,no=10,missing=9
			9:leaf=-0.0314969793
			10:leaf=0.461638659
	2:[f2<0.922670364] yes=5,no=6,missing=5
		5:[f6<258.125] yes=11,no=12,missing=11
			11:leaf=-0.0804568455
			12:leaf=-0.0465686582
		6:[f9<0.0399589837] yes=13,no=14,missing=13
			13:leaf=0.013378215
			14:leaf=-0.0437998064
booster[38]:
0:[f0<91.59375] yes=1,no=2,missing=1
	1:[f7<0.992625237] yes=3,no=4,missing=3
		3:[f9<0.0297938734] yes=7,no=8,missing=7
			7:leaf=-0.0740950629
			8:leaf=-0.0910299569
		4:[f6<286.875] yes=9,no=10,missing=9
			9:leaf=-0.0504074469
			10:leaf=0.0392619148
	2:[f2<0.984186769] yes=5,no=6,missing=5
		5:[f7<0.973400533] yes=11,no=12,missing=11
			11:leaf=-0.0493137054
			12:leaf=0.00364729436
		6:[f0<141.5625] yes=13,no=14,missing=13
			13:leaf=0.0381602757
			14:leaf=-0.0508380122
booster[39]:
0:[f0<91.59375] yes=1,no=2,missing=1
	1:[f7<0.991714001] yes=3,no=4,missing=3
		3:[f0<72.03125] yes=7,no=8,missing=7
			7:leaf=-0.0861726627
			8:leaf=-0.0655943677
		4:[f8<8.32573369e-06] yes=9,no=10,missing=9
			9:leaf=0.420861214
			10:leaf=-0.0310032275
	2:[f2<0.922670364] yes=5,no=6,missing=5
		5:[f6<258.125] yes=11,no=12,missing=11
			11:leaf=-0.0775132254
			12:leaf=-0.0419225842
		6:[f9<0.00496475399] yes=13,no=14,missing=13
			13:leaf=0.0509539656
			14:leaf=-0.0124238012
booster[40]:
0:[f0<91.59375] yes=1,no=2,missing=1
	1:[f7<0.991714001] yes=3,no=4,missing=3
		3:[f0<72.03125] yes=7,no=8,missing=7
			7:leaf=-0.0847529247
			8:leaf=-0.0631484166
		4:[f3<0.118278362] yes=9,no=10,missing=9
			9:leaf=-0.0313210599
			10:leaf=0.218696833
	2:[f3<0.00117210369] yes=5,no=6,missing=5
		5:[f9<0.049951151] yes=11,no=12,missing=11
			11:leaf=0.0232714452
			12:leaf=-0.041159153
		6:[f7<0.94851923] yes=13,no=14,missing=13
			13:leaf=-0.0564263575
			14:leaf=-0.0181922223
booster[41]:
0:[f0<91.59375] yes=1,no=2,missing=1
	1:[f9<0.0158790685] yes=3,no=4,missing=3
		3:[f0<64.96875] yes=7,no=8,missing=7
			7:leaf=-0.0701926276
			8:leaf=-0.0386598073
		4:[f0<80.15625] yes=9,no=10,missing=9
			9:leaf=-0.0874311328
			10:leaf=-0.0621777885
	2:[f2<0.99304229] yes=5,no=6,missing=5
		5:[f7<0.948305905] yes=11,no=12,missing=11
			11:leaf=-0.0434723906
			12:leaf=0.00102317252
		6:[f5<5.1750947e-05] yes=13,no=14,missing=13
			13:leaf=0.0568310581
			14:leaf=-0.123440281
booster[42]:
0:[f0<91.59375] yes=1,no=2,missing=1
	1:[f7<0.975072742] yes=3,no=4,missing=3
		3:[f8<0.0147884414] yes=7,no=8,missing=7
			7:leaf=-0.0884958953
			8:leaf=-0.0631795153
		4:[f6<261.625] yes=9,no=10,missing=9
			9:leaf=-0.0667643398
			10:leaf=0.00891816802
	2:[f2<0.922670364] yes=5,no=6,missing=5
		5:[f6<258.125] yes=11,no=12,missing=11
			11:leaf=-0.0737008825
			12:leaf=-0.0357199721
		6:[f0<155.9375] yes=13,no=14,missing=13
			13:leaf=0.00768386154
			14:leaf=-0.0737625659
booster[43]:
0:[f0<108.71875] yes=1,no=2,missing=1
	1:[f2<0.986428738] yes=3,no=4,missing=3
		3:[f7<0.988301516] yes=7,no=8,missing=7
			7:leaf=-0.0708969012
			8:leaf=-0.0211358126
		4:[f7<0.966878116] yes=9,no=10,missing=9
			9:leaf=-0.0378536545
			10:leaf=0.0954641402
	2:[f0<147.1875] yes=5,no=6,missing=5
		5:[f3<0.000382654078] yes=11,no=12,missing=11
			11:leaf=0.0454381406
			12:leaf=-0.0100996848
		6:[f0<157.0625] yes=13,no=14,missing=13
			13:leaf=-0.0327207521
			14:leaf=-0.0736643672
booster[44]:
0:[f0<80.15625] yes=1,no=2,missing=1
	1:[f9<0.0141698085] yes=3,no=4,missing=3
		3:[f3<0.0140677933] yes=7,no=8,missing=7
			7:leaf=-0.0704783201
			8:leaf=-0.0272652507
		4:[f3<0.109052964] yes=9,no=10,missing=9
			9:leaf=-0.0855527893
			10:leaf=-0.0398022905
	2:[f2<0.953373075] yes=5,no=6,missing=5
		5:[f6<274.625] yes=11,no=12,missing=11
			11:leaf=-0.0612244606
			12:leaf=-0.016549876
		6:[f9<0.049951151] yes=13,no=14,missing=13
			13:leaf=0.0171066578
			14:leaf=-0.0413189195
booster[45]:
0:[f0<80.15625] yes=1,no=2,missing=1
	1:[f9<0.0156681277] yes=3,no=4,missing=3
		3:[f3<0.00819379278] yes=7,no=8,missing=7
			7:leaf=-0.0708914623
			8:leaf=-0.0295931008
		4:[f3<0.109052964] yes=9,no=10,missing=9
			9:leaf=-0.0845507085
			10:leaf=-0.0372833088
	2:[f7<0.959538341] yes=5,no=6,missing=5
		5:[f8<0.0210843384] yes=11,no=12,missing=11
			11:leaf=-0.053958267
			12:leaf=0.00598956086
		6:[f6<276.375] yes=13,no=14,missing=13
			13:leaf=-0.031786453
			14:leaf=0.0457818508
booster[46]:
0:[f0<80.15625] yes=1,no=2,missing=1
	1:[f9<0.0141698085] yes=3,no=4,missing=3
		3:[f3<0.0140677933] yes=7,no=8,missing=7
			7:leaf=-0.0659005791
			8:leaf=-0.0229883771
		4:[f3<0.109052964] yes=9,no=10,missing=9
			9:leaf=-0.082660988
			10:leaf=-0.0350047462
	2:[f2<0.922535598] yes=5,no=6,missing=5
		5:[f7<0.998623013] yes=11,no=12,missing=11
			11:leaf=-0.048875615
			12:leaf=0.258822441
		6:[f2<0.997935176] yes=13,no=14,missing=13
			13:leaf=-0.00205342332
			14:leaf=0.135729566
booster[47]:
0:[f0<80.15625] yes=1,no=2,missing=1
	1:[f9<0.0158790685] yes=3,no=4,missing=3
		3:[f3<0.00819379278] yes=7,no=8,missing=7
			7:leaf=-0.0665138438
			8:leaf=-0.0252035838
		4:[f3<0.109052964] yes=9,no=10,missing=9
			9:leaf=-0.0815385133
			10:leaf=-0.033488702
	2:[f2<0.993481219] yes=5,no=6,missing=5
		5:[f7<0.977109075] yes=11,no=12,missing=11
			11:leaf=-0.0302305575
			12:leaf=0.0170252603
		6:[f8<0.0199104548] yes=13,no=14,missing=13
			13:leaf=0.0191275366
			14:leaf=0.139381513
booster[48]:
0:[f0<113.84375] yes=1,no=2,missing=1
	1:[f2<0.996998072] yes=3,no=4,missing=3
		3:[f9<0.0272677802] yes=7,no=8,missing=7
			7:leaf=-0.0323555432
			8:leaf=-0.0689874813
		4:[f0<73.03125] yes=9,no=10,missing=9
			9:leaf=-0.064277418
			10:leaf=0.185843393
	2:[f0<145.6875] yes=5,no=6,missing=5
		5:[f8<3.79840967e-05] yes=11,no=12,missing=11
			11:leaf=0.14941141
			12:leaf=0.0161653087
		6:[f0<157.0625] yes=13,no=14,missing=13
			13:leaf=-0.0270920973
			14:leaf=-0.0701083839
booster[49]:
0:[f0<80.15625] yes=1,no=2,missing=1
	1:[f3<0.0158865135] yes=3,no=4,missing=3
		3:[f7<0.998594165] yes=7,no=8,missing=7
			7:leaf=-0.0748593137
			8:leaf=0.261664122
		4:[f7<0.988993049] yes=9,no=10,missing=9
			9:leaf=-0.0485933386
			10:leaf=0.069973208
	2:[f2<0.912858129] yes=5,no=6,missing=5
		5:[f7<0.94847393] yes=11,no=12,missing=11
			11:leaf=-0.0616170876
			12:leaf=-0.0250155274
		6:[f9<0.00496529508] yes=13,no=14,missing=13
			13:leaf=0.0477025174
			14:leaf=-0.00745298294
booster[50]:
0:[f0<80.15625] yes=1,no=2,missing=1
	1:[f9<0.0141698085] yes=3,no=4,missing=3
		3:[f8<0.0149771096] yes=7,no=8,missing=7
			7:leaf=-0.0549619198
			8:leaf=-0.00929455739
		4:[f3<0.0194273628] yes=9,no=10,missing=9
			9:leaf=-0.0823081359
			10:leaf=-0.0544315055
	2:[f7<0.944163084] yes=5,no=6,missing=5
		5:[f8<0.0260576718] yes=11,no=12,missing=11
			11:leaf=-0.0526964068
			12:leaf=0.009250612
		6:[f6<276.375] yes=13,no=14,missing=13
			13:leaf=-0.0269968845
			14:leaf=0.0371844508
booster[51]:
0:[f0<76.40625] yes=1,no=2,missing=1
	1:[f3<0.0158865135] yes=3,no=4,missing=3
		3:[f7<0.998594165] yes=7,no=8,missing=7
			7:leaf=-0.0739312991
			8:leaf=0.193837926
		4:[f7<0.986336589] yes=9,no=10,missing=9
			9:leaf=-0.0444682389
			10:leaf=0.0677773133
	2:[f3<0.00117210369] yes=5,no=6,missing=5
		5:[f8<0.0204235408] yes=11,no=12,missing=11
			11:leaf=-0.00144726853
			12:leaf=0.0563239865
		6:[f6<276.375] yes=13,no=14,missing=13
			13:leaf=-0.0426582657
			14:leaf=-0.00859099813
booster[52]:
0:[f0<119.40625] yes=1,no=2,missing=1
	1:[f7<0.959391356] yes=3,no=4,missing=3
		3:[f8<0.0191376992] yes=7,no=8,missing=7
			7:leaf=-0.0701044127
			8:leaf=-0.0180821493
		4:[f6<275.625] yes=9,no=10,missing=9
			9:leaf=-0.0375345536
			10:leaf=0.0408385582
	2:[f0<141.5625] yes=5,no=6,missing=5
		5:[f9<0.00499300146] yes=11,no=12,missing=11
			11:leaf=0.103472151
			12:leaf=0.0223062895
		6:[f5<3.4415541e-07] yes=13,no=14,missing=13
			13:leaf=-0.0140832216
			14:leaf=-0.0702503845
booster[53]:
0:[f0<76.15625] yes=1,no=2,missing=1
	1:[f3<0.0127645358] yes=3,no=4,missing=3
		3:[f1<655.25] yes=7,no=8,missing=7
			7:leaf=-0.0724124759
			8:leaf=0.0925114974
		4:[f7<0.994974732] yes=9,no=10,missing=9
			9:leaf=-0.038489338
			10:leaf=0.122426108
	2:[f2<0.912858129] yes=5,no=6,missing=5
		5:[f7<0.94847393] yes=11,no=12,missing=11
			11:leaf=-0.0566655956
			12:leaf=-0.0207020324
		6:[f0<153.5] yes=13,no=14,missing=13
			13:leaf=0.0093538342
			14:leaf=-0.0588112958
booster[54]:
0:[f0<72.03125] yes=1,no=2,missing=1
	1:[f3<0.0158865135] yes=3,no=4,missing=3
		3:[f7<0.996247649] yes=7,no=8,missing=7
			7:leaf=-0.0728620142
			8:leaf=0.0269680861
		4:[f9<0.00565992855] yes=9,no=10,missing=9
			9:leaf=0.0202346873
			10:leaf=-0.0428529494
	2:[f2<0.997935176] yes=5,no=6,missing=5
		5:[f7<0.954865932] yes=11,no=12,missing=11
			11:leaf=-0.0235528238
			12:leaf=0.0113999853
		6:[f0<153.9375] yes=13,no=14,missing=13
			13:leaf=0.153004989
			14:leaf=-0.111929797
booster[55]:
0:[f0<119.40625] yes=1,no=2,missing=1
	1:[f2<0.974276423] yes=3,no=4,missing=3
		3:[f9<0.0378653184] yes=7,no=8,missing=7
			7:leaf=-0.0296377745
			8:leaf=-0.0666175708
		4:[f7<0.9111287] yes=9,no=10,missing=9
			9:leaf=-0.034036614
			10:leaf=0.0204641819
	2:[f0<133.6875] yes=5,no=6,missing=5
		5:[f3<0.00465823011] yes=11,no=12,missing=11
			11:leaf=0.0639561117
			12:leaf=-0.0081648957
		6:[f5<4.8034563e-09] yes=13,no=14,missing=13
			13:leaf=0.0195082556
			14:leaf=-0.0408408307
booster[56]:
0:[f0<72.03125] yes=1,no=2,missing=1
	1:[f3<0.0127645358] yes=3,no=4,missing=3
		3:[f1<678.25] yes=7,no=8,missing=7
			7:leaf=-0.0697347596
			8:leaf=0.11130359
		4:[f7<0.977358818] yes=9,no=10,missing=9
			9:leaf=-0.0377341099
			10:leaf=0.0444705449
	2:[f9<0.00495675718] yes=5,no=6,missing=5
		5:[f8<0.00970523991] yes=11,no=12,missing=11
			11:leaf=-0.000389503984
			12:leaf=0.156862065
		6:[f2<0.998049974] yes=13,no=14,missing=13
			13:leaf=-0.0143402694
			14:leaf=0.116069034
booster[57]:
0:[f2<0.913721383] yes=1,no=2,missing=1
	1:[f9<0.03505411] yes=3,no=4,missing=3
		3:[f6<261.875] yes=7,no=8,missing=7
			7:leaf=-0.0456896126
			8:leaf=-0.0113722971
		4:[f8<0.0398585573] yes=9,no=10,missing=9
			9:leaf=-0.0713146701
			10:leaf=-0.0460916907
	2:[f9<0.00496529508] yes=5,no=6,missing=5
		5:[f8<0.00970523991] yes=11,no=12,missing=11
			11:leaf=0.00128243142
			12:leaf=0.160352945
		6:[f6<305.125] yes=13,no=14,missing=13
			13:leaf=-0.0236425288
			14:leaf=0.0137600992
booster[58]:
0:[f7<0.948289037] yes=1,no=2,missing=1
	1:[f8<0.0388502553] yes=3,no=4,missing=3
		3:[f2<0.996998131] yes=7,no=8,missing=7
			7:leaf=-0.0506684445
			8:leaf=0.0842272639
		4:[f9<0.00764702074] yes=9,no=10,missing=9
			9:leaf=0.0803616345
			10:leaf=-0.00847585779
	2:[f6<276.375] yes=5,no=6,missing=5
		5:[f8<0.0127113853] yes=11,no=12,missing=11
			11:leaf=-0.0380732231
			12:leaf=0.0964431912
		6:[f0<147.1875] yes=13,no=14,missing=13
			13:leaf=0.0469984859
			14:leaf=-0.0341033041
booster[59]:
0:[f2<0.913721383] yes=1,no=2,missing=1
	1:[f9<0.03505411] yes=3,no=4,missing=3
		3:[f8<0.126941949] yes=7,no=8,missing=7
			7:leaf=-0.0309838708
			8:leaf=0.0535264388
		4:[f3<0.108971521] yes=9,no=10,missing=9
			9:leaf=-0.0665377751
			10:leaf=-0.0332534127
	2:[f7<0.937106729] yes=5,no=6,missing=5
		5:[f8<0.0205447283] yes=11,no=12,missing=11
			11:leaf=-0.0488263629
			12:leaf=0.0128955487
		6:[f8<0.0110718561] yes=13,no=14,missing=13
			13:leaf=0.00582869723
			14:leaf=0.0937127694
booster[60]:
0:[f0<114.28125] yes=1,no=2,missing=1
	1:[f2<0.996998072] yes=3,no=4,missing=3
		3:[f9<0.0113380132] yes=7,no=8,missing=7
			7:leaf=-0.00488599529
			8:leaf=-0.0400835238
		4:[f9<0.0926596075] yes=9,no=10,missing=9
			9:leaf=0.16210933
			10:leaf=-0.0778032243
	2:[f0<153.4375] yes=5,no=6,missing=5
		5:[f8<2.76094215e-05] yes=11,no=12,missing=11
			11:leaf=0.142384738
			12:leaf=0.0142231686
		6:[f1<408] yes=13,no=14,missing=13
			13:leaf=0.00674108509
			14:leaf=-0.0664526597
booster[61]:
0:[f0<66.28125] yes=1,no=2,missing=1
	1:[f3<0.0127645358] yes=3,no=4,missing=3
		3:[f6<339.125] yes=7,no=8,missing=7
			7:leaf=-0.0722739995
			8:leaf=-0.00160691782
		4:[f4<0.0150246285] yes=9,no=10,missing=9
			9:leaf=0.0241850633
			10:leaf=-0.0321547501
	2:[f7<0.998623013] yes=5,no=6,missing=5
		5:[f5<8.56913357e-06] yes=11,no=12,missing=11
			11:leaf=0.00649110321
			12:leaf=-0.0261059385
		6:[f0<184.375] yes=13,no=14,missing=13
			13:leaf=0.220707849
			14:leaf=-0.0863067061
booster[62]:
0:[f2<0.871050656] yes=1,no=2,missing=1
	1:[f7<0.994286537] yes=3,no=4,missing=3
		3:[f8<0.106786922] yes=7,no=8,missing=7
			7:leaf=-0.0516831279
			8:leaf=0.00968817901
		4:[f9<0.00254781917] yes=9,no=10,missing=9
			9:leaf=-0.0379281379
			10:leaf=0.198962077
	2:[f9<0.0512453802] yes=5,no=6,missing=5
		5:[f0<66.34375] yes=11,no=12,missing=11
			11:leaf=-0.0356091186
			12:leaf=0.0102943135
		6:[f0<110.8125] yes=13,no=14,missing=13
			13:leaf=-0.0573753715
			14:leaf=-0.0111270091
booster[63]:
0:[f2<0.984191] yes=1,no=2,missing=1
	1:[f7<0.974395335] yes=3,no=4,missing=3
		3:[f8<0.0078096129] yes=7,no=8,missing=7
			7:leaf=-0.0503750257
			8:leaf=-0.00574848149
		4:[f6<261.375] yes=9,no=10,missing=9
			9:leaf=-0.045495078
			10:leaf=0.042478364
	2:[f0<134.6875] yes=5,no=6,missing=5
		5:[f0<120.53125] yes=11,no=12,missing=11
			11:leaf=0.00649437169
			12:leaf=0.0828407332
		6:[f1<340.125] yes=13,no=14,missing=13
			13:leaf=0.220690608
			14:leaf=-0.0337923281
booster[64]:
0:[f7<0.944169044] yes=1,no=2,missing=1
	1:[f8<0.0429082811] yes=3,no=4,missing=3
		3:[f0<106.28125] yes=7,no=8,missing=7
			7:leaf=-0.0629160628
			8:leaf=-0.0227455311
		4:[f6<221.4375] yes=9,no=10,missing=9
			9:leaf=0.0770598203
			10:leaf=-0.00217335089
	2:[f6<276.375] yes=5,no=6,missing=5
		5:[f8<0.0204508267] yes=11,no=12,missing=11
			11:leaf=-0.0282561462
			12:leaf=0.135737747
		6:[f0<141.5625] yes=13,no=14,missing=13
			13:leaf=0.0393754393
			14:leaf=-0.0212146845
booster[65]:
0:[f2<0.871050656] yes=1,no=2,missing=1
	1:[f7<0.944107175] yes=3,no=4,missing=3
		3:[f8<0.0726695284] yes=7,no=8,missing=7
			7:leaf=-0.069336921
			8:leaf=-0.013103175
		4:[f3<0.139689356] yes=9,no=10,missing=9
			9:leaf=-0.0263271183
			10:leaf=0.0843208134
	2:[f0<157.0625] yes=5,no=6,missing=5
		5:[f0<120.28125] yes=11,no=12,missing=11
			11:leaf=-0.0103933401
			12:leaf=0.0241075549
		6:[f7<0.990459323] yes=13,no=14,missing=13
			13:leaf=-0.0643581748
			14:leaf=0.0176770892
booster[66]:
0:[f2<0.997937262] yes=1,no=2,missing=1
	1:[f4<0.00180695381] yes=3,no=4,missing=3
		3:[f0<141.1875] yes=7,no=8,missing=7
			7:leaf=-0.053542655
			8:leaf=-0.128437892
		4:[f7<0.99869585] yes=9,no=10,missing=9
			9:leaf=-0.00478772307
			10:leaf=0.169896141
	2:[f0<153.9375] yes=5,no=6,missing=5
		5:[f6<490.625] yes=11,no=12,missing=11
			11:leaf=0.145321399
			12:leaf=0.0357316323
		6:[f3<6.60903788e-06] yes=13,no=14,missing=13
			13:leaf=-0.0220895819
			14:leaf=-0.114265516
booster[67]:
0:[f0<57.578125] yes=1,no=2,missing=1
	1:[f3<0.0140771642] yes=3,no=4,missing=3
		3:[f1<289.25] yes=7,no=8,missing=7
			7:leaf=-0.0800493807
			8:leaf=-0.037524756
		4:[f4<0.0150408745] yes=9,no=10,missing=9
			9:leaf=0.0389563181
			10:leaf=-0.0336847827
	2:[f7<0.998623013] yes=5,no=6,missing=5
		5:[f0<157.0625] yes=11,no=12,missing=11
			11:leaf=0.00193965796
			12:leaf=-0.0530921035
		6:[f0<94.96875] yes=13,no=14,missing=13
			13:leaf=0.52121228
			14:leaf=0.144134924
booster[68]:
0:[f7<0.911834002] yes=1,no=2,missing=1
	1:[f8<0.0797791332] yes=3,no=4,missing=3
		3:[f0<119.40625] yes=7,no=8,missing=7
			7:leaf=-0.0538776778
			8:leaf=-0.0189983416
		4:[f9<0.00349204475] yes=9,no=10,missing=9
			9:leaf=0.230322406
			10:leaf=0.0148488628
	2:[f6<258.375] yes=5,no=6,missing=5
		5:[f8<0.00907756854] yes=11,no=12,missing=11
			11:leaf=-0.0412828736
			12:leaf=0.0396971963
		6:[f5<9.14470064e-08] yes=13,no=14,missing=13
			13:leaf=0.037362393
			14:leaf=0.000763837073
booster[69]:
0:[f9<0.00496529508] yes=1,no=2,missing=1
	1:[f8<0.00970523991] yes=3,no=4,missing=3
		3:[f7<0.993805885] yes=7,no=8,missing=7
			7:leaf=-0.0470258482
			8:leaf=0.0441265218
		4:[f3<0.00232340279] yes=9,no=10,missing=9
			9:leaf=0.176792815
			10:leaf=0.0230943095
	2:[f6<276.375] yes=5,no=6,missing=5
		5:[f8<0.046569936] yes=11,no=12,missing=11
			11:leaf=-0.0387360901
			12:leaf=0.0222368259
		6:[f7<0.93492794] yes=13,no=14,missing=13
			13:leaf=-0.0266980678
			14:leaf=0.025434766
booster[70]:
0:[f2<0.998049974] yes=1,no=2,missing=1
	1:[f4<0.00180695381] yes=3,no=4,missing=3
		3:[f0<141.1875] yes=7,no=8,missing=7
			7:leaf=-0.0471370891
			8:leaf=-0.123989366
		4:[f2<0.993481219] yes=9,no=10,missing=9
			9:leaf=-0.0061473581
			10:leaf=0.0349830352
	2:[f0<153.9375] yes=5,no=6,missing=5
		5:[f0<68.03125] yes=11,no=12,missing=11
			11:leaf=-0.030867314
			12:leaf=0.138852388
		6:[f1<455] yes=13,no=14,missing=13
			13:leaf=-0.0164853092
			14:leaf=-0.111668102
booster[71]:
0:[f2<0.871050656] yes=1,no=2,missing=1
	1:[f7<0.944107175] yes=3,no=4,missing=3
		3:[f8<0.0620736554] yes=7,no=8,missing=7
			7:leaf=-0.0658691004
			8:leaf=-0.0150162978
		4:[f3<0.139689356] yes=9,no=10,missing=9
			9:leaf=-0.0220813379
			10:leaf=0.0740201399
	2:[f8<0.00814586692] yes=5,no=6,missing=5
		5:[f6<232.5625] yes=11,no=12,missing=11
			11:leaf=-0.0606108867
			12:leaf=0.00339605333
		6:[f9<0.0049482109] yes=13,no=14,missing=13
			13:leaf=0.0831951723
			14:leaf=0.00546950893
booster[72]:
0:[f7<0.911834002] yes=1,no=2,missing=1
	1:[f8<0.0794106275] yes=3,no=4,missing=3
		3:[f0<119.40625] yes=7,no=8,missing=7
			7:leaf=-0.0494350381
			8:leaf=-0.0155292647
		4:[f9<0.00227170717] yes=9,no=10,missing=9
			9:leaf=0.309505105
			10:leaf=0.015505462
	2:[f1<271.625] yes=5,no=6,missing=5
		5:[f2<0.985056162] yes=11,no=12,missing=11
			11:leaf=-0.0438293032
			12:leaf=0.142774403
		6:[f0<146.0625] yes=13,no=14,missing=13
			13:leaf=0.0176082533
			14:leaf=-0.0314894393
booster[73]:
0:[f2<0.997954726] yes=1,no=2,missing=1
	1:[f4<0.00180695381] yes=3,no=4,missing=3
		3:[f3<0.00261960598] yes=7,no=8,missing=7
			7:leaf=-0.0721582696
			8:leaf=0.0199664161
		4:[f7<0.960818172] yes=9,no=10,missing=9
			9:leaf=-0.0110826781
			10:leaf=0.0113912607
	2:[f0<153.9375] yes=5,no=6,missing=5
		5:[f6<490.625] yes=11,no=12,missing=11
			11:leaf=0.138726652
			12:leaf=0.0240764096
		6:[f1<455] yes=13,no=14,missing=13
			13:leaf=-0.0143511193
			14:leaf=-0.108448558
booster[74]:
0:[f0<57.578125] yes=1,no=2,missing=1
	1:[f3<0.0140771642] yes=3,no=4,missing=3
		3:[f1<297.125] yes=7,no=8,missing=7
			7:leaf=-0.0746661946
			8:leaf=-0.030973509
		4:[f7<0.975155115] yes=9,no=10,missing=9
			9:leaf=-0.0200785473
			10:leaf=0.0642846227
	2:[f0<157.0625] yes=5,no=6,missing=5
		5:[f2<0.99791199] yes=11,no=12,missing=11
			11:leaf=0.00252790167
			12:leaf=0.118631974
		6:[f7<0.990459323] yes=13,no=14,missing=13
			13:leaf=-0.0577732213
			14:leaf=0.0173422918
booster[75]:
0:[f2<0.871050656] yes=1,no=2,missing=1
	1:[f9<0.021700399] yes=3,no=4,missing=3
		3:[f10<1.56941974e-06] yes=7,no=8,missing=7
			7:leaf=0.0117982654
			8:leaf=-0.0340886228
		4:[f3<0.168593824] yes=9,no=10,missing=9
			9:leaf=-0.0507704988
			10:leaf=0.0894310623
	2:[f8<0.00814586692] yes=5,no=6,missing=5
		5:[f6<232.5625] yes=11,no=12,missing=11
			11:leaf=-0.0567807555
			12:leaf=0.00252374262
		6:[f9<0.00603448134] yes=13,no=14,missing=13
			13:leaf=0.0688797608
			14:leaf=0.0054112142
booster[76]:
0:[f0<157.0625] yes=1,no=2,missing=1
	1:[f0<120.28125] yes=3,no=4,missing=3
		3:[f8<0.00815395266] yes=7,no=8,missing=7
			7:leaf=-0.0216891579
			8:leaf=0.00650725095
		4:[f0<133.1875] yes=9,no=10,missing=9
			9:leaf=0.0361512154
			10:leaf=-0.00386920758
	2:[f1<534.75] yes=5,no=6,missing=5
		5:[f7<0.987218738] yes=11,no=12,missing=11
			11:leaf=-0.0397314094
			12:leaf=0.0487074703
		6:[f10<9.56323237e-14] yes=13,no=14,missing=13
			13:leaf=0.134015933
			14:leaf=-0.0779388696
booster[77]:
0:[f7<0.911834002] yes=1,no=2,missing=1
	1:[f8<0.0949085802] yes=3,no=4,missing=3
		3:[f6<200.6875] yes=7,no=8,missing=7
			7:leaf=0.337997705
			8:leaf=-0.0307106357
		4:[f5<3.01016212e-10] yes=9,no=10,missing=9
			9:leaf=0.144078568
			10:leaf=0.0103043392
	2:[f8<0.00995191187] yes=5,no=6,missing=5
		5:[f6<276.375] yes=11,no=12,missing=11
			11:leaf=-0.0250696093
			12:leaf=0.014164567
		6:[f9<0.00235796673] yes=13,no=14,missing=13
			13:leaf=0.183503062
			14:leaf=0.0203402974
booster[78]:
0:[f7<0.998758197] yes=1,no=2,missing=1
	1:[f2<0.870835304] yes=3,no=4,missing=3
		3:[f3<0.134344801] yes=7,no=8,missing=7
			7:leaf=-0.033941552
			8:leaf=0.00965627376
		4:[f8<0.00814586692] yes=9,no=10,missing=9
			9:leaf=-0.00700644637
			10:leaf=0.0142231165
	2:[f0<184.375] yes=5,no=6,missing=5
		5:[f0<46.921875] yes=11,no=12,missing=11
			11:leaf=-0.0638498887
			12:leaf=0.192035124
		6:leaf=-0.0921416953
booster[79]:
0:[f7<0.956879616] yes=1,no=2,missing=1
	1:[f8<0.00666700164] yes=3,no=4,missing=3
		3:[f2<0.996998131] yes=7,no=8,missing=7
			7:leaf=-0.0407253206
			8:leaf=0.0954126492
		4:[f3<0.000927017711] yes=9,no=10,missing=9
			9:leaf=0.0258049574
			10:leaf=-0.0137202432
	2:[f6<276.375] yes=5,no=6,missing=5
		5:[f9<0.00515471678] yes=11,no=12,missing=11
			11:leaf=0.0515474454
			12:leaf=-0.0285745915
		6:[f6<283.125] yes=13,no=14,missing=13
			13:leaf=0.159628138
			14:leaf=0.0177362058
booster[80]:
0:[f0<157.0625] yes=1,no=2,missing=1
	1:[f2<0.99791199] yes=3,no=4,missing=3
		3:[f4<0.00180695381] yes=7,no=8,missing=7
			7:leaf=-0.0555156656
			8:leaf=0.00191030966
		4:[f6<490.625] yes=9,no=10,missing=9
			9:leaf=0.126584172
			10:leaf=-0.00610924512
	2:[f1<388.875] yes=5,no=6,missing=5
		5:[f0<166.4375] yes=11,no=12,missing=11
			11:leaf=-0.0165339503
			12:leaf=0.305121183
		6:[f4<0.0377192162] yes=13,no=14,missing=13
			13:leaf=-0.0651152506
			14:leaf=-0.00729921088
booster[81]:
0:[f7<0.911834002] yes=1,no=2,missing=1
	1:[f8<0.0797791332] yes=3,no=4,missing=3
		3:[f9<0.0192629099] yes=7,no=8,missing=7
			7:leaf=-0.0491062962
			8:leaf=-0.0165023059
		4:[f6<202.1875] yes=9,no=10,missing=9
			9:leaf=0.417304844
			10:leaf=0.0126423044
	2:[f2<0.98756063] yes=5,no=6,missing=5
		5:[f6<262.625] yes=11,no=12,missing=11
			11:leaf=-0.0211090557
			12:leaf=0.0107602635
		6:[f1<330.125] yes=13,no=14,missing=13
			13:leaf=0.0956093445
			14:leaf=0.00876378175
booster[82]:
0:[f0<57.578125] yes=1,no=2,missing=1
	1:[f3<0.00744680781] yes=3,no=4,missing=3
		3:[f1<678.25] yes=7,no=8,missing=7
			7:leaf=-0.0606935322
			8:leaf=0.172866598
		4:[f4<0.0150408745] yes=9,no=10,missing=9
			9:leaf=0.0426018611
			10:leaf=-0.0262239017
	2:[f7<0.998623013] yes=5,no=6,missing=5
		5:[f0<157.0625] yes=11,no=12,missing=11
			11:leaf=0.00323251681
			12:leaf=-0.0415288918
		6:[f0<184.375] yes=13,no=14,missing=13
			13:leaf=0.171489254
			14:leaf=-0.0884583518
booster[83]:
0:[f9<0.00496529508] yes=1,no=2,missing=1
	1:[f8<0.0102702994] yes=3,no=4,missing=3
		3:[f7<0.991701424] yes=7,no=8,missing=7
			7:leaf=-0.0425088443
			8:leaf=0.0307870805
		4:[f6<204] yes=9,no=10,missing=9
			9:leaf=0.511541188
			10:leaf=0.0510446802
	2:[f7<0.994216323] yes=5,no=6,missing=5
		5:[f6<305.125] yes=11,no=12,missing=11
			11:leaf=-0.0127799632
			12:leaf=0.00982303359
		6:[f2<0.965005755] yes=13,no=14,missing=13
			13:leaf=0.109775387
			14:leaf=-0.131443396
booster[84]:
0:[f2<0.960105777] yes=1,no=2,missing=1
	1:[f7<0.982552528] yes=3,no=4,missing=3
		3:[f0<109.53125] yes=7,no=8,missing=7
			7:leaf=-0.0297275968
			8:leaf=-0.00612471672
		4:[f6<255.3125] yes=9,no=10,missing=9
			9:leaf=-0.0358097218
			10:leaf=0.0393580571
	2:[f8<0.00826654211] yes=5,no=6,missing=5
		5:[f10<0.00196907809] yes=11,no=12,missing=11
			11:leaf=0.000647002889
			12:leaf=-0.0631298721
		6:[f6<240.0625] yes=13,no=14,missing=13
			13:leaf=0.104990877
			14:leaf=0.00392082846
booster[85]:
0:[f2<0.998099089] yes=1,no=2,missing=1
	1:[f4<0.00180695381] yes=3,no=4,missing=3
		3:[f0<141.1875] yes=7,no=8,missing=7
			7:leaf=-0.0339387581
			8:leaf=-0.115986846
		4:[f2<0.993481219] yes=9,no=10,missing=9
			9:leaf=-0.00276907766
			10:leaf=0.0279049911
	2:[f0<153.9375] yes=5,no=6,missing=5
		5:[f0<83.5625] yes=11,no=12,missing=11
			11:leaf=-0.000588290917
			12:leaf=0.126651287
		6:[f1<455] yes=13,no=14,missing=13
			13:leaf=-0.0120038725
			14:leaf=-0.103170849
booster[86]:
0:[f7<0.911834002] yes=1,no=2,missing=1
	1:[f8<0.0388464183] yes=3,no=4,missing=3
		3:[f3<2.27243017e-05] yes=7,no=8,missing=7
			7:leaf=0.0566383563
			8:leaf=-0.0377055742
		4:[f6<238.0625] yes=9,no=10,missing=9
			9:leaf=0.0499429218
			10:leaf=-0.0158224124
	2:[f8<0.00995191187] yes=5,no=6,missing=5
		5:[f6<232.5625] yes=11,no=12,missing=11
			11:leaf=-0.037828315
			12:leaf=0.0061629652
		6:[f3<0.0150785754] yes=13,no=14,missing=13
			13:leaf=0.0516851433
			14:leaf=-0.0237016659
booster[87]:
0:[f0<162.5625] yes=1,no=2,missing=1
	1:[f0<120.28125] yes=3,no=4,missing=3
		3:[f3<9.8475648e-06] yes=7,no=8,missing=7
			7:leaf=-0.0978342071
			8:leaf=-0.00537388492
		4:[f1<309.125] yes=9,no=10,missing=9
			9:leaf=0.0898978636
			10:leaf=0.00856272783
	2:[f1<355.125] yes=5,no=6,missing=5
		5:leaf=0.2314087
		6:[f4<0.0353022702] yes=11,no=12,missing=11
			11:leaf=-0.0623081699
			12:leaf=-0.00208107335
booster[88]:
0:[f7<0.956879616] yes=1,no=2,missing=1
	1:[f8<0.00666700164] yes=3,no=4,missing=3
		3:[f2<0.996998131] yes=7,no=8,missing=7
			7:leaf=-0.0343021378
			8:leaf=0.0819403231
		4:[f9<0.00280593312] yes=9,no=10,missing=9
			9:leaf=0.0707588121
			10:leaf=-0.00272006262
	2:[f8<0.000626918336] yes=5,no=6,missing=5
		5:[f6<305.375] yes=11,no=12,missing=11
			11:leaf=-0.0326383673
			12:leaf=0.022282524
		6:[f1<422.625] yes=13,no=14,missing=13
			13:leaf=0.0419263244
			14:leaf=-0.0165101662
booster[89]:
0:[f0<50.796875] yes=1,no=2,missing=1
	1:[f3<0.0141204614] yes=3,no=4,missing=3
		3:[f1<689.5] yes=7,no=8,missing=7
			7:leaf=-0.0576650575
			8:leaf=0.165347263
		4:[f4<0.0150408745] yes=9,no=10,missing=9
			9:leaf=0.053745646
			10:leaf=-0.0248759966
	2:[f7<0.998623013] yes=5,no=6,missing=5
		5:[f7<0.998241484] yes=11,no=12,missing=11
			11:leaf=0.00182203972
			12:leaf=-0.0924402401
		6:[f0<184.375] yes=13,no=14,missing=13
			13:leaf=0.163489655
			14:leaf=-0.0846998319
booster[90]:
0:[f2<0.824219108] yes=1,no=2,missing=1
	1:[f3<0.166415453] yes=3,no=4,missing=3
		3:[f5<1.64506719e-08] yes=7,no=8,missing=7
			7:leaf=0.0622054115
			8:leaf=-0.0506591089
		4:[f1<252.8125] yes=9,no=10,missing=9
			9:leaf=0.321591914
			10:leaf=-0.0111274868
	2:[f0<147.1875] yes=5,no=6,missing=5
		5:[f0<122.21875] yes=11,no=12,missing=11
			11:leaf=-0.00379256136
			12:leaf=0.0188746303
		6:[f5<1.98804764e-06] yes=13,no=14,missing=13
			13:leaf=-0.00789260957
			14:leaf=-0.0604108758
booster[91]:
0:[f2<0.998099089] yes=1,no=2,missing=1
	1:[f4<0.00180695381] yes=3,no=4,missing=3
		3:[f3<0.00261960598] yes=7,no=8,missing=7
			7:leaf=-0.0601608828
			8:leaf=0.0352585055
		4:[f3<0.00091115071] yes=9,no=10,missing=9
			9:leaf=0.0100405281
			10:leaf=-0.00706812367
	2:[f0<153.9375] yes=5,no=6,missing=5
		5:[f0<83.5625] yes=11,no=12,missing=11
			11:leaf=0.00224434561
			12:leaf=0.123449914
		6:[f1<455] yes=13,no=14,missing=13
			13:leaf=-0.013359027
			14:leaf=-0.100404851
booster[92]:
0:[f7<0.937106729] yes=1,no=2,missing=1
	1:[f8<0.0274899453] yes=3,no=4,missing=3
		3:[f3<2.18557252e-05] yes=7,no=8,missing=7
			7:leaf=0.0701074079
			8:leaf=-0.0309281684
		4:[f1<366.375] yes=9,no=10,missing=9
			9:leaf=0.0222752467
			10:leaf=-0.0262711886
	2:[f8<0.00676723942] yes=5,no=6,missing=5
		5:[f6<232.5625] yes=11,no=12,missing=11
			11:leaf=-0.0423834659
			12:leaf=0.00776546588
		6:[f3<0.0031569968] yes=13,no=14,missing=13
			13:leaf=0.0644668341
			14:leaf=-0.00593447685
booster[93]:
0:[f9<0.00496529508] yes=1,no=2,missing=1
	1:[f8<3.50302398e-05] yes=3,no=4,missing=3
		3:[f10<2.14700653e-11] yes=7,no=8,missing=7
			7:leaf=0.167475134
			8:leaf=0.0511825792
		4:[f6<294.375] yes=9,no=10,missing=9
			9:leaf=0.0346619003
			10:leaf=-0.0205302965
	2:[f7<0.994216323] yes=5,no=6,missing=5
		5:[f7<0.993287802] yes=11,no=12,missing=11
			11:leaf=-0.00411555683
			12:leaf=0.100719035
		6:[f1<334.75] yes=13,no=14,missing=13
			13:leaf=0.204515845
			14:leaf=-0.110388614
booster[94]:
0:[f0<163.3125] yes=1,no=2,missing=1
	1:[f0<123.15625] yes=3,no=4,missing=3
		3:[f2<0.996998072] yes=7,no=8,missing=7
			7:leaf=-0.00673639541
			8:leaf=0.0608500615
		4:[f1<309.625] yes=9,no=10,missing=9
			9:leaf=0.156524703
			10:leaf=0.00696393335
	2:[f1<369.875] yes=5,no=6,missing=5
		5:[f0<163.9375] yes=11,no=12,missing=11
			11:leaf=-0.0482875742
			12:leaf=0.389634848
		6:[f7<0.995993733] yes=13,no=14,missing=13
			13:leaf=-0.0506359413
			14:leaf=0.0691288486
booster[95]:
0:[f9<0.00019764225] yes=1,no=2,missing=1
	1:[f8<0.00157922006] yes=3,no=4,missing=3
		3:[f8<0.000192260253] yes=7,no=8,missing=7
			7:leaf=-0.0242026988
			8:leaf=-0.114694178
		4:[f9<0.000149662548] yes=9,no=10,missing=9
			9:leaf=0.528779447
			10:leaf=0.0856631622
	2:[f9<0.00496529508] yes=5,no=6,missing=5
		5:[f2<0.993657827] yes=11,no=12,missing=11
			11:leaf=0.00943463668
			12:leaf=0.120882474
		6:[f7<0.994216323] yes=13,no=14,missing=13
			13:leaf=-0.0026868491
			14:leaf=-0.0803941563
booster[96]:
0:[f7<0.966132402] yes=1,no=2,missing=1
	1:[f8<0.00289496314] yes=3,no=4,missing=3
		3:[f6<263.125] yes=7,no=8,missing=7
			7:leaf=-0.056148719
			8:leaf=-0.0153592825
		4:[f6<228.0625] yes=9,no=10,missing=9
			9:leaf=0.0274723899
			10:leaf=-0.00623665517
	2:[f8<0.0243803635] yes=5,no=6,missing=5
		5:[f0<101.28125] yes=11,no=12,missing=11
			11:leaf=0.0330622718
			12:leaf=0.000387608889
		6:[f6<403.25] yes=13,no=14,missing=13
			13:leaf=0.506916821
			14:leaf=-0.060401082
booster[97]:
0:[f0<50.796875] yes=1,no=2,missing=1
	1:[f3<0.00421622256] yes=3,no=4,missing=3
		3:[f1<703] yes=7,no=8,missing=7
			7:leaf=-0.0633841977
			8:leaf=0.131599814
		4:[f5<9.02029917e-09] yes=9,no=10,missing=9
			9:leaf=0.307361752
			10:leaf=-0.00918141101
	2:[f7<0.998623013] yes=5,no=6,missing=5
		5:[f7<0.998241484] yes=11,no=12,missing=11
			11:leaf=0.00203260314
			12:leaf=-0.0885151625
		6:[f0<184.375] yes=13,no=14,missing=13
			13:leaf=0.151297107
			14:leaf=-0.082336545
booster[98]:
0:[f2<0.870835304] yes=1,no=2,missing=1
	1:[f10<1.56941974e-06] yes=3,no=4,missing=3
		3:[f3<0.130570352] yes=7,no=8,missing=7
			7:leaf=-0.0132667441
			8:leaf=0.0834433064
		4:[f8<0.116161771] yes=9,no=10,missing=9
			9:leaf=-0.037683662
			10:leaf=0.0216748659
	2:[f0<133.6875] yes=5,no=6,missing=5
		5:[f0<124.46875] yes=11,no=12,missing=11
			11:leaf=-0.00101568084
			12:leaf=0.042368453
		6:[f4<0.0150350984] yes=13,no=14,missing=13
			13:leaf=-0.0346227437
			14:leaf=0.0181180742
booster[99]:
0:[f10<5.5853339e-14] yes=1,no=2,missing=1
	1:[f5<2.17828674e-05] yes=3,no=4,missing=3
		3:[f0<79.75] yes=7,no=8,missing=7
			7:leaf=-0.0482394174
			8:leaf=0.230099276
		4:[f2<0.962800324] yes=9,no=10,missing=9
			9:leaf=0.0943054035
			10:leaf=-0.084579967
	2:[f0<153.4375] yes=5,no=6,missing=5
		5:[f2<0.998333931] yes=11,no=12,missing=11
			11:leaf=0.000218963018
			12:leaf=0.117547952
		6:[f1<408] yes=13,no=14,missing=13
			13:leaf=0.0295190252
			14:leaf=-0.0458214507
booster[100]:
0:[f7<0.911834002] yes=1,no=2,missing=1
	1:[f8<0.0949085802] yes=3,no=4,missing=3
		3:[f8<0.0947016999] yes=7,no=8,missing=7
			7:leaf=-0.01919863
			8:leaf=-0.1305819
		4:[f2<0.993465304] yes=9,no=10,missing=9
			9:leaf=0.00824220385
			10:leaf=0.155051231
	2:[f8<0.000663569663] yes=5,no=6,missing=5
		5:[f6<305.375] yes=11,no=12,missing=11
			11:leaf=-0.0293647032
			12:leaf=0.0162079483
		6:[f1<358.125] yes=13,no=14,missing=13
			13:leaf=0.0284012314
			14:leaf=-0.00221105176
booster[101]:
0:[f5<0.000222341827] yes=1,no=2,missing=1
	1:[f8<0.00665118173] yes=3,no=4,missing=3
		3:[f6<232.5625] yes=7,no=8,missing=7
			7:leaf=-0.0438997969
			8:leaf=0.00211070082
		4:[f6<240.1875] yes=9,no=10,missing=9
			9:leaf=0.0451192446
			10:leaf=-0.00193556235
	2:[f7<0.975139439] yes=5,no=6,missing=5
		5:[f5<0.00415590312] yes=11,no=12,missing=11
			11:leaf=-0.0375636481
			12:leaf=0.00118685339
		6:[f2<0.909287691] yes=13,no=14,missing=13
			13:leaf=-0.0182488225
			14:leaf=0.0450277254
booster[102]:
0:[f0<50.796875] yes=1,no=2,missing=1
	1:[f3<0.00421622256] yes=3,no=4,missing=3
		3:[f1<703] yes=7,no=8,missing=7
			7:leaf=-0.06115973
			8:leaf=0.111463062
		4:[f6<370.625] yes=9,no=10,missing=9
			9:leaf=-0.0108176265
			10:leaf=0.162428543
	2:[f7<0.998623013] yes=5,no=6,missing=5
		5:[f7<0.998241484] yes=11,no=12,missing=11
			11:leaf=0.00191833009
			12:leaf=-0.0828810185
		6:[f1<481.875] yes=13,no=14,missing=13
			13:leaf=0.178282186
			14:leaf=0.0414934233
booster[103]:
0:[f2<0.824219108] yes=1,no=2,missing=1
	1:[f3<0.166415453] yes=3,no=4,missing=3
		3:[f5<1.64506719e-08] yes=7,no=8,missing=7
			7:leaf=0.0635571927
			8:leaf=-0.0459420122
		4:[f1<252.8125] yes=9,no=10,missing=9
			9:leaf=0.230498359
			10:leaf=-0.0123551032
	2:[f9<0.000180356277] yes=5,no=6,missing=5
		5:[f8<0.00184018142] yes=11,no=12,missing=11
			11:leaf=-0.09640982
			12:leaf=0.349798352
		6:[f9<0.000841850764] yes=13,no=14,missing=13
			13:leaf=0.0565589145
			14:leaf=0.000881888089
booster[104]:
0:[f7<0.965754986] yes=1,no=2,missing=1
	1:[f8<0.00289496314] yes=3,no=4,missing=3
		3:[f6<263.125] yes=7,no=8,missing=7
			7:leaf=-0.0507730506
			8:leaf=-0.0146042211
		4:[f9<0.00227321917] yes=9,no=10,missing=9
			9:leaf=0.0586581789
			10:leaf=-0.0021727269
	2:[f8<0.0243803635] yes=5,no=6,missing=5
		5:[f0<101.28125] yes=11,no=12,missing=11
			11:leaf=0.0304739513
			12:leaf=3.90479508e-05
		6:[f6<403.25] yes=13,no=14,missing=13
			13:leaf=0.38803637
			14:leaf=-0.0588540211
booster[105]:
0:[f2<0.995760202] yes=1,no=2,missing=1
	1:[f2<0.995317221] yes=3,no=4,missing=3
		3:[f2<0.994516432] yes=7,no=8,missing=7
			7:leaf=-0.00189296994
			8:leaf=0.0770155415
		4:[f1<317] yes=9,no=10,missing=9
			9:leaf=0.161691591
			10:leaf=-0.0933469236
	2:[f5<5.55994802e-07] yes=5,no=6,missing=5
		5:[f5<1.6598195e-09] yes=11,no=12,missing=11
			11:leaf=0.023169456
			12:leaf=0.115661442
		6:[f5<5.82847463e-07] yes=13,no=14,missing=13
			13:leaf=-0.320398092
			14:leaf=-0.0343309939
booster[106]:
0:[f10<5.5853339e-14] yes=1,no=2,missing=1
	1:[f0<111.84375] yes=3,no=4,missing=3
		3:[f2<0.98633492] yes=7,no=8,missing=7
			7:leaf=-0.0520996712
			8:leaf=0.211512521
		4:[f2<0.960590839] yes=9,no=10,missing=9
			9:leaf=0.41566062
			10:leaf=0.0950141028
	2:[f0<153.4375] yes=5,no=6,missing=5
		5:[f2<0.998333931] yes=11,no=12,missing=11
			11:leaf=0.000362587511
			12:leaf=0.109659314
		6:[f1<408] yes=13,no=14,missing=13
			13:leaf=0.0257404651
			14:leaf=-0.0434766375
booster[107]:
0:[f4<0.121665716] yes=1,no=2,missing=1
	1:[f5<0.000222341827] yes=3,no=4,missing=3
		3:[f10<5.87498393e-14] yes=7,no=8,missing=7
			7:leaf=0.132107496
			8:leaf=0.00324698584
		4:[f10<9.65995639e-08] yes=9,no=10,missing=9
			9:leaf=0.0145520242
			10:leaf=-0.0248904433
	2:[f6<205.3125] yes=5,no=6,missing=5
		5:[f1<320] yes=11,no=12,missing=11
			11:leaf=0.318393856
			12:leaf=-0.0638198629
		6:[f6<304.375] yes=13,no=14,missing=13
			13:leaf=-0.06022745
			14:leaf=-0.0106490711
booster[108]:
0:[f0<57.578125] yes=1,no=2,missing=1
	1:[f3<0.00431136694] yes=3,no=4,missing=3
		3:[f1<338.625] yes=7,no=8,missing=7
			7:leaf=-0.065801926
			8:leaf=-0.0162739493
		4:[f6<370.625] yes=9,no=10,missing=9
			9:leaf=-0.00489310501
			10:leaf=0.13276723
	2:[f3<0.030494608] yes=5,no=6,missing=5
		5:[f8<0.176639989] yes=11,no=12,missing=11
			11:leaf=0.0043518017
			12:leaf=0.209597066
		6:[f1<222.5] yes=13,no=14,missing=13
			13:leaf=0.404023498
			14:leaf=-0.0215081554
booster[109]:
0:[f7<0.911834002] yes=1,no=2,missing=1
	1:[f8<0.0797791332] yes=3,no=4,missing=3
		3:[f9<0.0192629099] yes=7,no=8,missing=7
			7:leaf=-0.0423190854
			8:leaf=-0.00609641429
		4:[f9<0.00227170717] yes=9,no=10,missing=9
			9:leaf=0.236683875
			10:leaf=0.0077820532
	2:[f8<0.000150906155] yes=5,no=6,missing=5
		5:[f6<305.375] yes=11,no=12,missing=11
			11:leaf=-0.0505502522
			12:leaf=0.0255531203
		6:[f1<363.375] yes=13,no=14,missing=13
			13:leaf=0.0214406829
			14:leaf=-0.00303788926
booster[110]:
0:[f7<0.838429034] yes=1,no=2,missing=1
	1:[f7<0.837085724] yes=3,no=4,missing=3
		3:[f2<0.9935745] yes=7,no=8,missing=7
			7:leaf=-0.0159440804
			8:leaf=0.0758789405
		4:[f10<0.0140740182] yes=9,no=10,missing=9
			9:leaf=-0.100499175
			10:leaf=0.0539509952
	2:[f8<0.126146406] yes=5,no=6,missing=5
		5:[f8<0.122812718] yes=11,no=12,missing=11
			11:leaf=0.00144799706
			12:leaf=-0.0750383288
		6:[f9<0.00513850013] yes=13,no=14,missing=13
			13:leaf=0.364102095
			14:leaf=0.0999193192
booster[111]:
0:[f9<0.00019764225] yes=1,no=2,missing=1
	1:[f8<0.00157922006] yes=3,no=4,missing=3
		3:[f8<0.000192260253] yes=7,no=8,missing=7
			7:leaf=-0.012795262
			8:leaf=-0.109643243
		4:[f1<469] yes=9,no=10,missing=9
			9:leaf=0.405428171
			10:leaf=0.0205072705
	2:[f9<0.000841850764] yes=5,no=6,missing=5
		5:[f7<0.97321552] yes=11,no=12,missing=11
			11:leaf=-0.000679294753
			12:leaf=0.165334225
		6:[f9<0.00102279999] yes=13,no=14,missing=13
			13:leaf=-0.0559481494
			14:leaf=0.000341144856
booster[112]:
0:[f2<0.824219108] yes=1,no=2,missing=1
	1:[f3<0.166415453] yes=3,no=4,missing=3
		3:[f5<1.64506719e-08] yes=7,no=8,missing=7
			7:leaf=0.0605520681
			8:leaf=-0.0422708094
		4:[f1<252.8125] yes=9,no=10,missing=9
			9:leaf=0.172567621
			10:leaf=-0.0112539167
	2:[f0<146.0625] yes=5,no=6,missing=5
		5:[f0<122.21875] yes=11,no=12,missing=11
			11:leaf=-0.00305564189
			12:leaf=0.0157277528
		6:[f4<0.0146310031] yes=13,no=14,missing=13
			13:leaf=-0.0474415943
			14:leaf=0.00481460383
booster[113]:
0:[f7<0.994838595] yes=1,no=2,missing=1
	1:[f7<0.994703293] yes=3,no=4,missing=3
		3:[f7<0.994340539] yes=7,no=8,missing=7
			7:leaf=-0.00168223388
			8:leaf=0.120203733
		4:[f0<134.5625] yes=9,no=10,missing=9
			9:leaf=0.17468074
			10:leaf=-0.14742063
	2:[f7<0.995239854] yes=5,no=6,missing=5
		5:[f1<359.75] yes=11,no=12,missing=11
			11:leaf=0.271629512
			12:leaf=0.0857434496
		6:[f8<3.54766307e-05] yes=13,no=14,missing=13
			13:leaf=0.0945804566
			14:leaf=-0.0049922145
booster[114]:
0:[f8<7.82271454e-05] yes=1,no=2,missing=1
	1:[f8<3.79607081e-05] yes=3,no=4,missing=3
		3:[f6<275.625] yes=7,no=8,missing=7
			7:leaf=-0.0625961274
			8:leaf=0.0511377752
		4:[f8<4.06671024e-05] yes=9,no=10,missing=9
			9:leaf=-0.141235128
			10:leaf=-0.0292504132
	2:[f2<0.984242439] yes=5,no=6,missing=5
		5:[f2<0.983932376] yes=11,no=12,missing=11
			11:leaf=-0.00124790822
			12:leaf=-0.0881257877
		6:[f1<377.875] yes=13,no=14,missing=13
			13:leaf=0.039133288
			14:leaf=-0.00983968098
booster[115]:
0:[f4<0.121665716] yes=1,no=2,missing=1
	1:[f7<0.960818172] yes=3,no=4,missing=3
		3:[f8<0.0210843384] yes=7,no=8,missing=7
			7:leaf=-0.0169114899
			8:leaf=0.0064930073
		4:[f8<0.0290363468] yes=9,no=10,missing=9
			9:leaf=0.0070164823
			10:leaf=0.301962137
	2:[f6<205.3125] yes=5,no=6,missing=5
		5:[f1<320] yes=11,no=12,missing=11
			11:leaf=0.245257542
			12:leaf=-0.0623346828
		6:[f1<331.75] yes=13,no=14,missing=13
			13:leaf=-0.0637367591
			14:leaf=-0.0176926982
booster[116]:
0:[f0<50.796875] yes=1,no=2,missing=1
	1:[f3<0.0141204614] yes=3,no=4,missing=3
		3:[f1<289.625] yes=7,no=8,missing=7
			7:leaf=-0.0658450276
			8:leaf=-0.0193426777
		4:[f10<9.37924938e-09] yes=9,no=10,missing=9
			9:leaf=0.0809518471
			10:leaf=-0.0090795448
	2:[f7<0.998623013] yes=5,no=6,missing=5
		5:[f7<0.998241484] yes=11,no=12,missing=11
			11:leaf=0.0018148903
			12:leaf=-0.0790135339
		6:[f1<713.25] yes=13,no=14,missing=13
			13:leaf=0.135046124
			14:leaf=-0.0691155791
booster[117]:
0:[f0<162.5625] yes=1,no=2,missing=1
	1:[f0<120.28125] yes=3,no=4,missing=3
		3:[f3<9.8475648e-06] yes=7,no=8,missing=7
			7:leaf=-0.0995249152
			8:leaf=-0.00268507749
		4:[f8<2.76094215e-05] yes=9,no=10,missing=9
			9:leaf=0.103676572
			10:leaf=0.00692204386
	2:[f1<534.75] yes=5,no=6,missing=5
		5:[f7<0.986297369] yes=11,no=12,missing=11
			11:leaf=-0.027290253
			12:leaf=0.0976139903
		6:[f4<0.0360003486] yes=13,no=14,missing=13
			13:leaf=-0.0789246485
			14:leaf=-0.00894068833
booster[118]:
0:[f8<8.31439393e-05] yes=1,no=2,missing=1
	1:[f2<0.991093755] yes=3,no=4,missing=3
		3:[f2<0.987055659] yes=7,no=8,missing=7
			7:leaf=-0.00914604869
			8:leaf=0.136118039
		4:[f10<4.66041702e-12] yes=9,no=10,missing=9
			9:leaf=0.155535713
			10:leaf=-0.0975439623
	2:[f10<1.56138755e-10] yes=5,no=6,missing=5
		5:[f1<310.375] yes=11,no=12,missing=11
			11:leaf=-0.0489233173
			12:leaf=0.10014075
		6:[f2<0.996859193] yes=13,no=14,missing=13
			13:leaf=-0.00128938013
			14:leaf=0.0461122207
booster[119]:
0:[f2<0.960105777] yes=1,no=2,missing=1
	1:[f7<0.982552528] yes=3,no=4,missing=3
		3:[f6<204.4375] yes=7,no=8,missing=7
			7:leaf=0.0446192659
			8:leaf=-0.0157950204
		4:[f6<255.3125] yes=9,no=10,missing=9
			9:leaf=-0.0273507293
			10:leaf=0.027702475
	2:[f4<0.0370196328] yes=5,no=6,missing=5
		5:[f1<334.875] yes=11,no=12,missing=11
			11:leaf=0.0203371421
			12:leaf=-0.00509038381
		6:[f0<75.4375] yes=13,no=14,missing=13
			13:leaf=-0.081085369
			14:leaf=0.19149901
booster[120]:
0:[f7<0.838429034] yes=1,no=2,missing=1
	1:[f7<0.837085724] yes=3,no=4,missing=3
		3:[f10<6.57880577e-08] yes=7,no=8,missing=7
			7:leaf=-0.0874606296
			8:leaf=-0.000519384048
		4:[f10<0.0140740182] yes=9,no=10,missing=9
			9:leaf=-0.098447077
			10:leaf=0.0514337011
	2:[f8<0.126146406] yes=5,no=6,missing=5
		5:[f8<0.122812718] yes=11,no=12,missing=11
			11:leaf=0.00134614785
			12:leaf=-0.0728165805
		6:[f9<0.00713224243] yes=13,no=14,missing=13
			13:leaf=0.244442627
			14:leaf=0.0592647083
booster[121]:
0:[f8<8.31439393e-05] yes=1,no=2,missing=1
	1:[f5<4.20606779e-12] yes=3,no=4,missing=3
		3:[f0<170.9375] yes=7,no=8,missing=7
			7:leaf=0.164273977
			8:leaf=-0.0662625954
		4:[f2<0.991093755] yes=9,no=10,missing=9
			9:leaf=-0.00646128738
			10:leaf=-0.074093692
	2:[f8<0.000119992394] yes=5,no=6,missing=5
		5:[f10<5.62313645e-08] yes=11,no=12,missing=11
			11:leaf=0.110526383
			12:leaf=-0.0600504056
		6:[f8<0.000120807861] yes=13,no=14,missing=13
			13:leaf=-0.0992635116
			14:leaf=0.00156637374
booster[122]:
0:[f9<0.00019764225] yes=1,no=2,missing=1
	1:[f8<0.00157922006] yes=3,no=4,missing=3
		3:[f0<148.9375] yes=7,no=8,missing=7
			7:leaf=-0.0948910341
			8:leaf=0.101754047
		4:[f9<0.000138680392] yes=9,no=10,missing=9
			9:leaf=0.364798456
			10:leaf=0.0429419763
	2:[f9<0.000841850764] yes=5,no=6,missing=5
		5:[f10<4.79726077e-05] yes=11,no=12,missing=11
			11:leaf=0.172710821
			12:leaf=0.00633022888
		6:[f9<0.00102279999] yes=13,no=14,missing=13
			13:leaf=-0.0545282625
			14:leaf=0.000386710162
booster[123]:
0:[f5<0.000222341827] yes=1,no=2,missing=1
	1:[f8<0.00665118173] yes=3,no=4,missing=3
		3:[f6<229.9375] yes=7,no=8,missing=7
			7:leaf=-0.0425690413
			8:leaf=0.00156328443
		4:[f8<0.0068093501] yes=9,no=10,missing=9
			9:leaf=0.485708445
			10:leaf=0.00953858159
	2:[f10<9.65995639e-08] yes=5,no=6,missing=5
		5:[f2<0.932959318] yes=11,no=12,missing=11
			11:leaf=-0.0108950501
			12:leaf=0.0638429001
		6:[f9<0.00134139799] yes=13,no=14,missing=13
			13:leaf=0.0782964453
			14:leaf=-0.0261339005
booster[124]:
0:[f7<0.911834002] yes=1,no=2,missing=1
	1:[f7<0.910143971] yes=3,no=4,missing=3
		3:[f8<0.0388464183] yes=7,no=8,missing=7
			7:leaf=-0.0214043129
			8:leaf=0.0074577108
		4:[f9<0.00670350716] yes=9,no=10,missing=9
			9:leaf=0.0934569538
			10:leaf=-0.0920747221
	2:[f2<0.98756063] yes=5,no=6,missing=5
		5:[f4<0.0158638619] yes=11,no=12,missing=11
			11:leaf=-0.0176630411
			12:leaf=0.00776198367
		6:[f1<258.625] yes=13,no=14,missing=13
			13:leaf=0.228824139
			14:leaf=0.0147896856
booster[125]:
0:[f4<0.121665716] yes=1,no=2,missing=1
	1:[f8<8.31439393e-05] yes=3,no=4,missing=3
		3:[f8<3.79840967e-05] yes=7,no=8,missing=7
			7:leaf=0.0167326052
			8:leaf=-0.0396038555
		4:[f10<3.54121539e-06] yes=9,no=10,missing=9
			9:leaf=0.0121354219
			10:leaf=-0.00471222214
	2:[f6<206.4375] yes=5,no=6,missing=5
		5:[f4<0.151123494] yes=11,no=12,missing=11
			11:leaf=0.291451901
			12:leaf=-0.0109463008
		6:[f6<304.375] yes=13,no=14,missing=13
			13:leaf=-0.0563837364
			14:leaf=-0.0108953016
booster[126]:
0:[f0<157.0625] yes=1,no=2,missing=1
	1:[f2<0.998333931] yes=3,no=4,missing=3
		3:[f4<0.00151199219] yes=7,no=8,missing=7
			7:leaf=-0.0418511666
			8:leaf=0.00195764937
		4:[f0<68.03125] yes=9,no=10,missing=9
			9:leaf=-0.0356473476
			10:leaf=0.112612866
	2:[f1<534.75] yes=5,no=6,missing=5
		5:[f8<0.0980405584] yes=11,no=12,missing=11
			11:leaf=-0.0126663893
			12:leaf=0.152666435
		6:[f4<0.0360003486] yes=13,no=14,missing=13
			13:leaf=-0.0771451518
			14:leaf=-0.0132707385
booster[127]:
0:[f0<133.4375] yes=1,no=2,missing=1
	1:[f0<124.09375] yes=3,no=4,missing=3
		3:[f3<9.8475648e-06] yes=7,no=8,missing=7
			7:leaf=-0.0787416697
			8:leaf=-0.00191889424
		4:[f1<311.875] yes=9,no=10,missing=9
			9:leaf=0.161168918
			10:leaf=0.0228831805
	2:[f1<305.125] yes=5,no=6,missing=5
		5:[f3<0.000703335332] yes=11,no=12,missing=11
			11:leaf=0.126898199
			12:leaf=0.538921237
		6:[f5<5.61337348e-12] yes=13,no=14,missing=13
			13:leaf=0.0661397725
			14:leaf=-0.018596096
booster[128]:
0:[f7<0.838429034] yes=1,no=2,missing=1
	1:[f7<0.837085724] yes=3,no=4,missing=3
		3:[f10<6.57880577e-08] yes=7,no=8,missing=7
			7:leaf=-0.0857834816
			8:leaf=-0.000734698668
		4:[f10<0.0140740182] yes=9,no=10,missing=9
			9:leaf=-0.0960245952
			10:leaf=0.0500228964
	2:[f8<0.126146406] yes=5,no=6,missing=5
		5:[f6<369.375] yes=11,no=12,missing=11
			11:leaf=-0.0025846255
			12:leaf=0.0143179744
		6:[f3<0.00464706961] yes=13,no=14,missing=13
			13:leaf=0.192997202
			14:leaf=0.0314712338
booster[129]:
0:[f8<0.176770538] yes=1,no=2,missing=1
	1:[f8<0.171251267] yes=3,no=4,missing=3
		3:[f8<0.104051277] yes=7,no=8,missing=7
			7:leaf=-0.00142836897
			8:leaf=0.0226679947
		4:[f2<0.980452061] yes=9,no=10,missing=9
			9:leaf=-0.0904594734
			10:leaf=0.176439956
	2:[f0<104.8125] yes=5,no=6,missing=5
		5:[f6<230.125] yes=11,no=12,missing=11
			11:leaf=0.165010065
			12:leaf=-0.0383511633
		6:[f2<0.986602068] yes=13,no=14,missing=13
			13:leaf=0.416169971
			14:leaf=0.121116713
booster[130]:
0:[f7<0.863232017] yes=1,no=2,missing=1
	1:[f10<7.60487424e-08] yes=3,no=4,missing=3
		3:[f1<368.375] yes=7,no=8,missing=7
			7:leaf=-0.0901690051
			8:leaf=-0.00475316308
		4:[f6<341.125] yes=9,no=10,missing=9
			9:leaf=0.00596930971
			10:leaf=-0.0483645089
	2:[f8<0.107066788] yes=5,no=6,missing=5
		5:[f6<369.375] yes=11,no=12,missing=11
			11:leaf=-0.00224213139
			12:leaf=0.0156575758
		6:[f3<0.000734665024] yes=13,no=14,missing=13
			13:leaf=0.291081309
			14:leaf=0.0623928793
booster[131]:
0:[f0<50.796875] yes=1,no=2,missing=1
	1:[f3<0.00421622256] yes=3,no=4,missing=3
		3:[f1<703] yes=7,no=8,missing=7
			7:leaf=-0.0545261577
			8:leaf=0.0915959999
		4:[f4<0.0192037802] yes=9,no=10,missing=9
			9:leaf=0.033287432
			10:leaf=-0.026789844
	2:[f1<363.375] yes=5,no=6,missing=5
		5:[f8<0.000145628408] yes=11,no=12,missing=11
			11:leaf=-0.0347741023
			12:leaf=0.0143548017
		6:[f10<3.54121539e-06] yes=13,no=14,missing=13
			13:leaf=0.0122428825
			14:leaf=-0.0253657755
booster[132]:
0:[f2<0.824219108] yes=1,no=2,missing=1
	1:[f5<1.64506719e-08] yes=3,no=4,missing=3
		3:[f9<0.038770169] yes=7,no=8,missing=7
			7:leaf=0.153145552
			8:leaf=-0.0453325622
		4:[f3<0.166415453] yes=9,no=10,missing=9
			9:leaf=-0.0384777524
			10:leaf=0.0235982221
	2:[f0<133.4375] yes=5,no=6,missing=5
		5:[f0<124.09375] yes=11,no=12,missing=11
			11:leaf=-0.00173872267
			12:leaf=0.0309136957
		6:[f5<4.33547254e-10] yes=13,no=14,missing=13
			13:leaf=0.0277772304
			14:leaf=-0.0207061581
booster[133]:
0:[f5<4.28251531e-11] yes=1,no=2,missing=1
	1:[f5<4.14486154e-11] yes=3,no=4,missing=3
		3:[f10<1.7800831e-08] yes=7,no=8,missing=7
			7:leaf=0.0515356474
			8:leaf=-0.0234669261
		4:[f10<1.25871782e-06] yes=9,no=10,missing=9
			9:leaf=-0.256831735
			10:leaf=0.202719525
	2:[f5<3.34608785e-10] yes=5,no=6,missing=5
		5:[f0<113.5] yes=11,no=12,missing=11
			11:leaf=-0.00824258476
			12:leaf=0.0720793009
		6:[f0<133.1875] yes=13,no=14,missing=13
			13:leaf=0.0036825717
			14:leaf=-0.0172488559
booster[134]:
0:[f7<0.966132402] yes=1,no=2,missing=1
	1:[f8<0.00289496314] yes=3,no=4,missing=3
		3:[f1<440.125] yes=7,no=8,missing=7
			7:leaf=-0.0327085927
			8:leaf=0.00900502782
		4:[f6<228.1875] yes=9,no=10,missing=9
			9:leaf=0.0231822394
			10:leaf=-0.00483193342
	2:[f8<0.0192024149] yes=5,no=6,missing=5
		5:[f3<1.44135829e-05] yes=11,no=12,missing=11
			11:leaf=-0.058788266
			12:leaf=0.00719430158
		6:[f1<278.5] yes=13,no=14,missing=13
			13:leaf=0.446026564
			14:leaf=0.0705626309
booster[135]:
0:[f2<0.960105777] yes=1,no=2,missing=1
	1:[f7<0.982552528] yes=3,no=4,missing=3
		3:[f2<0.955595672] yes=7,no=8,missing=7
			7:leaf=-0.00895698275
			8:leaf=-0.044853162
		4:[f6<255.3125] yes=9,no=10,missing=9
			9:leaf=-0.0240123346
			10:leaf=0.0228185654
	2:[f4<0.0370196328] yes=5,no=6,missing=5
		5:[f8<0.000150990702] yes=11,no=12,missing=11
			11:leaf=-0.0212287474
			12:leaf=0.00821586512
		6:[f3<0.000759829651] yes=13,no=14,missing=13
			13:leaf=0.0852018297
			14:leaf=0.389612973
booster[136]:
0:[f4<0.121665716] yes=1,no=2,missing=1
	1:[f3<0.030494608] yes=3,no=4,missing=3
		3:[f0<75.59375] yes=7,no=8,missing=7
			7:leaf=-0.0232172571
			8:leaf=0.00594139937
		4:[f0<82.65625] yes=9,no=10,missing=9
			9:leaf=0.0204010792
			10:leaf=-0.0321996473
	2:[f3<0.0432759412] yes=5,no=6,missing=5
		5:[f4<0.169150591] yes=11,no=12,missing=11
			11:leaf=-0.042790588
			12:leaf=0.0206498411
		6:[f8<0.00608358625] yes=13,no=14,missing=13
			13:leaf=0.256171793
			14:leaf=-0.0378279798
booster[137]:
0:[f10<0.0419170633] yes=1,no=2,missing=1
	1:[f10<0.0253675766] yes=3,no=4,missing=3
		3:[f10<0.0241624676] yes=7,no=8,missing=7
			7:leaf=0.000217349967
			8:leaf=0.262029558
		4:[f8<0.049134057] yes=9,no=10,missing=9
			9:leaf=-0.0591052659
			10:leaf=0.0865899175
	2:[f9<0.00471738447] yes=5,no=6,missing=5
		5:[f0<112.46875] yes=11,no=12,missing=11
			11:leaf=0.555430114
			12:leaf=0.0887874216
		6:[f10<0.0470955856] yes=13,no=14,missing=13
			13:leaf=0.266929835
			14:leaf=-0.0193379782
booster[138]:
0:[f2<0.995760202] yes=1,no=2,missing=1
	1:[f2<0.995317221] yes=3,no=4,missing=3
		3:[f2<0.994516432] yes=7,no=8,missing=7
			7:leaf=-0.00113443099
			8:leaf=0.0656385273
		4:[f8<0.029180795] yes=9,no=10,missing=9
			9:leaf=-0.0870054364
			10:leaf=0.158965513
	2:[f2<0.996459603] yes=5,no=6,missing=5
		5:[f4<0.00412915275] yes=11,no=12,missing=11
			11:leaf=0.121265821
			12:leaf=-0.0498393811
		6:[f2<0.996473551] yes=13,no=14,missing=13
			13:leaf=-0.22215493
			14:leaf=0.00959888194
booster[139]:
0:[f7<0.911834002] yes=1,no=2,missing=1
	1:[f7<0.910143971] yes=3,no=4,missing=3
		3:[f6<201.6875] yes=7,no=8,missing=7
			7:leaf=0.136469439
			8:leaf=-0.00561648654
		4:[f2<0.989208519] yes=9,no=10,missing=9
			9:leaf=-0.0210496821
			10:leaf=-0.109590828
	2:[f8<0.06100142] yes=5,no=6,missing=5
		5:[f10<0.0113894138] yes=11,no=12,missing=11
			11:leaf=0.00183114875
			12:leaf=0.0890786573
		6:[f9<0.00269600004] yes=13,no=14,missing=13
			13:leaf=0.331881791
			14:leaf=0.0311247092
booster[140]:
0:[f8<0.176770538] yes=1,no=2,missing=1
	1:[f8<0.171251267] yes=3,no=4,missing=3
		3:[f4<0.00211663125] yes=7,no=8,missing=7
			7:leaf=-0.0215980355
			8:leaf=0.00146723585
		4:[f2<0.980452061] yes=9,no=10,missing=9
			9:leaf=-0.0857773647
			10:leaf=0.160752743
	2:[f0<104.8125] yes=5,no=6,missing=5
		5:[f8<0.18294695] yes=11,no=12,missing=11
			11:leaf=0.0946611315
			12:leaf=-0.0704341382
		6:[f2<0.986602068] yes=13,no=14,missing=13
			13:leaf=0.33193472
			14:leaf=0.114517741
booster[141]:
0:[f2<0.998099089] yes=1,no=2,missing=1
	1:[f4<0.00180695381] yes=3,no=4,missing=3
		3:[f3<0.000792754698] yes=7,no=8,missing=7
			7:leaf=-0.0617009662
			8:leaf=0.00356740179
		4:[f2<0.997782111] yes=9,no=10,missing=9
			9:leaf=0.00137667335
			10:leaf=-0.0819561779
	2:[f0<153.9375] yes=5,no=6,missing=5
		5:[f0<83.5625] yes=11,no=12,missing=11
			11:leaf=-0.0091134347
			12:leaf=0.109801702
		6:leaf=-0.0860116929
booster[142]:
0:[f2<0.995736003] yes=1,no=2,missing=1
	1:[f2<0.995317221] yes=3,no=4,missing=3
		3:[f2<0.994516432] yes=7,no=8,missing=7
			7:leaf=-0.00113961147
			8:leaf=0.0585322194
		4:[f1<317] yes=9,no=10,missing=9
			9:leaf=0.123185471
			10:leaf=-0.0842124149
	2:[f5<5.7828322e-07] yes=5,no=6,missing=5
		5:[f9<0.0396320224] yes=11,no=12,missing=11
			11:leaf=0.0673791021
			12:leaf=-0.0182313919
		6:[f5<5.82847463e-07] yes=13,no=14,missing=13
			13:leaf=-0.256504834
			14:leaf=-0.0244402196
booster[143]:
0:[f0<157.0625] yes=1,no=2,missing=1
	1:[f2<0.99791199] yes=3,no=4,missing=3
		3:[f2<0.997885525] yes=7,no=8,missing=7
			7:leaf=0.00082672498
			8:leaf=-0.190178171
		4:[f6<490.625] yes=9,no=10,missing=9
			9:leaf=0.0988501534
			10:leaf=-0.053006608
	2:[f1<534.75] yes=5,no=6,missing=5
		5:[f0<199.25] yes=11,no=12,missing=11
			11:leaf=-0.0127863735
			12:leaf=0.111416876
		6:[f4<0.0360003486] yes=13,no=14,missing=13
			13:leaf=-0.0743841603
			14:leaf=-0.0116676791
booster[144]:
0:[f9<0.00019764225] yes=1,no=2,missing=1
	1:[f8<0.00157922006] yes=3,no=4,missing=3
		3:[f8<0.000192260253] yes=7,no=8,missing=7
			7:leaf=0.00165331236
			8:leaf=-0.102753557
		4:[f1<469] yes=9,no=10,missing=9
			9:leaf=0.303902745
			10:leaf=0.0120346723
	2:[f9<0.000841850764] yes=5,no=6,missing=5
		5:[f8<0.0235074833] yes=11,no=12,missing=11
			11:leaf=0.0280361157
			12:leaf=0.330829829
		6:[f9<0.00102279999] yes=13,no=14,missing=13
			13:leaf=-0.0513725355
			14:leaf=0.000360387116
booster[145]:
0:[f7<0.817019701] yes=1,no=2,missing=1
	1:[f7<0.81696403] yes=3,no=4,missing=3
		3:[f8<0.173928455] yes=7,no=8,missing=7
			7:leaf=-0.0193964243
			8:leaf=0.0922331437
		4:[f2<0.978912711] yes=9,no=10,missing=9
			9:leaf=-0.114378706
			10:leaf=-0.233039856
	2:[f8<0.104051277] yes=5,no=6,missing=5
		5:[f5<4.75690529e-11] yes=11,no=12,missing=11
			11:leaf=-0.0165028404
			12:leaf=0.00218872726
		6:[f3<0.000730101834] yes=13,no=14,missing=13
			13:leaf=0.126405105
			14:leaf=-0.00550852716
booster[146]:
0:[f0<66.28125] yes=1,no=2,missing=1
	1:[f3<0.00744838361] yes=3,no=4,missing=3
		3:[f1<289.25] yes=7,no=8,missing=7
			7:leaf=-0.062082231
			8:leaf=-0.0190024059
		4:[f2<0.967631996] yes=9,no=10,missing=9
			9:leaf=0.0076507167
			10:leaf=0.153388619
	2:[f3<0.030494608] yes=5,no=6,missing=5
		5:[f8<0.00147165579] yes=11,no=12,missing=11
			11:leaf=-0.005028076
			12:leaf=0.0108981337
		6:[f6<207.5625] yes=13,no=14,missing=13
			13:leaf=0.143072873
			14:leaf=-0.0225325562
booster[147]:
0:[f7<0.937450171] yes=1,no=2,missing=1
	1:[f6<201.8125] yes=3,no=4,missing=3
		3:[f2<0.843511462] yes=7,no=8,missing=7
			7:leaf=-0.0795275196
			8:leaf=0.197868571
		4:[f3<2.18666355e-05] yes=9,no=10,missing=9
			9:leaf=0.0528522916
			10:leaf=-0.00930853561
	2:[f9<0.0601290613] yes=5,no=6,missing=5
		5:[f10<0.011935561] yes=11,no=12,missing=11
			11:leaf=0.00343417795
			12:leaf=0.20652023
		6:[f6<232.4375] yes=13,no=14,missing=13
			13:leaf=-0.065187417
			14:leaf=0.395553917
booster[148]:
0:[f7<0.994838595] yes=1,no=2,missing=1
	1:[f7<0.994703293] yes=3,no=4,missing=3
		3:[f7<0.994340539] yes=7,no=8,missing=7
			7:leaf=-0.00131026295
			8:leaf=0.0976265892
		4:[f0<134.5625] yes=9,no=10,missing=9
			9:leaf=0.143808752
			10:leaf=-0.133501798
	2:[f10<2.62660906e-05] yes=5,no=6,missing=5
		5:[f8<0.000233319675] yes=11,no=12,missing=11
			11:leaf=0.00463763624
			12:leaf=0.0874590203
		6:[f10<3.80557904e-05] yes=13,no=14,missing=13
			13:leaf=-0.152137145
			14:leaf=-0.0297893714
booster[149]:
0:[f4<0.121665716] yes=1,no=2,missing=1
	1:[f4<0.0158638619] yes=3,no=4,missing=3
		3:[f2<0.984191] yes=7,no=8,missing=7
			7:leaf=-0.0208278317
			8:leaf=0.00674776593
		4:[f2<0.982548714] yes=9,no=10,missing=9
			9:leaf=0.00417714706
			10:leaf=0.102572024
	2:[f3<0.0432759412] yes=5,no=6,missing=5
		5:[f6<304.375] yes=11,no=12,missing=11
			11:leaf=-0.049153816
			12:leaf=-0.00908118393
		6:[f8<0.00608358625] yes=13,no=14,missing=13
			13:leaf=0.220489696
			14:leaf=-0.0353722833
booster[150]:
0:[f8<7.82271454e-05] yes=1,no=2,missing=1
	1:[f0<130.1875] yes=3,no=4,missing=3
		3:[f4<0.00544496113] yes=7,no=8,missing=7
			7:leaf=0.0643094555
			8:leaf=-0.0421256423
		4:[f4<0.00337459007] yes=9,no=10,missing=9
			9:leaf=-0.0794587657
			10:leaf=0.072642833
	2:[f10<8.33554198e-11] yes=5,no=6,missing=5
		5:[f6<318.125] yes=11,no=12,missing=11
			11:leaf=-0.0128140049
			12:leaf=0.1675511
		6:[f1<363.375] yes=13,no=14,missing=13
			13:leaf=0.00665214984
			14:leaf=-0.00789481308
booster[151]:
0:[f0<163.3125] yes=1,no=2,missing=1
	1:[f0<114.28125] yes=3,no=4,missing=3
		3:[f8<0.000122249883] yes=7,no=8,missing=7
			7:leaf=-0.0369389243
			8:leaf=-0.0002186856
		4:[f8<2.76094215e-05] yes=9,no=10,missing=9
			9:leaf=0.0765625909
			10:leaf=0.00454617059
	2:[f1<369.875] yes=5,no=6,missing=5
		5:[f0<163.9375] yes=11,no=12,missing=11
			11:leaf=-0.0460397862
			12:leaf=0.295516878
		6:[f4<0.0353022702] yes=13,no=14,missing=13
			13:leaf=-0.0482606217
			14:leaf=0.00390952872
booster[152]:
0:[f10<3.54121539e-06] yes=1,no=2,missing=1
	1:[f6<305.375] yes=3,no=4,missing=3
		3:[f6<304.125] yes=7,no=8,missing=7
			7:leaf=-0.00554466434
			8:leaf=-0.123499744
		4:[f5<9.14470064e-08] yes=9,no=10,missing=9
			9:leaf=0.0390114784
			10:leaf=0.00589895062
	2:[f1<342.875] yes=5,no=6,missing=5
		5:[f2<0.974487305] yes=11,no=12,missing=11
			11:leaf=-0.00815480202
			12:leaf=0.0543672219
		6:[f10<5.27017755e-06] yes=13,no=14,missing=13
			13:leaf=-0.0702800453
			14:leaf=-0.0157414097
booster[153]:
0:[f7<0.860289872] yes=1,no=2,missing=1
	1:[f10<7.60487424e-08] yes=3,no=4,missing=3
		3:[f0<129.75] yes=7,no=8,missing=7
			7:leaf=-0.0797788054
			8:leaf=0.0442568995
		4:[f0<111.40625] yes=9,no=10,missing=9
			9:leaf=-0.0240749549
			10:leaf=0.0184390228
	2:[f8<0.107066788] yes=5,no=6,missing=5
		5:[f7<0.86190331] yes=11,no=12,missing=11
			11:leaf=0.135534242
			12:leaf=0.000775311433
		6:[f3<0.000734665024] yes=13,no=14,missing=13
			13:leaf=0.222239897
			14:leaf=0.051248163
booster[154]:
0:[f10<0.0419170633] yes=1,no=2,missing=1
	1:[f10<0.031337738] yes=3,no=4,missing=3
		3:[f7<0.817019701] yes=7,no=8,missing=7
			7:leaf=-0.023114983
			8:leaf=0.00125317008
		4:[f4<0.0158703625] yes=9,no=10,missing=9
			9:leaf=-0.0882395208
			10:leaf=0.0250469949
	2:[f9<0.00471738447] yes=5,no=6,missing=5
		5:[f8<0.0105140842] yes=11,no=12,missing=11
			11:leaf=0.123590328
			12:leaf=0.513535142
		6:[f10<0.0470955856] yes=13,no=14,missing=13
			13:leaf=0.225245163
			14:leaf=-0.0168958809
booster[155]:
0:[f5<4.75690529e-11] yes=1,no=2,missing=1
	1:[f10<1.51252517e-11] yes=3,no=4,missing=3
		3:[f1<638.5] yes=7,no=8,missing=7
			7:leaf=0.17217268
			8:leaf=-0.083482042
		4:[f8<0.0949111432] yes=9,no=10,missing=9
			9:leaf=-0.0218845475
			10:leaf=0.0660913885
	2:[f5<5.19704002e-11] yes=5,no=6,missing=5
		5:[f0<96.28125] yes=11,no=12,missing=11
			11:leaf=0.0464523397
			12:leaf=0.28319487
		6:[f3<4.8121452e-05] yes=13,no=14,missing=13
			13:leaf=0.0426387042
			14:leaf=-6.20146166e-05
booster[156]:
0:[f8<0.00147373555] yes=1,no=2,missing=1
	1:[f10<3.35709301e-05] yes=3,no=4,missing=3
		3:[f7<0.9857862] yes=7,no=8,missing=7
			7:leaf=-0.0146686211
			8:leaf=0.0163123664
		4:[f9<0.0360643566] yes=9,no=10,missing=9
			9:leaf=-0.0632070154
			10:leaf=0.164736733
	2:[f9<0.00135452719] yes=5,no=6,missing=5
		5:[f6<286.375] yes=11,no=12,missing=11
			11:leaf=0.17215313
			12:leaf=-0.0157553069
		6:[f8<0.00210263021] yes=13,no=14,missing=13
			13:leaf=0.0578596853
			14:leaf=-0.00189009611
booster[157]:
0:[f8<7.82271454e-05] yes=1,no=2,missing=1
	1:[f2<0.991093755] yes=3,no=4,missing=3
		3:[f2<0.987055659] yes=7,no=8,missing=7
			7:leaf=-0.00680375332
			8:leaf=0.122173838
		4:[f10<4.66041702e-12] yes=9,no=10,missing=9
			9:leaf=0.146887898
			10:leaf=-0.0842470303
	2:[f8<0.000119992394] yes=5,no=6,missing=5
		5:[f5<1.17921743e-07] yes=11,no=12,missing=11
			11:leaf=0.116257645
			12:leaf=-0.00524536287
		6:[f8<0.000120807861] yes=13,no=14,missing=13
			13:leaf=-0.0976450592
			14:leaf=0.00115832954
booster[158]:
0:[f0<151.3125] yes=1,no=2,missing=1
	1:[f0<150.6875] yes=3,no=4,missing=3
		3:[f6<461.125] yes=7,no=8,missing=7
			7:leaf=-0.000541348651
			8:leaf=0.0267222859
		4:[f9<0.0157125369] yes=9,no=10,missing=9
			9:leaf=0.0421660058
			10:leaf=0.390975982
	2:[f1<488.25] yes=5,no=6,missing=5
		5:[f10<1.62819515e-11] yes=11,no=12,missing=11
			11:leaf=0.257229567
			12:leaf=-0.00289347651
		6:[f6<375.125] yes=13,no=14,missing=13
			13:leaf=-0.0880205855
			14:leaf=-0.0258706696
booster[159]:
0:[f7<0.960818172] yes=1,no=2,missing=1
	1:[f0<97.53125] yes=3,no=4,missing=3
		3:[f3<0.0582849272] yes=7,no=8,missing=7
			7:leaf=-0.0270219687
			8:leaf=0.0139514981
		4:[f6<231.4375] yes=9,no=10,missing=9
			9:leaf=0.0349114314
			10:leaf=-0.00311204093
	2:[f7<0.961352706] yes=5,no=6,missing=5
		5:[f3<0.113601968] yes=11,no=12,missing=11
			11:leaf=0.288759798
			12:leaf=-0.0211767238
		6:[f8<0.0290363468] yes=13,no=14,missing=13
			13:leaf=0.00345243816
			14:leaf=0.209556028
booster[160]:
0:[f2<0.824219108] yes=1,no=2,missing=1
	1:[f5<1.64506719e-08] yes=3,no=4,missing=3
		3:[f7<0.989238262] yes=7,no=8,missing=7
			7:leaf=0.0147897517
			8:leaf=0.250431091
		4:[f9<0.0921702981] yes=9,no=10,missing=9
			9:leaf=-0.031868007
			10:leaf=0.0833766982
	2:[f3<0.13893415] yes=5,no=6,missing=5
		5:[f8<0.0118158832] yes=11,no=12,missing=11
			11:leaf=-0.00328028994
			12:leaf=0.00698408624
		6:[f0<74.59375] yes=13,no=14,missing=13
			13:leaf=0.280097991
			14:leaf=-0.0139327366
booster[161]:
0:[f7<0.966132402] yes=1,no=2,missing=1
	1:[f8<0.00289496314] yes=3,no=4,missing=3
		3:[f6<264.875] yes=7,no=8,missing=7
			7:leaf=-0.0430246331
			8:leaf=-0.0100501599
		4:[f6<228.1875] yes=9,no=10,missing=9
			9:leaf=0.0191661697
			10:leaf=-0.00421569496
	2:[f0<101.28125] yes=5,no=6,missing=5
		5:[f2<0.983059287] yes=11,no=12,missing=11
			11:leaf=0.00845861528
			12:leaf=0.105601907
		6:[f0<122.21875] yes=13,no=14,missing=13
			13:leaf=-0.0176192969
			14:leaf=0.0124105327
booster[162]:
0:[f3<1.24603994e-05] yes=1,no=2,missing=1
	1:[f0<118.46875] yes=3,no=4,missing=3
		3:[f10<3.35931254e-05] yes=7,no=8,missing=7
			7:leaf=-0.100591674
			8:leaf=0.0679099336
		4:[f3<1.24429662e-05] yes=9,no=10,missing=9
			9:leaf=0.0340067782
			10:leaf=-0.306875199
	2:[f3<2.18863206e-05] yes=5,no=6,missing=5
		5:[f7<0.998217821] yes=11,no=12,missing=11
			11:leaf=0.0841819867
			12:leaf=-0.376822531
		6:[f3<2.31603553e-05] yes=13,no=14,missing=13
			13:leaf=-0.0893221498
			14:leaf=0.000248108379
booster[163]:
0:[f10<3.60704826e-06] yes=1,no=2,missing=1
	1:[f6<276.375] yes=3,no=4,missing=3
		3:[f9<0.00237569981] yes=7,no=8,missing=7
			7:leaf=0.124120846
			8:leaf=-0.0170180015
		4:[f9<0.0017463991] yes=9,no=10,missing=9
			9:leaf=-0.0392885618
			10:leaf=0.0193039905
	2:[f1<343.375] yes=5,no=6,missing=5
		5:[f0<124.96875] yes=11,no=12,missing=11
			11:leaf=0.00239496259
			12:leaf=0.0956715345
		6:[f9<0.0189727936] yes=13,no=14,missing=13
			13:leaf=-0.0306010097
			14:leaf=0.00138194696
booster[164]:
0:[f10<0.0419170633] yes=1,no=2,missing=1
	1:[f10<0.0381543189] yes=3,no=4,missing=3
		3:[f7<0.863463879] yes=7,no=8,missing=7
			7:leaf=-0.0106943408
			8:leaf=0.00214951602
		4:[f7<0.864464521] yes=9,no=10,missing=9
			9:leaf=-0.0236153211
			10:leaf=-0.119450741
	2:[f9<0.00494952034] yes=5,no=6,missing=5
		5:[f8<0.0105140842] yes=11,no=12,missing=11
			11:leaf=0.0897731185
			12:leaf=0.467578381
		6:[f8<0.0621250458] yes=13,no=14,missing=13
			13:leaf=-0.00785299391
			14:leaf=0.245485231
booster[165]:
0:[f8<7.82271454e-05] yes=1,no=2,missing=1
	1:[f8<3.79607081e-05] yes=3,no=4,missing=3
		3:[f9<0.00683973823] yes=7,no=8,missing=7
			7:leaf=0.0615136623
			8:leaf=-0.0205683894
		4:[f8<4.06671024e-05] yes=9,no=10,missing=9
			9:leaf=-0.121269383
			10:leaf=-0.0166899245
	2:[f10<2.33159536e-09] yes=5,no=6,missing=5
		5:[f1<309.875] yes=11,no=12,missing=11
			11:leaf=-0.0349829309
			12:leaf=0.0446600877
		6:[f10<2.34030262e-09] yes=13,no=14,missing=13
			13:leaf=-0.228553489
			14:leaf=-0.000284480804
booster[166]:
0:[f0<151.3125] yes=1,no=2,missing=1
	1:[f2<0.998333931] yes=3,no=4,missing=3
		3:[f4<0.00180460582] yes=7,no=8,missing=7
			7:leaf=-0.0285203736
			8:leaf=0.00178256223
		4:[f0<68.03125] yes=9,no=10,missing=9
			9:leaf=-0.039808441
			10:leaf=0.11370521
	2:[f1<488.25] yes=5,no=6,missing=5
		5:[f10<1.62819515e-11] yes=11,no=12,missing=11
			11:leaf=0.213348076
			12:leaf=-0.00359995477
		6:[f6<375.125] yes=13,no=14,missing=13
			13:leaf=-0.0860864446
			14:leaf=-0.0252757017
booster[167]:
0:[f4<0.0934522897] yes=1,no=2,missing=1
	1:[f4<0.086882621] yes=3,no=4,missing=3
		3:[f8<8.31439393e-05] yes=7,no=8,missing=7
			7:leaf=-0.0151317269
			8:leaf=0.00226822938
		4:[f7<0.989478111] yes=9,no=10,missing=9
			9:leaf=0.0189592522
			10:leaf=0.437947899
	2:[f8<0.128596395] yes=5,no=6,missing=5
		5:[f7<0.99615556] yes=11,no=12,missing=11
			11:leaf=-0.0273121744
			12:leaf=0.0747322664
		6:[f10<4.85321179e-05] yes=13,no=14,missing=13
			13:leaf=0.0211735703
			14:leaf=0.434120148
booster[168]:
0:[f8<0.176770538] yes=1,no=2,missing=1
	1:[f8<0.171251267] yes=3,no=4,missing=3
		3:[f5<1.31806534e-14] yes=7,no=8,missing=7
			7:leaf=0.0645563453
			8:leaf=-0.000148330131
		4:[f2<0.980452061] yes=9,no=10,missing=9
			9:leaf=-0.0819309577
			10:leaf=0.142487898
	2:[f5<4.1854841e-07] yes=5,no=6,missing=5
		5:[f3<0.000928884489] yes=11,no=12,missing=11
			11:leaf=0.0923402458
			12:leaf=0.441341788
		6:[f7<0.811212718] yes=13,no=14,missing=13
			13:leaf=-0.0326894708
			14:leaf=0.137095377
booster[169]:
0:[f0<66.28125] yes=1,no=2,missing=1
	1:[f3<0.00744838361] yes=3,no=4,missing=3
		3:[f1<279.625] yes=7,no=8,missing=7
			7:leaf=-0.0611436926
			8:leaf=-0.0204697698
		4:[f4<0.0476358309] yes=9,no=10,missing=9
			9:leaf=0.0235926379
			10:leaf=-0.0265442766
	2:[f1<363.375] yes=5,no=6,missing=5
		5:[f3<0.00092768349] yes=11,no=12,missing=11
			11:leaf=0.0282017626
			12:leaf=-0.00635363022
		6:[f10<2.76509718e-06] yes=13,no=14,missing=13
			13:leaf=0.00737303216
			14:leaf=-0.0192124583
booster[170]:
0:[f5<4.75690529e-11] yes=1,no=2,missing=1
	1:[f10<1.51252517e-11] yes=3,no=4,missing=3
		3:[f1<638.5] yes=7,no=8,missing=7
			7:leaf=0.154738471
			8:leaf=-0.0819676965
		4:[f0<134.8125] yes=9,no=10,missing=9
			9:leaf=-0.025854785
			10:leaf=0.0248775613
	2:[f5<5.39001621e-11] yes=5,no=6,missing=5
		5:[f1<574.75] yes=11,no=12,missing=11
			11:leaf=0.229039237
			12:leaf=-0.0151377786
		6:[f0<133.1875] yes=13,no=14,missing=13
			13:leaf=0.00472348509
			14:leaf=-0.0121020591
booster[171]:
0:[f8<0.00147373555] yes=1,no=2,missing=1
	1:[f10<3.35709301e-05] yes=3,no=4,missing=3
		3:[f7<0.9857862] yes=7,no=8,missing=7
			7:leaf=-0.0135372877
			8:leaf=0.0136160767
		4:[f9<0.0360643566] yes=9,no=10,missing=9
			9:leaf=-0.0584282875
			10:leaf=0.135277808
	2:[f9<0.00226580584] yes=5,no=6,missing=5
		5:[f6<286.125] yes=11,no=12,missing=11
			11:leaf=0.121621288
			12:leaf=-0.0234227553
		6:[f8<0.00210263021] yes=13,no=14,missing=13
			13:leaf=0.0483091176
			14:leaf=-0.00233703316
booster[172]:
0:[f3<1.24603994e-05] yes=1,no=2,missing=1
	1:[f0<118.46875] yes=3,no=4,missing=3
		3:[f10<3.35931254e-05] yes=7,no=8,missing=7
			7:leaf=-0.0940681845
			8:leaf=0.0607334971
		4:[f3<1.24429662e-05] yes=9,no=10,missing=9
			9:leaf=0.0290105827
			10:leaf=-0.252564639
	2:[f3<2.18863206e-05] yes=5,no=6,missing=5
		5:[f7<0.998217821] yes=11,no=12,missing=11
			11:leaf=0.0733755156
			12:leaf=-0.276623756
		6:[f3<2.31603553e-05] yes=13,no=14,missing=13
			13:leaf=-0.0825133994
			14:leaf=0.000277447485
booster[173]:
0:[f0<66.28125] yes=1,no=2,missing=1
	1:[f3<0.00744838361] yes=3,no=4,missing=3
		3:[f1<368.125] yes=7,no=8,missing=7
			7:leaf=-0.0481291562
			8:leaf=0.00465677166
		4:[f8<0.0389521569] yes=9,no=10,missing=9
			9:leaf=-0.00543786958
			10:leaf=0.0401809812
	2:[f8<0.176770538] yes=5,no=6,missing=5
		5:[f3<0.030494608] yes=11,no=12,missing=11
			11:leaf=0.00327107916
			12:leaf=-0.0155068608
		6:[f2<0.876010299] yes=13,no=14,missing=13
			13:leaf=-0.0584741309
			14:leaf=0.199950039
booster[174]:
0:[f10<0.0419170633] yes=1,no=2,missing=1
	1:[f10<0.0381543189] yes=3,no=4,missing=3
		3:[f2<0.995760202] yes=7,no=8,missing=7
			7:leaf=-0.00119228289
			8:leaf=0.0195777752
		4:[f4<0.0204532668] yes=9,no=10,missing=9
			9:leaf=-0.105741374
			10:leaf=0.0033392224
	2:[f9<0.00494952034] yes=5,no=6,missing=5
		5:[f8<0.00958388112] yes=11,no=12,missing=11
			11:leaf=0.0442998521
			12:leaf=0.369121075
		6:[f9<0.00727507938] yes=13,no=14,missing=13
			13:leaf=-0.0734920353
			14:leaf=0.074676469
booster[175]:
0:[f4<0.000411346089] yes=1,no=2,missing=1
	1:[f8<0.000327171496] yes=3,no=4,missing=3
		3:[f0<97.15625] yes=7,no=8,missing=7
			7:leaf=-0.0674446523
			8:leaf=0.158455566
		4:[f4<0.000366822351] yes=9,no=10,missing=9
			9:leaf=-0.0287948884
			10:leaf=-0.0945654437
	2:[f8<0.000617196201] yes=5,no=6,missing=5
		5:[f10<2.91122291e-08] yes=11,no=12,missing=11
			11:leaf=0.00435608532
			12:leaf=-0.0301373061
		6:[f7<0.991554379] yes=13,no=14,missing=13
			13:leaf=0.00133384939
			14:leaf=0.0552389398
booster[176]:
0:[f0<145.6875] yes=1,no=2,missing=1
	1:[f0<145.4375] yes=3,no=4,missing=3
		3:[f6<461.125] yes=7,no=8,missing=7
			7:leaf=-0.000363688509
			8:leaf=0.0272927284
		4:[f6<379.875] yes=9,no=10,missing=9
			9:leaf=0.328614354
			10:leaf=0.0572373755
	2:[f4<0.0126182176] yes=5,no=6,missing=5
		5:[f2<0.988065004] yes=11,no=12,missing=11
			11:leaf=-0.0816168338
			12:leaf=-0.00723164761
		6:[f2<0.978773713] yes=13,no=14,missing=13
			13:leaf=-0.00754318899
			14:leaf=0.0893127844
booster[177]:
0:[f1<675.25] yes=1,no=2,missing=1
	1:[f6<522.25] yes=3,no=4,missing=3
		3:[f1<552.25] yes=7,no=8,missing=7
			7:leaf=0.00100323453
			8:leaf=-0.0354052112
		4:[f0<135.125] yes=9,no=10,missing=9
			9:leaf=0.107358634
			10:leaf=-0.02890536
	2:[f7<0.973676801] yes=5,no=6,missing=5
		5:[f5<5.63414116e-13] yes=11,no=12,missing=11
			11:leaf=-0.108307019
			12:leaf=0.0211595241
		6:[f7<0.974729538] yes=13,no=14,missing=13
			13:leaf=-0.164021909
			14:leaf=-0.0445882194
booster[178]:
0:[f8<8.31439393e-05] yes=1,no=2,missing=1
	1:[f2<0.976997495] yes=3,no=4,missing=3
		3:[f3<0.000241030881] yes=7,no=8,missing=7
			7:leaf=0.10799624
			8:leaf=-0.00216486235
		4:[f10<4.70975949e-12] yes=9,no=10,missing=9
			9:leaf=0.0986750722
			10:leaf=-0.0606418923
	2:[f8<0.000119992394] yes=5,no=6,missing=5
		5:[f10<5.62313645e-08] yes=11,no=12,missing=11
			11:leaf=0.0877214596
			12:leaf=-0.058157362
		6:[f8<0.000120807861] yes=13,no=14,missing=13
			13:leaf=-0.0966776162
			14:leaf=0.00107902568
booster[179]:
0:[f7<0.950136065] yes=1,no=2,missing=1
	1:[f0<97.53125] yes=3,no=4,missing=3
		3:[f8<0.0465796739] yes=7,no=8,missing=7
			7:leaf=-0.0365687609
			8:leaf=-0.00111714704
		4:[f6<245.6875] yes=9,no=10,missing=9
			9:leaf=0.0241530947
			10:leaf=-0.0044603101
	2:[f7<0.950971007] yes=5,no=6,missing=5
		5:[f8<0.00573508721] yes=11,no=12,missing=11
			11:leaf=0.0706154257
			12:leaf=0.37933591
		6:[f8<0.00995124131] yes=13,no=14,missing=13
			13:leaf=1.86542984e-05
			14:leaf=0.0301134717
booster[180]:
0:[f2<0.824219108] yes=1,no=2,missing=1
	1:[f5<1.64506719e-08] yes=3,no=4,missing=3
		3:[f9<0.038770169] yes=7,no=8,missing=7
			7:leaf=0.12733297
			8:leaf=-0.0378797427
		4:[f9<0.0921702981] yes=9,no=10,missing=9
			9:leaf=-0.0298729725
			10:leaf=0.0814633071
	2:[f3<0.13893415] yes=5,no=6,missing=5
		5:[f4<0.0158638619] yes=11,no=12,missing=11
			11:leaf=-0.00427079294
			12:leaf=0.00503666466
		6:[f7<0.976449251] yes=13,no=14,missing=13
			13:leaf=0.0310172588
			14:leaf=0.364853978
booster[181]:
0:[f7<0.998758197] yes=1,no=2,missing=1
	1:[f7<0.998241484] yes=3,no=4,missing=3
		3:[f7<0.998018146] yes=7,no=8,missing=7
			7:leaf=7.04897102e-05
			8:leaf=0.172986865
		4:[f6<396.625] yes=9,no=10,missing=9
			9:leaf=-0.0810342953
			10:leaf=0.108402371
	2:[f0<46.921875] yes=5,no=6,missing=5
		5:[f4<0.0386411808] yes=11,no=12,missing=11
			11:leaf=-0.0740387961
			12:leaf=-0.0240976829
		6:[f1<713.25] yes=13,no=14,missing=13
			13:leaf=0.129587024
			14:leaf=-0.081933409
booster[182]:
0:[f4<0.0934522897] yes=1,no=2,missing=1
	1:[f4<0.086882621] yes=3,no=4,missing=3
		3:[f8<0.000150906155] yes=7,no=8,missing=7
			7:leaf=-0.0112825818
			8:leaf=0.00256001647
		4:[f0<106.53125] yes=9,no=10,missing=9
			9:leaf=-0.0194173958
			10:leaf=0.182659969
	2:[f8<0.128596395] yes=5,no=6,missing=5
		5:[f1<220.3125] yes=11,no=12,missing=11
			11:leaf=0.168320522
			12:leaf=-0.0239520129
		6:[f9<0.0130826272] yes=13,no=14,missing=13
			13:leaf=0.254704207
			14:leaf=-0.0519931875
booster[183]:
0:[f7<0.863232017] yes=1,no=2,missing=1
	1:[f10<6.58534418e-08] yes=3,no=4,missing=3
		3:[f6<284.625] yes=7,no=8,missing=7
			7:leaf=-0.0852508247
			8:leaf=0.00104691333
		4:[f6<341.125] yes=9,no=10,missing=9
			9:leaf=0.00543841673
			10:leaf=-0.0418064781
	2:[f8<0.107066788] yes=5,no=6,missing=5
		5:[f7<0.863981247] yes=11,no=12,missing=11
			11:leaf=0.174725145
			12:leaf=0.000852974073
		6:[f3<0.0382809937] yes=13,no=14,missing=13
			13:leaf=0.141667947
			14:leaf=-0.0110953609
booster[184]:
0:[f7<0.966132402] yes=1,no=2,missing=1
	1:[f8<0.00289496314] yes=3,no=4,missing=3
		3:[f1<440.125] yes=7,no=8,missing=7
			7:leaf=-0.0271703843
			8:leaf=0.00805111881
		4:[f3<0.0113682728] yes=9,no=10,missing=9
			9:leaf=0.00800800044
			10:leaf=-0.015524745
	2:[f1<445.625] yes=5,no=6,missing=5
		5:[f3<0.000159461051] yes=11,no=12,missing=11
			11:leaf=0.0465912446
			12:leaf=0.00460071443
		6:[f6<373.375] yes=13,no=14,missing=13
			13:leaf=-0.0634093136
			14:leaf=0.00460264692
booster[185]:
0:[f5<4.75690529e-11] yes=1,no=2,missing=1
	1:[f10<6.03091022e-10] yes=3,no=4,missing=3
		3:[f6<273.5] yes=7,no=8,missing=7
			7:leaf=-0.0636759102
			8:leaf=0.143020079
		4:[f10<1.20113526e-07] yes=9,no=10,missing=9
			9:leaf=-0.0534806438
			10:leaf=0.000327193382
	2:[f5<5.39001621e-11] yes=5,no=6,missing=5
		5:[f1<574.75] yes=11,no=12,missing=11
			11:leaf=0.198950589
			12:leaf=-0.0134670334
		6:[f0<133.1875] yes=13,no=14,missing=13
			13:leaf=0.00414773123
			14:leaf=-0.0104692504
booster[186]:
0:[f3<1.24603994e-05] yes=1,no=2,missing=1
	1:[f0<118.46875] yes=3,no=4,missing=3
		3:[f10<3.35931254e-05] yes=7,no=8,missing=7
			7:leaf=-0.0878935531
			8:leaf=0.0520986095
		4:[f0<148.375] yes=9,no=10,missing=9
			9:leaf=0.0503264777
			10:leaf=-0.0679737031
	2:[f3<2.18863206e-05] yes=5,no=6,missing=5
		5:[f8<0.00453440379] yes=11,no=12,missing=11
			11:leaf=0.00749704475
			12:leaf=0.156932339
		6:[f3<2.19537942e-05] yes=13,no=14,missing=13
			13:leaf=-0.12550725
			14:leaf=0.000128364263
booster[187]:
0:[f10<3.54121539e-06] yes=1,no=2,missing=1
	1:[f6<263.125] yes=3,no=4,missing=3
		3:[f5<3.23055133e-07] yes=7,no=8,missing=7
			7:leaf=-0.0320914015
			8:leaf=0.0118749747
		4:[f8<8.31439393e-05] yes=9,no=10,missing=9
			9:leaf=-0.0118401423
			10:leaf=0.019648375
	2:[f6<297.375] yes=5,no=6,missing=5
		5:[f3<7.8735844e-05] yes=11,no=12,missing=11
			11:leaf=0.0642181411
			12:leaf=-0.000305255293
		6:[f9<0.0189697668] yes=13,no=14,missing=13
			13:leaf=-0.0337772854
			14:leaf=0.00411311025
booster[188]:
0:[f0<50.796875] yes=1,no=2,missing=1
	1:[f3<0.00014875966] yes=3,no=4,missing=3
		3:[f4<0.0482912734] yes=7,no=8,missing=7
			7:leaf=-0.093483828
			8:leaf=-0.0107812025
		4:[f4<0.017407611] yes=9,no=10,missing=9
			9:leaf=0.0184102561
			10:leaf=-0.0296707992
	2:[f7<0.998623013] yes=5,no=6,missing=5
		5:[f7<0.998241484] yes=11,no=12,missing=11
			11:leaf=0.0013163503
			12:leaf=-0.0608230233
		6:[f1<713.25] yes=13,no=14,missing=13
			13:leaf=0.117557123
			14:leaf=-0.0727178827
booster[189]:
0:[f4<0.000411346089] yes=1,no=2,missing=1
	1:[f10<1.66711678e-09] yes=3,no=4,missing=3
		3:[f4<0.000214569096] yes=7,no=8,missing=7
			7:leaf=-0.0297930893
			8:leaf=0.245221376
		4:[f3<0.00035019638] yes=9,no=10,missing=9
			9:leaf=0.00119978306
			10:leaf=-0.0774107501
	2:[f4<0.00133609795] yes=5,no=6,missing=5
		5:[f9<0.00365146948] yes=11,no=12,missing=11
			11:leaf=0.20828028
			12:leaf=0.0150887761
		6:[f4<0.00148402806] yes=13,no=14,missing=13
			13:leaf=-0.0903840214
			14:leaf=0.000525014009
booster[190]:
0:[f2<0.996859193] yes=1,no=2,missing=1
	1:[f2<0.996459603] yes=3,no=4,missing=3
		3:[f2<0.995867372] yes=7,no=8,missing=7
			7:leaf=-0.000877996092
			8:leaf=0.0937290639
		4:[f8<0.000387420354] yes=9,no=10,missing=9
			9:leaf=0.165055826
			10:leaf=-0.0666660815
	2:[f4<0.00217517326] yes=5,no=6,missing=5
		5:[f4<0.00210153172] yes=11,no=12,missing=11
			11:leaf=0.0131049575
			12:leaf=-0.130805835
		6:[f0<76.78125] yes=13,no=14,missing=13
			13:leaf=-0.0809308887
			14:leaf=0.109242074
booster[191]:
0:[f1<836.75] yes=1,no=2,missing=1
	1:[f7<0.977109075] yes=3,no=4,missing=3
		3:[f8<8.56908991e-06] yes=7,no=8,missing=7
			7:leaf=-0.113503538
			8:leaf=-0.00187350868
		4:[f7<0.980136752] yes=9,no=10,missing=9
			9:leaf=0.0570702069
			10:leaf=0.00271072006
	2:[f5<0.00024554343] yes=5,no=6,missing=5
		5:[f5<0.00013330119] yes=11,no=12,missing=11
			11:leaf=-0.0431572385
			12:leaf=0.142656371
		6:[f2<0.862428546] yes=13,no=14,missing=13
			13:leaf=-0.00166656065
			14:leaf=-0.12035995
booster[192]:
0:[f3<1.24603994e-05] yes=1,no=2,missing=1
	1:[f1<455.25] yes=3,no=4,missing=3
		3:[f1<320.125] yes=7,no=8,missing=7
			7:leaf=-0.0758349374
			8:leaf=0.0490562432
		4:[f6<444] yes=9,no=10,missing=9
			9:leaf=-0.104457572
			10:leaf=0.0180695616
	2:[f3<2.18863206e-05] yes=5,no=6,missing=5
		5:[f6<329.125] yes=11,no=12,missing=11
			11:leaf=0.116581179
			12:leaf=-0.00895844493
		6:[f3<2.19537942e-05] yes=13,no=14,missing=13
			13:leaf=-0.120283179
			14:leaf=0.000174919071
booster[193]:
0:[f0<163.5625] yes=1,no=2,missing=1
	1:[f2<0.996859193] yes=3,no=4,missing=3
		3:[f4<0.00292641437] yes=7,no=8,missing=7
			7:leaf=-0.0235780235
			8:leaf=0.00125133561
		4:[f4<0.00217517326] yes=9,no=10,missing=9
			9:leaf=-0.00776000042
			10:leaf=0.0924360678
	2:[f4<0.0352819078] yes=5,no=6,missing=5
		5:[f1<403.625] yes=11,no=12,missing=11
			11:leaf=0.069190532
			12:leaf=-0.0493755303
		6:[f4<0.0793304145] yes=13,no=14,missing=13
			13:leaf=0.0792309046
			14:leaf=-0.0533437021
booster[194]:
0:[f5<4.75690529e-11] yes=1,no=2,missing=1
	1:[f10<1.7800831e-08] yes=3,no=4,missing=3
		3:[f6<298.375] yes=7,no=8,missing=7
			7:leaf=-0.0286807511
			8:leaf=0.0758186057
		4:[f10<2.10757722e-08] yes=9,no=10,missing=9
			9:leaf=-0.179775447
			10:leaf=-0.0116901277
	2:[f5<5.39001621e-11] yes=5,no=6,missing=5
		5:[f0<92.8125] yes=11,no=12,missing=11
			11:leaf=0.0113557717
			12:leaf=0.196032748
		6:[f0<133.1875] yes=13,no=14,missing=13
			13:leaf=0.00376244262
			14:leaf=-0.00956046954
booster[195]:
0:[f0<114.28125] yes=1,no=2,missing=1
	1:[f6<204.0625] yes=3,no=4,missing=3
		3:[f2<0.960602403] yes=7,no=8,missing=7
			7:leaf=0.00493374793
			8:leaf=0.202367648
		4:[f0<114.15625] yes=9,no=10,missing=9
			9:leaf=-0.00515053095
			10:leaf=-0.12054427
	2:[f4<0.0232764035] yes=5,no=6,missing=5
		5:[f3<0.000365700456] yes=11,no=12,missing=11
			11:leaf=0.0158026721
			12:leaf=-0.0166441947
		6:[f3<0.000179300201] yes=13,no=14,missing=13
			13:leaf=-0.0153406281
			14:leaf=0.0283000972
booster[196]:
0:[f4<0.121665716] yes=1,no=2,missing=1
	1:[f4<0.114421785] yes=3,no=4,missing=3
		3:[f3<0.030494608] yes=7,no=8,missing=7
			7:leaf=0.00196551112
			8:leaf=-0.00978456624
		4:[f9<0.0118781328] yes=9,no=10,missing=9
			9:leaf=0.281851351
			10:leaf=0.0213311594
	2:[f6<205.8125] yes=5,no=6,missing=5
		5:[f1<320] yes=11,no=12,missing=11
			11:leaf=0.1827849
			12:leaf=-0.0544370413
		6:[f1<331.75] yes=13,no=14,missing=13
			13:leaf=-0.0538875945
			14:leaf=-0.011017072
booster[197]:
0:[f1<551.25] yes=1,no=2,missing=1
	1:[f7<0.977188945] yes=3,no=4,missing=3
		3:[f8<0.00144393183] yes=7,no=8,missing=7
			7:leaf=-0.0195081662
			8:leaf=0.00231137662
		4:[f7<0.980136752] yes=9,no=10,missing=9
			9:leaf=0.0686285719
			10:leaf=0.0043040216
	2:[f6<389.75] yes=5,no=6,missing=5
		5:[f8<0.00554076536] yes=11,no=12,missing=11
			11:leaf=-0.104828894
			12:leaf=-0.00179708435
		6:[f0<133.9375] yes=13,no=14,missing=13
			13:leaf=0.0215097126
			14:leaf=-0.0297353007
booster[198]:
0:[f10<3.54121539e-06] yes=1,no=2,missing=1
	1:[f6<263.125] yes=3,no=4,missing=3
		3:[f9<0.00182752474] yes=7,no=8,missing=7
			7:leaf=0.114606142
			8:leaf=-0.0153648648
		4:[f8<8.31439393e-05] yes=9,no=10,missing=9
			9:leaf=-0.0102206934
			10:leaf=0.0177299734
	2:[f1<342.875] yes=5,no=6,missing=5
		5:[f2<0.978865504] yes=11,no=12,missing=11
			11:leaf=-0.00693487097
			12:leaf=0.0454185717
		6:[f10<5.27017755e-06] yes=13,no=14,missing=13
			13:leaf=-0.0634791702
			14:leaf=-0.0110247219
booster[199]:
0:[f10<0.0419170633] yes=1,no=2,missing=1
	1:[f10<0.0253675766] yes=3,no=4,missing=3
		3:[f10<0.0241624676] yes=7,no=8,missing=7
			7:leaf=9.24498599e-05
			8:leaf=0.211916924
		4:[f4<0.0335184261] yes=9,no=10,missing=9
			9:leaf=-0.054069411
			10:leaf=0.0662474185
	2:[f9<0.00494952034] yes=5,no=6,missing=5
		5:[f8<0.0158814229] yes=11,no=12,missing=11
			11:leaf=0.0879998878
			12:leaf=0.404712439
		6:[f9<0.00727507938] yes=13,no=14,missing=13
			13:leaf=-0.0723224729
			14:leaf=0.0676976219
booster[200]:
0:[f4<0.0934522897] yes=1,no=2,missing=1
	1:[f7<0.911834002] yes=3,no=4,missing=3
		3:[f7<0.910143971] yes=7,no=8,missing=7
			7:leaf=-0.00271687284
			8:leaf=-0.0749177411
		4:[f7<0.91511476] yes=9,no=10,missing=9
			9:leaf=0.09270183
			10:leaf=0.00311873504
